,0,1,2,3,4,5,6,7,8,9,10,11,12,13,14,15,16,17,18,19,20,21,22,23,24,25,26,27,28,29,30,31,32,33,34,35,36,37,38,39,40,41,42,43,44,45,46,47,48,49
s1-AACACTTGGCAAGGAA-1,0.07694244,-0.01419543,-0.03349497,-0.12311494,0.28848988,-0.017213834,0.107360125,-0.0124062635,-0.014937537,0.16460855,-0.031884365,0.17928216,0.021804526,-0.031913966,0.15022257,-0.015770629,-0.0021760843,0.11217578,-0.020307241,0.008678369,0.2651909,0.071210556,-0.016037764,0.018150384,-0.050744656,0.061587214,0.075440735,0.13205868,0.01759635,-0.008683854,-0.037806164,0.040209193,0.03817555,0.4003804,-0.0056695193,0.06258567,-0.0033633728,0.10265021,0.17987847,0.16087109,0.027162988,0.17116189,0.02258607,0.009352211,-0.012622857,-0.0075041675,-0.019348811,-0.031006815,0.100960895,0.09354364
s1-AACAGGATTCATAGTT-1,0.11692711,-0.044976644,-0.063628234,-0.10972751,-0.07275781,0.2054759,-0.07135895,0.15050778,0.22499634,0.16615003,-0.05439926,0.2418859,0.17248093,0.16104354,-0.17434087,0.15603119,-0.013433688,-0.07783578,0.17992926,-0.02690008,-0.16244571,0.23106456,0.189196,-0.062448755,-0.08467384,-0.014096827,-0.032945547,-0.12722129,0.19468822,0.20171066,0.1947948,0.20493947,0.14251822,0.0039978162,0.12372835,-0.11791496,0.062697776,-0.07525913,0.15505296,-0.052694988,0.13318293,0.10176686,0.17638195,-0.11192039,0.20226623,0.17084767,-0.10704589,0.18318766,-0.018445404,-0.16645573
s1-AACAGGTTATTGCACC-1,0.052203182,-0.015252549,-0.03130738,-0.13562694,0.29877177,-0.01903562,0.15282783,0.0020098328,0.009747942,0.12079436,-0.028516786,0.1410959,0.010982102,-0.03161533,0.17510207,-0.016069068,-0.003709121,0.073715806,-0.024390316,0.0027428893,0.3100105,0.073251635,-0.010144901,-0.0022567287,-0.0509784,0.04108915,0.09401591,0.108719274,0.00704238,-0.009330919,-0.03297991,0.0069525912,0.020578114,0.39642173,-0.016252385,0.009263679,-0.013917276,0.1184853,0.23079944,0.10654071,0.009626377,0.13147539,0.013118587,-0.00062402803,-0.010550228,-0.0048042415,-0.021550646,-0.035363287,0.0931143,0.15806822
s1-AACAGGTTCACCGAAG-1,0.11066491,-0.045052994,-0.06529663,-0.10982764,-0.071961895,0.20415333,-0.06990896,0.14611886,0.22476271,0.1626337,-0.054751158,0.24259447,0.16931775,0.15724234,-0.18115227,0.15195039,-0.012667144,-0.07916719,0.1771816,-0.026342766,-0.16767448,0.23116946,0.18696527,-0.06287163,-0.08605854,-0.01244398,-0.030908644,-0.12886678,0.19276386,0.20017804,0.19287641,0.203587,0.1376836,-0.0016233954,0.14341533,-0.12031781,0.07898025,-0.07652181,0.15091759,-0.05191518,0.12782755,0.12022877,0.17343639,-0.11493349,0.20076464,0.16759339,-0.109797016,0.18062177,-0.018180171,-0.1707333
s1-AACAGTCAGGCTCCGC-1,0.11301164,-0.045031942,-0.06468686,-0.1098083,-0.0722696,0.20467842,-0.07045955,0.14777477,0.22488624,0.16396782,-0.054629225,0.24237053,0.17052163,0.15868151,-0.17864889,0.15349267,-0.012954259,-0.07868499,0.17823224,-0.026554307,-0.1657574,0.23116815,0.18782529,-0.06272462,-0.08555763,-0.013060643,-0.03167114,-0.12827589,0.19351089,0.20078059,0.19362123,0.20412311,0.13950388,-0.0007381692,0.13611782,-0.11944388,0.072938204,-0.07606474,0.15248,-0.052213628,0.12983987,0.11338298,0.17456001,-0.11383174,0.20135577,0.16883087,-0.108791865,0.18160538,-0.018281765,-0.16917044
s1-AACAGTCGTGTCGCGG-1,0.046799365,-0.02188108,-0.039764322,-0.116658375,0.35228044,-0.046431396,0.22296149,0.028644118,0.006888112,0.14276527,-0.016130919,0.18066296,0.06694584,-0.03511741,0.03779378,-0.024545578,-0.010753771,0.14194712,-0.025085486,-0.0066533387,0.1827496,0.078357644,0.08612478,0.023556687,-0.03607755,0.06992988,-0.016267417,0.008981703,0.016976172,-0.026731126,-0.04152796,0.039710555,0.0687329,0.32313472,0.020030564,0.04540362,-0.04329286,0.19245689,0.059478465,0.2169587,0.04379936,0.124875836,0.033627708,0.013002353,0.056758452,0.028495863,-0.016463611,-0.0099246595,0.06517206,0.25654185
s1-AACATACTCATATGCG-1,0.1468561,-0.022145055,-0.044607706,-0.08907304,0.13965824,0.07688292,0.028523447,0.0535728,0.07577033,0.21869306,-0.03944158,0.2824122,0.10381876,0.044623986,-0.08232192,0.04979777,-0.0076891924,0.12146163,0.07032794,0.0017854515,-0.019732755,0.16057876,0.06256914,0.026723329,-0.059225846,0.09336264,-0.027543068,-0.0028898194,0.10469714,0.08487234,0.044828173,0.15902251,0.10553947,0.23593737,0.05623082,0.11630143,-0.00057281926,0.011564087,0.072699115,0.21015337,0.1208393,0.20705658,0.09552969,-0.023032235,0.07297493,0.066173695,-0.052934147,0.07747037,0.062766284,-0.0711779
s1-AACATAGTCTATCTAC-1,0.15721126,-0.0035991983,-0.028934158,-0.07141835,0.29430273,-0.019797632,0.10878345,-0.0171527,-0.031292234,0.26685032,-0.02715922,0.3283338,0.07895372,-0.043073002,-0.016229823,-0.028272286,-0.0037082657,0.28160104,-0.012199068,0.01672449,0.09260797,0.12291435,-0.027312808,0.10336248,-0.0398911,0.18567005,-0.02291571,0.0756466,0.03723918,-0.0018191864,-0.06549145,0.13462168,0.092147484,0.3987388,0.008591729,0.26343367,-0.037031602,0.06260814,-0.0013478044,0.39534023,0.100113526,0.26475638,0.026110591,0.04836571,-0.020818712,-0.013951199,-0.014755404,0.014699018,0.12868613,-0.006774885
s1-AACATATTCTTGCGAA-1,0.049146928,-0.030017052,-0.03915666,-0.12150563,0.36316264,-0.04346185,0.2423493,0.075784415,0.046715908,0.103481546,-0.011836111,0.15869892,0.07408658,-0.030476704,0.019842325,-0.03016474,-0.004936852,0.14066261,-0.021243311,-0.004791839,0.16222548,0.070665255,0.12543552,0.014362682,-0.029074011,0.052890915,-0.022743586,-0.013758557,0.013278709,-0.02863596,-0.040977724,0.017990168,0.04341411,0.3047356,0.022889635,0.008996174,-0.037602868,0.20612133,0.05076897,0.20700449,0.05939682,0.10201281,0.015468514,0.018759582,0.030001044,0.062492684,-0.013801791,-0.010537641,0.046371207,0.32876825
s1-AACATCGCGTGACCAC-1,0.040548142,-0.019277465,-0.036713697,-0.11178936,0.35320798,-0.046381094,0.23576799,0.022212693,-0.0034507457,0.13215028,-0.01606553,0.164449,0.060671594,-0.03535385,0.04614873,-0.025296655,-0.013238834,0.1396999,-0.024811186,-0.008672712,0.20385072,0.07311369,0.07812989,0.014066638,-0.03251901,0.06316982,-0.0061751883,0.011735054,0.013152764,-0.025490716,-0.03675936,0.032026242,0.060571037,0.31377912,0.016900871,0.041409016,-0.04573965,0.18977937,0.06655318,0.2052291,0.03221594,0.11254004,0.03088642,0.011078464,0.073135205,0.024906084,-0.019573076,-0.007712735,0.06317385,0.2875448
s1-AACATCTAATGACCGG-1,0.11313944,-0.045030545,-0.06465313,-0.10980666,-0.07228605,0.20470601,-0.0704893,0.14786458,0.22489175,0.16403992,-0.05462225,0.24235694,0.17058657,0.1587594,-0.17851089,0.15357623,-0.012969902,-0.07865816,0.17828876,-0.026565738,-0.16565157,0.2311668,0.18787132,-0.06271623,-0.08552977,-0.013094319,-0.031712692,-0.12824285,0.19355069,0.20081246,0.19366093,0.20415133,0.13960274,-0.0006897163,0.13571768,-0.119395405,0.07260718,-0.07603931,0.15256466,-0.05222967,0.12994927,0.11300775,0.17462054,-0.11377083,0.201387,0.16889764,-0.10873626,0.18165821,-0.018287225,-0.169084
s1-AACATGACGCAGCGTG-1,0.03169489,-0.015985418,-0.019840352,-0.10033828,0.23553672,-0.015814511,0.11239457,-0.017814811,-0.017527636,0.1821444,-0.02601597,0.091766916,0.009696733,-0.026423605,0.2169713,0.06096469,-0.014349406,0.05350165,-0.027190316,-0.007996881,0.38433358,0.03452442,-0.02537015,-0.016970528,-0.050510015,0.029332738,0.19647726,0.23614931,-0.012797091,-0.0073951185,0.038866922,0.0023081116,0.013069447,0.3480592,-0.022542145,0.035217233,-0.014690958,0.0733631,0.20335309,0.06727083,-0.0058073234,0.07628606,0.055794947,-0.006986836,0.043826316,-0.0060314946,-0.013696286,-0.028825153,0.17900899,0.11283605
s1-AACCAAGGTATCAGGC-1,0.075586624,-0.013629319,-0.026276514,-0.09406723,0.258123,-0.017061934,0.09832223,-0.016131593,-0.023356657,0.23665246,-0.030894555,0.21333101,0.04332376,-0.03424971,0.11986989,0.01808688,-0.008993019,0.13799532,-0.01816582,0.0066445377,0.25294238,0.07216142,-0.02291036,0.020573953,-0.050703663,0.078546815,0.09228249,0.1623244,0.016565023,-0.0009697049,-0.0026039258,0.061065927,0.054967172,0.38301462,0.0016679615,0.103466034,0.008799808,0.0682183,0.10542584,0.20228815,0.029627845,0.15953302,0.056607895,0.012307804,0.025656236,-0.014212446,-0.0146413185,-0.0045391507,0.1571064,0.05866427
s1-AACCAATCTGGTTGGC-1,0.113558955,-0.045025777,-0.06454207,-0.10980077,-0.07233979,0.20479597,-0.07058676,0.1481591,0.22490902,0.16427623,-0.05459913,0.24231136,0.17079931,0.1590147,-0.17805684,0.1538502,-0.0130212465,-0.07856974,0.17847377,-0.026603194,-0.16530323,0.23116149,0.18802185,-0.06268842,-0.08543782,-0.01320492,-0.031849105,-0.12813379,0.1936808,0.20091642,0.19379063,0.20424327,0.13992698,-0.0005305233,0.13440248,-0.11923565,0.071519114,-0.07595544,0.15284227,-0.05228219,0.13030829,0.11177426,0.17481877,-0.11357023,0.20148887,0.16911647,-0.10855313,0.1818311,-0.018305093,-0.16879927
s1-AACCACTAACATGATT-1,0.11779409,-0.044960633,-0.063386135,-0.10970057,-0.07286122,0.2056378,-0.0715545,0.15110739,0.2250028,0.16662508,-0.05434339,0.24175788,0.17290556,0.16155924,-0.1733625,0.15658681,-0.013539918,-0.07763941,0.18029459,-0.026975302,-0.16169131,0.23102272,0.18948755,-0.06238196,-0.08446916,-0.014327622,-0.03322815,-0.12697496,0.19493602,0.20190252,0.19504176,0.20510565,0.14318144,0.0057640183,0.1209451,-0.1175632,0.060400516,-0.07507272,0.15561636,-0.052798476,0.13392046,0.09915849,0.17677552,-0.111483514,0.2024537,0.1712853,-0.106646426,0.18352704,-0.018480543,-0.16583464
s1-AACCACTGCCATAGCC-1,0.11130503,-0.045048114,-0.06513206,-0.10982444,-0.072046906,0.20429993,-0.07005997,0.14657182,0.2248005,0.16299948,-0.054719027,0.24253812,0.16964824,0.15763657,-0.18047503,0.15237257,-0.012745444,-0.07903757,0.17747056,-0.026400775,-0.16715638,0.23117341,0.18720262,-0.06283283,-0.08592396,-0.012611873,-0.031116536,-0.12870856,0.19297059,0.20034562,0.19308253,0.20373657,0.1381811,-0.0013827456,0.14143394,-0.120082445,0.077339,-0.07639897,0.15134521,-0.051997293,0.12837707,0.11836973,0.17374514,-0.114636086,0.20092912,0.16793299,-0.109525785,0.18089259,-0.018208133,-0.17031156
s1-AACCAGAATCAGACGT-1,0.056376174,-0.012376131,-0.027535997,-0.10902966,0.25972375,-0.0148524195,0.11464961,-0.015411487,-0.01484222,0.19172665,-0.03202654,0.15795085,0.019778376,-0.030607898,0.17684816,0.012057877,-0.008955172,0.09774834,-0.022697993,0.0013741897,0.31340605,0.06072272,-0.022081183,0.0043607727,-0.050689578,0.05460524,0.13686034,0.16809316,0.0057989936,-0.0062198327,-0.0041532274,0.029275775,0.03346783,0.36832362,-0.0118748695,0.058040384,-0.017914847,0.06991404,0.16888003,0.13486362,0.00975382,0.12343218,0.050189972,0.0018040538,0.01851318,-0.010703585,-0.018414523,-0.020434372,0.17027062,0.08999931
s1-AACCATGAATTGCCTT-1,0.053085502,-0.013788162,-0.034597334,-0.120820895,0.32823852,-0.024655767,0.18317625,0.039325804,-0.0029837135,0.16196233,-0.024888307,0.19939853,0.05735144,-0.036313042,0.08009045,-0.0228668,-0.0077780946,0.13766627,-0.022206401,0.0006900709,0.23531064,0.08570045,0.024556845,0.01976761,-0.04227285,0.0658212,0.02222674,0.019089526,0.012875296,-0.010432937,-0.04198952,0.0427158,0.060685057,0.36029676,0.01229397,0.033640344,-0.027029503,0.12947221,0.11651961,0.19165571,0.022761162,0.13323532,0.033392686,0.009113906,0.0039665163,0.021449754,-0.022231955,-0.007577263,0.09353736,0.21550776
s1-AACCGCCAGACTACTT-1,0.11859439,-0.044944584,-0.06316008,-0.10967264,-0.07295509,0.20578231,-0.0717338,0.151659,0.22500275,0.16706084,-0.054290157,0.24163276,0.17329444,0.16203281,-0.17245111,0.1570975,-0.013637999,-0.077455334,0.18062828,-0.027044289,-0.16098781,0.23097773,0.18975262,-0.062318377,-0.084277205,-0.014541128,-0.033489157,-0.12674326,0.19516043,0.20207493,0.19526538,0.20525415,0.14379221,0.0074006645,0.118362546,-0.11723406,0.058269907,-0.07489795,0.15613432,-0.052892968,0.13460039,0.096738555,0.1771355,-0.11107564,0.20262198,0.17168628,-0.10627335,0.18383661,-0.01851261,-0.16525456
s1-AACCGTGCTTATGTTG-1,0.048361074,-0.007885406,-0.024488503,-0.09519791,0.24020362,-0.019474957,0.10131357,-0.021611325,-0.01918589,0.23307261,-0.032354828,0.1504905,0.023155292,-0.028228227,0.18037145,0.030666675,-0.013053244,0.09672882,-0.022766193,-0.0018268097,0.31864485,0.05971091,-0.024525158,-0.0011458173,-0.046825696,0.055273566,0.16732243,0.18602182,0.006145688,-0.006571986,0.023866327,0.033745557,0.041816685,0.33060497,-0.012126725,0.06469474,-0.023290467,0.062868625,0.15497571,0.13372912,0.0046244357,0.11027354,0.07518768,-0.0027277088,0.047600493,-0.01591048,-0.020468216,-0.015770633,0.20215783,0.065816775
s1-AACCTAAGATACTGAG-1,0.03649305,-0.012930656,-0.022971017,-0.10396051,0.23881592,-0.01837668,0.104912065,-0.019587534,-0.016364768,0.18396868,-0.031192848,0.109807335,0.010217072,-0.028137151,0.21478754,0.054418452,-0.013169979,0.062195808,-0.02499738,-0.0035782363,0.37117136,0.04012082,-0.026921729,-0.013374876,-0.050947234,0.03271068,0.18668436,0.2339519,-0.010719573,-0.0064208806,0.023436656,0.0041757114,0.020043815,0.3535746,-0.02328853,0.029603291,-0.0031499956,0.06702417,0.18741195,0.07831591,-0.0022538342,0.08605178,0.0612462,-0.006645726,0.022178529,-0.011031192,-0.01768003,-0.0300808,0.17197149,0.09400379
s1-AACCTACAGAGGTAGT-1,0.12955286,-0.01996974,-0.038253583,-0.13310945,0.3072985,-0.014705676,0.12618566,0.028970577,0.014187502,0.16677763,-0.031182766,0.2427088,0.03010517,-0.0300471,0.09469184,-0.026337527,0.06246256,0.1241411,-0.014649925,0.013397637,0.19986327,0.0859868,0.034812376,0.025083411,-0.047674224,0.06744048,-0.0020766864,0.03961557,0.027961064,-0.008710218,-0.047028117,0.04735335,0.041707654,0.40612692,0.004048839,0.05297023,0.003648838,0.1231242,0.15546203,0.1886876,0.040849898,0.24086471,0.016525755,0.0136213675,-0.018255373,-0.006528624,-0.016282273,-0.027089035,0.07959881,0.12340225
s1-AACCTACTGTAACTCA-1,0.11379362,-0.04502298,-0.06447969,-0.10979717,-0.0723697,0.20484577,-0.07064116,0.14832366,0.2249181,0.16440813,-0.054586027,0.24228519,0.170918,0.15915726,-0.17780201,0.15400322,-0.013049968,-0.07851999,0.17857692,-0.026624102,-0.16510768,0.23115791,0.18810564,-0.062672675,-0.08538609,-0.013266832,-0.031925425,-0.12807235,0.19375312,0.20097409,0.19386274,0.2042942,0.14010823,-0.0004413589,0.1336655,-0.11914584,0.07090951,-0.075908266,0.15299733,-0.05231147,0.130509,0.111083105,0.1749293,-0.11345757,0.20154539,0.16923858,-0.10845027,0.18192744,-0.01831505,-0.16863933
s1-AACCTGACAGTGCCGC-1,0.13153061,-0.021994717,-0.043494098,-0.12550712,0.27838534,0.05895439,0.09381218,-0.010523503,0.014053851,0.12411073,-0.047860228,0.20971873,-0.0077407286,-0.008863352,0.13087352,-0.020749593,0.107111454,0.100136206,-0.012316268,0.027991742,0.26018178,0.08693956,0.011303801,0.0080143735,-0.052456807,0.05530468,0.08645161,0.06531702,0.012271102,-0.0038245893,-0.035694078,0.029561274,0.0041922685,0.35130537,-0.01370174,0.0551148,-0.0062933713,0.07534805,0.24393302,0.14640334,0.034213025,0.2515791,0.014178313,0.0004725866,-0.021531068,-0.006437861,-0.021425474,-0.050843894,0.057576858,0.087238364
s1-AACCTTAGCGTCCGGT-1,0.11873366,-0.044941675,-0.06312048,-0.109667495,-0.07297127,0.20580697,-0.07176489,0.1517548,0.22500218,0.1671364,-0.054280728,0.24161033,0.17336181,0.162115,-0.17229176,0.15718617,-0.01365507,-0.07742303,0.18068603,-0.027056253,-0.16086471,0.23096927,0.18979837,-0.06230713,-0.08424352,-0.014578327,-0.03353459,-0.12670252,0.19519906,0.20210448,0.19530389,0.20527953,0.14389837,0.007686067,0.11791184,-0.117176354,0.057898205,-0.07486728,0.15622424,-0.05290931,0.13471861,0.09631628,0.17719781,-0.111004226,0.20265082,0.17175576,-0.10620802,0.18389013,-0.018518155,-0.165153
s1-AACGAAGCGTGGAAGT-1,0.10434361,-0.019350445,-0.044735063,-0.1363447,0.29073,-0.00023175962,0.08549777,-0.005689674,0.028174171,0.12409671,-0.039248724,0.20519371,-0.002917232,-0.02676066,0.16938683,-0.024534851,0.08655897,0.09666225,-0.016287206,0.008980847,0.25580707,0.0887576,0.019938383,0.016145475,-0.053727023,0.04945852,0.06116443,0.07804027,0.020153046,-0.009673485,-0.04013794,0.020880789,0.016947886,0.38678557,-0.014707238,0.035236478,0.011472654,0.10372472,0.23091456,0.13986552,0.03685731,0.24281028,0.015431921,0.0019013155,-0.018666234,-0.010138826,-0.023733988,-0.05291744,0.06025601,0.08334637
s1-AACGAATTGACCGGTT-1,0.11257616,-0.045036513,-0.06480136,-0.10981349,-0.07221333,0.20458354,-0.07035801,0.14746845,0.22486645,0.16372167,-0.054652717,0.24241571,0.17029983,0.15841572,-0.17911774,0.1532076,-0.012900965,-0.07877593,0.17803909,-0.026515286,-0.16611686,0.23117168,0.18766779,-0.0627529,-0.085652165,-0.012945968,-0.031529568,-0.12838778,0.19337451,0.20067123,0.19348527,0.20402618,0.13916683,-0.00090306473,0.13747904,-0.11960838,0.0740647,-0.07615097,0.15219116,-0.052158784,0.12946689,0.11465974,0.17435323,-0.114038594,0.20124854,0.16860278,-0.108980656,0.18142477,-0.018263103,-0.16946398
s1-AACGAGCCTCTTCGGC-1,0.16862758,-0.005110934,-0.029609226,-0.07177865,0.29280517,-0.018779073,0.110702366,-0.018300101,-0.033234585,0.25404975,-0.02859903,0.31227997,0.057080578,-0.042200223,-0.017043358,-0.030103365,-0.003098289,0.27372065,-0.011679857,0.023029624,0.08646005,0.11027877,-0.030433932,0.09823657,-0.040244173,0.18066321,-0.022540478,0.086445324,0.032412484,-0.0014869018,-0.06616642,0.1267037,0.07216437,0.40373924,0.0075443997,0.28978917,-0.040171213,0.069291405,-8.89036e-05,0.39837566,0.108343065,0.28201428,0.02761702,0.04430619,-0.022434657,-0.012885736,-0.014322822,-0.00055453234,0.12175465,-0.0040195268
s1-AACGAGCTAATAACTA-1,0.11068043,-0.020918714,-0.034408845,-0.13883325,0.27312854,-0.009698997,0.109160274,0.018440314,0.00544603,0.13109188,-0.028984006,0.18292204,0.007964669,-0.026909078,0.15778139,-0.019373737,0.05994542,0.092750564,-0.018104326,0.008591336,0.26022634,0.06952235,-0.0035211043,0.018577473,-0.052191667,0.050443977,0.04335832,0.09364954,0.014877342,-0.008620826,-0.03878005,0.02453269,0.021393716,0.41911268,-0.010402218,0.04148744,0.03313885,0.10747652,0.22266963,0.13766414,0.034891337,0.22986785,0.013015701,0.007848915,-0.019543864,-0.002669698,-0.0129688345,-0.046333004,0.06351807,0.1047355
s1-AACGGCACAGAATATT-1,0.12086467,-0.04489232,-0.06250499,-0.1095772,-0.07321296,0.20616597,-0.072236,0.1532138,0.22497055,0.16828237,-0.054130282,0.2412407,0.17438109,0.16336316,-0.16982199,0.15853465,-0.013916365,-0.07691823,0.18155625,-0.027237598,-0.1589544,0.23081623,0.19048315,-0.062127806,-0.08371663,-0.015149228,-0.034230303,-0.126063,0.19577394,0.20253885,0.19587663,0.20564924,0.14551724,0.01207697,0.11096495,-0.116276674,0.052172612,-0.07438781,0.1575923,-0.053155463,0.13652432,0.089808874,0.17813903,-0.10989417,0.20307405,0.17280772,-0.105192035,0.18469517,-0.018601617,-0.16357331
s1-AACGGTAATCGACCTG-1,0.10305555,-0.04497048,-0.06710335,-0.10966762,-0.07003555,0.20168929,-0.06766242,0.1402102,0.22348815,0.15835187,-0.0550119,0.24318545,0.1649784,0.15193945,-0.18862401,0.14636664,-0.011704061,-0.07982959,0.17313392,-0.025523352,-0.17306212,0.23061089,0.18345554,-0.0629082,-0.08746186,-0.010014688,-0.028390147,-0.13013318,0.18976198,0.19751622,0.18963555,0.20142214,0.13152838,-0.0035742028,0.16649537,-0.12209939,0.09810945,-0.0775602,0.1453372,-0.049852464,0.12112126,0.14253815,0.16927923,-0.117983155,0.19809268,0.16297446,-0.1126828,0.17680296,-0.017498886,-0.1751787
s1-AACTAACGAACTAGAT-1,0.03953531,-0.014767914,-0.0333171,-0.10400754,0.34774768,-0.04142328,0.23768687,0.042504482,-0.013449984,0.13832791,-0.013351794,0.17440642,0.06825882,-0.032133136,0.026748406,-0.028580934,-0.013017617,0.16632976,-0.020292252,-0.007021314,0.17719427,0.07939771,0.06645638,0.009896966,-0.028350249,0.062079977,-0.014036177,0.002521197,0.018513579,-0.021920871,-0.037581224,0.03851924,0.06746985,0.29572526,0.027334588,0.045605607,-0.043535404,0.15814215,0.030768909,0.2625131,0.027302276,0.11615841,0.03756041,0.016142981,0.07801241,0.013735114,-0.02292061,0.0036062724,0.08384897,0.30274034
s1-AACTAGCACTGTTCGA-1,0.118754715,-0.044941224,-0.06311449,-0.1096667,-0.072973706,0.2058107,-0.07176958,0.15176928,0.22500207,0.16714782,-0.0542793,0.2416069,0.17337199,0.1621274,-0.17226762,0.15719956,-0.01365765,-0.07741813,0.18069473,-0.02705806,-0.1608461,0.23096798,0.18980527,-0.062305428,-0.08423841,-0.014583949,-0.033541456,-0.12669635,0.19520488,0.20210893,0.19530968,0.20528333,0.1439144,0.0077292393,0.11784366,-0.11716761,0.05784199,-0.07486264,0.15623783,-0.052911773,0.13473648,0.09625238,0.17720723,-0.110993415,0.20265515,0.17176625,-0.10619814,0.18389821,-0.018518992,-0.16513762
s1-AACTAGCATCACGTAC-1,0.11106045,-0.04505005,-0.065195106,-0.10982585,-0.072014526,0.2042442,-0.07000234,0.14639886,0.2247864,0.16285987,-0.05473141,0.24256006,0.16952215,0.1574861,-0.1807343,0.15221138,-0.012715526,-0.07908727,0.17736036,-0.026378637,-0.16735476,0.23117228,0.18711217,-0.06284777,-0.085975565,-0.012547697,-0.031037096,-0.12876926,0.19289185,0.20028186,0.19300403,0.20367971,0.1379911,-0.0014747673,0.14219184,-0.120172635,0.0779667,-0.07644607,0.15118195,-0.05196598,0.12816715,0.11908079,0.17362736,-0.11475,0.20086655,0.1678034,-0.10962969,0.18078932,-0.018197471,-0.17047311
s1-AACTAGCCTAATAGCA-1,0.13423245,-0.03325278,-0.052772216,-0.09982148,0.032271985,0.14308324,-0.025735116,0.10649065,0.15167804,0.1985085,-0.04600674,0.26462612,0.14770123,0.10678555,-0.122148015,0.10792391,-0.01157984,0.021683786,0.12828447,-0.014692405,-0.08392554,0.19758888,0.12902936,-0.017789856,-0.07086043,0.037721008,-0.032297738,-0.067817755,0.15262032,0.14533137,0.122367546,0.18440753,0.13509381,0.12766474,0.073052526,-0.0078053772,0.016697552,-0.032904625,0.115095615,0.07597873,0.13190955,0.13368008,0.14148414,-0.06413947,0.14008419,0.12198883,-0.077779084,0.13355699,0.022178544,-0.11576341
s1-AACTAGCCTTGCAATA-1,0.11490493,-0.04500853,-0.06418175,-0.10977724,-0.072509825,0.20507699,-0.07089762,0.1491012,0.22495528,0.16503021,-0.054522403,0.24215448,0.17147714,0.15983008,-0.17658739,0.15472586,-0.013186019,-0.078281716,0.17906202,-0.026722683,-0.1641747,0.23113474,0.18849865,-0.06259626,-0.08513821,-0.013560478,-0.032287,-0.12777726,0.19409154,0.2012427,0.1942001,0.20453073,0.14096518,-1.792671e-05,0.1301622,-0.11871626,0.06801284,-0.07568227,0.1537297,-0.05244911,0.13145874,0.10779812,0.17544968,-0.11291957,0.20180848,0.16981395,-0.10795896,0.18238017,-0.018361857,-0.16787544
s1-AACTAGGCCTGACACC-1,0.064589724,-0.015076851,-0.025572225,-0.099872634,0.2656672,-0.017884508,0.10084861,-0.019327324,-0.022115096,0.20586836,-0.0317088,0.16729432,0.029506933,-0.030976897,0.15008998,0.03607772,-0.009619102,0.10545288,-0.020526469,0.0034487918,0.30282053,0.059503876,-0.023946999,0.0041721724,-0.04997602,0.058504753,0.12918928,0.20011784,0.0044794325,-0.004469075,0.0060209557,0.039084665,0.038136505,0.3707773,-0.0076531433,0.072802626,-0.00089496374,0.07454282,0.14095315,0.15162152,0.017497549,0.13194466,0.044113718,0.0052773776,0.011203575,-0.00977404,-0.016018156,-0.017582385,0.1357579,0.0888025
s1-AACTATCGTCATAGTC-1,0.054212727,-0.0049092555,-0.024737239,-0.09033973,0.25040033,-0.019824507,0.110784456,-0.023129992,-0.01735231,0.25130764,-0.034566745,0.17476021,0.030739568,-0.029282313,0.15671465,0.018461619,-0.012270739,0.113819696,-0.02058798,0.0018423339,0.29082572,0.07322765,-0.023702592,0.0026139505,-0.042602852,0.06886276,0.1613939,0.15862945,0.013785306,-0.00539167,0.020834219,0.047779962,0.054045502,0.31544155,-0.0077835824,0.07687347,-0.027098479,0.060243323,0.13735779,0.16310574,0.0064807627,0.123449005,0.066783875,3.7703663e-05,0.048201844,-0.019183299,-0.02324438,-0.007324688,0.20402601,0.053561404
s1-AACTATCTAGCAGTAT-1,0.11574352,-0.044996224,-0.0639541,-0.109758824,-0.072613806,0.20524599,-0.0710898,0.14968586,0.22497666,0.16549657,-0.054472536,0.24204813,0.17189565,0.16033508,-0.17566174,0.15526876,-0.013288709,-0.07809882,0.1794242,-0.026796576,-0.16346285,0.23111026,0.18879075,-0.062536485,-0.08494782,-0.013782565,-0.03256,-0.12754983,0.1943421,0.2014402,0.19444986,0.20470378,0.14161025,0.0015979452,0.12750387,-0.11838718,0.065815985,-0.07550876,0.15427999,-0.05255183,0.1321744,0.10530581,0.17583868,-0.11250855,0.20200177,0.17024481,-0.10758344,0.18271771,-0.01839677,-0.16729158
s1-AACTATGCTGCATTCG-1,0.11162056,-0.045045473,-0.06505046,-0.10982229,-0.07208852,0.20437126,-0.070134185,0.14679474,0.22481799,0.16317926,-0.05470288,0.24250904,0.16981056,0.15783045,-0.18013965,0.15258025,-0.012784045,-0.07897315,0.17761235,-0.026429286,-0.16689968,0.23117419,0.18731883,-0.06281335,-0.08585706,-0.012694721,-0.031219037,-0.12862973,0.19307166,0.20042732,0.19318333,0.20380938,0.13842605,-0.0012638984,0.14045474,-0.11996561,0.076528095,-0.07633791,0.15155561,-0.052037578,0.12864777,0.117451094,0.17389672,-0.11448863,0.2010093,0.1680998,-0.10939128,0.18102537,-0.018221848,-0.17010245
s1-AACTATGTGCTTGTTA-1,0.075066864,-0.01202944,-0.027756669,-0.09526057,0.2634663,-0.01759641,0.09074675,-0.018900167,-0.022596752,0.22832343,-0.033026274,0.19855112,0.03521875,-0.032499127,0.13626298,0.024712142,-0.00900775,0.12752524,-0.01872838,0.0062850155,0.2606216,0.06741777,-0.025451267,0.015812607,-0.050723024,0.073804505,0.10917238,0.18189716,0.016096996,-0.0036484313,-0.0034784898,0.056263722,0.051504817,0.37490988,-0.0019842014,0.094762966,0.008935569,0.06651297,0.112154014,0.18760207,0.026452698,0.15523125,0.0533562,0.009984752,0.020174831,-0.012881925,-0.01668393,-0.012419039,0.15639615,0.052636955
s1-AACTATTCTGCGGCCT-1,0.1099146,-0.026313853,-0.03949041,-0.1586361,0.27846903,0.0031012078,0.12478371,0.054947823,0.045047015,0.0752877,-0.034182943,0.16351086,-0.010474874,-0.022612909,0.21889132,-0.024493188,0.100120455,0.041755807,-0.018217888,0.0053843325,0.30922562,0.050393403,0.040267564,-0.009091267,-0.05609633,0.012387913,0.04430197,0.04518769,-0.0015469659,-0.008040174,-0.03210302,-0.018411718,-0.008965775,0.41516298,-0.025453156,-0.05333451,0.047455434,0.12402755,0.27732766,0.03993758,0.014037793,0.22345665,0.0007487694,-0.0067878347,-0.016868247,-0.007066766,-0.019232348,-0.06253889,0.038330693,0.16898462
s1-AACTCAACCTTGACCA-1,0.081623,-0.011078743,-0.02924654,-0.10318005,0.27578384,-0.019457262,0.101185426,-0.01632384,-0.02006038,0.21719705,-0.03218434,0.20863424,0.037799753,-0.034009635,0.123421915,0.0086073615,-0.0073597888,0.13655318,-0.019137096,0.009328051,0.24701439,0.07794306,-0.022633063,0.024033157,-0.049682803,0.082242675,0.08910993,0.15401204,0.021535154,-0.005358924,-0.02599999,0.06151363,0.05468355,0.3856148,-0.0014705937,0.0976082,-0.0040204264,0.07532886,0.12241819,0.20144677,0.03095442,0.16661532,0.0410924,0.013717707,-0.004413911,-0.011373993,-0.017558537,-0.012945281,0.14503323,0.059640836
s1-AACTCAACTTGACAGC-1,0.11247443,-0.045037538,-0.06482803,-0.10981459,-0.07220013,0.20456123,-0.07033425,0.14739683,0.22486162,0.16366407,-0.054658156,0.24242604,0.17024793,0.15835355,-0.179227,0.15314093,-0.012888518,-0.078797095,0.17799385,-0.026506156,-0.16620061,0.23117231,0.18763086,-0.06275944,-0.08567416,-0.012919195,-0.0314965,-0.1284138,0.19334252,0.20064554,0.19345337,0.20400338,0.13908805,-0.0009415452,0.13779657,-0.11964667,0.07432749,-0.07617102,0.15212362,-0.052145947,0.12937975,0.11495759,0.17430481,-0.11408676,0.20122333,0.16854942,-0.109024614,0.18138246,-0.018258734,-0.16953234
s1-AACTCACCGAACTTAT-1,0.10314878,-0.018179914,-0.040488876,-0.12724759,0.27143583,0.012497747,0.07844921,-0.010605547,0.009187868,0.13320152,-0.03784906,0.19759086,0.0008119866,-0.02503785,0.15991808,-0.02101154,0.07567608,0.108693406,-0.016468044,0.010441471,0.2588473,0.0888534,0.0022684615,0.019248784,-0.053997617,0.059954822,0.07556026,0.092713445,0.018574905,-0.0076643876,-0.03908723,0.031297866,0.01750895,0.381804,-0.014108608,0.06452757,0.0026363526,0.090472594,0.23286824,0.15648705,0.03907958,0.23846361,0.01789892,0.0034685377,-0.019789353,-0.008395163,-0.020473689,-0.048152875,0.06514582,0.065157205
s1-AACTCACCTCGGTGTT-1,0.16018596,-0.0081812665,-0.03350421,-0.07656485,0.26972118,-0.0008296203,0.08678433,-0.005260774,-0.0121050365,0.2564165,-0.030422498,0.31434232,0.07074978,-0.026078522,-0.029666921,-0.014472522,-0.004146318,0.24161696,0.004132501,0.017002277,0.06727728,0.12195951,-0.012194217,0.08371586,-0.044284996,0.1593365,-0.024076367,0.06520355,0.054356907,0.014517312,-0.045009695,0.13681942,0.09159581,0.37035674,0.02231965,0.24359399,-0.030952068,0.05705394,0.012279288,0.36316514,0.10497001,0.26864538,0.044220872,0.033793252,-0.003998395,0.002022991,-0.021889709,0.014331509,0.11446726,-0.017349986
s1-AACTCACGGAGTACGT-1,0.030111939,-0.011011607,-0.019630289,-0.081936195,0.21382532,-0.023074383,0.10168613,-0.022734402,-0.021059113,0.23027131,-0.027552761,0.1156038,0.017793106,-0.02738624,0.1980631,0.066004395,-0.017942822,0.07445334,-0.025442412,-0.0066247247,0.353035,0.040755138,-0.026515964,-0.009958377,-0.047965318,0.04348406,0.20028004,0.23342949,-0.006461315,-0.006418443,0.055150308,0.018093873,0.030109346,0.315122,-0.01801838,0.062962845,-0.01917648,0.06231992,0.15384448,0.10022782,-0.00021130964,0.08443467,0.0948154,-0.0045457296,0.076957695,-0.014559928,-0.013658918,-0.018408805,0.21999437,0.071247436
s1-AACTCAGATCCATGCC-1,0.12171851,-0.044870023,-0.062253233,-0.10953498,-0.07330665,0.2063,-0.07242236,0.15379466,0.2249459,0.16873609,-0.054066684,0.24107876,0.17478333,0.16385838,-0.16881604,0.15907061,-0.014021107,-0.0767104,0.18189795,-0.02730936,-0.15817486,0.23074226,0.19074953,-0.062052123,-0.08349953,-0.015378884,-0.03450933,-0.12579818,0.19599567,0.20270348,0.19609748,0.20578764,0.14616306,0.013848795,0.10815484,-0.11590736,0.049858637,-0.07419033,0.1581362,-0.053252023,0.13724601,0.08717728,0.17850958,-0.109440275,0.20323418,0.17322324,-0.104776345,0.18501037,-0.018634327,-0.16292699
s1-AACTGCAACGTCCTGG-1,0.055541437,-0.015932094,-0.022360783,-0.094823055,0.25029165,-0.017228905,0.09878963,-0.020413695,-0.023343984,0.20973642,-0.030430501,0.14523622,0.025596961,-0.030071612,0.16908121,0.052029654,-0.011304603,0.092420906,-0.021517249,0.00064410456,0.32547185,0.049548134,-0.025592532,-0.0039206445,-0.049972232,0.048874464,0.1507929,0.22550133,-0.0037702918,-0.003517178,0.023369797,0.029238898,0.029680422,0.3642856,-0.012160959,0.06539481,0.0063113477,0.068966255,0.14497252,0.12627079,0.011057638,0.114873454,0.050790444,0.001928431,0.022630183,-0.0106445085,-0.016091764,-0.019854246,0.14543125,0.09492345
s1-AACTGCCTCGATAGGT-1,0.16400166,-0.008669473,-0.035230123,-0.08422324,0.30590466,-0.016797846,0.085549176,-0.019528594,-0.032130368,0.2599513,-0.031804312,0.309907,0.040218804,-0.039744474,-0.011784764,-0.028458586,-0.0028483693,0.24280174,-0.011375448,0.02071862,0.091787666,0.113447204,-0.03080811,0.080212176,-0.044439908,0.14945959,-0.01909808,0.08477502,0.056944013,-0.0018773335,-0.06462995,0.1272102,0.07699995,0.40072522,0.023544192,0.26624364,-0.03742395,0.0646589,0.027483946,0.39696318,0.08549785,0.2935097,0.04862207,0.037096757,-0.021767614,-0.009662471,-0.015953138,-0.0036029802,0.12672624,6.255368e-05
s1-AACTGCGAACCTTACC-1,0.14344685,-0.020487595,-0.04700835,-0.12231526,0.24033244,0.06658662,0.060270473,-0.014254164,0.031784724,0.20544586,-0.049823597,0.25939274,0.010578853,0.006015243,0.028077709,-0.0057528624,0.06203081,0.13905895,-0.008218659,0.014296506,0.15326047,0.12426868,0.0009271577,0.024022635,-0.060107253,0.08804159,0.074487835,0.061160214,0.026352867,0.009695004,-0.017398667,0.06356107,0.028096853,0.36363858,-0.005904303,0.115079135,-0.007356286,0.04116395,0.20468976,0.2120799,0.0580908,0.27203766,0.039825,-0.005124744,-0.01713073,-0.008054551,-0.034224506,-0.032806464,0.07718726,-0.012432864
s1-AACTGCGATCGACTAA-1,0.057692893,-0.02580445,-0.036905512,-0.11995101,0.3562212,-0.034336366,0.21600962,0.06391956,0.031529583,0.11877062,-0.012982998,0.18531814,0.06351433,-0.031474214,0.034040444,-0.029222699,-0.0032349636,0.13989224,-0.018563477,-0.0028345268,0.18717419,0.07093374,0.105350256,0.017044984,-0.031335063,0.057796866,-0.0198902,-0.004677374,0.014504135,-0.020982994,-0.04149822,0.02541335,0.045772985,0.32076126,0.022053067,0.023054048,-0.03404757,0.19026227,0.08226006,0.19135052,0.047754165,0.11515516,0.01701016,0.013414803,0.018883696,0.05763877,-0.01354246,-0.009683991,0.054950725,0.30003023
s1-AACTGCGGTCCGAAGC-1,0.11247275,-0.04503755,-0.064828455,-0.109814614,-0.0721999,0.20456083,-0.07033385,0.14739566,0.22486153,0.16366312,-0.054658238,0.24242619,0.17024706,0.15835252,-0.17922877,0.15313983,-0.012888314,-0.07879742,0.1779931,-0.026506003,-0.16620195,0.23117232,0.18763025,-0.06275955,-0.08567451,-0.012918755,-0.03149596,-0.12841421,0.19334199,0.2006451,0.19345284,0.20400299,0.13908675,-0.0009421729,0.13780175,-0.119647264,0.07433176,-0.076171346,0.1521225,-0.052145727,0.12937832,0.114962436,0.17430401,-0.114087544,0.20122291,0.16854852,-0.10902533,0.18138175,-0.01825866,-0.16953342
s1-AACTGCTACCTCGATA-1,0.06192665,-0.01130975,-0.027683772,-0.100967854,0.26038074,-0.018095365,0.09599885,-0.018216085,-0.018057156,0.20944494,-0.032502696,0.17633328,0.028650135,-0.032351956,0.15826656,0.023019481,-0.009638975,0.11124302,-0.020956974,0.0043134857,0.29644832,0.06663286,-0.023647508,0.009701572,-0.050154284,0.063486576,0.12755401,0.18057677,0.010912316,-0.0048276535,-0.002533339,0.040004816,0.0457658,0.3671177,-0.0086789485,0.071303904,-0.007445409,0.06948604,0.14691028,0.15902743,0.018347654,0.13481443,0.054155055,0.004606922,0.010543615,-0.012800971,-0.018249635,-0.017076531,0.15813532,0.06722469
s1-AACTTCAAGGATAATC-1,0.08413323,-0.006639075,-0.029180206,-0.08752921,0.25317636,-0.016746279,0.076689325,-0.020125605,-0.023440301,0.27300206,-0.03254424,0.24209243,0.04920717,-0.03351774,0.09922263,0.008516662,-0.0078907395,0.16338487,-0.017268788,0.009347739,0.21693337,0.09462135,-0.023472328,0.033712845,-0.046259254,0.09834175,0.08659394,0.13391112,0.033252068,-0.004275261,-0.0071899295,0.08321923,0.073395655,0.34946653,0.008619847,0.1329782,-0.02684345,0.060077254,0.09477925,0.24743053,0.03862594,0.1825807,0.06732794,0.014321036,0.016806336,-0.0154653415,-0.01634587,0.0023305006,0.17987989,0.012493461
s1-AACTTCAGATACTACC-1,0.13572122,-0.0046573444,-0.033093575,-0.082869574,0.30954635,-0.018730983,0.082667485,-0.015650043,-0.025925634,0.31309932,-0.03234741,0.34722865,0.07997558,-0.04228525,-0.016450731,-0.026354497,-0.0042253477,0.24752825,-0.010752471,0.026261415,0.07865025,0.13397232,-0.021867046,0.07650818,-0.043594155,0.15330489,-0.025771858,0.06884862,0.06939862,-0.0018353643,-0.064882785,0.14779803,0.111996524,0.3945609,0.036693778,0.21595208,-0.034012858,0.06724701,0.0005630823,0.3880093,0.071017675,0.2742638,0.043942627,0.041128658,-0.018261576,-0.011807569,-0.015245297,0.025434947,0.15071326,-0.008251152
s1-AACTTCAGCATGGCCG-1,0.04387693,-0.012402227,-0.025988046,-0.11393396,0.30814713,-0.035403866,0.19547853,-0.009227357,-0.015789703,0.15063961,-0.026749868,0.16064982,0.044970598,-0.034402966,0.1136753,-0.014252993,-0.016257057,0.10995585,-0.026593447,-0.0035716454,0.29180658,0.07388002,-0.0108330175,0.0013779067,-0.04105978,0.06268537,0.087563254,0.085895136,0.0044899825,-0.013881752,-0.023634547,0.034146275,0.052848145,0.34514505,5.4258853e-06,0.040226087,-0.033794384,0.13217984,0.1425502,0.1590841,0.009362601,0.11158251,0.0292198,0.0044722967,0.040568918,-0.0019299567,-0.019391388,-0.008215914,0.14212695,0.20266977
s1-AACTTCATCTTCTGGT-1,0.11579016,-0.0449955,-0.06394135,-0.10975772,-0.07261954,0.20525524,-0.07110046,0.14971831,0.22497766,0.16552243,-0.054469716,0.24204203,0.17191882,0.1603631,-0.17561002,0.15529887,-0.01329442,-0.07808857,0.17944424,-0.02680067,-0.16342305,0.23110871,0.18880689,-0.0625331,-0.08493714,-0.01379493,-0.032575183,-0.12753704,0.19435592,0.20145102,0.19446361,0.20471326,0.14164607,0.0016922856,0.12735559,-0.11836876,0.06569349,-0.07549902,0.15431052,-0.052557517,0.13221419,0.10516686,0.17586021,-0.11248555,0.20201237,0.17026867,-0.10756244,0.18273637,-0.018398702,-0.1672589
s1-AACTTCGCTTAGTCAG-1,0.067548156,-0.0122630615,-0.028002433,-0.10449739,0.2692422,-0.020727161,0.10335897,-0.016755002,-0.018917702,0.20777036,-0.031768557,0.18423271,0.031516246,-0.03296777,0.1464045,0.022322893,-0.009539049,0.11589977,-0.021219457,0.0042343875,0.2773511,0.06969129,-0.023373289,0.013011189,-0.05118876,0.067957945,0.11296682,0.17808875,0.013314804,-0.006544157,-0.01570112,0.045954842,0.046438396,0.379462,-0.00530676,0.07658836,-0.0014900751,0.07496719,0.13360111,0.16958272,0.021621527,0.14479937,0.04682872,0.008003196,0.0044967337,-0.010389149,-0.017239353,-0.015168229,0.15538579,0.07273734
s1-AACTTGCAACTTGGAC-1,0.116088696,-0.044990785,-0.06385961,-0.10975034,-0.07265615,0.20531408,-0.07116855,0.14992596,0.22498368,0.16568772,-0.054451525,0.24200231,0.172067,0.1605422,-0.17527828,0.15549158,-0.013330986,-0.0780227,0.17957224,-0.026826855,-0.16316772,0.2310983,0.1889098,-0.06251131,-0.08486855,-0.01387412,-0.032672405,-0.12745494,0.19444397,0.20152007,0.1945514,0.20477356,0.14187536,0.0022965127,0.12640561,-0.11825042,0.064908706,-0.075436525,0.15450588,-0.0525938,0.13246872,0.10427633,0.17599782,-0.112337984,0.20207992,0.17042126,-0.107427604,0.18285555,-0.018411033,-0.16704926
s1-AACTTGGTTAATACTA-1,0.117897674,-0.020677939,-0.047550157,-0.1331055,0.33580634,0.025009844,0.13286352,0.0075945854,0.048237707,0.11114474,-0.048485078,0.2021353,-0.0050055403,-0.02163626,0.12815605,-0.029201455,0.09296642,0.07749338,-0.013147746,0.020233879,0.283958,0.10709275,0.06076447,-0.0076378696,-0.046373878,0.037494425,0.06124157,0.016900692,0.017234147,-0.0057160133,-0.033922385,0.012213692,0.014686784,0.33170706,-0.017055858,-0.012788571,-0.025132298,0.08868232,0.23467845,0.1142513,0.012855895,0.20150834,0.012264304,-0.0025753118,-0.017588273,-0.008588804,-0.028681535,-0.053220913,0.053259138,0.18479228
s1-AACTTGGTTACATAAC-1,0.11346685,-0.045026846,-0.06456651,-0.10980212,-0.07232802,0.20477632,-0.07056539,0.14809448,0.22490536,0.1642244,-0.05460424,0.24232149,0.17075266,0.15895869,-0.17815669,0.15379009,-0.013009973,-0.07858921,0.17843321,-0.02659498,-0.16537985,0.23116277,0.18798888,-0.062694564,-0.08545806,-0.013180629,-0.031819154,-0.12815781,0.19365232,0.20089367,0.19376223,0.20422317,0.13985582,-0.0005655008,0.13469154,-0.1192708,0.0717582,-0.075973906,0.15278135,-0.05227068,0.13022947,0.11204533,0.1747753,-0.11361435,0.2014666,0.16906849,-0.10859343,0.1817932,-0.018301176,-0.16886191
s1-AAGAATTCTGGCTGCA-1,0.11637338,-0.04498613,-0.06378135,-0.10974294,-0.07269085,0.2053696,-0.07123334,0.15012375,0.22498868,0.16584502,-0.054433975,0.24196361,0.1722079,0.16071273,-0.17496094,0.15567505,-0.013365855,-0.07795956,0.17969388,-0.026851773,-0.16292338,0.23108757,0.18900745,-0.062490296,-0.084802784,-0.013949687,-0.03276514,-0.12737611,0.1945274,0.20158534,0.19463456,0.20483048,0.14209381,0.0028734566,0.1254981,-0.118137024,0.064159155,-0.075376615,0.15469189,-0.052628282,0.13271134,0.103425644,0.17612864,-0.11219673,0.20214373,0.1705664,-0.10729848,0.18296875,-0.018422745,-0.1668485
s1-AAGACAATCTCCTGCA-1,0.11311283,-0.045030843,-0.06466016,-0.10980701,-0.07228263,0.20470029,-0.07048311,0.14784588,0.22489063,0.16402492,-0.054623716,0.2423598,0.17057306,0.15874317,-0.17853968,0.15355884,-0.012966643,-0.07866377,0.178277,-0.02656336,-0.16567366,0.2311671,0.18786174,-0.06271798,-0.08553558,-0.013087302,-0.031704035,-0.12824975,0.19354244,0.20080583,0.19365269,0.20414549,0.13958214,-0.00069981714,0.13580109,-0.119405515,0.07267619,-0.07604462,0.15254703,-0.052226335,0.12992649,0.11308596,0.17460795,-0.11378354,0.20138052,0.16888376,-0.10874786,0.18164723,-0.018286088,-0.16910204
s1-AAGACTAAGGAGATCC-1,0.10978335,-0.045058653,-0.06552111,-0.10982951,-0.07184351,0.20394732,-0.06969999,0.1454935,0.22470565,0.16212769,-0.054794014,0.24266623,0.16886003,0.15669736,-0.18207812,0.15136717,-0.012559331,-0.079343356,0.17678069,-0.026262507,-0.16838205,0.23115866,0.18663508,-0.06292345,-0.086241364,-0.012213138,-0.030622456,-0.12908112,0.19247556,0.19994332,0.19258891,0.2033769,0.1369973,-0.001953818,0.14613292,-0.12063822,0.08123222,-0.07668873,0.15032691,-0.051801227,0.12707001,0.122778796,0.17300843,-0.11533921,0.20053415,0.1671232,-0.11016695,0.18024573,-0.018141354,-0.17130844
s1-AAGACTCAAGGCTCCA-1,0.12596317,-0.016972365,-0.035312407,-0.11728506,0.29131836,-0.011276485,0.10176137,0.0027301926,-0.009644452,0.18104635,-0.03019755,0.22730178,0.021493059,-0.03208089,0.091171235,-0.020943593,0.030465404,0.1469569,-0.015634889,0.012037291,0.2042717,0.08470127,-0.015088249,0.03960143,-0.049888663,0.08625017,0.023907235,0.0939396,0.031748272,-0.005726583,-0.04684458,0.06356862,0.045646697,0.4088952,0.0034246985,0.121186435,0.002833534,0.093130745,0.14894196,0.23195231,0.051110968,0.24776682,0.025899407,0.019069152,-0.019730074,0.0013327636,-0.013674229,-0.03046704,0.087840565,0.07423477
s1-AAGACTGTCATAGTGC-1,0.11647599,-0.044984415,-0.063753076,-0.10974018,-0.07270331,0.20538945,-0.07125665,0.15019497,0.2249903,0.16590163,-0.054427594,0.24194944,0.1722586,0.1607741,-0.17484634,0.15574111,-0.013378423,-0.07793672,0.17973761,-0.026860736,-0.1628351,0.23108353,0.18904252,-0.06248266,-0.08477899,-0.0139769325,-0.032798562,-0.12734757,0.19455735,0.20160869,0.19466439,0.20485082,0.1421725,0.003081578,0.1251706,-0.118096024,0.06388872,-0.075354934,0.15475887,-0.052640676,0.13279875,0.1031187,0.17617568,-0.11214568,0.20216659,0.17061861,-0.10725182,0.18300943,-0.018426957,-0.16677594
s1-AAGAGCAGATGTGCCA-1,0.11254398,-0.045036837,-0.0648098,-0.10981384,-0.07220915,0.2045765,-0.07035049,0.1474458,0.22486493,0.16370344,-0.054654434,0.24241899,0.17028342,0.15839605,-0.17915232,0.15318651,-0.012897027,-0.078782625,0.17802478,-0.026512397,-0.16614337,0.23117189,0.18765612,-0.062754974,-0.08565913,-0.012937498,-0.031519108,-0.12839602,0.19336441,0.2006631,0.19347519,0.20401897,0.1391419,-0.0009152382,0.13757949,-0.119620495,0.07414785,-0.07615732,0.1521698,-0.052154724,0.12943934,0.11475397,0.17433791,-0.11405385,0.20124057,0.16858591,-0.10899456,0.18141139,-0.018261721,-0.16948561
s1-AAGATACAGGCGAACG-1,0.045043483,-0.024160407,-0.024890313,-0.11719331,0.29544693,-0.039010946,0.19844708,0.09033433,-0.01661726,0.14259353,0.029161828,0.17879933,0.06214306,-0.034748163,0.03302776,-0.01891822,-0.013750601,0.11477749,-0.023914017,-0.0047486965,0.22059655,0.07497083,0.04481234,0.024534563,-0.043309208,0.06736078,-0.018975407,0.035262577,0.01590329,-0.017750394,-0.039866086,0.033958457,0.054116122,0.36166704,0.022116784,0.05879475,-0.025368853,0.17908213,0.12844838,0.20105217,0.06235857,0.13242841,0.028920386,0.036837928,0.014827051,0.065167286,0.035009943,-0.0051236656,0.071934,0.24665265
s1-AAGATAGGCTTGCTTA-1,0.048893116,-0.0076939096,-0.022656672,-0.08500657,0.22878857,-0.01954817,0.09662236,-0.023239259,-0.01970816,0.25184348,-0.032945734,0.15527532,0.024830531,-0.027965624,0.16960196,0.041478083,-0.013798442,0.101518735,-0.021394948,-0.00046592765,0.30777806,0.059467882,-0.025865482,0.0010454729,-0.04575984,0.060995176,0.17579167,0.1913948,0.0068053324,-0.0047852932,0.03659954,0.03953606,0.044409428,0.317212,-0.011220183,0.07896557,-0.022017509,0.054804116,0.13848417,0.14306596,0.006948704,0.11390153,0.082035854,-0.00052969716,0.057434205,-0.018181816,-0.018275911,-0.0120274415,0.20974672,0.044118814
s1-AAGATATTGGACGTCC-1,0.03795189,-0.008410559,-0.021524673,-0.08093246,0.21271572,-0.02200016,0.08937663,-0.024135567,-0.021396987,0.25129536,-0.030765861,0.1316098,0.020033473,-0.025955332,0.1917596,0.053421386,-0.016009184,0.0862849,-0.023379313,-0.004606149,0.33006632,0.048445195,-0.025937721,-0.005340755,-0.04721029,0.05095766,0.19369432,0.21389031,0.0015341789,-0.006175683,0.051596362,0.029505018,0.03809432,0.30768263,-0.015971307,0.07028215,-0.021322122,0.05674564,0.14494498,0.116897866,0.002997145,0.0953395,0.09790833,-0.0044268407,0.07491004,-0.018918198,-0.01652406,-0.016142536,0.22526565,0.045509912
s1-AAGATCTGTAACTTGT-1,0.0528074,-0.011457115,-0.024656624,-0.08244756,0.26208776,-0.0219726,0.103229806,-0.02545892,-0.02414972,0.23723668,-0.034826834,0.16955003,0.034437083,-0.031393748,0.13509996,0.052474983,-0.0151568,0.10850397,-0.020110035,0.0014999909,0.3090051,0.05566311,-0.025393808,0.0015661456,-0.04639075,0.06052377,0.15550426,0.20543335,0.0029379558,-0.0021637196,0.03588582,0.04214181,0.050222926,0.3306679,-0.007979786,0.07971128,-0.018006703,0.0671562,0.10991253,0.15570334,0.012101004,0.11790561,0.07446802,0.0039313277,0.055876765,-0.014963742,-0.017309368,-0.010217462,0.15998289,0.07656897
s1-AAGATGAAGGTCATCG-1,0.080538265,-0.01740451,-0.035809375,-0.1390944,0.3281966,-0.0279123,0.18333203,0.04061421,0.04055067,0.14708598,-0.020283615,0.18610074,0.040437773,-0.030958712,0.092066154,-0.027066365,0.029531468,0.109140396,-0.020499699,0.003545111,0.20728533,0.12197679,0.06692674,0.01846822,-0.039747715,0.06430467,0.008977975,0.015463642,0.026906218,-0.018346375,-0.045911036,0.031947963,0.047075868,0.37304267,0.0087053515,0.02201496,-0.028668512,0.16287445,0.17526175,0.17386404,0.031156199,0.17860907,0.015837694,0.008543504,-0.013108948,0.017855123,-0.016879404,-0.019966625,0.0723479,0.18679659
s1-AAGATGGCCGCTAGTT-1,0.12357771,-0.044797435,-0.061684005,-0.10941478,-0.0733382,0.20646866,-0.07273794,0.15496622,0.22475295,0.16975087,-0.05390905,0.24074239,0.17560653,0.16482706,-0.16653813,0.16013834,-0.014243374,-0.07608732,0.18253528,-0.02744382,-0.15634581,0.23050961,0.19121118,-0.061805867,-0.08299821,-0.015783945,-0.035108183,-0.12512353,0.19638398,0.20294881,0.19643964,0.20603605,0.14753954,0.017875446,0.10198036,-0.11492674,0.044774517,-0.07369257,0.15923227,-0.05325339,0.1387919,0.08151477,0.17923564,-0.108368516,0.2034611,0.17402588,-0.103819184,0.1855987,-0.018639965,-0.161432
s1-AAGATTAGGCTGTCTA-1,0.11935626,-0.044928167,-0.062942535,-0.10964332,-0.073043026,0.20591544,-0.0719034,0.1521824,0.22499727,0.1674732,-0.054237984,0.24150735,0.17366183,0.16248143,-0.17157614,0.15758172,-0.013731393,-0.07727757,0.18094282,-0.02710956,-0.16031173,0.23092918,0.19000135,-0.062256128,-0.08409176,-0.014744791,-0.033737745,-0.12651877,0.19537015,0.20223479,0.19547436,0.20539108,0.14437236,0.008964369,0.1158919,-0.11691672,0.056232642,-0.07472915,0.15662546,-0.052981976,0.13524683,0.09442387,0.1774752,-0.110683225,0.20277789,0.17206527,-0.10591432,0.184128,-0.018542806,-0.16469634
s1-AAGATTATCTAGCATA-1,0.046310406,-0.018677851,-0.03693469,-0.14388587,0.25906634,-0.014633492,0.08502234,-0.009856331,-1.1955388e-05,0.08750578,-0.034168012,0.107950345,-0.013184227,-0.025195442,0.24624938,-0.012938521,0.029683758,0.04475898,-0.02364481,0.001799949,0.34900466,0.065331675,-0.009177872,-0.010556774,-0.05834932,0.017611554,0.12666747,0.14412825,0.0015162714,-0.011630808,-0.025313294,-0.010673255,0.0044681095,0.39146882,-0.029820345,-0.019828334,0.019288901,0.11729748,0.30454755,0.05003427,0.010784765,0.15701747,0.0117185,-0.009445734,-0.0131447585,-0.010321172,-0.021358877,-0.063026555,0.070657864,0.09960885
s1-AAGCAGCGGACACGTG-1,0.029978763,-0.017844625,-0.02817398,-0.12355347,0.25417107,-0.016230669,0.11147206,-0.015058055,-0.010060621,0.118480556,-0.034796957,0.082037315,-0.008612474,-0.02796436,0.25431868,0.02230008,-0.008450283,0.034106668,-0.026350023,-0.0052815634,0.3980807,0.02889918,-0.020326674,-0.023226542,-0.056255534,0.012227695,0.18322678,0.21632293,-0.016477166,-0.007370859,0.003983818,-0.01958277,0.0013400912,0.3779535,-0.03271122,-0.0139128305,0.02019019,0.088006265,0.24854521,0.029954806,-0.0060708486,0.074096344,0.028354267,-0.0111258505,0.0076367697,-0.010670758,-0.020700565,-0.04990007,0.13163704,0.124136895
s1-AAGCAGTATCAGAATC-1,0.11348536,-0.04502663,-0.0645616,-0.10980185,-0.07233039,0.20478027,-0.07056968,0.14810745,0.22490609,0.16423482,-0.05460321,0.24231948,0.17076205,0.15896995,-0.17813666,0.15380216,-0.013012238,-0.0785853,0.17844136,-0.026596626,-0.16536449,0.23116253,0.1879955,-0.062693335,-0.085454,-0.013185506,-0.031825166,-0.128153,0.19365804,0.20089826,0.19376794,0.20422721,0.13987012,-0.0005584742,0.13463348,-0.11926375,0.07171019,-0.07597021,0.15279359,-0.052272994,0.1302453,0.111990914,0.17478403,-0.113605514,0.20147109,0.16907813,-0.108585335,0.18180081,-0.018301964,-0.16884933
s1-AAGCAGTGAGTGCGAC-1,0.11191589,-0.04504286,-0.064973794,-0.10981995,-0.07212728,0.20443748,-0.070203505,0.14700317,0.22483371,0.16334723,-0.054687586,0.24248105,0.16996215,0.15801163,-0.17982486,0.1527744,-0.012820176,-0.07891255,0.17774467,-0.026455918,-0.16665863,0.2311742,0.18742718,-0.0627949,-0.08579412,-0.0127723105,-0.031314988,-0.1285555,0.1931658,0.2005033,0.19327717,0.20387699,0.13865517,-0.0011525282,0.13953678,-0.119855754,0.075768,-0.076280475,0.15175228,-0.052075166,0.12890102,0.11658995,0.1740382,-0.11435012,0.20108381,0.16825563,-0.1092649,0.18114926,-0.018234644,-0.16990596
s1-AAGCAGTGGCATCACT-1,0.07201376,-0.00943481,-0.02708487,-0.091423124,0.24791974,-0.015662815,0.090826176,-0.01950625,-0.021621786,0.24841335,-0.03251787,0.20234242,0.036706932,-0.031716358,0.13214567,0.018728016,-0.009080911,0.13657925,-0.019187883,0.0054449164,0.26335362,0.07613932,-0.024286896,0.021560261,-0.048118986,0.081126995,0.11550527,0.15811244,0.017827978,-0.0045093074,0.005018208,0.0607751,0.053878196,0.35189605,-0.0016150065,0.106765434,-0.023004783,0.058348186,0.11944972,0.19640586,0.02637077,0.15518439,0.06653972,0.010108264,0.02362925,-0.014154773,-0.016181199,-0.0059034713,0.18109265,0.043274403
s1-AAGCAGTGGCTCATCC-1,0.1457697,-0.021713525,-0.043650083,-0.088659085,0.14020038,0.07681774,0.0273109,0.055344656,0.07622779,0.22420046,-0.03886115,0.28657705,0.11185278,0.045623302,-0.07947351,0.051639304,-0.008179385,0.12465427,0.07101254,0.0001348136,-0.014459524,0.16320601,0.06410488,0.029107962,-0.058539793,0.09427492,-0.028357968,-0.0057117157,0.106956124,0.08516052,0.045438644,0.16203663,0.113492236,0.23915666,0.0485372,0.10969451,-0.0055790804,0.009303793,0.06780742,0.20892133,0.12033902,0.19463494,0.09577386,-0.020670023,0.07378304,0.06682387,-0.052085966,0.07872952,0.06494798,-0.07048472
s1-AAGCAGTGTAGAATCT-1,0.09632093,-0.018570287,-0.040643625,-0.1299478,0.26310527,0.020591471,0.07412455,-0.010799655,0.011154924,0.12235466,-0.03922203,0.18296495,-0.0036580004,-0.022499807,0.17871001,-0.019094242,0.082867235,0.096073635,-0.01685125,0.009621863,0.27748403,0.08778599,-0.001333613,0.012351304,-0.054868706,0.051346503,0.09366432,0.09858607,0.01485331,-0.008034756,-0.03570447,0.023200113,0.011710526,0.37590787,-0.01794097,0.047852024,0.004344376,0.08649315,0.2541881,0.1333272,0.03293816,0.23023242,0.01601531,-0.0002939906,-0.019547418,-0.008660974,-0.021180687,-0.05196898,0.060021274,0.063848816
s1-AAGCATCAAGCGTGAT-1,0.10985173,-0.04505827,-0.06550379,-0.10982948,-0.07185275,0.20396349,-0.069716245,0.14554207,0.22471027,0.16216703,-0.054790746,0.24266094,0.16889565,0.15673973,-0.1820066,0.15141249,-0.012567692,-0.079329796,0.17681192,-0.026268749,-0.1683274,0.23115972,0.18666084,-0.0629195,-0.08622729,-0.012231027,-0.030644652,-0.12906465,0.19249809,0.19996169,0.19261138,0.20339337,0.13705058,-0.0019282314,0.14592263,-0.12061353,0.081057906,-0.07667589,0.1503728,-0.0518101,0.12712881,0.12258142,0.17304175,-0.1153079,0.2005522,0.16715978,-0.1101384,0.18027502,-0.018144378,-0.17126407
s1-AAGCATTGAGTGGTTG-1,0.11048424,-0.04505425,-0.065342836,-0.109828256,-0.071937755,0.20411149,-0.069866225,0.14599083,0.22475144,0.1625302,-0.05476006,0.2426097,0.16922419,0.15713084,-0.18134265,0.15183102,-0.012645046,-0.0792035,0.17709967,-0.026326353,-0.16782,0.2311677,0.1868979,-0.062882386,-0.086096235,-0.012396635,-0.030849982,-0.12891103,0.19270511,0.2001303,0.1928178,0.20354429,0.13754307,-0.0016912022,0.14397334,-0.12038381,0.07944252,-0.07655622,0.1507967,-0.051891904,0.12767236,0.120752275,0.17334893,-0.11501697,0.20071775,0.16749725,-0.10987314,0.18054497,-0.018172242,-0.17085166
s1-AAGCCACCATTCAAGA-1,0.1177069,-0.04496231,-0.06341062,-0.10970344,-0.0728509,0.20562175,-0.071534894,0.15104719,0.22500247,0.16657744,-0.054349095,0.24177113,0.17286302,0.1615075,-0.17346132,0.15653105,-0.013529233,-0.0776593,0.18025802,-0.026967762,-0.16176754,0.23102725,0.18945843,-0.062388774,-0.084489904,-0.01430439,-0.03319972,-0.12699994,0.19491133,0.20188348,0.19501716,0.20508918,0.14311482,0.005586082,0.12122571,-0.1175988,0.060632043,-0.075091615,0.15555982,-0.052788123,0.13384634,0.09942142,0.1767361,-0.11152769,0.20243509,0.17124145,-0.106686816,0.18349311,-0.018477028,-0.16589746
s1-AAGCCACTATGTCTAA-1,0.097265184,-0.022032209,-0.034340598,-0.14513431,0.2765872,-0.009483481,0.11900958,0.018668763,0.008667186,0.11169997,-0.029192105,0.15621386,0.0031625647,-0.026058173,0.1823124,-0.01832598,0.057682328,0.0715379,-0.02011684,0.0061749723,0.29182148,0.06253254,-0.0012307111,0.0075463224,-0.05304412,0.03592604,0.05789098,0.09768626,0.0074212514,-0.009668703,-0.034669463,0.008640468,0.011434384,0.41909772,-0.016149247,0.010480888,0.032429248,0.115969546,0.24769153,0.10020264,0.025124878,0.20632619,0.008421265,0.0025976896,-0.017918397,-0.0005651575,-0.014578776,-0.05200365,0.054580636,0.1304152
s1-AAGCCAGATATCAGAA-1,0.11809146,-0.044954814,-0.06330243,-0.10969054,-0.07289628,0.20569205,-0.07162126,0.15131254,0.22500348,0.1667873,-0.054323804,0.24171221,0.1730504,0.16173549,-0.17302482,0.15677682,-0.013576359,-0.077571325,0.18041897,-0.02700099,-0.16143072,0.23100673,0.18958649,-0.06235856,-0.08439817,-0.014406904,-0.033325113,-0.12688935,0.19501989,0.20196712,0.19512534,0.20516138,0.14340854,0.006371417,0.119987056,-0.117441416,0.059609994,-0.075008094,0.15580906,-0.052833702,0.13417321,0.09826069,0.17690966,-0.11133247,0.20251676,0.17143463,-0.1065083,0.18364249,-0.018492501,-0.16561987
s1-AAGCCAGATCCAACAT-1,0.048170235,-0.010088452,-0.021249821,-0.08082733,0.24214979,-0.022535667,0.0966606,-0.021713879,-0.023086239,0.2561164,-0.027744703,0.17533828,0.042943045,-0.030724857,0.14012966,0.053502057,-0.01625347,0.11016529,-0.022470955,0.0002286816,0.2960029,0.06550451,-0.024067089,0.004382003,-0.04658405,0.066796094,0.14876413,0.19956756,0.013318334,-0.0053120987,0.032135945,0.051318243,0.056632552,0.3255953,-0.0009389594,0.08672107,-0.021564774,0.066844866,0.11375843,0.1662556,0.010711653,0.11919982,0.08029731,0.0014390247,0.054332808,-0.0117258765,-0.014380576,-0.0041139815,0.19559982,0.061352838
s1-AAGCCAGGCCGACGTG-1,0.16695832,-0.0071931113,-0.032814004,-0.078153566,0.3032639,-0.01738259,0.09136574,-0.01979268,-0.03312844,0.2628394,-0.030122856,0.31713152,0.050673667,-0.040842663,-0.017972585,-0.029571775,-0.0031725245,0.25789973,-0.011028176,0.0222969,0.08955914,0.11007018,-0.031170331,0.088096105,-0.042815525,0.16165757,-0.02275765,0.08400668,0.049803287,-0.0013585319,-0.066244446,0.1307115,0.07949266,0.39930502,0.018356515,0.27957803,-0.038495935,0.06320829,0.010171038,0.40526444,0.096449725,0.29050288,0.042100213,0.04075952,-0.02200681,-0.011106302,-0.015734863,-0.0013303463,0.12697925,-0.00440641
s1-AAGCCAGGCTGCTTGA-1,0.119482614,-0.04492534,-0.062906235,-0.109638184,-0.07305748,0.2059371,-0.07193143,0.15226907,0.22499585,0.16754135,-0.05422918,0.24148598,0.17372252,0.16255563,-0.17143032,0.15766184,-0.013746884,-0.07724785,0.18099467,-0.02712035,-0.160199,0.23092058,0.19004226,-0.062245637,-0.08406075,-0.014778607,-0.033778988,-0.1264812,0.19540456,0.20226093,0.19550864,0.20541339,0.14446847,0.009224238,0.115481056,-0.116863705,0.055893928,-0.07470093,0.15670675,-0.052996654,0.13535397,0.09403896,0.17753126,-0.110617764,0.20280336,0.17212787,-0.1058544,0.18417601,-0.018547783,-0.16460317
s1-AAGCCAGGTTACGAAC-1,0.11293265,-0.0450328,-0.06470768,-0.10980931,-0.072259426,0.20466131,-0.07044116,0.14771923,0.22488277,0.16392322,-0.054633524,0.24237885,0.17048146,0.15863335,-0.17873412,0.153441,-0.012944592,-0.07870154,0.17819726,-0.026547236,-0.16582274,0.2311689,0.18779679,-0.06272979,-0.08557486,-0.01303983,-0.03164545,-0.12829629,0.19348623,0.20076086,0.19359666,0.20410563,0.13944277,-0.0007681048,0.13636503,-0.11947383,0.0731428,-0.076080434,0.15242764,-0.0522037,0.12977223,0.1136149,0.17452256,-0.11386936,0.20133641,0.16878955,-0.1088262,0.18157269,-0.018278388,-0.16922383
s1-AAGCCATCCGTGCTAT-1,0.11565958,-0.044997513,-0.063976996,-0.109760806,-0.072603464,0.20522928,-0.07107062,0.14962742,0.2249748,0.16545002,-0.054477606,0.24205911,0.1718539,0.16028464,-0.17575477,0.15521452,-0.013278428,-0.07811725,0.1793881,-0.0267892,-0.16353439,0.23111299,0.1887617,-0.06254256,-0.084967,-0.013760317,-0.032532666,-0.12757279,0.19431722,0.20142062,0.19442506,0.20468667,0.14154574,0.001428268,0.12777053,-0.11842032,0.066036314,-0.07552623,0.154225,-0.0525416,0.1321028,0.105555855,0.17579989,-0.11254989,0.20198262,0.17020181,-0.107621245,0.18268408,-0.018393291,-0.1673503
s1-AAGCCATCGCGATATG-1,0.12394166,-0.044596788,-0.061485745,-0.10922318,-0.07152371,0.2053689,-0.07186222,0.15419085,0.2234583,0.17022994,-0.05377029,0.2410592,0.1750679,0.16387448,-0.16563094,0.15927607,-0.01420429,-0.074322775,0.18162115,-0.027199596,-0.15501676,0.22988498,0.19014367,-0.061016828,-0.0827514,-0.014853189,-0.03508953,-0.12401955,0.1956018,0.20195569,0.19516337,0.20565113,0.14726554,0.020075204,0.10106511,-0.11284276,0.043973394,-0.07293676,0.15853566,-0.05100718,0.13877425,0.0821132,0.17856161,-0.10753907,0.20235781,0.17316286,-0.103304654,0.18471417,-0.017954262,-0.16053706
s1-AAGCCATTATCGAAGG-1,0.05457972,-0.0060781073,-0.026466917,-0.10853581,0.29362804,-0.028961781,0.17058763,0.009936336,-0.008226922,0.17545687,-0.02830365,0.20033322,0.048022456,-0.038341366,0.11945564,-0.019357204,-0.013144705,0.13426135,-0.023584917,0.0018851412,0.25068653,0.08558456,-0.014243205,0.013073126,-0.043669127,0.07693604,0.076079056,0.055920497,0.018194174,-0.0070762984,-0.037171938,0.047891177,0.062232375,0.36748555,0.004222816,0.053528775,-0.023710813,0.10564032,0.1318659,0.19396645,0.014883263,0.13668221,0.030874519,0.0066108396,0.029821023,-0.007873604,-0.02413404,0.00052411854,0.16972244,0.14869647
s1-AAGCCATTATCTGCCA-1,0.118938506,-0.044937313,-0.06306211,-0.10965973,-0.072994985,0.20584297,-0.071810536,0.1518956,0.22500098,0.16724738,-0.054266777,0.24157691,0.17346072,0.1622357,-0.17205684,0.15731645,-0.013680179,-0.07737536,0.18077074,-0.027073821,-0.16068324,0.23095651,0.18986541,-0.062290482,-0.08419379,-0.014633062,-0.033601414,-0.12664235,0.19525564,0.20214766,0.19536024,0.20531654,0.14405441,0.008106211,0.11724816,-0.117091216,0.0573509,-0.074822016,0.15635638,-0.05293329,0.13489246,0.095694445,0.17728929,-0.11089893,0.20269294,0.17185779,-0.106111676,0.18396865,-0.018526288,-0.16500321
s1-AAGCGAGGAAGTGAAC-1,0.10174145,-0.018292256,-0.036669098,-0.13654082,0.32148,-0.02008395,0.16234446,0.034745906,0.035692453,0.15119381,-0.025206693,0.20281172,0.032387383,-0.0304202,0.09992404,-0.026489073,0.045337267,0.112687856,-0.018271632,0.0067819552,0.21363582,0.109252125,0.049454357,0.020232473,-0.042310715,0.065046415,0.013152834,0.027108401,0.026009945,-0.013433518,-0.04561236,0.035147917,0.042466886,0.3853565,0.004466828,0.035187237,-0.023565646,0.14108375,0.17610024,0.17667797,0.033710096,0.20411792,0.015419317,0.009998371,-0.015318686,0.0077335783,-0.017072083,-0.025936337,0.07390648,0.1611493
s1-AAGCGTTCGTCTGTCC-1,0.08282637,-0.017809859,-0.039591942,-0.12658034,0.2492881,0.042995438,0.07415329,-0.013618415,0.013279832,0.12374302,-0.04341706,0.16366386,-0.00954571,-0.018884681,0.19085313,-0.014540777,0.082476035,0.084124655,-0.016371598,0.009358306,0.30158737,0.0862667,-0.01568343,0.0033563077,-0.054061394,0.046976388,0.13377501,0.10694497,0.009515604,-0.006427167,-0.029853018,0.018632166,0.0051049665,0.35268843,-0.021138204,0.038746387,-0.0021035466,0.06811786,0.27582908,0.11329606,0.023475671,0.21345207,0.01545692,-0.004342299,-0.018629463,-0.008602884,-0.022172445,-0.05340748,0.06338476,0.054334432
s1-AAGGACATAACCGCAC-1,0.045097966,-0.010313418,-0.028749209,-0.11534007,0.30865765,-0.037772458,0.18522225,0.010336321,-0.01645492,0.16818261,-0.026152654,0.1876625,0.057738468,-0.037145708,0.094767146,-0.019544497,-0.015695766,0.13030185,-0.025755215,-0.00211768,0.25532785,0.087462574,0.0069252662,0.012040205,-0.042323567,0.071540326,0.048359845,0.04464938,0.014018396,-0.014310249,-0.035485588,0.04712783,0.0702148,0.34781146,0.0096945055,0.042135086,-0.034098797,0.13473707,0.12741812,0.19014211,0.017947536,0.12772135,0.037769053,0.008261714,0.035927758,-0.0026849597,-0.0202929,-0.0031920094,0.13845223,0.19789258
s1-AAGGACCAACATGGCT-1,0.10885599,-0.04506332,-0.065754615,-0.10982835,-0.07171736,0.2037256,-0.06947893,0.14483374,0.22463948,0.16159257,-0.054837395,0.24273464,0.16837537,0.15612155,-0.18304364,0.15075143,-0.012445941,-0.07952583,0.17635538,-0.026177613,-0.16911912,0.23114088,0.1862836,-0.062975995,-0.0864306,-0.011970768,-0.030321544,-0.12930219,0.19216786,0.19969158,0.19228208,0.2031509,0.13627386,-0.002300194,0.14897807,-0.12097076,0.08359097,-0.076861575,0.14970335,-0.05168029,0.12627219,0.12544888,0.17255485,-0.11576134,0.20028682,0.16662553,-0.110551685,0.17984639,-0.018100144,-0.17190666
s1-AAGGAGGCACTCAATT-1,0.11041078,-0.018343698,-0.042552456,-0.13160965,0.2830835,0.006370918,0.08339794,-0.0032832646,0.019680485,0.1316453,-0.03782765,0.20930344,0.00072385557,-0.0262232,0.15541887,-0.02423795,0.08659269,0.10776133,-0.015854483,0.010585196,0.2458119,0.09320984,0.017199844,0.02061587,-0.053008623,0.058260098,0.05764834,0.07599728,0.021140564,-0.008513987,-0.041602027,0.029422514,0.01828659,0.38472444,-0.013075785,0.054741137,0.0055228304,0.0998494,0.2270367,0.15650111,0.04090758,0.2483547,0.01631008,0.0037743524,-0.020240463,-0.00892572,-0.022360194,-0.04924177,0.06378257,0.07501579
s1-AAGGCAGTCTGATCAC-1,0.0646543,-0.015335304,-0.029054862,-0.11153948,0.26492512,-0.018823989,0.09843974,-0.014210895,-0.017157169,0.17357327,-0.02877516,0.16879092,0.024117697,-0.032486133,0.16381767,0.01598074,-0.007439833,0.10388173,-0.02234191,0.003452599,0.29730842,0.06248846,-0.021429349,0.012765115,-0.052966475,0.05831541,0.1097425,0.17747639,0.009405717,-0.007238249,-0.01939853,0.033170313,0.036823653,0.39242288,-0.008885015,0.067448094,0.005876418,0.08575192,0.16725458,0.15123864,0.022807594,0.13730271,0.038624063,0.0058179526,-0.004195636,-0.008135671,-0.014246823,-0.024163447,0.13531011,0.08146415
s1-AAGGCATGAACAGCTC-1,0.1742505,-0.0066660675,-0.031503636,-0.075514674,0.2948648,-0.01718976,0.104069136,-0.019649828,-0.034505043,0.24663252,-0.029896848,0.30569682,0.041310642,-0.041646052,-0.01780989,-0.030519549,-0.0026208614,0.2615443,-0.011647357,0.027162258,0.07968732,0.10561397,-0.03297343,0.08713888,-0.041439857,0.16939703,-0.022752825,0.092248164,0.036852174,-0.001229024,-0.066826314,0.1225185,0.063517734,0.4030986,0.013790705,0.29985556,-0.042139016,0.073441066,0.022245856,0.4057802,0.10943809,0.29816008,0.036300484,0.037300672,-0.023405775,-0.011148671,-0.014223211,-0.0020031985,0.119269095,-0.0020747455
s1-AAGGCCAATTCAATAA-1,0.06117083,-0.011114914,-0.025076233,-0.09730013,0.24922705,-0.020227958,0.095543265,-0.020418681,-0.022070762,0.23123534,-0.031023063,0.17748338,0.034121018,-0.030400585,0.1561198,0.03192356,-0.010537548,0.114155926,-0.02134171,0.0036090277,0.29326895,0.06757246,-0.02348261,0.0076764636,-0.04820002,0.06555496,0.131992,0.18552291,0.008741818,-0.0065277247,0.009243384,0.045757413,0.048071124,0.35550812,-0.006871909,0.07910378,-0.019072333,0.07498968,0.14002539,0.16134202,0.016651057,0.13169801,0.05888834,0.0044589294,0.021255018,-0.013147561,-0.016652495,-0.013274757,0.16798323,0.06252129
s1-AAGGCCAGTCGCAATT-1,0.119246714,-0.044930603,-0.06297395,-0.10964769,-0.073030464,0.20589657,-0.07187908,0.15210725,0.2249984,0.16741405,-0.054245573,0.24152577,0.17360918,0.16241707,-0.1717024,0.15751222,-0.013717963,-0.077303275,0.18089779,-0.027100198,-0.16040933,0.2309365,0.1899658,-0.062265184,-0.0841186,-0.0147154825,-0.033701994,-0.1265513,0.19534023,0.20221207,0.19544452,0.20537165,0.14428903,0.008739196,0.1162479,-0.11696258,0.056526124,-0.07475357,0.15655495,-0.05296924,0.13515392,0.09475735,0.17742653,-0.11073991,0.20275576,0.17201094,-0.10596617,0.1840863,-0.018538482,-0.164777
s1-AAGGCCGACCTACCTG-1,0.09176393,-0.015102215,-0.035353623,-0.12314768,0.29727212,-0.017029729,0.10692957,-0.011380697,-0.004546116,0.17593025,-0.033409707,0.1950338,0.026369577,-0.032713436,0.13826256,-0.018571997,0.009745091,0.12217125,-0.018626137,0.010530241,0.24577028,0.07779306,-0.01437742,0.022645105,-0.051072948,0.06732174,0.058727294,0.11906053,0.02160091,-0.008155286,-0.04152198,0.046201274,0.04304762,0.40531963,-0.002580138,0.06553823,0.002605565,0.09871462,0.15861005,0.17657718,0.031782813,0.19249588,0.023947358,0.012115851,-0.013795791,-0.009289068,-0.019779027,-0.027158864,0.09700278,0.09145928
s1-AAGGCCGACTATGTAA-1,0.112728536,-0.04503495,-0.06476136,-0.10981177,-0.072233066,0.20461689,-0.07039358,0.14757568,0.22487354,0.16380787,-0.054644544,0.24240011,0.17037754,0.15850879,-0.1789539,0.15330741,-0.012919613,-0.07874419,0.17810677,-0.026528953,-0.16599129,0.23117064,0.18772301,-0.06274306,-0.08561918,-0.012986081,-0.031579096,-0.12834875,0.19342236,0.20070964,0.19353297,0.20406023,0.1392848,-0.0008454036,0.1370031,-0.11955094,0.07367081,-0.07612087,0.15229228,-0.052178003,0.12959743,0.11421332,0.17442568,-0.11396636,0.2012862,0.16868268,-0.108914725,0.18148807,-0.018269643,-0.16936147
s1-AAGGCCGATTCTGAGC-1,0.052815747,-0.01761666,-0.024887979,-0.09496984,0.25094247,-0.021315547,0.102080315,-0.016970558,-0.025178732,0.19084947,-0.030653175,0.15187189,0.02580394,-0.029317303,0.17195089,0.041887615,-0.01250053,0.092776276,-0.022474466,-0.0017162655,0.31571135,0.04277256,-0.024201851,-0.001968693,-0.05549364,0.048898734,0.14248541,0.22423878,-0.0024113115,-0.0049935337,0.019852487,0.027544059,0.031209515,0.37853765,-0.010784859,0.062437072,0.029644042,0.07966393,0.13811332,0.12928675,0.01798116,0.11513714,0.0538159,0.0029872097,0.047735922,-0.009892011,-0.012025285,-0.01967575,0.1546644,0.09180305
s1-AAGGCCTCGCGAGGAA-1,0.023850663,-0.012079916,-0.01643069,-0.08658941,0.2126261,-0.02039991,0.10822131,-0.023650823,-0.021845825,0.2181159,-0.027492292,0.088316135,0.0133270435,-0.02519779,0.21045738,0.08306326,-0.018611405,0.054609805,-0.026836922,-0.0077178795,0.38901836,0.031005971,-0.028697506,-0.019805036,-0.047200486,0.03140723,0.21973301,0.25388458,-0.017434746,-0.006786794,0.063169315,0.0062516145,0.018535588,0.31373006,-0.023563106,0.044627517,-0.01828878,0.062140867,0.1783326,0.06620282,-0.010395538,0.06534087,0.083101705,-0.008555808,0.061921727,-0.010060348,-0.014373193,-0.023268549,0.20498864,0.09558658
s1-AAGGCGAACTAGTAGA-1,0.113131575,-0.04503064,-0.064655215,-0.10980677,-0.072285034,0.20470433,-0.07048747,0.14785905,0.22489145,0.1640355,-0.05462269,0.24235779,0.17058258,0.1587546,-0.17851941,0.15357108,-0.012968938,-0.078659825,0.17828529,-0.026565034,-0.16565813,0.2311669,0.1878685,-0.06271676,-0.08553149,-0.013092242,-0.031710133,-0.12824489,0.19354828,0.2008105,0.1936585,0.2041496,0.13959664,-0.00069270784,0.13574237,-0.11939841,0.0726276,-0.07604088,0.15255944,-0.05222869,0.12994254,0.11303088,0.17461683,-0.1137746,0.2013851,0.16889356,-0.1087397,0.18165496,-0.018286891,-0.16908933
s1-AAGGCGACGGTGTCGG-1,0.11660702,-0.0449822,-0.063716896,-0.1097366,-0.072719194,0.20541471,-0.0712864,0.15028587,0.22499225,0.16597387,-0.05441942,0.24193121,0.17232326,0.16085243,-0.1746998,0.15582544,-0.013394473,-0.077907495,0.17979337,-0.026872177,-0.16272224,0.23107822,0.18908723,-0.06247287,-0.08474855,-0.01401174,-0.032841247,-0.12731102,0.1945955,0.20163845,0.1947024,0.20487674,0.14227295,0.003347482,0.12475217,-0.11804359,0.06354313,-0.075327195,0.15484434,-0.052656483,0.13291036,0.102726474,0.17623569,-0.11208039,0.20219569,0.17068523,-0.10719215,0.1830613,-0.018432327,-0.16668317
s1-AAGGCGAGGTTCATGT-1,0.09806648,-0.022315888,-0.03869032,-0.14445612,0.25913018,0.022880828,0.09659405,0.0083088875,0.026999079,0.09542403,-0.036162604,0.16311952,-0.01178146,-0.021436788,0.20444906,-0.019802753,0.102213636,0.0648924,-0.017899487,0.007663667,0.29641587,0.07622793,0.00838058,0.0027633365,-0.054342777,0.03216513,0.08476327,0.087086186,0.005809648,-0.008400139,-0.0327672,0.0019301474,-0.0025001094,0.3897246,-0.022958435,0.006245345,0.030225765,0.09688906,0.28897917,0.08618558,0.025282213,0.23236717,0.006438475,-0.0035060449,-0.019395335,-0.0068987794,-0.018973522,-0.059308257,0.04726628,0.09698143
s1-AAGGCGCCGACAATCT-1,0.13680165,0.017301613,-0.03247727,-0.07510119,0.28097656,-0.018429141,0.13917144,-0.02127381,-0.03152422,0.24802944,-0.020741152,0.32340348,0.13485464,-0.042332586,-0.015594911,-0.01690049,-0.0029867927,0.30472574,-0.016651746,0.018494753,0.087832175,0.1283313,-0.033834588,0.10756179,-0.03983736,0.21907346,-0.022344345,0.024971131,0.008473819,-0.0017846689,-0.06834028,0.15149058,0.15240692,0.35345393,0.020700581,0.2270323,-0.035585254,0.056604784,-0.0038759178,0.40211004,0.14543636,0.26965344,0.06423393,0.057278425,-0.02099182,-0.014263613,-0.0116761,-0.00093318627,0.0916698,-0.0070760166
s1-AAGGTGATCCGTGACG-1,0.042223748,-0.027543496,-0.0396353,-0.11978231,0.3593349,-0.047832865,0.2384027,0.054985464,0.029484242,0.121576555,-0.014415805,0.16306971,0.0705325,-0.031834006,0.02159484,-0.027422069,-0.008518865,0.13689813,-0.023677848,-0.006059711,0.16618569,0.07587045,0.11260624,0.018625984,-0.032907657,0.06056154,-0.019693043,-0.004902712,0.01604071,-0.029893197,-0.040954035,0.027517743,0.05613477,0.3098724,0.022799842,0.02481274,-0.041237585,0.20572107,0.050339963,0.21991579,0.057943307,0.11120811,0.024614697,0.019296616,0.04501494,0.04641712,-0.014005249,-0.009869762,0.054766662,0.2965054
s1-AAGGTGCCGCTAAGGT-1,0.05422995,-0.0049189804,-0.025065225,-0.09170694,0.25967222,-0.02257198,0.12131469,-0.02197491,-0.018445551,0.24468109,-0.03393467,0.18196961,0.034923024,-0.030779079,0.1436852,0.012654349,-0.013508663,0.11871202,-0.02152519,0.00217985,0.2850163,0.076911174,-0.02234922,0.0037578046,-0.042807538,0.07227688,0.1501934,0.14926353,0.014620418,-0.005826357,0.014534883,0.05098331,0.058624692,0.31935513,-0.0054847915,0.07815783,-0.02871686,0.06765853,0.1332501,0.17267786,0.0075145103,0.12558019,0.06373754,0.0010760976,0.050420117,-0.017733108,-0.023487452,-0.004756797,0.20088267,0.06773512
s1-AAGGTGGATATGATCG-1,0.11333661,-0.045028344,-0.06460101,-0.109803975,-0.07231136,0.20474844,-0.070535146,0.14800304,0.22490005,0.16415106,-0.054611437,0.24233572,0.17068665,0.15887946,-0.17829777,0.15370505,-0.012994031,-0.078616686,0.17837581,-0.026583353,-0.16548808,0.23116449,0.18794218,-0.062703215,-0.08548664,-0.013146282,-0.031776797,-0.12819172,0.19361198,0.20086145,0.19372201,0.20419468,0.13975516,-0.00061493524,0.13510002,-0.11932046,0.07209613,-0.075999975,0.1526952,-0.052254386,0.13011801,0.11242847,0.1747138,-0.1136767,0.20143501,0.1690006,-0.10865033,0.18173957,-0.018295635,-0.16895038
s1-AAGGTTCATGCGGTGC-1,0.049436316,-0.014358675,-0.030394156,-0.1278574,0.33713233,-0.031635623,0.24348487,0.070644625,0.035581738,0.13826343,-0.024482615,0.18154648,0.04629633,-0.034184508,0.055086367,-0.026931074,-0.007989533,0.11196448,-0.021347515,0.0014239824,0.205775,0.088123724,0.027129628,0.009558246,-0.034095928,0.05961694,0.023165546,-0.010744487,0.014732271,-0.013967696,-0.041714944,0.02611724,0.04719452,0.35398415,0.010492558,-0.0008364469,-0.021512702,0.14254919,0.12539081,0.17036176,0.0135842,0.1280084,0.016354077,0.009968149,-0.007103194,0.038181737,-0.020926844,-0.0030666888,0.07446131,0.25375345
s1-AAGGTTGCAGAAGCAG-1,0.09297819,-0.020497734,-0.033032075,-0.13473873,0.31205618,-0.017918019,0.1620217,0.040825546,0.019406736,0.14992723,-0.022852132,0.18134591,0.029397588,-0.032265965,0.10906669,-0.02018229,0.015401988,0.10174632,-0.020668067,0.0057412614,0.2390977,0.08381507,0.021070864,0.015951972,-0.047220934,0.058175787,0.024266755,0.061005697,0.018437656,-0.010063844,-0.04249484,0.02997224,0.03658352,0.40557325,0.0034827236,0.04060234,-0.014853817,0.13228714,0.17915638,0.16420963,0.029393861,0.19312385,0.018679824,0.010595305,-0.013996151,0.029347382,-0.012231668,-0.028236363,0.07494723,0.16438949
s1-AAGGTTGCTGAGTTGA-1,0.116353035,-0.044986103,-0.063786775,-0.109743156,-0.072684795,0.20536342,-0.07122694,0.15010765,0.22498585,0.16583434,-0.05443502,0.24196711,0.17219643,0.1606983,-0.17498271,0.15565984,-0.013363201,-0.077960916,0.17968316,-0.02684946,-0.16293897,0.2310872,0.1889982,-0.06249037,-0.084807195,-0.013942379,-0.032758243,-0.12737983,0.19451982,0.20157862,0.19462597,0.20482557,0.14207713,0.0028349787,0.12556356,-0.11814144,0.06421309,-0.07537961,0.1546769,-0.05262141,0.1326933,0.1034898,0.17611772,-0.112205625,0.20213693,0.17055403,-0.10730708,0.1829587,-0.018420553,-0.16686165
s1-AAGTACTAAGGTTACG-1,0.112747855,-0.045034748,-0.06475629,-0.10981153,-0.072235554,0.2046211,-0.07039808,0.14758927,0.22487442,0.1638188,-0.054643504,0.24239811,0.17038739,0.15852058,-0.17893313,0.15332006,-0.012921977,-0.078740165,0.17811535,-0.026530685,-0.16597536,0.23117048,0.18773,-0.06274181,-0.085615,-0.012991165,-0.03158538,-0.1283438,0.19342841,0.20071448,0.19353901,0.20406455,0.13929977,-0.00083808525,0.13694276,-0.11954366,0.07362086,-0.076117046,0.1523051,-0.05218044,0.12961397,0.114156745,0.17443484,-0.11395717,0.20129095,0.1686928,-0.108906336,0.18149608,-0.018270472,-0.16934846
s1-AAGTACTACAGTAGAA-1,0.12146799,-0.016881594,-0.03464915,-0.12183988,0.30364388,-0.012465222,0.12758818,0.007208444,0.0062135477,0.17954676,-0.02959761,0.2173688,0.027221717,-0.032037646,0.09348908,-0.020956192,0.029575938,0.13726866,-0.016175393,0.010525843,0.21058707,0.09005053,-0.0035079382,0.030693963,-0.046535388,0.08072797,0.030548735,0.07882233,0.027217401,-0.006193224,-0.046372823,0.05638686,0.04678797,0.3992635,0.005158942,0.09787957,-0.0118913995,0.10080888,0.1482506,0.21808225,0.043225944,0.23183906,0.02562494,0.01633184,-0.017469399,0.003978103,-0.014991907,-0.030301431,0.08782024,0.09879876
s1-AAGTACTGGATGCGCA-1,0.077367306,-0.012259911,-0.02994915,-0.10567646,0.26897818,-0.016059358,0.090942815,-0.016232232,-0.020588815,0.21162601,-0.033212338,0.19248125,0.029142033,-0.032036163,0.13807791,0.0044040456,-0.0062943865,0.12720871,-0.01963288,0.0088567855,0.2627528,0.07023693,-0.02151572,0.021107413,-0.05075567,0.07161616,0.09752416,0.15210079,0.01958338,-0.0057013496,-0.018456142,0.05513963,0.046424463,0.38148877,-0.0024684593,0.093795314,-0.015455291,0.0781835,0.15070552,0.18397425,0.02748879,0.16112763,0.043185525,0.011342961,0.0011925679,-0.010246912,-0.017015172,-0.019791553,0.14385605,0.059848677
s1-AAGTATTGTAGGTCGC-1,0.115113355,-0.0078228135,-0.034817804,-0.09685833,0.31234366,-0.018898493,0.09570131,-0.009142859,-0.018343903,0.27063772,-0.03044107,0.3162622,0.07875992,-0.040134646,0.013814868,-0.023646748,-0.002464213,0.21246557,-0.01420796,0.0151750315,0.12999368,0.13483971,-0.006004748,0.056906052,-0.045275927,0.1280299,-0.008907116,0.05448029,0.05467948,-0.004690655,-0.05801298,0.115830354,0.10596745,0.3810759,0.033097968,0.15287372,-0.031062357,0.08460589,0.046434425,0.33588272,0.05801007,0.23862194,0.04556782,0.027044399,-0.015691066,-0.005675056,-0.016349677,0.017716406,0.13259073,0.039423782
s1-AAGTCGCTATCCTGTC-1,0.1109832,-0.045050643,-0.065214954,-0.10982623,-0.072004266,0.20422651,-0.06998412,0.1463442,0.22478187,0.16281575,-0.05473528,0.24256688,0.16948228,0.15743853,-0.18081601,0.15216045,-0.012706078,-0.0791029,0.1773255,-0.02637164,-0.16741729,0.23117182,0.18708353,-0.06285245,-0.08599181,-0.012527436,-0.03101201,-0.12878837,0.19286692,0.20026165,0.19297917,0.20366167,0.13793106,-0.0015038049,0.1424309,-0.12020105,0.078164734,-0.0764609,0.15113035,-0.051956072,0.12810086,0.11930513,0.17359012,-0.114785895,0.2008467,0.16776243,-0.1096624,0.18075664,-0.018194098,-0.170524
s1-AAGTCGGACACTTCAG-1,0.115894966,-0.044993866,-0.06391268,-0.109755166,-0.07263242,0.20527595,-0.07112438,0.14979126,0.22497986,0.16558051,-0.05446335,0.24202819,0.1719709,0.16042602,-0.17549366,0.15536657,-0.013307258,-0.07806548,0.17948923,-0.02680987,-0.16333349,0.23110515,0.18884307,-0.06252547,-0.084913105,-0.013822728,-0.032609317,-0.12750828,0.1943869,0.20147534,0.1944945,0.20473452,0.1417266,0.0019043494,0.12702222,-0.11832727,0.06541811,-0.07547712,0.15437914,-0.05257027,0.13230357,0.10485437,0.17590858,-0.112433806,0.20203616,0.17032228,-0.107515156,0.18277827,-0.018403037,-0.1671854
s1-AAGTCTACCGGTTGGA-1,0.107633226,-0.019743785,-0.041919924,-0.13106418,0.2684587,0.021224786,0.07495996,-0.008484986,0.014736177,0.12407566,-0.039214626,0.19497141,-0.003094513,-0.022907896,0.17037073,-0.02120255,0.091710545,0.0994014,-0.016151894,0.010518976,0.26462615,0.08854586,0.008672915,0.015155319,-0.05488448,0.05300609,0.07766463,0.08881405,0.016413748,-0.0083837,-0.03771629,0.025211148,0.0116169695,0.37938553,-0.01591979,0.05013469,0.0075113177,0.09128483,0.24550077,0.14045137,0.03693927,0.24339229,0.015634865,0.00077277236,-0.020131461,-0.008340708,-0.020783467,-0.051854827,0.06040862,0.067834444
s1-AAGTCTGTCAATTCTT-1,0.11800589,-0.044956505,-0.06332655,-0.10969345,-0.07288621,0.2056765,-0.07160206,0.15125354,0.22500336,0.16674066,-0.054329466,0.24172543,0.17300877,0.16168481,-0.17312208,0.15672216,-0.013565873,-0.07759095,0.18038322,-0.026993603,-0.16150579,0.23101142,0.18955807,-0.06236531,-0.08441864,-0.014384083,-0.03329721,-0.12691404,0.1949958,0.2019486,0.19510135,0.2051454,0.14334321,0.0061965776,0.120262876,-0.117476515,0.0598376,-0.07502672,0.15575364,-0.05282358,0.1341005,0.09851923,0.17687109,-0.111375995,0.20249869,0.1713917,-0.10654811,0.1836093,-0.018489063,-0.16568176
s1-AAGTCTTAAGTTGCCA-1,0.09331767,-0.02085767,-0.046021245,-0.14758167,0.29379734,-0.0003572367,0.10669182,-0.011263387,0.036212407,0.12452338,-0.042482596,0.18667804,-0.0012464337,-0.02692305,0.11798732,-0.018906323,0.037734035,0.08923896,-0.01876039,0.0042194626,0.25128636,0.10540107,0.014141644,0.0065427385,-0.05945797,0.052753516,0.082083076,0.079694696,0.015198439,-0.0064785765,-0.035932295,0.022070434,0.016391763,0.39388907,-0.020312527,0.038039587,-0.014842964,0.09551933,0.2641621,0.13236406,0.033941213,0.21420443,0.015143642,-0.00798602,-0.014441248,-0.0058081406,-0.034521308,-0.050143827,0.05938149,0.072679654
s1-AAGTGAGCCTGTTACA-1,0.035676498,-0.013366665,-0.019668136,-0.092837766,0.21896636,-0.024863712,0.09945415,-0.022603123,-0.024727996,0.22342497,-0.028548025,0.11915861,0.022030154,-0.027427252,0.19133034,0.07915709,-0.01683948,0.073792085,-0.025338484,-0.004710122,0.35263678,0.04172044,-0.027493682,-0.010913955,-0.04905196,0.041447226,0.18447761,0.24655862,-0.010555066,-0.0084321825,0.041443482,0.018806793,0.02894754,0.33710366,-0.017288305,0.052005164,-0.0139196655,0.0764473,0.15975748,0.095421806,0.0019148868,0.08969497,0.07895115,-0.003409084,0.042623512,-0.010558205,-0.013403274,-0.021830447,0.1854771,0.0824841
s1-AAGTGGACGAATCTAC-1,0.13218549,-0.02269002,-0.03874831,-0.13482615,0.28790963,0.027085286,0.112635374,0.010946142,0.026214376,0.12200251,-0.037182696,0.18552026,-0.0018602181,-0.024870541,0.15150249,-0.020970944,0.08570521,0.09293534,-0.015800975,0.010114838,0.26382947,0.078081176,0.007780296,0.011772195,-0.051891595,0.050329998,0.05736219,0.08200744,0.009319881,-0.0049343966,-0.03859084,0.020868804,0.009159962,0.38935,-0.013907243,0.043164134,0.015317146,0.093117595,0.22630529,0.13650922,0.033346634,0.24268898,0.012334555,0.0026742062,-0.020312652,-0.005183978,-0.019030267,-0.050081432,0.058834597,0.11211607
s1-AAGTGGCGAAGTTAAT-1,0.058886174,-0.009915124,-0.02669652,-0.10633707,0.26998007,-0.015814587,0.1086145,-0.017853316,-0.016335173,0.18623522,-0.032480113,0.158944,0.021010868,-0.031914085,0.16969702,0.016170442,-0.008242109,0.09738621,-0.021912714,0.0038144551,0.3092327,0.063661136,-0.022447702,0.0031568743,-0.048519284,0.05723948,0.13804083,0.17284304,0.008148169,-0.0045210277,-0.008017968,0.032120932,0.036615506,0.36249322,-0.014198942,0.057706654,-0.017122045,0.074818276,0.18193586,0.1370595,0.010457929,0.12845029,0.032806534,0.0034412872,0.0014102394,-0.0105343675,-0.021792049,-0.022997387,0.14372158,0.08495025
s1-AAGTGGCGAGTGTACA-1,0.080940776,-0.016793262,-0.042168006,-0.13034412,0.2876988,-0.013028957,0.08444138,-0.013115185,0.013445623,0.14523682,-0.038062844,0.20057407,0.004065249,-0.02959533,0.16853242,-0.021004513,0.04517873,0.10368905,-0.01705988,0.007856103,0.2592494,0.08108987,-0.0036348384,0.017466033,-0.05331873,0.05460964,0.07827324,0.10264033,0.025356892,-0.009534144,-0.038682297,0.030231554,0.03229384,0.39084998,-0.009891976,0.04856813,0.008978829,0.10009686,0.20923664,0.15575874,0.033530284,0.21909054,0.023583593,0.0050020367,-0.014875429,-0.013405193,-0.022857506,-0.047091335,0.075381204,0.06604411
s1-AAGTGGTTCCTCGCGT-1,0.119845755,-0.044917025,-0.06280154,-0.10962304,-0.07309878,0.20599864,-0.072011806,0.15251783,0.22499092,0.16773686,-0.054203674,0.24142353,0.17389645,0.16276851,-0.17101005,0.1578918,-0.01379141,-0.07716205,0.18114324,-0.027151281,-0.15987399,0.23089495,0.19015925,-0.062215224,-0.08397119,-0.01487586,-0.033897534,-0.12637255,0.19550288,0.2023353,0.19560657,0.20547675,0.14474446,0.009972012,0.11429823,-0.11671073,0.054918986,-0.07461943,0.15694003,-0.05303868,0.13566174,0.09293092,0.1776919,-0.11042893,0.20287584,0.17230737,-0.1056816,0.18431348,-0.018562034,-0.16433449
s1-AAGTTAAGCACTATAA-1,0.11352801,-0.04502614,-0.06455028,-0.10980123,-0.07233584,0.20478937,-0.07057959,0.14813739,0.22490782,0.16425882,-0.05460085,0.24231477,0.17078365,0.15899588,-0.17809042,0.15383,-0.013017458,-0.07857628,0.17846015,-0.026600435,-0.16532898,0.23116195,0.18801077,-0.0626905,-0.08544462,-0.013196759,-0.031839043,-0.12814188,0.19367123,0.2009088,0.1937811,0.20423654,0.13990308,-0.00054227596,0.13449964,-0.119247474,0.07159947,-0.07596166,0.15282181,-0.05227833,0.1302818,0.11186541,0.17480418,-0.11358506,0.2014814,0.16910036,-0.108566694,0.18181838,-0.018303778,-0.16882032
s1-AAGTTACTATTACATC-1,0.117240846,-0.044971015,-0.06354096,-0.109718144,-0.072795436,0.20553511,-0.07142986,0.150725,0.22499946,0.16632228,-0.05437926,0.2418405,0.17263499,0.16123046,-0.17398791,0.15623254,-0.013472126,-0.07776508,0.18006192,-0.02692736,-0.16217361,0.23105025,0.18930203,-0.06242483,-0.08460016,-0.014180286,-0.03304779,-0.1271327,0.19477844,0.20178069,0.19488475,0.20500024,0.14275841,0.0046361615,0.12272288,-0.117788255,0.061867762,-0.07519202,0.15525712,-0.052732576,0.13344994,0.10082454,0.17652479,-0.11176289,0.20233469,0.17100641,-0.1069019,0.18331094,-0.018458169,-0.16623186
s1-AAGTTCCTATTGCTGG-1,0.11497551,-0.04500754,-0.064162694,-0.109775804,-0.07251863,0.20509139,-0.07091384,0.14915048,0.2249573,0.16506955,-0.054518264,0.24214579,0.17151248,0.1598727,-0.17650983,0.15477164,-0.013194662,-0.07826643,0.17909265,-0.026728919,-0.16411507,0.23113292,0.1885234,-0.06259131,-0.0851223,-0.013579152,-0.03230997,-0.12775828,0.1941128,0.20125952,0.19422129,0.2045455,0.14101952,4.762369e-05,0.12993897,-0.118688725,0.067828305,-0.075667776,0.15377611,-0.0524578,0.131519,0.10758884,0.17548254,-0.11288516,0.20182493,0.16985033,-0.10792754,0.18240872,-0.018364811,-0.16782655
s1-AATAACATGTGCTATG-1,0.16888306,-0.0050669205,-0.029802455,-0.07167541,0.29239288,-0.018818188,0.11117108,-0.018147519,-0.03333617,0.25454813,-0.028147353,0.31195092,0.05866201,-0.041951887,-0.016997403,-0.029821856,-0.0031755287,0.27418992,-0.011804202,0.021850202,0.08660766,0.11120552,-0.030224156,0.09860516,-0.040003475,0.18014285,-0.022603892,0.0867115,0.032963276,-0.0014707319,-0.066376574,0.12747379,0.072643295,0.40380573,0.008404331,0.28747207,-0.039746642,0.06697553,-0.0001425387,0.39943284,0.10919366,0.28104416,0.030535785,0.0444459,-0.022310996,-0.012873283,-0.014441797,-0.0005013912,0.1212179,-0.0038558468
s1-AATAACATGTTACGTC-1,0.074891396,-0.014114889,-0.03198681,-0.10842778,0.2708566,-0.014000997,0.091505185,-0.016733985,-0.0177365,0.20784187,-0.035219982,0.1874197,0.027118267,-0.030480929,0.14988896,0.0015414506,-0.0052339714,0.120295405,-0.019479532,0.0073326076,0.2752321,0.06886138,-0.020704776,0.017250158,-0.051217586,0.06720516,0.103267424,0.1518489,0.01751432,-0.006999243,-0.015330253,0.050123163,0.04397561,0.37747246,-0.0037509538,0.08150062,-0.016838549,0.07819557,0.15312485,0.17253867,0.025936993,0.15511365,0.041317858,0.009161413,0.00084345695,-0.010860616,-0.01690273,-0.022087425,0.14058532,0.06526225
s1-AATAACGTAACTGTGA-1,0.12113829,-0.044885334,-0.06242465,-0.10956406,-0.073243186,0.20620957,-0.07229588,0.15340017,0.22496343,0.16842812,-0.05411011,0.24118969,0.17451037,0.16352217,-0.16950066,0.15870668,-0.013949927,-0.07685199,0.18166621,-0.027260654,-0.15870549,0.23079333,0.19056904,-0.0621038,-0.083647445,-0.0152227655,-0.0343197,-0.1259787,0.19584554,0.2025922,0.19594796,0.20569423,0.14572439,0.0126439575,0.110066175,-0.11615891,0.051432386,-0.074324876,0.15776686,-0.053186543,0.1367557,0.08896712,0.1782582,-0.1097493,0.20312597,0.17294127,-0.105059385,0.18479665,-0.018612148,-0.16336705
s1-AATAACGTATTGAACA-1,0.14000233,0.02410069,-0.03156166,-0.07174436,0.2796809,-0.019616045,0.14641063,-0.021546734,-0.03289583,0.24213798,-0.019158883,0.31579107,0.13489074,-0.04212105,-0.014307793,-0.017786454,-0.0024434219,0.30876058,-0.01694221,0.021249589,0.08797526,0.11828247,-0.035280664,0.11018889,-0.0379938,0.22762561,-0.021105727,0.030481067,-1.5692047e-05,-0.0019139635,-0.06994868,0.14571394,0.14401327,0.35620946,0.015733667,0.23706703,-0.03692789,0.054705285,-0.004054771,0.40026712,0.15580042,0.27013236,0.061857287,0.053551123,-0.021662546,-0.015129139,-0.011406102,-0.0014598948,0.08628233,-0.0066969926
s1-AATAACTCTACGATGT-1,0.16405109,-0.009261673,-0.033924017,-0.07716546,0.2616079,0.0030725114,0.0882667,-0.003022776,-0.008953253,0.24650519,-0.030781772,0.30721924,0.067466065,-0.02290716,-0.03233301,-0.012104941,-0.0041356087,0.23514935,0.006708632,0.01909832,0.062836386,0.1199747,-0.010142932,0.07865879,-0.044884965,0.15706667,-0.023767069,0.066152,0.052042305,0.01787276,-0.041653667,0.1343723,0.08275514,0.3640136,0.022318069,0.24785778,-0.030270956,0.055565327,0.019331122,0.35844213,0.10990463,0.269679,0.04660931,0.027957655,-0.0012809504,0.0050909678,-0.023343358,0.016513063,0.108366445,-0.019203447
s1-AATAACTTCATACGGA-1,0.03795506,-0.01385115,-0.021663278,-0.08519913,0.23270565,-0.021140039,0.101557955,-0.023404459,-0.021463683,0.21750043,-0.03164424,0.12444713,0.01927415,-0.028821502,0.18221803,0.075458385,-0.016703915,0.07660365,-0.02325717,-0.0041941917,0.3491243,0.03840611,-0.02916209,-0.009833928,-0.04998125,0.041183405,0.1917592,0.24676126,-0.009573368,-0.0038219946,0.046929862,0.017116498,0.029780522,0.33675307,-0.017382976,0.056714434,-0.00028856844,0.05717753,0.13765787,0.103846565,0.0023682322,0.09086872,0.08101918,-0.002376805,0.05981375,-0.013534875,-0.015016512,-0.019390259,0.18183716,0.082012475
s1-AATACGAGAACACTCG-1,0.063386336,-0.021466646,-0.025971718,-0.12636578,0.27902925,-0.031365927,0.16335934,0.05873033,-0.016102884,0.15103231,0.0017048959,0.18150948,0.040023215,-0.034194805,0.09366466,-0.017351098,-0.008407179,0.11108674,-0.024084115,0.00034597097,0.24741474,0.07557875,0.010574254,0.02575688,-0.04888448,0.06788842,0.011903177,0.08291097,0.017439535,-0.014445207,-0.04089241,0.03372496,0.04455425,0.4075287,0.0077076145,0.06815123,-0.018211026,0.14713123,0.17116685,0.18623807,0.042431816,0.16426647,0.024855312,0.01700841,-0.011088511,0.03692949,0.018782321,-0.020192487,0.08911927,0.17409782
s1-AATACGGTACGGCCTA-1,0.11919493,-0.044931736,-0.06298878,-0.10964975,-0.07302452,0.2058876,-0.07186757,0.15207171,0.22499889,0.16738607,-0.054249153,0.24153444,0.17358427,0.16238663,-0.171762,0.15747935,-0.013711615,-0.07731542,0.18087646,-0.02709577,-0.1604554,0.23093992,0.18994898,-0.062269453,-0.08413125,-0.014701631,-0.033685096,-0.12656663,0.19532606,0.20220128,0.19543041,0.20536244,0.14424962,0.008632793,0.11641609,-0.11698423,0.056664787,-0.07476509,0.15652162,-0.05296321,0.13511,0.094914906,0.17740351,-0.11076666,0.20274524,0.17198524,-0.10599067,0.18406656,-0.01853644,-0.16481504
s1-AATACGTAGACAGTTA-1,0.06554468,-0.012009414,-0.028725514,-0.10404828,0.2517413,-0.014264001,0.0885229,-0.017402513,-0.018047227,0.2126302,-0.03408328,0.1750639,0.02320186,-0.030142384,0.16507018,0.01448702,-0.00724722,0.111657366,-0.02056857,0.0049442863,0.288657,0.065795004,-0.023161167,0.013239311,-0.051306073,0.06463729,0.12612954,0.16880485,0.014138741,-0.0057464633,-0.0037480723,0.044108775,0.040936496,0.36726663,-0.00831843,0.077821165,-0.01547357,0.06716354,0.1622807,0.15698753,0.019709863,0.14198735,0.05097729,0.006700239,0.011196713,-0.012971494,-0.017336473,-0.019486787,0.16129702,0.053544655
s1-AATACTAACCACTTAT-1,0.11212931,-0.045040887,-0.06491822,-0.10981805,-0.072155185,0.20448498,-0.07025352,0.14715369,0.22484466,0.16346842,-0.054676417,0.24246037,0.1700715,0.15814239,-0.17959678,0.15291457,-0.012846289,-0.07886855,0.17784004,-0.026475135,-0.16648395,0.23117378,0.1875052,-0.062781446,-0.08574843,-0.012828414,-0.031384338,-0.12850156,0.19323353,0.20055786,0.19334471,0.2039255,0.13882063,-0.0010719673,0.13887246,-0.11977607,0.07521807,-0.07623878,0.15189427,-0.05210226,0.129084,0.115966775,0.17414023,-0.1142497,0.20113735,0.16836803,-0.10917329,0.18123853,-0.018243864,-0.16976352
s1-AATAGATAGCCTAACC-1,0.113050155,-0.04503153,-0.0646767,-0.10980781,-0.072274566,0.20468676,-0.07046852,0.14780185,0.22488792,0.16398954,-0.054627124,0.24236645,0.17054121,0.15870498,-0.17860736,0.15351784,-0.012958973,-0.07867692,0.17824927,-0.026557753,-0.16572554,0.23116775,0.18783917,-0.0627221,-0.08554925,-0.013070789,-0.031683657,-0.12826595,0.19352289,0.20079021,0.19363321,0.20413163,0.13953367,-0.00072357024,0.1359973,-0.11942929,0.072838515,-0.07605709,0.15250552,-0.052218467,0.12987283,0.11327001,0.17457826,-0.113813415,0.20136517,0.168851,-0.10877513,0.1816213,-0.018283412,-0.16914442
s1-AATAGCACGGAAGCGA-1,0.11742894,-0.04496755,-0.06348845,-0.109712325,-0.07281789,0.20557028,-0.07147231,0.15085511,0.2250009,0.16642539,-0.05436715,0.24181278,0.17272714,0.16134238,-0.1737757,0.1563531,-0.013495174,-0.07772249,0.1801412,-0.026943684,-0.16201,0.23104121,0.1893653,-0.06241035,-0.084555775,-0.014230356,-0.033109106,-0.1270793,0.19483225,0.20182236,0.19493835,0.20503634,0.14290231,0.0050192853,0.12211915,-0.11771197,0.06136942,-0.0751516,0.15537937,-0.052755035,0.13360997,0.100258745,0.17661022,-0.11166814,0.2023754,0.17110139,-0.10681526,0.18338461,-0.018465795,-0.16609716
s1-AATAGTATAGTTGTCG-1,0.04683976,-0.015810337,-0.024751835,-0.10619802,0.24460594,-0.019626956,0.09923047,-0.017663456,-0.018353302,0.18625657,-0.032070428,0.12682867,0.014014512,-0.02992227,0.20149727,0.042884015,-0.011255816,0.07422802,-0.023926206,-0.0007873019,0.34492835,0.04229757,-0.023722818,-0.006357843,-0.05418761,0.039210178,0.15796931,0.21924967,-0.007111203,-0.0056317253,0.010013297,0.014125232,0.022696802,0.3734722,-0.019130317,0.03968575,0.014038587,0.077262096,0.17844228,0.09504926,0.0075764805,0.10518336,0.054906663,-0.0015521664,0.015802754,-0.01123019,-0.016535548,-0.030894682,0.15546484,0.09171778
s1-AATAGTCGTTATCTAG-1,0.11237009,-0.045038566,-0.06485533,-0.10981569,-0.07218656,0.20453826,-0.070309855,0.14732336,0.22485659,0.16360496,-0.054663695,0.24243651,0.17019463,0.15828975,-0.1793389,0.15307252,-0.012875751,-0.07881873,0.1779474,-0.026496783,-0.16628636,0.23117283,0.18759292,-0.06276612,-0.08569665,-0.012891742,-0.031462587,-0.1284404,0.19330963,0.2006191,0.19342057,0.2039799,0.13900723,-0.0009809892,0.13812205,-0.119685836,0.074596874,-0.07619154,0.15205431,-0.052132748,0.12929034,0.11526286,0.17425509,-0.11413608,0.2011974,0.16849461,-0.109069616,0.181339,-0.018254243,-0.16960232
s1-AATAGTGCTCATAGAA-1,0.0646997,-0.016375722,-0.035804704,-0.1253282,0.30021402,-0.026004074,0.118084274,-0.009909318,-0.0033981176,0.15824313,-0.029322378,0.17730752,0.023864081,-0.031950958,0.14748438,-0.017164003,-0.004765493,0.1083137,-0.022468299,0.0037629465,0.27173966,0.08927582,0.00021832716,0.015742242,-0.0526591,0.06133397,0.08091643,0.11793462,0.022589069,-0.014032818,-0.036790434,0.033256743,0.0424024,0.39471298,-0.0050840825,0.051205546,-0.021808485,0.12027471,0.18229324,0.15976475,0.026298601,0.1464915,0.023870159,0.007841355,-0.010041502,-0.0077806762,-0.017306948,-0.027020957,0.11654968,0.11409681
s1-AATAGTGGAAGAGCAT-1,0.06184656,-0.018384645,-0.04054565,-0.14186756,0.24547666,-0.009135237,0.089931935,-0.016734224,0.008332994,0.17818582,-0.043052483,0.14539516,-0.0023195725,-0.022777136,0.17228003,-0.0027211998,-0.0025827303,0.07610847,-0.019771228,-0.001869943,0.29557884,0.06546936,-0.016285056,-0.0033934414,-0.06436874,0.04026539,0.15310338,0.1329976,0.0132409185,-0.00700907,0.0017362479,0.02121535,0.020550223,0.39533186,-0.022954807,0.026747234,-0.0060409606,0.06475441,0.2535399,0.09640006,0.01649718,0.13550381,0.04780592,-0.014315283,0.019691639,-0.013393838,-0.0339078,-0.04677025,0.13852686,0.036142804
s1-AATAGTTGGTGCTCAG-1,0.0984168,-0.00874071,-0.033169575,-0.09914435,0.28732282,-0.019491112,0.08297567,-0.015880538,-0.021861488,0.24480243,-0.032933764,0.26801613,0.053629726,-0.03692948,0.077208415,-0.019717334,-0.00447143,0.17714088,-0.015006354,0.01460304,0.18463558,0.104964666,-0.01905601,0.043147087,-0.04847772,0.105754234,0.042183135,0.10594408,0.044528373,-0.0043524015,-0.041293856,0.09204085,0.07807008,0.3868714,0.013625728,0.13306575,-0.015854437,0.077460356,0.09327988,0.27106866,0.045902982,0.2075353,0.040640797,0.022370942,-0.009817427,-0.014547986,-0.017726589,0.0009923168,0.13967472,0.028688503
s1-AATATTAGGCTTCTGG-1,0.11594898,-0.044993013,-0.06389791,-0.10975384,-0.07263904,0.20528662,-0.0711367,0.14982882,0.22498095,0.16561042,-0.054460067,0.24202101,0.17199771,0.16045843,-0.17543365,0.15540144,-0.013313874,-0.07805357,0.1795124,-0.02681461,-0.16328731,0.23110326,0.1888617,-0.06252154,-0.08490069,-0.013837055,-0.0326269,-0.12749343,0.19440283,0.20148782,0.19451039,0.20474543,0.14176808,0.0020136347,0.1268504,-0.11830586,0.06527614,-0.07546582,0.15441449,-0.052576832,0.13234961,0.104693264,0.17593348,-0.11240711,0.20204836,0.1703499,-0.107490785,0.18279983,-0.018405268,-0.16714746
s1-AATCCGACCACGGTCC-1,0.059169456,-0.007843797,-0.027675454,-0.09885791,0.29218584,-0.024168093,0.14936465,-0.016586069,-0.020185795,0.20141014,-0.032056503,0.19641268,0.04521017,-0.03448689,0.107127815,-0.012951565,-0.013711276,0.13189699,-0.023488306,0.0028721998,0.27095148,0.0821092,-0.01899853,0.009623464,-0.043348577,0.07880601,0.109901145,0.11642616,0.015847014,-0.007702886,-0.007987818,0.05576408,0.061718673,0.3393965,0.0008291956,0.0816267,-0.03325143,0.087138414,0.12981616,0.19564044,0.01446794,0.1358718,0.035904203,0.006417224,0.04334629,-0.009537243,-0.023225287,-0.0029468592,0.16736071,0.12227851
s1-AATCCGCCGACCTGAG-1,0.11749,-0.04496641,-0.06347138,-0.1097104,-0.07282515,0.20558165,-0.071486056,0.15089731,0.22500129,0.1664588,-0.054363206,0.2418037,0.17275701,0.16137867,-0.17370673,0.1563922,-0.013502656,-0.07770863,0.18016689,-0.026948975,-0.1619568,0.2310382,0.1893858,-0.06240563,-0.084541336,-0.014246616,-0.03312901,-0.12706189,0.19484964,0.20183583,0.1949557,0.205048,0.142949,0.0051437477,0.12192299,-0.11768715,0.061207525,-0.07513844,0.15541902,-0.05276231,0.1336619,0.10007492,0.17663789,-0.11163732,0.20238855,0.17113219,-0.106787086,0.18340847,-0.018468264,-0.16605335
s1-AATCCGCCTGGTCAAT-1,0.11497551,-0.04500754,-0.064162694,-0.10977582,-0.07251863,0.20509139,-0.07091384,0.14915048,0.2249573,0.16506957,-0.054518264,0.24214579,0.17151248,0.1598727,-0.17650981,0.15477164,-0.013194662,-0.07826643,0.17909265,-0.026728919,-0.16411507,0.23113292,0.1885234,-0.062591314,-0.085122295,-0.013579152,-0.03230997,-0.1277583,0.1941128,0.20125952,0.19422129,0.2045455,0.14101952,4.762369e-05,0.12993897,-0.118688725,0.067828305,-0.075667776,0.15377611,-0.0524578,0.131519,0.10758884,0.17548254,-0.112885155,0.20182493,0.16985033,-0.10792752,0.18240872,-0.018364811,-0.16782655
s1-AATCCGGAGCTTGTCT-1,0.11651073,-0.044983827,-0.06374348,-0.10973924,-0.07270752,0.20539615,-0.07126454,0.15021907,0.22499081,0.16592078,-0.05442543,0.24194461,0.17227575,0.16079488,-0.17480746,0.15576348,-0.01338268,-0.07792896,0.1797524,-0.02686377,-0.16280518,0.23108211,0.18905437,-0.062480062,-0.084770925,-0.013986165,-0.03280988,-0.12733787,0.19456747,0.2016166,0.19467446,0.20485772,0.14219913,0.0031520943,0.12505968,-0.11808212,0.063797064,-0.07534757,0.15478154,-0.052644867,0.13282835,0.103014655,0.1761916,-0.11212836,0.20217432,0.17063628,-0.107236005,0.18302318,-0.018428382,-0.16675135
s1-AATCCTCGTCACAGGC-1,0.10730639,-0.045068167,-0.0661388,-0.10981937,-0.07150289,0.20334363,-0.06910673,0.14372694,0.22451492,0.16069204,-0.054906026,0.24283282,0.16755833,0.15515369,-0.18463795,0.14971747,-0.012256524,-0.07982422,0.17563654,-0.026034715,-0.17033434,0.2310963,0.18568698,-0.06305935,-0.086739816,-0.011566839,-0.029819047,-0.12966159,0.19164366,0.19925997,0.19175927,0.20276187,0.13506171,-0.0028762138,0.15370104,-0.1215161,0.087509155,-0.07714414,0.1486565,-0.051475782,0.12493694,0.12988226,0.17178926,-0.116456084,0.19986254,0.16578695,-0.11118452,0.17917052,-0.01803043,-0.17289062
s1-AATCGAACGGACGGAG-1,0.11424713,-0.045017324,-0.06435859,-0.10978962,-0.072427176,0.20494108,-0.07074604,0.14864132,0.22493443,0.16466251,-0.054560374,0.24223317,0.17114678,0.1594323,-0.17730789,0.15429854,-0.013105485,-0.078423284,0.17877555,-0.026664415,-0.16472828,0.23114966,0.18826678,-0.06264186,-0.08528551,-0.013386578,-0.032072954,-0.12795274,0.19389205,0.20108461,0.19400123,0.20439166,0.14045821,-0.00026878458,0.13223836,-0.118971385,0.069729306,-0.075816564,0.15329662,-0.05236784,0.13089676,0.10974483,0.1751423,-0.113238886,0.20165367,0.16947395,-0.10825059,0.1821129,-0.018334223,-0.16832888
s1-AATCGACTATCGCTAG-1,0.11840203,-0.04494856,-0.06321464,-0.10967963,-0.07293267,0.205748,-0.071690805,0.15152657,0.22500329,0.16695634,-0.054303106,0.24166347,0.17320123,0.1619192,-0.17267096,0.15697494,-0.01361442,-0.07749983,0.18054838,-0.027027749,-0.16115755,0.23098911,0.18968926,-0.06233384,-0.08432362,-0.014489767,-0.033426404,-0.12679935,0.19510686,0.20203392,0.195212,0.2052189,0.14364554,0.007006695,0.11898453,-0.11731357,0.05878297,-0.074940205,0.15601,-0.052870348,0.13443702,0.097321354,0.17704926,-0.11117411,0.20258197,0.17159016,-0.10636343,0.18376252,-0.018504936,-0.16539465
s1-AATCTTAGCCTCTGTC-1,0.118447065,-0.04494763,-0.06320188,-0.10967801,-0.07293792,0.20575607,-0.07170088,0.15155756,0.22500323,0.1669808,-0.05430008,0.2416563,0.17322308,0.16194582,-0.17261954,0.15700366,-0.013619942,-0.07748943,0.18056712,-0.027031625,-0.16111787,0.23098649,0.18970412,-0.062330235,-0.084312774,-0.014501788,-0.033441085,-0.12678623,0.19511944,0.20204355,0.19522454,0.20522717,0.14367989,0.0070988922,0.11883899,-0.11729498,0.05866292,-0.074930325,0.15603912,-0.052875645,0.13447528,0.09718497,0.17706947,-0.11115106,0.20259134,0.17161267,-0.10634237,0.1837799,-0.018506734,-0.1653619
s1-AATGAACTACGTCCAG-1,0.107091375,-0.04506856,-0.06619151,-0.10981743,-0.071472764,0.2032895,-0.069054805,0.14357294,0.22449626,0.16056645,-0.054915164,0.24284485,0.16744424,0.15501884,-0.18485726,0.1495735,-0.012230245,-0.079864986,0.175536,-0.026014782,-0.1705013,0.2310887,0.18560326,-0.063070476,-0.08678202,-0.011510895,-0.02974935,-0.12971047,0.19156992,0.19919899,0.19168574,0.20270675,0.1348932,-0.002955865,0.15435326,-0.12159075,0.08805055,-0.077182725,0.14851075,-0.05144717,0.12475146,0.13049462,0.17168225,-0.116551414,0.19980258,0.1656699,-0.111271344,0.1790759,-0.018020673,-0.17302562
s1-AATGAAGACGGTTCAG-1,0.06284268,-0.028059267,-0.039433416,-0.15588051,0.29667193,-0.023321865,0.1220922,0.02184492,0.009107143,0.08218852,-0.024494186,0.10993456,-0.0039427113,-0.027559098,0.19109912,-0.015963025,0.02886115,0.048622303,-0.02718012,-0.00021430664,0.31508133,0.07252902,0.029470876,0.0004825741,-0.060823664,0.020357111,0.059484977,0.12346806,0.0028030556,-0.01926466,-0.034096062,-0.013723597,-0.00015614927,0.42764932,-0.020418055,-0.014017381,0.015950533,0.16335304,0.2720558,0.068814516,0.02378983,0.17899622,0.0066625113,-0.003496579,-0.017032364,0.024262562,-0.0142205525,-0.062001314,0.042578474,0.1738452
