,0,1,2,3,4,5,6,7,8,9,10,11,12,13,14,15,16,17,18,19,20,21,22,23,24,25,26,27,28,29,30,31
s1-AACACTTGGCAAGGAA-1,0.06377125,-0.017617757,-0.21261322,0.26894182,0.020478094,0.22498703,0.3685096,-0.039789595,0.18404795,-0.045244046,-0.2448439,-0.017185366,-0.17719108,-0.110227436,-0.06711204,0.18625894,0.06320334,0.13968238,0.00072401203,-0.09820319,-0.083793655,-0.15578905,-0.14570564,0.13001668,-0.49929568,-0.13109218,-0.019280987,-0.088853166,-0.17768162,0.0025543869,0.29516935,0.046065137
s1-AACAGGATTCATAGTT-1,0.055037595,-0.0413944,-0.06425522,0.39353776,0.0863291,-0.0065062987,0.33393312,0.05931764,0.101206034,0.044502825,-0.15683107,-0.019319283,-0.21066165,-0.3687966,0.051675938,0.33397996,-0.17862648,0.10191246,-0.07636592,-0.13859507,0.08050662,-0.075445786,-0.043259785,0.26605958,-0.3098197,-0.095446154,-0.029595222,-0.061106995,-0.119831264,-0.10405894,0.29854107,0.04008687
s1-AACAGGTTATTGCACC-1,-0.066383556,0.012678146,-0.04767438,0.3350404,0.03706814,0.15965776,0.20004559,-0.1558505,-0.036647767,-0.054527316,-0.19281751,0.10091457,-0.2013093,-0.33964753,0.030567428,0.31761277,-0.1151724,0.17525852,0.036675062,-0.25163722,0.029977616,-0.14933798,0.15340169,0.15192634,-0.25014678,-0.3116795,0.12554714,-0.21509306,-0.07872951,-0.14111778,0.1567828,0.16423091
s1-AACAGGTTCACCGAAG-1,0.002589439,-0.028161392,-0.04192327,0.39499295,0.048497453,0.01796352,0.28460848,-0.014925375,0.051399194,0.009160139,-0.16893965,0.036662757,-0.21145105,-0.41296056,0.050300278,0.36249393,-0.16530207,0.14246026,-0.06951434,-0.16210753,0.078770444,-0.09437676,0.039958753,0.24245861,-0.2889837,-0.16321433,0.03395832,-0.112784326,-0.10706037,-0.13827184,0.2377623,0.07522592
s1-AACAGTCAGGCTCCGC-1,0.1837119,-0.03952658,-0.054822203,0.34167597,0.087003365,-0.08625686,0.36917612,0.13755763,0.17253634,0.07200757,-0.089695625,-0.08485899,-0.19433522,-0.30179477,0.03083434,0.2634036,-0.2318999,-0.02249678,-0.119007304,-0.033729233,0.061387025,-0.004878459,-0.17847031,0.29511726,-0.27993557,0.10926211,-0.100128025,0.042652704,-0.08076353,-0.042896524,0.34342352,0.0037061865
s1-AACAGTCGTGTCGCGG-1,-0.0053981417,0.19679503,0.24942721,-0.29742226,-0.056898896,-0.12791885,-0.27666074,0.0026641376,0.12071371,0.07345528,0.112634495,-0.08510157,0.24152043,0.2270248,-0.049713697,-0.24302018,0.114198886,-0.08443524,-0.0036514346,0.23131718,0.05635581,0.014808966,-0.086498976,-0.37614328,0.30986488,0.11763525,0.024673548,0.18893896,0.088592134,0.16290125,-0.2869876,0.0034920382
s1-AACATACTCATATGCG-1,0.108666226,-0.03779243,-0.05070236,0.3947562,0.06378222,-0.047096916,0.3566422,0.06613032,0.118326016,0.040464424,-0.12462896,-0.024084974,-0.20808706,-0.36502928,0.046946194,0.31510514,-0.22206897,0.037938662,-0.104511514,-0.09937438,0.058854636,-0.049800485,-0.076270506,0.2735396,-0.2833065,-0.014533058,-0.040479597,-0.03218237,-0.10664162,-0.09573249,0.31450778,0.046097904
s1-AACATAGTCTATCTAC-1,0.055872083,-0.0523145,-0.06508066,0.3890823,0.09821075,-0.030823948,0.3079924,0.10120197,0.088946685,0.06886585,-0.12099641,-0.009114619,-0.22574365,-0.3777691,0.04504446,0.3315283,-0.18465923,0.07712648,-0.09289038,-0.12184866,0.08276914,-0.053631328,-0.041007727,0.28908807,-0.29408857,-0.06378737,-0.04257509,-0.046164587,-0.10310058,-0.14175737,0.30296892,0.053042397
s1-AACATATTCTTGCGAA-1,-0.047586106,0.15710235,0.20352286,-0.32160902,-0.087958425,-0.043145765,-0.29516083,-0.056485724,0.05543305,-0.027775455,0.11526547,-0.03177236,0.26420838,0.2942484,-0.026095126,-0.27327448,0.16875257,-0.06955125,0.088925615,0.17590868,0.0024964279,0.011896623,-0.018435366,-0.3767528,0.31668094,0.08258055,0.03785187,0.08991115,0.112351,0.16504124,-0.3171702,0.0043463316
s1-AACATCGCGTGACCAC-1,0.041701533,0.17129984,0.19288167,0.40949178,0.07907882,-0.021507232,0.260178,0.011361093,0.16430771,0.05091472,-0.16270176,0.06116777,-0.124826305,-0.45581675,0.036684837,0.39820227,-0.13924453,0.10185411,0.007750881,-0.085751966,0.17028588,-0.17349209,-0.008453214,0.070657186,-0.21220829,-0.21608591,0.0029785438,-0.027882185,-0.05398827,0.005994254,0.13172436,0.14308347
s1-AACATCTAATGACCGG-1,0.06300148,-0.031198334,-0.044534042,0.40172014,0.07606788,-0.033604227,0.28343514,0.09052873,0.106323764,0.077683344,-0.13994241,-0.015402988,-0.19189104,-0.3951676,0.041461058,0.3437984,-0.19944791,0.08310199,-0.13843334,-0.123327255,0.07824958,-0.10193843,-0.042872068,0.2704081,-0.29032516,-0.07150477,-0.027001396,-0.036246225,-0.12510514,-0.12532839,0.27844772,0.060054645
s1-AACATGACGCAGCGTG-1,-0.20721284,0.0064593377,-0.07760606,0.1944359,0.03718292,0.25886324,-0.024940724,-0.13557477,-0.15928537,-0.011848521,-0.13585022,0.15972322,-0.13098943,-0.18082932,0.0352858,0.20972173,0.06837167,0.2014611,0.01362196,-0.24331728,-0.016176648,-0.20387214,0.3110798,0.06372588,-0.17987825,-0.44323635,0.17579892,-0.232849,-0.107568756,-0.22404766,-0.03598084,0.16735002
s1-AACCAAGGTATCAGGC-1,-0.27890313,0.011923094,-0.019346928,-0.23321943,-0.059436902,0.18895517,-0.33686972,-0.09784539,-0.1883261,-0.053072512,0.091886446,0.17793393,0.11467877,0.25781733,-0.0104247965,-0.19753098,0.29917908,0.04982225,0.05351442,-0.04000175,-0.11229448,-0.09075832,0.29055977,-0.22430679,0.17674801,-0.27002305,0.11299671,-0.15096888,0.02295965,-0.08282841,-0.3220533,0.0018502632
s1-AACCAATCTGGTTGGC-1,0.058316115,-0.06568199,-0.049540415,0.3956261,0.11629021,-0.031320103,0.28837866,0.12353161,0.08862813,0.0766335,-0.100569144,-0.021208487,-0.225346,-0.33984822,0.07993708,0.30407852,-0.20177987,0.026070226,-0.12788871,-0.10790114,0.07459599,-0.05663657,-0.08366254,0.29769415,-0.28188032,-0.034612823,-0.034796204,-0.031901356,-0.100969195,-0.1420884,0.34001103,0.040081188
s1-AACCACTAACATGATT-1,0.14951667,-0.034792442,-0.045981247,0.35956296,0.08496659,-0.08904314,0.3412348,0.12236304,0.15660262,0.08191995,-0.10452794,-0.09038187,-0.18153606,-0.34314817,0.02655666,0.30422148,-0.2297947,0.018143004,-0.11130658,-0.061632626,0.08692397,-0.023605332,-0.1375473,0.2895723,-0.28322613,0.06588096,-0.07681914,0.021608684,-0.0973079,-0.057665154,0.33549434,0.03536203
s1-AACCACTGCCATAGCC-1,0.13501473,-0.03667376,-0.0827731,0.3649182,0.08644837,-0.0288972,0.34467113,0.10973947,0.16148221,0.08507822,-0.11551375,-0.07643371,-0.19927523,-0.32221782,0.020711195,0.29433975,-0.18647379,0.025675124,-0.13179138,-0.071988165,0.0465897,-0.060048293,-0.14116022,0.28779846,-0.32948035,0.028684668,-0.065187335,-0.00036530523,-0.1244465,-0.066743955,0.33320802,0.032353695
s1-AACCAGAATCAGACGT-1,0.038938902,-0.10536094,-0.19035238,0.35401812,0.092163935,0.1270032,0.2216149,0.03517419,0.0014959052,0.110127985,-0.19660282,-0.015528022,-0.22291057,-0.2627354,0.012400102,0.23909849,-0.11563379,0.11478551,-0.10784997,-0.22310004,-0.004569756,-0.12646766,-0.013801784,0.24155673,-0.3320927,-0.17298645,0.08677282,-0.093933836,-0.1936924,-0.16345426,0.29958653,0.18002751
s1-AACCATGAATTGCCTT-1,-0.21311943,-0.0038653908,0.081211425,-0.28483424,-0.06903294,0.049928363,-0.41093904,-0.11209052,-0.16996652,-0.055002563,0.10165335,-0.027516562,0.25988972,0.24234854,0.03044908,-0.25590178,0.2318795,0.009092691,0.13748568,0.02696426,-0.06969007,-0.009217562,0.13666952,-0.28780907,0.36422917,-0.09928864,0.022529155,-0.09110408,0.072604045,0.031261466,-0.29677704,0.034221683
s1-AACCGCCAGACTACTT-1,0.06680044,-0.02448902,-0.05010087,0.4070126,0.06608307,-0.009578283,0.32421893,0.035649713,0.10574612,0.031752467,-0.16418085,-0.015724197,-0.21464776,-0.37789068,0.042353023,0.34756428,-0.18376157,0.104429916,-0.085363105,-0.12471731,0.07515285,-0.080947235,-0.053821757,0.2413438,-0.30222303,-0.06741253,-0.00347791,-0.052996673,-0.12471834,-0.10082644,0.30321646,0.061075956
s1-AACCGTGCTTATGTTG-1,-0.28136778,-0.05691266,-0.032747082,0.23486513,0.03047208,0.16008617,-0.10198453,-0.010417664,-0.17940679,0.02126104,-0.103454515,0.15190274,-0.096660465,-0.27118307,0.060333975,0.216595,0.07218771,0.20975462,-0.037393514,-0.21572755,-0.009746764,-0.2086352,0.29569593,0.10268165,-0.099782854,-0.4168856,0.1618374,-0.22766899,-0.12060961,-0.24086463,-0.026500717,0.14074872
s1-AACCTAAGATACTGAG-1,-0.28376275,0.016334593,-0.03929001,-0.23496825,-0.08803573,0.19945368,-0.33773726,-0.080932796,-0.1591516,-0.065823674,0.05078144,0.19634143,0.1314908,0.19059947,-0.047645442,-0.14228252,0.34290892,0.111932695,0.08631674,-0.04531105,-0.098856956,-0.10877271,0.29853463,-0.1886324,0.12680301,-0.30968326,0.10647191,-0.18278271,-0.0052200505,-0.050760567,-0.30810946,-0.012488047
s1-AACCTACAGAGGTAGT-1,-0.025270369,-0.021629859,-0.05726213,0.37649953,0.0674433,0.058014497,0.30100068,-0.110302,0.005107539,-0.12865137,-0.14052293,0.096740395,-0.27759135,-0.28144264,0.07722922,0.3382219,-0.18333787,0.14865234,0.022025608,-0.20366444,0.0103490325,-0.03259509,0.17560883,0.2131533,-0.22023213,-0.16821325,0.043442108,-0.2203052,-0.026513264,-0.1845373,0.21579722,0.1296824
s1-AACCTACTGTAACTCA-1,0.16070537,-0.0032890514,-0.045810502,0.3588779,0.08901658,-0.057754315,0.36854738,0.11898255,0.18156633,0.09363999,-0.118258536,-0.089786984,-0.1855553,-0.31684107,0.01792436,0.292767,-0.19622487,0.02579096,-0.11884711,-0.053933255,0.06382969,-0.041168805,-0.16607344,0.25348857,-0.32222185,0.053467914,-0.069073826,0.035917554,-0.11118709,-0.041830216,0.33410192,0.015787404
s1-AACCTGACAGTGCCGC-1,0.18111913,-0.07436195,-0.109553516,0.361313,0.0626519,-0.06955597,0.37418717,-0.019292176,0.07312538,0.007172045,-0.14478979,-0.048264995,-0.24414125,-0.3025604,0.059540853,0.2627427,-0.27552575,0.035153598,-0.057813127,-0.12640817,0.08612436,0.04589124,-0.10356185,0.28240496,-0.26215503,0.055503942,-0.04487594,-0.050706618,-0.063767016,-0.10026697,0.35024726,0.071597226
s1-AACCTTAGCGTCCGGT-1,0.049066186,-0.029987212,-0.049745284,0.398516,0.1242927,-0.0030948045,0.28046888,0.13643551,0.112509996,0.09561038,-0.12724388,-0.023582483,-0.20406395,-0.36843348,0.03950435,0.32414132,-0.15332276,0.07853791,-0.11980079,-0.11226936,0.057206407,-0.098014,-0.047098365,0.29370487,-0.3124413,-0.07646671,-0.032669887,-0.023790237,-0.12501094,-0.118699744,0.2896767,0.061814573
s1-AACGAAGCGTGGAAGT-1,0.13673154,0.00911161,-0.08697565,0.38229442,0.05252921,0.031802148,0.40901268,-0.06770693,0.12859264,-0.013564527,-0.19937676,-0.055127963,-0.21914849,-0.26644063,0.028653082,0.3035726,-0.2111492,0.0776864,-0.055201843,-0.12444649,0.032774147,-0.025060952,-0.078692794,0.21339881,-0.35509792,-0.029639184,-0.0054952973,-0.05733212,-0.10843381,-0.056166627,0.32034358,0.062155187
s1-AACGAATTGACCGGTT-1,0.11947943,-0.030431634,-0.059941683,0.37251946,0.07984176,-0.006942611,0.35956934,0.10109789,0.15259522,0.033499364,-0.15175933,-0.07627168,-0.20646141,-0.32189447,0.019728748,0.30774593,-0.18235284,0.05915966,-0.08779516,-0.082449876,0.06672215,-0.053923354,-0.12750061,0.26675344,-0.3274523,0.024454875,-0.07233536,-0.0012330357,-0.11666027,-0.05449784,0.32635662,0.02614199
s1-AACGAGCCTCTTCGGC-1,0.12809855,-0.032172844,-0.06281227,0.3641135,0.09955636,-0.04507842,0.35581273,0.113054775,0.15580788,0.07745464,-0.10366852,-0.05602194,-0.20709305,-0.33617812,0.027969275,0.3045648,-0.19248953,0.030575097,-0.11504013,-0.07029182,0.06287072,-0.044973806,-0.12417418,0.28712648,-0.3242296,0.028556472,-0.0674991,0.007567958,-0.10583174,-0.067653865,0.3324619,0.023948915
s1-AACGAGCTAATAACTA-1,0.13921684,-0.055060882,-0.09607186,0.38222456,0.010924498,-0.024131913,0.42063928,-0.09904767,0.045415677,-0.101825856,-0.14753342,0.032520056,-0.26041353,-0.26144546,0.08088824,0.2267104,-0.31603736,-0.047538217,-0.068406366,-0.14247516,-0.023351388,0.042078868,0.015785238,0.26131493,-0.23633419,-0.020692928,0.0030248067,-0.11917919,-0.035914507,-0.14433858,0.32552785,0.08018241
s1-AACGGCACAGAATATT-1,0.15470383,0.008934649,-0.03449676,0.36297956,0.09209165,-0.069543906,0.36940885,0.091427356,0.19668758,0.0751985,-0.11474683,-0.06025041,-0.18526006,-0.328914,0.016641777,0.31273684,-0.19783361,0.027185487,-0.109248795,-0.056107506,0.0501118,-0.04037026,-0.1435599,0.25394326,-0.318749,0.024744567,-0.062057056,0.0069040726,-0.09781082,-0.04327982,0.3371004,0.02713703
s1-AACGGTAATCGACCTG-1,0.098719664,-0.036713377,-0.039028525,0.40170506,0.059242662,-0.044208452,0.34862635,0.06367306,0.11059326,0.029180594,-0.12586161,-0.012363554,-0.21323308,-0.37674046,0.04786326,0.31964278,-0.2308392,0.04004158,-0.10627126,-0.10462187,0.059328835,-0.057678327,-0.059784323,0.2690935,-0.27323657,-0.024950381,-0.03122057,-0.038878653,-0.104496956,-0.10403217,0.30582887,0.048250526
s1-AACTAACGAACTAGAT-1,-0.07933384,0.10253014,0.15539941,-0.34808165,-0.09865402,-0.032728978,-0.34097275,-0.06723394,-0.035653047,-0.04780913,0.12714407,0.0031277172,0.24652553,0.2812,-0.024713676,-0.2732768,0.18435284,-0.051551566,0.10515804,0.14988811,-0.0029466457,0.009142304,0.056223202,-0.33564064,0.36099994,0.04636056,0.01668791,0.044713482,0.107947975,0.12911144,-0.34541374,-0.0074503976
s1-AACTAGCACTGTTCGA-1,0.042113096,-0.009303634,-0.039767805,0.39581132,0.07315567,0.008773366,0.31821787,-0.00095433556,0.08828728,0.016603317,-0.1609426,0.0006063278,-0.20621568,-0.38496262,0.045512162,0.3633986,-0.17254302,0.11794546,-0.062218204,-0.14059128,0.07274172,-0.087208055,-0.00067769736,0.26128864,-0.30700135,-0.12536141,0.0061767795,-0.087581426,-0.11002076,-0.11075328,0.2682461,0.06801187
s1-AACTAGCATCACGTAC-1,0.14437537,-0.03040907,-0.056063656,0.3472759,0.09577739,-0.066222094,0.35375598,0.1491214,0.17707008,0.106852695,-0.09114867,-0.09257557,-0.17876928,-0.31235462,0.02722032,0.2934627,-0.18240377,0.00910552,-0.12594149,-0.04392079,0.06871344,-0.04200332,-0.17670254,0.28139883,-0.3135938,0.06232011,-0.080563754,0.031732775,-0.10041471,-0.046172027,0.3346003,-0.009983589
s1-AACTAGCCTAATAGCA-1,-0.0005355552,-0.003987063,-0.0037750397,0.41258162,0.05164179,-0.028509557,0.27871388,0.019357415,0.08662552,0.02451044,-0.1431443,0.028303923,-0.17469975,-0.4353376,0.061916538,0.38322186,-0.17753372,0.123212725,-0.057139307,-0.117421046,0.09078191,-0.09050831,0.027032752,0.25371552,-0.2670869,-0.13261786,-0.008266413,-0.08360686,-0.09694039,-0.101804465,0.23574099,0.059357952
s1-AACTAGCCTTGCAATA-1,0.09856242,-0.020556351,-0.044066,0.3900138,0.08638712,-0.029604208,0.35067517,0.06832687,0.13079546,0.053174477,-0.13444903,-0.032913007,-0.2149733,-0.36025748,0.037238445,0.33807072,-0.19046235,0.07369599,-0.09601484,-0.10513719,0.08098703,-0.053581115,-0.08794847,0.25852793,-0.30660662,-0.019854806,-0.03804788,-0.027112633,-0.11554491,-0.090698,0.3126018,0.03633476
s1-AACTAGGCCTGACACC-1,-0.20777276,-0.007533541,-0.09936854,-0.20499818,-0.13991295,0.29294702,-0.21341729,-0.2365537,-0.18899626,-0.12361917,-0.028796632,0.15175791,0.058411375,0.26502234,-0.0664268,-0.19371353,0.28865778,0.0907,0.033092763,-0.09043508,-0.20864403,-0.14445463,0.26206082,-0.2124962,0.037727434,-0.28694856,0.16930735,-0.1747289,-0.0579733,-0.08715972,-0.22767192,0.024550505
s1-AACTATCGTCATAGTC-1,-0.3778805,-0.048257284,-0.03888504,-0.14327067,0.07264336,0.068776205,-0.4586323,0.06150846,-0.27467918,0.06541502,0.09911919,0.17569168,0.09360707,0.01903294,0.048570253,-0.1312792,0.17885378,0.08342777,-0.05036032,-0.116315246,-0.019315075,-0.071568996,0.30380812,-0.0561137,0.256553,-0.26833984,0.09164953,-0.13434514,-0.0005644327,-0.2236852,-0.2627493,0.059567362
s1-AACTATCTAGCAGTAT-1,0.050111063,-0.026560666,-0.04600508,0.40452075,0.06960007,-0.010824099,0.30983037,0.0048497273,0.070910886,0.025569035,-0.15116507,0.005137807,-0.21239576,-0.39224374,0.058789097,0.3519112,-0.19848123,0.1093471,-0.06323048,-0.15063573,0.08371867,-0.07312577,-0.0122950105,0.25665915,-0.28831315,-0.11698308,0.009255683,-0.088522196,-0.10325506,-0.117774785,0.27967733,0.07607953
s1-AACTATGCTGCATTCG-1,0.10880412,0.03164795,0.001854904,0.3740319,0.1271592,-0.06681548,0.34182566,0.10785212,0.19996142,0.095703624,-0.1348177,-0.060150467,-0.17083192,-0.34307742,0.02537489,0.32391965,-0.2054097,0.053406544,-0.12759544,-0.08405811,0.08778547,-0.05243217,-0.14228886,0.20930538,-0.2966168,-0.039454326,-0.044720456,0.014417048,-0.09629446,-0.032690775,0.30028355,0.07245628
s1-AACTATGTGCTTGTTA-1,-0.18264914,-0.017236806,-0.14225744,0.28491718,-0.009320178,0.26390496,0.12402958,-0.104023725,-0.050667785,-0.051820844,-0.18253158,0.12786748,-0.14710136,-0.22363369,0.0027016634,0.2550413,0.07587995,0.22480747,-0.0077289236,-0.22527456,-0.04530272,-0.19227389,0.20316124,0.13163179,-0.29557317,-0.38027728,0.08832473,-0.2328259,-0.15037932,-0.16928127,0.07477319,0.06449106
s1-AACTATTCTGCGGCCT-1,-0.005849578,-0.049125157,-0.056338493,0.39439788,0.061085045,0.03662008,0.2840232,-0.032127626,0.01306991,-0.0042330157,-0.15032175,0.037236005,-0.22919774,-0.37650293,0.06803642,0.35440135,-0.18442643,0.12788185,-0.044306897,-0.19253886,0.07070466,-0.06456798,0.0739774,0.2579537,-0.25963446,-0.16454577,0.03345864,-0.13542691,-0.10618243,-0.16063955,0.25956097,0.08247435
s1-AACTCAACCTTGACCA-1,-0.104254566,-0.026063789,-0.13413948,0.30016536,-0.036241055,0.23058382,0.21911359,-0.09059793,0.023402143,-0.053391695,-0.18374495,0.09374167,-0.1569719,-0.23592857,-0.030597495,0.28934717,0.08738018,0.2262232,-0.017062947,-0.1876873,-0.023782792,-0.22205281,0.15287748,0.16699395,-0.38235003,-0.32655317,0.060684692,-0.22245806,-0.16511327,-0.09469672,0.11536645,0.0019974113
s1-AACTCAACTTGACAGC-1,0.031347282,-0.032035314,-0.034065805,0.40529835,0.08898516,-0.013953207,0.2903725,0.06470311,0.09102526,0.04506108,-0.14492601,0.005369989,-0.21070501,-0.40590215,0.045031965,0.3533696,-0.18152034,0.11261505,-0.0886276,-0.13811596,0.07882573,-0.098735735,-0.014597409,0.267689,-0.284208,-0.112942904,-0.005415871,-0.07321301,-0.117944226,-0.119598,0.27164996,0.054870225
s1-AACTCACCGAACTTAT-1,0.12215279,-0.010304878,-0.08266659,0.38462245,0.058189973,0.012123058,0.3787346,-0.051292904,0.107596725,-0.016608238,-0.1725939,-0.037964255,-0.22784817,-0.31866473,0.047451418,0.32245147,-0.22691233,0.07925655,-0.054576706,-0.13823932,0.065028526,-0.023347927,-0.052702934,0.24461067,-0.3203392,-0.027083531,-0.003368455,-0.08030699,-0.08977769,-0.07976407,0.31376874,0.07920469
s1-AACTCACCTCGGTGTT-1,0.14807193,-0.038613543,-0.07509449,0.36341196,0.088888034,-0.053963736,0.3630295,0.07676721,0.14238076,0.047622234,-0.1114286,-0.08509819,-0.20025815,-0.2983961,0.043168075,0.28778014,-0.2179328,0.0062862346,-0.11221802,-0.07309592,0.049319886,-0.01033774,-0.15232198,0.27272213,-0.30805987,0.04709108,-0.060722813,-0.007689843,-0.083053514,-0.07582206,0.36456087,0.03221098
s1-AACTCACGGAGTACGT-1,-0.23892015,0.07529419,0.011322898,-0.17313704,0.004482352,0.2260516,-0.3509549,-0.049404234,-0.11652903,0.07552555,-0.0620872,0.13725224,0.12834229,0.17206815,-0.037457235,-0.15496084,0.3170701,0.10119282,0.0067984727,-0.082361445,-0.11181153,-0.22313356,0.22180568,-0.27548552,0.07674714,-0.37707177,0.17087033,-0.0880827,-0.07235415,-0.07177565,-0.28887624,0.14254892
s1-AACTCAGATCCATGCC-1,0.096113324,-0.0064489893,-0.00953603,0.38736343,0.0922084,-0.050524898,0.32661736,0.07526537,0.12880366,0.052807752,-0.11265531,-0.023787364,-0.20861676,-0.39138877,0.040764064,0.3493726,-0.22016501,0.061577737,-0.07968561,-0.10120061,0.08642416,-0.06116736,-0.058816515,0.27861887,-0.28210834,-0.02221104,-0.043860856,-0.03383487,-0.087901995,-0.09276573,0.3039711,0.050263196
s1-AACTGCAACGTCCTGG-1,-0.21369107,0.015288249,-0.061755262,-0.24042371,-0.11734508,0.276534,-0.21343468,-0.22107342,-0.16350305,-0.15731218,0.024271013,0.15458098,0.08276618,0.33379117,-0.0504312,-0.20316628,0.3057645,0.03432841,0.060879305,-0.035981316,-0.22385344,-0.08143317,0.2560116,-0.24354339,0.07251287,-0.22354022,0.12569888,-0.1684862,-0.017072294,-0.052875496,-0.26976648,-0.016333474
s1-AACTGCCTCGATAGGT-1,0.16754171,-0.02640028,-0.07340825,0.34960777,0.095034406,-0.040747236,0.39147937,0.10308899,0.16870147,0.05762013,-0.11009839,-0.09696334,-0.20512296,-0.2731786,0.027776664,0.26884407,-0.2042953,0.005649087,-0.09999071,-0.056297578,0.040710997,-0.00948249,-0.1765655,0.27060372,-0.32215637,0.07428797,-0.07325568,0.03137385,-0.0992275,-0.04986724,0.36153445,0.02328302
s1-AACTGCGAACCTTACC-1,0.10885316,-0.037050992,-0.06412177,0.38664952,0.0747625,-0.042387407,0.35403877,0.029017674,0.09795506,0.036356978,-0.15000218,-0.0324241,-0.21857035,-0.35710502,0.046772458,0.32243228,-0.21447627,0.076107636,-0.07458309,-0.11764847,0.08683227,-0.028382394,-0.07591349,0.27128705,-0.29757613,-0.03003531,-0.04095667,-0.047998473,-0.0963261,-0.09375751,0.31669208,0.051822595
s1-AACTGCGATCGACTAA-1,-0.05852181,0.06236849,0.078679234,0.41931298,0.06354754,-0.019905305,0.20920725,0.037650708,0.12322312,0.031451225,-0.18180169,0.052822456,-0.08275976,-0.46833766,0.07414804,0.39392662,-0.07325532,0.16193397,0.069727,-0.12170528,0.17284696,-0.17950286,0.07509631,0.1437207,-0.17449832,-0.2813952,-0.044052415,-0.09922906,-0.11210388,-0.022568205,0.16258678,0.10922236
s1-AACTGCGGTCCGAAGC-1,0.18757309,-0.02738478,-0.058348507,0.34745806,0.08191538,-0.08018021,0.3850459,0.124447085,0.18238223,0.06386282,-0.09206543,-0.085325874,-0.18762442,-0.28877383,0.028319985,0.261787,-0.23553485,-0.030875925,-0.12883912,-0.034556296,0.0502128,0.0053116796,-0.17910342,0.28228745,-0.2874272,0.10301462,-0.09741032,0.038197614,-0.076140665,-0.03322614,0.34204295,-0.0051895548
s1-AACTGCTACCTCGATA-1,-0.2593455,-0.010894542,-0.10537216,-0.14496723,-0.11114108,0.28052062,-0.28448477,-0.16852248,-0.1567976,-0.0756889,-0.011024839,0.19047475,0.06112326,0.148654,-0.060341876,-0.0931978,0.26955956,0.14652604,0.0104279015,-0.15513176,-0.12025954,-0.1744016,0.30883914,-0.14672206,0.02833563,-0.3683016,0.16382909,-0.24762985,-0.051538266,-0.0942253,-0.24326445,0.06534684
s1-AACTTCAAGGATAATC-1,0.05842369,-0.07557516,-0.19136357,0.28629112,0.20629627,-0.05812715,0.05941397,0.28623536,0.04735171,0.31777364,-0.19657066,-0.099123426,-0.18381323,-0.15617806,0.034382116,0.008361406,-0.097894736,-4.001148e-05,-0.19950083,-0.15128419,-0.053929985,-0.10317695,-0.09576224,0.13898768,-0.24159604,-0.19450691,0.09064099,0.09404197,-0.22616711,-0.20631991,0.39263397,0.17684828
s1-AACTTCAGATACTACC-1,-0.20038004,-0.013716969,-0.17170888,0.13145815,-0.063988715,0.30588073,0.06124088,-0.07844068,0.034364715,-0.039685946,-0.106471226,0.16728581,-0.060929842,-0.101358235,-0.090384305,0.17614031,0.31599826,0.23106177,0.022325024,-0.15741996,-0.11966667,-0.23285201,0.22705637,0.031846516,-0.3362965,-0.414248,0.05064182,-0.2752403,-0.13020341,-0.063283116,-0.060478315,-0.013938285
s1-AACTTCAGCATGGCCG-1,-0.26390868,-0.0050070933,0.05515104,0.3625611,0.08024894,0.05333681,0.04598303,0.026168752,-0.025113333,-0.0060566524,-0.12957996,0.16437441,-0.114781395,-0.4093965,0.09975998,0.33407193,0.0072447276,0.21228859,0.012960397,-0.1770747,0.09648831,-0.1854276,0.25332063,0.13344395,-0.12175799,-0.3618136,0.04240163,-0.18256584,-0.079296716,-0.1958969,0.026344815,0.05685427
s1-AACTTCATCTTCTGGT-1,0.11702216,-0.035294153,-0.05450862,0.37095186,0.092410274,-0.052468054,0.3503362,0.09165287,0.1305465,0.07320596,-0.11423237,-0.056733653,-0.20043424,-0.35761544,0.035646804,0.32108155,-0.20153703,0.04756272,-0.10678108,-0.07678869,0.071446836,-0.03627307,-0.11951342,0.28822392,-0.3098922,0.009324796,-0.052288212,-0.010089078,-0.09962209,-0.07743721,0.33064997,0.027116373
s1-AACTTCGCTTAGTCAG-1,-0.08529297,-0.009394715,-0.009185577,0.40924826,0.06052822,0.037342545,0.26444793,0.052038282,0.07935871,0.016303463,-0.14556758,0.08239729,-0.17632225,-0.387989,0.068801016,0.38704568,-0.08834806,0.15463771,-0.038596936,-0.15272018,0.0719575,-0.12409013,0.1297267,0.24756432,-0.27866542,-0.25589323,0.0005599132,-0.12977989,-0.098484874,-0.14341536,0.15851535,0.03339125
s1-AACTTGCAACTTGGAC-1,0.110727936,-0.026495244,-0.04892204,0.37822586,0.08956084,-0.04486977,0.3538592,0.081641376,0.1401546,0.061967738,-0.1253532,-0.043957952,-0.20451215,-0.36297268,0.030539857,0.32657266,-0.19172108,0.056659967,-0.10415603,-0.08266432,0.07608308,-0.045273677,-0.10777663,0.27623928,-0.3127864,-0.009623949,-0.053239614,-0.017933462,-0.0960046,-0.06977536,0.32650238,0.024794428
s1-AACTTGGTTAATACTA-1,0.16646594,0.023817483,0.07556869,0.37298703,-0.05172531,-0.16807637,0.29266185,-0.05310393,0.10427207,-0.13457397,-0.16312663,-0.002620467,-0.15266624,-0.39469016,0.10085338,0.36650017,-0.32588148,0.1215616,0.100661434,-0.056802414,0.1588844,0.0073777186,0.08998175,0.22854751,0.0064952467,0.07465464,-0.06506496,-0.122377805,-0.024734378,-0.012244967,0.17377254,0.1925705
s1-AACTTGGTTACATAAC-1,-0.025160614,-0.033471957,-0.020767815,0.4100583,0.052807875,-0.0006739211,0.26417527,-0.010930695,0.037508395,0.0017214108,-0.16389897,0.051703442,-0.19974503,-0.42794457,0.06809485,0.36115012,-0.17066345,0.1349617,-0.06743338,-0.16201386,0.07464665,-0.10023561,0.05386404,0.23282796,-0.26399165,-0.18575945,0.032706305,-0.11844591,-0.10095812,-0.15958023,0.23273471,0.08174558
s1-AAGAATTCTGGCTGCA-1,0.055537466,-0.020482384,-0.074143,0.3913923,0.11390558,-0.023290744,0.3040582,0.08463971,0.09983386,0.088758655,-0.14007223,-0.021563433,-0.21189788,-0.36859888,0.042980626,0.34368482,-0.18242413,0.07730967,-0.086758316,-0.13005859,0.08863731,-0.05767499,-0.040550098,0.27674013,-0.3113291,-0.082497746,-0.02126896,-0.04606303,-0.115326084,-0.12331784,0.29516548,0.054862455
s1-AAGACAATCTCCTGCA-1,0.06484821,-0.046594553,-0.077146076,0.37999457,0.099465854,-0.010248784,0.3113598,0.06892663,0.08577511,0.067928925,-0.122024894,-0.024027344,-0.2231192,-0.37168825,0.04318349,0.32702062,-0.19908515,0.074566096,-0.10378787,-0.13172011,0.07327738,-0.056190364,-0.061908953,0.2816425,-0.3050534,-0.050447006,-0.028102987,-0.045867212,-0.11128466,-0.12710351,0.32049465,0.063279286
s1-AAGACTAAGGAGATCC-1,0.17827624,-0.044889625,-0.08888522,0.3335628,0.1031099,-0.06478946,0.36702606,0.13538328,0.17597684,0.09903196,-0.089195125,-0.09396173,-0.18883853,-0.28207853,0.02094438,0.2576603,-0.20263052,-0.022453435,-0.13058624,-0.038987666,0.054540683,-0.008743606,-0.1977712,0.285262,-0.308987,0.097313166,-0.09185547,0.045855694,-0.096842885,-0.038907748,0.35577986,0.0058861477
s1-AAGACTCAAGGCTCCA-1,0.13752457,-0.032428756,-0.09750734,0.38597292,0.04112445,-0.006451689,0.42722225,-0.09448013,0.06008885,-0.07257726,-0.15599385,-0.0079369815,-0.24238348,-0.2672591,0.06916361,0.27363425,-0.28017473,0.0062959176,-0.050726797,-0.13300145,0.017847154,0.0202445,-0.025893234,0.2497304,-0.27632153,-0.032243233,-0.0090013165,-0.096791595,-0.05808051,-0.105883084,0.3385654,0.06069848
s1-AAGACTGTCATAGTGC-1,0.14611067,-0.035042338,-0.06452206,0.36330658,0.08520585,-0.041946515,0.35360467,0.13038507,0.16081057,0.07291655,-0.11231564,-0.08147823,-0.19648123,-0.3121965,0.01861805,0.2917629,-0.20530254,0.018453388,-0.10833424,-0.068463,0.07470012,-0.037954006,-0.16398375,0.2828614,-0.3165711,0.04783959,-0.07076673,0.02452173,-0.10905774,-0.050586753,0.34581038,0.01332798
s1-AAGAGCAGATGTGCCA-1,0.09568279,-0.016795674,-0.053884022,0.38141775,0.079079956,-0.019141342,0.3463034,0.049198072,0.12796123,0.05014389,-0.13079166,-0.034841906,-0.21905458,-0.35667193,0.039024495,0.34459203,-0.20081945,0.07278155,-0.08734575,-0.1144101,0.068764985,-0.050013572,-0.06782547,0.27033764,-0.31383276,-0.03449498,-0.029340267,-0.031167664,-0.10712837,-0.095733315,0.31776488,0.05465287
s1-AAGATACAGGCGAACG-1,-0.12528893,0.07561836,0.19184476,-0.2753676,-0.12968387,-0.070273094,-0.36356908,-0.116418615,-0.08290012,-0.14215334,0.09379931,0.041237578,0.23906064,0.1868197,0.008466942,-0.20801377,0.12343339,-0.02038519,0.1732091,0.06979965,-0.02722395,0.0039052437,0.208649,-0.29863468,0.43138215,-0.028614499,-0.00029088114,-0.056903027,0.1109996,0.06513014,-0.34170255,0.06831974
s1-AAGATAGGCTTGCTTA-1,-0.13613477,-0.053084932,-0.07783883,0.3392172,0.060627192,0.10565734,0.09884101,0.002105739,-0.06303145,0.015690647,-0.15423882,0.100223795,-0.17299032,-0.40220684,0.0440979,0.318218,-0.04506043,0.21921314,-0.058107562,-0.22585753,0.06426184,-0.17720346,0.16969538,0.21628372,-0.22611476,-0.29119116,0.09108963,-0.18881927,-0.13906592,-0.20269608,0.15416288,0.12436729
s1-AAGATATTGGACGTCC-1,-0.33215332,0.0053683035,0.023022262,-0.17121738,0.04956008,0.12893929,-0.43135932,0.0745309,-0.18473586,0.117828175,0.06805682,0.15960437,0.115496546,0.09361639,0.009445254,-0.10570577,0.27452314,0.069311336,-0.06628764,-0.061160605,-0.039349843,-0.1592753,0.25569946,-0.16933602,0.20407407,-0.3345428,0.1367892,-0.075100586,-0.034282915,-0.18747415,-0.30906296,0.062259596
s1-AAGATCTGTAACTTGT-1,-0.10755684,0.009211379,0.016224494,0.37695974,0.08140127,0.067388155,0.20949484,0.0060175294,0.021895673,-0.0035466265,-0.13696527,0.12119125,-0.21092573,-0.39743614,0.07040381,0.3757676,-0.08809562,0.16774818,-0.030492593,-0.19301197,0.06882481,-0.13958153,0.19845884,0.21214136,-0.22679837,-0.2967549,0.031526316,-0.15984118,-0.06938587,-0.16842657,0.11079708,0.080190405
s1-AAGATGAAGGTCATCG-1,-0.052898407,0.20685817,0.28102505,-0.31131238,-0.08283457,-0.04184548,-0.27774477,-0.1396018,-0.02799078,-0.111339435,0.14674783,0.058397748,0.20263377,0.20706153,-0.027912274,-0.16744815,0.100054964,-0.063939005,0.1540587,0.13817513,0.012427904,0.008004702,0.11616389,-0.34852308,0.3735054,0.027832188,0.05447407,-0.016910473,0.20587684,0.1182255,-0.3465222,0.051892977
s1-AAGATGGCCGCTAGTT-1,0.08593345,-0.028575867,-0.04604996,0.40061873,0.069608375,-0.018140282,0.32376447,0.06753346,0.12808585,0.057781935,-0.14559604,-0.05118318,-0.18899429,-0.3816823,0.037623815,0.3330435,-0.18244497,0.08246717,-0.10014156,-0.09083934,0.0805039,-0.07785884,-0.08998066,0.2700374,-0.31101727,-0.039905295,-0.03256433,-0.02571594,-0.124395564,-0.08775972,0.3055438,0.06769574
s1-AAGATTAGGCTGTCTA-1,-0.012594541,-0.013739649,-0.013818352,0.41427416,0.055693913,0.013149472,0.26561898,-0.008336944,0.04670602,0.012547846,-0.16232468,0.03822525,-0.19472687,-0.42894247,0.0574139,0.3735218,-0.16229948,0.14320654,-0.063335225,-0.16522762,0.07987981,-0.11236508,0.04916418,0.22978182,-0.2676283,-0.1824229,0.027724113,-0.113162145,-0.107961565,-0.13475662,0.2248095,0.082739666
s1-AAGATTATCTAGCATA-1,0.072695024,-0.013797972,-0.1051673,0.3928642,0.02986494,0.06928542,0.37575802,-0.04134091,0.112041324,-0.0496371,-0.19542068,-0.023993412,-0.20391126,-0.29901636,0.015123994,0.32689682,-0.16557634,0.12043469,-0.052733008,-0.14940435,0.059612703,-0.04985404,-0.040993426,0.23378918,-0.3597992,-0.09481026,-0.0060462407,-0.115176074,-0.10888061,-0.061474644,0.29124022,0.03796725
s1-AAGCAGCGGACACGTG-1,-0.034806393,0.0014599152,-0.24082685,0.19813445,-0.052476548,0.3402313,0.26774058,-0.18416472,0.06855796,-0.11667845,-0.18644792,0.06123826,-0.13205405,-0.01979005,-0.08939256,0.12004647,0.16716039,0.16851822,-0.012453425,-0.16164035,-0.17085254,-0.17265695,0.012719631,0.054841146,-0.47901705,-0.238731,0.099091694,-0.24462438,-0.16847454,-0.06528807,0.16636463,0.049640957
s1-AAGCAGTATCAGAATC-1,0.03309175,-0.027557982,-0.039482832,0.40996015,0.05968518,0.004112794,0.3045413,0.027350085,0.07671216,0.027378693,-0.16912818,0.0052205794,-0.21258058,-0.39494717,0.053270243,0.3505425,-0.17730127,0.11727944,-0.08351165,-0.14659736,0.081209466,-0.08594578,-0.016209215,0.2484718,-0.29051954,-0.12796487,0.019533768,-0.07704528,-0.12283774,-0.11875647,0.27246624,0.06261423
s1-AAGCAGTGAGTGCGAC-1,0.1323136,-0.037390504,-0.07125035,0.35860807,0.09713051,-0.049327474,0.3666705,0.12268734,0.1746969,0.08615357,-0.09767428,-0.0648431,-0.19388469,-0.31801918,0.026078492,0.29719275,-0.17587532,0.0136027355,-0.12836158,-0.05337863,0.057049066,-0.03787167,-0.1598948,0.2834854,-0.32865676,0.040844403,-0.07719673,0.011733423,-0.10702004,-0.06374563,0.33311912,-0.006908511
s1-AAGCAGTGGCATCACT-1,0.011351193,-0.07213127,-0.09439616,0.40368813,0.16732863,-0.071617946,0.20520885,0.14537627,0.028493015,0.13031287,-0.13193056,0.045697946,-0.23050565,-0.3676182,0.07987578,0.26388967,-0.1905517,0.0722038,-0.116363294,-0.17112827,0.06162546,-0.07847075,0.04810512,0.27322522,-0.22387025,-0.15411855,0.011134328,-0.065027714,-0.11218132,-0.21277237,0.30983898,0.121265665
s1-AAGCAGTGGCTCATCC-1,0.12701271,-0.037692107,-0.057737276,0.37670344,0.08943948,-0.05605723,0.36138886,0.08817765,0.12864567,0.06154119,-0.11117416,-0.0480742,-0.2021657,-0.34205043,0.044573613,0.31065536,-0.21982893,0.028096734,-0.10840772,-0.07678884,0.059478268,-0.0290275,-0.11341645,0.290325,-0.29898652,0.011136948,-0.056717888,-0.011471139,-0.09426403,-0.081146866,0.33349544,0.024821626
s1-AAGCAGTGTAGAATCT-1,0.13095263,-0.019572392,-0.09978162,0.3775595,0.06605705,0.018465433,0.38557804,-0.034821417,0.11119144,-0.012726713,-0.1592852,-0.042059556,-0.23319295,-0.29788852,0.040538125,0.3061815,-0.220709,0.06329597,-0.05747705,-0.13846752,0.054647908,-0.013679233,-0.07194765,0.25106716,-0.32899445,-0.011675869,-0.018248416,-0.0752444,-0.09515385,-0.083620295,0.33362743,0.070860475
s1-AAGCATCAAGCGTGAT-1,0.09718396,-0.046069015,-0.06457469,0.38825345,0.095725656,-0.027661886,0.32566735,0.08079704,0.10576558,0.0652005,-0.13040596,-0.04029359,-0.20702247,-0.3582243,0.040959902,0.3233235,-0.19992998,0.061435744,-0.09507132,-0.11307423,0.06907992,-0.05990968,-0.083724454,0.28768376,-0.30263722,-0.032763008,-0.04336711,-0.027200336,-0.112619534,-0.10037403,0.32832044,0.06959193
s1-AAGCATTGAGTGGTTG-1,0.073774144,-0.017691633,-0.043162033,0.39617318,0.078505926,-0.024440344,0.33904758,0.03856988,0.11368495,0.043673635,-0.1457311,-0.012656718,-0.20474899,-0.38637328,0.04326259,0.3388632,-0.19154453,0.0891913,-0.08750448,-0.11264878,0.07009505,-0.069208845,-0.04898478,0.26723087,-0.30919933,-0.07872635,-0.025412168,-0.053682536,-0.098932885,-0.09184013,0.30021438,0.053544156
s1-AAGCCACCATTCAAGA-1,0.008179085,-0.03543786,-0.03640885,0.40691683,0.09844018,-0.027936455,0.2758619,0.08252195,0.079212666,0.054728676,-0.13598904,0.009808751,-0.20782818,-0.40572953,0.067030005,0.34329367,-0.18483609,0.09771401,-0.08436846,-0.13917872,0.09778516,-0.092493914,0.0010518599,0.27449396,-0.27682132,-0.12197798,-0.015876506,-0.056010522,-0.114397496,-0.14758313,0.26690912,0.055720642
s1-AAGCCACTATGTCTAA-1,0.08724504,-0.051147077,-0.10226046,0.38185185,0.03982706,0.055088684,0.39676958,-0.11745235,0.009824218,-0.10544315,-0.16364786,0.036859304,-0.26644632,-0.2427853,0.08387614,0.25808668,-0.27016175,-0.007493889,-0.016176222,-0.17565435,-0.038265187,0.0016969866,0.048022803,0.25058618,-0.27485037,-0.10982378,0.010092619,-0.14241403,-0.047180116,-0.14524823,0.31350332,0.10010881
s1-AAGCCAGATATCAGAA-1,0.031171061,-0.028138269,-0.02312246,0.41441023,0.07387506,-0.03423917,0.2910134,0.04695727,0.07840562,0.036667965,-0.15259835,0.0034406222,-0.19586119,-0.4241716,0.052136313,0.3582477,-0.17515472,0.1105479,-0.07509355,-0.13949145,0.08382426,-0.090068355,-0.012353935,0.25804594,-0.2749349,-0.11257486,-0.0153347915,-0.073023275,-0.11848848,-0.11563122,0.2706632,0.07107879
s1-AAGCCAGATCCAACAT-1,-0.30327827,0.046949465,0.016945727,-0.24869809,-0.018075973,0.17460175,-0.3758448,-0.06865823,-0.18509945,-0.023376202,0.08867297,0.17997149,0.11220576,0.19876492,-0.01055942,-0.1683357,0.29282707,0.06764512,0.06887177,-0.049732335,-0.0949965,-0.10479432,0.28284013,-0.2193703,0.17719847,-0.28739262,0.0879983,-0.11080933,0.042908728,-0.0989134,-0.3167417,0.014971986
s1-AAGCCAGGCCGACGTG-1,0.050950512,-0.009490978,-0.021944158,0.41650623,0.03327305,-0.0048357015,0.34115434,0.055268392,0.13250278,0.022586863,-0.18127114,-0.009740438,-0.19772542,-0.38062775,0.041800305,0.35226673,-0.17079891,0.10433286,-0.093091466,-0.10517116,0.07040083,-0.09128212,-0.021802578,0.23512009,-0.29973805,-0.08377788,-0.01103837,-0.05105839,-0.12806186,-0.097266525,0.27381346,0.040636837
s1-AAGCCAGGCTGCTTGA-1,0.002042607,-0.025072347,-0.019308463,0.40812373,0.09019694,-0.005834234,0.27041322,0.05767478,0.06925193,0.04984956,-0.15921384,0.031045143,-0.19345048,-0.41417384,0.06502451,0.3660044,-0.16816938,0.11869486,-0.08245048,-0.15207037,0.09063439,-0.11502668,0.030729467,0.2464892,-0.2681045,-0.16373825,-0.0038504426,-0.08380224,-0.117407635,-0.14018463,0.24137233,0.084162846
s1-AAGCCAGGTTACGAAC-1,0.07301743,-0.045977294,-0.05116781,0.40411103,0.091327354,-0.02792048,0.3232752,0.07121587,0.08567101,0.059242636,-0.13202374,-0.01867788,-0.21759179,-0.37095374,0.048949473,0.3336277,-0.19654699,0.06356939,-0.08879286,-0.12018189,0.06922692,-0.06300462,-0.05461487,0.2766512,-0.2972362,-0.06558509,-0.022835908,-0.048952274,-0.11224659,-0.122595035,0.3110305,0.05699852
s1-AAGCCATCCGTGCTAT-1,0.1700345,-0.039770298,-0.09005006,0.34320945,0.08841625,-0.05847845,0.37436837,0.13865566,0.18538764,0.10221155,-0.09596078,-0.09007177,-0.18805473,-0.28230175,0.021300957,0.27064088,-0.18306066,-0.0095874835,-0.15014035,-0.05420717,0.058252923,-0.0216541,-0.18956593,0.2765367,-0.31695622,0.07706189,-0.0754493,0.034601882,-0.10326572,-0.04293491,0.3410203,-0.009151677
s1-AAGCCATCGCGATATG-1,-0.0076222452,-0.034499634,-0.041889433,0.41061005,0.04740996,0.014440598,0.27724528,-0.025288742,0.038548283,-0.0021647795,-0.16984333,0.03899865,-0.20210966,-0.41268277,0.065409616,0.35709038,-0.17432448,0.13954386,-0.06823133,-0.1700501,0.068789355,-0.09101556,0.05225681,0.24218807,-0.26778072,-0.17863442,0.040839765,-0.121785425,-0.1070285,-0.14087102,0.23213509,0.08447901
s1-AAGCCATTATCGAAGG-1,-0.37306732,0.031129032,0.09541708,-0.0189122,0.0022460772,0.06525303,-0.31128892,-0.0057005463,-0.1742594,-0.055906907,0.063360475,0.21246654,0.104630046,-0.036639445,0.080062434,0.0684605,0.1761962,0.16158068,0.083814785,-0.084511295,0.028325997,-0.10896778,0.38796866,-0.11143103,0.23583244,-0.3675583,0.06099067,-0.19507888,0.056385346,-0.1345833,-0.34242368,0.025527775
s1-AAGCCATTATCTGCCA-1,0.13519292,-0.020851366,-0.07489458,0.35579777,0.10557529,-0.04824935,0.36090934,0.13887747,0.18010712,0.096808136,-0.11920723,-0.08782035,-0.18102962,-0.31427157,0.0015992569,0.29130176,-0.16492045,0.03397966,-0.13371593,-0.075316496,0.061059788,-0.044997536,-0.15822843,0.2678976,-0.3277784,0.012665012,-0.06466954,0.005123603,-0.106185675,-0.05979429,0.34278387,0.008723409
s1-AAGCGAGGAAGTGAAC-1,0.09880468,0.056322426,0.07890543,0.24574281,-0.07167052,-0.06463266,0.2601839,-0.31672502,-0.054002643,-0.24324179,-0.047989532,0.08280687,-0.22014394,-0.251372,0.102325805,0.2944246,-0.41479027,0.0073039653,0.06171702,-0.15655145,0.016904818,0.09932246,0.25106704,0.14513834,0.026214773,0.035914354,0.09634269,-0.21041529,0.10959906,-0.17519826,0.15448338,0.19386247
s1-AAGCGTTCGTCTGTCC-1,0.11407326,-0.030376421,-0.095498174,0.37886775,0.044647258,-3.8885046e-05,0.35958278,-0.037222203,0.08703516,0.0027703997,-0.1604469,-0.029469362,-0.2349774,-0.3405848,0.041970514,0.32908463,-0.23072886,0.094016045,-0.061354518,-0.14829698,0.07828562,-0.016592102,-0.03613413,0.26861072,-0.30472565,-0.037914764,-0.0016815625,-0.075201645,-0.09647793,-0.095222026,0.30313224,0.0743835
s1-AAGGACATAACCGCAC-1,-0.17045477,0.06794952,0.1458617,-0.28580168,-0.08970243,-0.04765465,-0.39753795,-0.038108088,-0.09038809,-0.04844679,0.108908504,0.043220527,0.2763212,0.21934414,0.040025234,-0.24664238,0.18013513,-0.02327559,0.121607125,0.11852756,0.045696378,0.00080147036,0.109581016,-0.32096162,0.39978874,-0.05816701,0.031888112,0.002027625,0.10736599,0.07664998,-0.3385399,0.014074321
s1-AAGGACCAACATGGCT-1,0.1331553,-0.0078003826,-0.015451912,0.39046553,0.04485243,-0.05948504,0.36650848,0.0646719,0.16595845,0.029424556,-0.13582197,-0.04180117,-0.1898658,-0.37229073,0.036027294,0.32106727,-0.24442284,0.033240132,-0.11203699,-0.079969645,0.07369346,-0.046652872,-0.09351566,0.25279474,-0.2722659,0.02024897,-0.051781815,-0.01804223,-0.08466075,-0.057175316,0.30579218,0.031412646
s1-AAGGAGGCACTCAATT-1,0.0540858,-0.013574718,-0.07830777,0.3920783,0.025176851,0.025709711,0.32015586,-0.06166253,0.059172492,-0.004032643,-0.17724752,0.0057542953,-0.21825704,-0.3696468,0.05269552,0.3530407,-0.20979965,0.12787306,-0.060908154,-0.17513108,0.08087999,-0.051262558,0.029761065,0.24535376,-0.29708272,-0.12715492,0.036395263,-0.10426219,-0.10082121,-0.11796042,0.263358,0.08073176
s1-AAGGCAGTCTGATCAC-1,-0.0019545243,0.0076050265,-0.04657972,0.40512297,0.011747807,0.060406916,0.2883829,-0.056295622,0.0618301,-0.02713782,-0.18342309,0.05525028,-0.19136542,-0.39003682,0.051956914,0.35012856,-0.19525659,0.1273674,-0.062936604,-0.1904431,0.063278705,-0.10544224,0.09903864,0.23289633,-0.26652372,-0.206114,0.07023984,-0.12904969,-0.10177358,-0.12707378,0.20874225,0.0860496
s1-AAGGCATGAACAGCTC-1,0.09424632,-0.036348484,-0.06861876,0.38417995,0.06964271,-0.028856158,0.336164,0.033270072,0.09864503,0.041792776,-0.13865268,-0.034925155,-0.21523157,-0.36468667,0.05182023,0.33968592,-0.21164349,0.07842037,-0.07878314,-0.1271248,0.07680552,-0.039831445,-0.064826936,0.28011668,-0.30114335,-0.039368276,-0.020269215,-0.054724187,-0.10577169,-0.0943165,0.31342167,0.0629314
s1-AAGGCCAATTCAATAA-1,-0.11502305,-0.038970944,-0.062417388,0.35450375,0.07158683,0.15016654,0.21951416,-0.04043793,-0.0036297496,-0.0030894678,-0.19370687,0.08914155,-0.22072786,-0.326581,0.050623067,0.31190586,-0.023435196,0.17080092,-0.015433555,-0.20250165,0.008367345,-0.1487149,0.16934815,0.20315748,-0.29341078,-0.30447903,0.07809814,-0.1836701,-0.13141935,-0.1762555,0.1668491,0.11427383
s1-AAGGCCAGTCGCAATT-1,0.16499224,-0.02342717,-0.062182732,0.34985632,0.10000104,-0.06462828,0.37340453,0.13321704,0.16812108,0.08602772,-0.099041566,-0.0929816,-0.19696316,-0.29715025,0.027714998,0.28240293,-0.20889789,0.00880886,-0.11273429,-0.05059924,0.060144816,-0.017135281,-0.17814276,0.269306,-0.31795752,0.0669144,-0.08372149,0.035325304,-0.09203105,-0.043504223,0.3466723,0.0053662593
s1-AAGGCCGACCTACCTG-1,0.023612615,-0.023945544,-0.08716257,0.3848332,0.020197887,0.07544957,0.33399576,-0.023949645,0.096574225,-0.03162434,-0.17632583,0.013852887,-0.21404923,-0.3488881,0.021293484,0.35623837,-0.13815744,0.13523188,-0.051091876,-0.16712411,0.049464222,-0.07813326,0.021367975,0.25879443,-0.3414445,-0.13093466,0.014700516,-0.13210554,-0.11307733,-0.09480263,0.2505198,0.058354586
s1-AAGGCCGACTATGTAA-1,0.11758757,-0.022684116,-0.067349896,0.37554646,0.0891338,-0.023211444,0.35728133,0.07183858,0.15420854,0.047797844,-0.14019099,-0.05552253,-0.20079136,-0.3367242,0.026020974,0.31993014,-0.1834907,0.06633191,-0.090220235,-0.0814182,0.065823466,-0.046214417,-0.12015984,0.26280612,-0.33108193,0.00091060624,-0.055976924,-0.017949145,-0.115557395,-0.063576594,0.33224005,0.02756564
s1-AAGGCCGATTCTGAGC-1,-0.26402053,0.030284915,-0.12679306,-0.13917482,-0.1349646,0.30870724,-0.2724377,-0.21593398,-0.1165751,-0.02714823,-0.03457311,0.20604046,0.10256626,0.14136498,-0.061747164,-0.13382152,0.29912803,0.12010735,0.033978,-0.09804948,-0.07374306,-0.203552,0.2700451,-0.19365731,-0.0018302993,-0.3922451,0.089226656,-0.1385432,-0.067419745,-0.05439596,-0.26249593,0.022878304
s1-AAGGCCTCGCGAGGAA-1,-0.31857857,0.031737417,0.02879696,-0.19536948,-0.0026198043,0.16431588,-0.39258474,0.01588874,-0.17246595,-0.011230073,0.084110044,0.18334706,0.09469104,0.1406735,-0.044548742,-0.13914686,0.31963187,0.09414864,0.071510576,-0.046121858,-0.056708228,-0.153025,0.27636603,-0.180547,0.18121564,-0.30923826,0.108091384,-0.13830921,0.009273377,-0.115480155,-0.3227362,0.01591157
s1-AAGGCGAACTAGTAGA-1,0.16491039,-0.023339242,-0.061888795,0.35446328,0.099778816,-0.050466985,0.3798404,0.10439266,0.16898191,0.061602686,-0.1282192,-0.09322609,-0.20717618,-0.28929204,0.01890563,0.27768952,-0.20811057,0.014776838,-0.10035591,-0.049594544,0.06390147,-0.017388485,-0.1787332,0.2620281,-0.3155617,0.06798262,-0.079705015,0.032391705,-0.08743358,-0.034503784,0.35675928,0.018826224
s1-AAGGCGACGGTGTCGG-1,0.097252935,-0.030317752,-0.074089214,0.3747182,0.11567482,-0.023944931,0.3328778,0.12520158,0.14623567,0.09818545,-0.11532597,-0.043809365,-0.19598667,-0.34084556,0.033169933,0.29889786,-0.18059513,0.045407757,-0.12489791,-0.10302507,0.06565116,-0.05092485,-0.10684952,0.28943217,-0.32273912,-0.025513725,-0.05811488,-0.011246152,-0.12035353,-0.08568087,0.32034773,0.028053083
s1-AAGGCGAGGTTCATGT-1,0.19237007,-0.03304414,-0.11493418,0.36309814,0.052774306,-0.017565945,0.44239545,-0.046532966,0.10602173,-0.03453155,-0.1651159,-0.06596171,-0.23898084,-0.20777181,0.048955426,0.24156865,-0.27387023,-0.023926996,-0.05851952,-0.10187886,0.0005727655,0.040151168,-0.10642154,0.24702048,-0.30404598,0.0416742,-0.05024097,-0.03567469,-0.07337403,-0.07258113,0.36670867,0.051645294
s1-AAGGCGCCGACAATCT-1,0.09687103,-0.033570446,-0.043782577,0.38974005,0.09430353,-0.04336168,0.34462795,0.09601483,0.16031319,0.06691015,-0.12689155,-0.08181697,-0.18843639,-0.35083282,0.043816112,0.3411622,-0.18071833,0.073820665,-0.071113884,-0.082196645,0.11453569,-0.03261019,-0.102815256,0.26872596,-0.28261894,0.0009439178,-0.07759094,-0.009960199,-0.11970328,-0.071103215,0.30891478,0.061256558
s1-AAGGTGATCCGTGACG-1,-0.09277304,0.13378334,0.1475403,0.44848335,0.119456574,0.043539412,0.2016326,0.028377343,0.13688645,0.025471097,-0.19310814,0.05048023,-0.09081313,-0.3885138,0.106597275,0.3770677,-0.08550504,0.13887885,0.056365035,-0.14365846,0.20138937,-0.17426306,0.12149915,0.0741193,-0.15289706,-0.30647045,0.014421409,-0.09750499,-0.07212242,-0.008989178,0.067853615,0.16605589
s1-AAGGTGCCGCTAAGGT-1,-0.25290507,0.0042812396,0.010969853,-0.30963898,0.0050320495,0.060402554,-0.46679434,0.017991517,-0.20386793,0.027022041,0.13378534,0.113487214,0.18330395,0.24575165,-0.002265126,-0.27271268,0.25343984,-0.008655249,0.017652256,0.010291249,-0.06803084,-0.033124216,0.17411593,-0.21868807,0.2946664,-0.13139725,0.06603279,-0.03148622,0.034161504,-0.0728621,-0.3233096,0.010681441
s1-AAGGTGGATATGATCG-1,0.003495749,-0.04021983,-0.040567912,0.39634776,0.11034981,-0.010947075,0.28169715,0.065928645,0.07424538,0.05522017,-0.1420801,0.020006433,-0.21768087,-0.39691922,0.058445275,0.3518812,-0.1564108,0.11827204,-0.10156945,-0.13559133,0.0552522,-0.10627162,-0.0007107137,0.26657814,-0.29449287,-0.13302001,0.0008635479,-0.08566435,-0.12160278,-0.14278829,0.26910743,0.04609928
s1-AAGGTTCATGCGGTGC-1,-0.17419657,0.035203658,0.058854252,-0.3025772,-0.14608508,0.047409505,-0.35458487,-0.093216695,-0.1022785,-0.09637125,0.09869762,0.044018634,0.260763,0.2851336,-0.009235972,-0.26236966,0.21248198,0.0052977237,0.13488919,0.070668414,-0.03453412,0.0076936726,0.16252032,-0.300359,0.35406947,-0.070782125,0.057367273,-0.04714401,0.061631583,0.081896886,-0.3545633,-0.022480536
s1-AAGGTTGCAGAAGCAG-1,0.007250175,0.24942796,0.23119754,0.21061863,-0.07927626,0.10350613,0.2022618,-0.30810958,0.05937586,-0.1893156,-0.10761564,0.17588931,-0.070386626,-0.25019225,0.010528081,0.3259437,-0.07116373,0.09918504,0.14338578,-0.10457127,-0.02692854,-0.19393821,0.30274528,-0.065886565,-0.05176599,-0.24879646,0.18549103,-0.2127167,0.047837026,-0.05501184,-0.061385572,0.2566966
s1-AAGGTTGCTGAGTTGA-1,0.10145295,-0.026642703,-0.04844105,0.3810292,0.09351828,-0.029621378,0.33985674,0.07629219,0.123599336,0.059765484,-0.11982117,-0.036756754,-0.21005979,-0.35725164,0.035089612,0.33611816,-0.2038567,0.056458175,-0.09136957,-0.095541604,0.077538535,-0.046253055,-0.098118976,0.27344486,-0.32040244,-0.027236616,-0.044581402,-0.028254598,-0.092616014,-0.087928586,0.32667142,0.024545914
s1-AAGTACTAAGGTTACG-1,0.06018246,-0.036278076,-0.07914727,0.38192764,0.072334275,-0.023387576,0.32157576,0.118449,0.12936765,0.082534105,-0.13540184,-0.015261404,-0.1762348,-0.38301083,0.03624545,0.3329163,-0.16068982,0.070623174,-0.14137585,-0.11342937,0.06899619,-0.07080439,-0.07371026,0.28367445,-0.30656683,-0.05156783,-0.055496335,-0.029535513,-0.13131829,-0.11400016,0.29247218,0.023400111
s1-AAGTACTACAGTAGAA-1,0.1738315,-0.03282127,-0.053640127,0.3642026,0.028669786,-0.09290087,0.42026544,-0.016930642,0.11400205,-0.055544727,-0.10983351,-0.022248989,-0.24810973,-0.29401147,0.06651534,0.28001946,-0.30735603,-0.017381825,-0.05970073,-0.08660859,0.03262443,0.049907133,-0.05352238,0.27827397,-0.22932735,0.087383375,-0.071796104,-0.053554393,-0.025341164,-0.091055304,0.32947743,0.049525954
s1-AAGTACTGGATGCGCA-1,0.050414048,-0.056933127,-0.12580848,0.3814325,0.06652722,0.10979678,0.29482666,0.0075155934,0.08037108,0.013030289,-0.2225281,0.0053271228,-0.22608808,-0.30991656,0.011510687,0.29919744,-0.103813216,0.14080986,-0.055847995,-0.16577435,0.01603793,-0.12217333,-0.0163719,0.24731243,-0.35757756,-0.1478577,0.030251175,-0.1048842,-0.15814781,-0.09846489,0.2908488,0.11229704
s1-AAGTATTGTAGGTCGC-1,-0.23243904,0.13870472,0.1670858,-0.19359124,-0.09695504,0.058386438,-0.38495654,-0.1605269,-0.14219795,-0.08072625,0.031305406,0.09875162,0.19468153,0.13439357,0.026057985,-0.11661665,0.16661274,0.088823214,0.17841887,-0.008719569,0.01750775,-0.10616669,0.24324504,-0.30337238,0.28706992,-0.17480609,0.15522859,-0.08908681,0.055709004,0.011316172,-0.37899184,0.13167989
s1-AAGTCGCTATCCTGTC-1,0.073432,-0.011405978,-0.039993472,0.40138137,0.055570513,-0.01917983,0.35915357,0.038476102,0.11825895,0.025726927,-0.1555982,-0.012253548,-0.20625189,-0.36516342,0.055473477,0.34552118,-0.1792683,0.08763532,-0.076807894,-0.111265525,0.061150253,-0.05397881,-0.03720231,0.26479936,-0.3086543,-0.062947035,-0.02286719,-0.054398566,-0.11906521,-0.0995338,0.2999376,0.039176203
s1-AAGTCGGACACTTCAG-1,0.031369105,-0.020996463,-0.031146847,0.40028483,0.05358576,-0.017275453,0.31784433,0.015853807,0.08205894,0.012764562,-0.16343552,0.0144176865,-0.20223467,-0.40473193,0.05639515,0.36021098,-0.1857028,0.12024947,-0.06524633,-0.14208962,0.090771854,-0.080146,-0.00522023,0.25038433,-0.29546613,-0.12454441,-0.0024328802,-0.08972817,-0.087518804,-0.1089762,0.269827,0.06012194
s1-AAGTCTACCGGTTGGA-1,0.14816302,-0.025744006,-0.09665391,0.38037375,0.05291937,-0.0062635886,0.39636582,-0.04594055,0.12050535,-0.01230071,-0.17583719,-0.057034917,-0.23204431,-0.28977072,0.043010034,0.3051975,-0.2382923,0.057479583,-0.062418725,-0.12202601,0.057939492,0.01368783,-0.08592503,0.24688362,-0.31409374,0.01175565,-0.034336343,-0.048164174,-0.08914992,-0.0730598,0.33001682,0.057671
s1-AAGTCTGTCAATTCTT-1,0.08646332,-0.03591116,-0.048463274,0.3882653,0.083899595,-0.028992431,0.33538342,0.071771644,0.11028373,0.046293683,-0.12611416,-0.023050064,-0.21328357,-0.3727188,0.03995158,0.33608264,-0.19641356,0.06803177,-0.08320831,-0.113341756,0.06808629,-0.06320055,-0.068140954,0.28797215,-0.3071224,-0.05274903,-0.040346764,-0.04302158,-0.10081278,-0.09864918,0.31508327,0.0464582
s1-AAGTCTTAAGTTGCCA-1,0.10274848,-0.0056927814,-0.05097969,0.4022271,0.05965438,-0.02116698,0.36094093,0.06738275,0.15748984,0.03702663,-0.14780459,-0.039262667,-0.18530968,-0.35368448,0.0280364,0.3377822,-0.18002322,0.0670197,-0.09276871,-0.079844825,0.073477924,-0.056330252,-0.09307648,0.26756275,-0.31479955,-0.02630874,-0.047729954,-0.022027915,-0.11423803,-0.05663471,0.3100872,0.017260386
s1-AAGTGAGCCTGTTACA-1,-0.3147966,0.030229826,-0.0039381767,-0.08707867,-0.056277,0.23600486,-0.26790923,-0.10730981,-0.16771847,-0.033213884,-0.013931088,0.2106953,0.059691146,0.06187416,-0.048034243,-0.01660387,0.28985566,0.17644234,0.027945977,-0.13240536,-0.0996096,-0.20521083,0.34335598,-0.1596865,0.04224529,-0.4074191,0.17375311,-0.20902829,-0.035998523,-0.10354319,-0.2660514,0.06320818
s1-AAGTGGACGAATCTAC-1,0.09706663,-0.034406833,-0.069577456,0.38615978,0.047699045,-0.0138854,0.3588779,-0.06458695,0.046066646,-0.024824277,-0.15660445,-0.009016502,-0.23469268,-0.3466969,0.06327388,0.33495167,-0.25062305,0.07342736,-0.04727706,-0.1685808,0.07119523,-0.012952006,0.0028286304,0.25418365,-0.27129504,-0.06865558,0.014068405,-0.10228135,-0.076428145,-0.12751615,0.29820424,0.09393324
s1-AAGTGGCGAAGTTAAT-1,-0.18370175,0.0019157003,-0.17746384,-0.08422846,-0.06082248,0.41724616,-0.038203593,-0.2262986,-0.017333603,-0.17586578,-0.05765751,0.0998587,0.04318066,0.24485922,-0.11910869,-0.079847835,0.37202096,0.084296584,0.10534279,-0.044753123,-0.21750139,-0.20253798,0.09906252,-0.14283831,-0.24273649,-0.34410518,0.07789962,-0.26989803,-0.06127258,-0.0013360679,-0.09191523,-0.030414578
s1-AAGTGGCGAGTGTACA-1,0.086692944,0.018118303,-0.11315769,0.37254727,0.015281722,0.12214661,0.3914847,-0.09658925,0.14049721,-0.036199186,-0.21036845,-0.016387956,-0.21756548,-0.25015518,0.004540176,0.3253818,-0.15843241,0.12389076,-0.036283746,-0.13928089,0.031591304,-0.07916556,-0.023361646,0.19730751,-0.38733405,-0.12871766,0.01903329,-0.09479884,-0.1066195,-0.050090134,0.2730015,0.052606836
s1-AAGTGGTTCCTCGCGT-1,0.099394694,-0.03735414,-0.07574756,0.38548857,0.065559015,-0.013854841,0.35041976,0.018883329,0.10426611,0.019242633,-0.14101401,-0.032724313,-0.23107201,-0.34193757,0.038013745,0.3268302,-0.21109042,0.083517835,-0.07078425,-0.123906575,0.07090987,-0.029528953,-0.06187785,0.27022555,-0.31141216,-0.027020846,-0.025153585,-0.0573612,-0.10481426,-0.097336575,0.31539905,0.05682873
s1-AAGTTAAGCACTATAA-1,0.08798508,-0.030590542,-0.06180477,0.3880992,0.06098096,-0.0065412545,0.34852448,0.067392305,0.14086446,0.037479006,-0.15397193,-0.027031701,-0.19324762,-0.36257347,0.03233736,0.3487451,-0.16589713,0.08537925,-0.08794774,-0.10271519,0.069117755,-0.08109401,-0.07862376,0.26707202,-0.32151353,-0.057081122,-0.044471346,-0.034948863,-0.123049386,-0.07580137,0.30305213,0.037729338
s1-AAGTTACTATTACATC-1,0.1360212,-0.011501255,-0.06372848,0.3570856,0.08829325,-0.07140578,0.3765539,0.13527651,0.20327047,0.091211975,-0.082306765,-0.06156875,-0.19177896,-0.31720608,0.018122628,0.2913337,-0.17398131,0.0038378895,-0.12719555,-0.041036703,0.059868,-0.028410785,-0.14429718,0.28229865,-0.32461,0.04314843,-0.08308594,0.0236997,-0.098283,-0.04075525,0.32809037,-0.014519936
s1-AAGTTCCTATTGCTGG-1,0.1227074,-0.040149562,-0.0735363,0.35686588,0.10170479,-0.02779096,0.35146987,0.12350735,0.15628278,0.092937976,-0.10582772,-0.07137857,-0.21009311,-0.3299104,0.02032683,0.30324385,-0.18394727,0.025344716,-0.11636129,-0.058395766,0.049009755,-0.054655083,-0.12516794,0.28706127,-0.33412382,0.01707926,-0.06483689,0.0029049623,-0.1070234,-0.07191745,0.33349544,0.030187089
s1-AATAACATGTGCTATG-1,0.07058102,-0.027819587,-0.042171095,0.41223967,0.07866126,-0.018823793,0.3165354,0.06781668,0.093882956,0.04631193,-0.16131154,-0.021914585,-0.20982414,-0.37636185,0.05013501,0.33996242,-0.19729821,0.098825954,-0.07461795,-0.13339043,0.086931676,-0.083315775,-0.04938015,0.25148153,-0.29522258,-0.08296583,-0.008795485,-0.04658394,-0.12262845,-0.10009971,0.29637527,0.07515886
s1-AATAACATGTTACGTC-1,0.03939145,-0.05794111,-0.11388554,0.38281566,0.0655002,0.047131084,0.30575508,0.04069868,0.07959537,0.02870767,-0.19561774,0.011387567,-0.23863673,-0.31964046,0.018875342,0.29689384,-0.14266093,0.1297943,-0.0887035,-0.17103648,0.025763031,-0.091429725,-0.01661227,0.2412681,-0.3460123,-0.14185879,0.027871445,-0.06881328,-0.15360522,-0.13398227,0.31325942,0.09503512
s1-AATAACGTAACTGTGA-1,0.08816041,0.004847779,-0.03872845,0.39161128,0.09142253,0.0047693644,0.37605688,0.050338566,0.13831519,0.0335056,-0.14070128,-0.021942057,-0.20537543,-0.3455386,0.042879485,0.34764105,-0.18882075,0.067466296,-0.08660703,-0.12176484,0.061705314,-0.062737636,-0.06505017,0.24628592,-0.32146645,-0.05893795,-0.034831498,-0.045439232,-0.092278175,-0.07800803,0.30061692,0.039167546
s1-AATAACGTATTGAACA-1,0.04796301,-0.03862458,-0.053952046,0.39993483,0.074932575,-0.028962772,0.30892813,0.055208772,0.10406227,0.05880823,-0.14859328,-0.03553596,-0.18900765,-0.40017793,0.05415467,0.35727337,-0.16603366,0.105015494,-0.07813442,-0.1126109,0.08707574,-0.06250268,-0.04982139,0.28524822,-0.28964728,-0.07978079,-0.02993267,-0.056150883,-0.1242751,-0.09447,0.2907629,0.0649879
s1-AATAACTCTACGATGT-1,0.018194921,-0.0056674816,-0.026145272,0.40646303,0.06302611,0.010330942,0.3307363,0.03725851,0.1055841,0.023117742,-0.14125957,0.023439303,-0.20359455,-0.37753418,0.054103617,0.35900822,-0.1652238,0.09921918,-0.07273493,-0.13035002,0.05216199,-0.08224559,0.017892364,0.2527966,-0.29858553,-0.12171367,-0.010149682,-0.074973404,-0.115658976,-0.13440174,0.27587467,0.045466073
s1-AATAACTTCATACGGA-1,-0.35827973,0.012557073,-0.026762208,0.066165134,-0.04120569,0.19458911,-0.1612753,-0.0635634,-0.12719518,-0.025224665,-0.081948556,0.25271145,0.02660191,-0.06930067,0.068355724,0.06780572,0.23083541,0.21053705,0.022182181,-0.12694842,-0.07533145,-0.19422187,0.38225484,-0.050696503,0.01772749,-0.5065431,0.07905343,-0.18884227,-0.07537387,-0.14913768,-0.2020753,0.007887014
s1-AATACGAGAACACTCG-1,0.11099812,-0.02032495,-0.06304167,0.41105235,-0.013165425,-0.017516874,0.37336624,-0.123014785,0.03893512,-0.094830275,-0.17001827,0.057810776,-0.22160451,-0.33123243,0.078415744,0.2769549,-0.3075205,0.012860749,-0.06824885,-0.16798103,0.0027776395,-0.010209434,0.07903679,0.23903498,-0.21086465,-0.08116701,0.021811044,-0.14766723,-0.053048,-0.13251983,0.2730084,0.102088265
s1-AATACGGTACGGCCTA-1,0.08633928,-0.043568715,-0.07542143,0.39090645,0.07231855,-0.019390445,0.32690609,0.032712165,0.09007822,0.03721627,-0.14419404,-0.034163002,-0.22098461,-0.35863408,0.053386472,0.33807313,-0.20766094,0.08923112,-0.07322158,-0.13732016,0.0751214,-0.04308582,-0.058414556,0.274526,-0.30103695,-0.042500805,-0.013459334,-0.058956854,-0.11784345,-0.102618515,0.31253535,0.06361622
s1-AATACGTAGACAGTTA-1,0.03262283,-0.04578183,-0.11494811,0.38902158,0.034124933,0.09603879,0.2906528,-0.040771887,0.0348638,0.019930193,-0.19262427,0.010368521,-0.21446025,-0.32789332,0.047954593,0.30024806,-0.16003296,0.12977228,-0.066406205,-0.19512793,0.02811742,-0.11397532,0.027343076,0.24559891,-0.32942402,-0.18377367,0.06290004,-0.11458783,-0.1451681,-0.13112468,0.27892426,0.1127464
s1-AATACTAACCACTTAT-1,0.04832744,-0.037320938,-0.042547688,0.41748154,0.07027794,-0.013966872,0.30346757,0.0696432,0.09189845,0.048516788,-0.15957424,-0.006836282,-0.22103131,-0.38726386,0.052235775,0.3358893,-0.16952643,0.10976178,-0.0875493,-0.13197336,0.07817817,-0.084120005,-0.03845773,0.2543752,-0.29840672,-0.089833155,-0.018364068,-0.05878539,-0.13003032,-0.11961627,0.28796542,0.06857718
s1-AATAGATAGCCTAACC-1,0.0965071,-0.026021825,-0.0503676,0.3844142,0.082358636,-0.032204088,0.3462424,0.071441635,0.12429503,0.064830445,-0.13986462,-0.046434388,-0.19975987,-0.3635125,0.037377376,0.33315152,-0.1967203,0.066554695,-0.104839414,-0.09807271,0.061131883,-0.059120007,-0.08348426,0.27608043,-0.31131244,-0.03460505,-0.042069547,-0.025404092,-0.110373706,-0.08792785,0.32250297,0.039751716
s1-AATAGCACGGAAGCGA-1,0.014488434,-0.03413057,-0.03022644,0.42385685,0.059272677,-0.026776893,0.28934354,0.052884266,0.09568666,0.031975124,-0.14415923,-0.0070948377,-0.19159909,-0.40268153,0.06334327,0.38647133,-0.15419042,0.118500665,-0.06184089,-0.13973247,0.09155405,-0.09038494,0.009959867,0.2556612,-0.27898142,-0.12196551,-0.032342467,-0.090250306,-0.103176534,-0.119084895,0.24892013,0.08065902
s1-AATAGTATAGTTGTCG-1,-0.069450155,-0.0067215525,-0.060445014,0.37047523,0.033438772,0.13360918,0.2749135,-0.033421565,0.06497627,-0.023198472,-0.18511385,0.06726982,-0.19456735,-0.34516692,0.050303824,0.35198015,-0.06973776,0.1585396,-0.013788349,-0.18714094,0.020318095,-0.14844851,0.12343028,0.22295673,-0.32817852,-0.26124424,0.04491691,-0.15535213,-0.13038528,-0.13590609,0.18436527,0.06504095
s1-AATAGTCGTTATCTAG-1,0.05598598,-0.031068482,-0.05533486,0.39246684,0.07373422,-0.010080026,0.32804427,0.04233291,0.11130798,0.05310202,-0.123064324,-0.020944271,-0.1903171,-0.39098072,0.036521446,0.33985302,-0.17549367,0.08512315,-0.09911983,-0.1179301,0.06579515,-0.06915087,-0.039671894,0.27934772,-0.31461865,-0.0863087,-0.022228278,-0.07105721,-0.114089325,-0.10416655,0.2942366,0.03313267
s1-AATAGTGCTCATAGAA-1,-0.04285167,0.05284641,-0.007275096,0.37859637,-0.00408772,0.123306274,0.2923144,-0.101894915,0.0806339,-0.05427257,-0.25909102,0.05054242,-0.14304839,-0.34015387,0.031216186,0.37833482,-0.05556834,0.18548056,-0.06534124,-0.18190297,0.029992722,-0.18331242,0.08361046,0.11330153,-0.29823467,-0.24155056,0.11400041,-0.17117432,-0.14729676,-0.072500415,0.14886391,0.0640925
s1-AATAGTGGAAGAGCAT-1,0.093286134,-0.04574955,-0.06493082,0.38659054,0.093492866,-0.04859623,0.31822035,0.099733174,0.11972949,0.0743703,-0.12772478,-0.040578414,-0.20840524,-0.37189084,0.04062572,0.31735516,-0.1916651,0.05722427,-0.1070741,-0.09105678,0.07613212,-0.056191433,-0.10018091,0.28136432,-0.31010976,-0.01941888,-0.036915973,-0.023237206,-0.10327791,-0.0979879,0.32932088,0.039117493
s1-AATAGTTGGTGCTCAG-1,-0.012260632,-0.015813496,-0.032279506,0.3978784,0.058412597,0.036214434,0.2667239,-0.007715612,0.052855246,0.004749238,-0.18450111,0.05245947,-0.20075777,-0.39270085,0.057938557,0.36909223,-0.1617397,0.14922658,-0.04158041,-0.18815649,0.078653574,-0.11356948,0.092255935,0.24570668,-0.26498064,-0.1986374,0.047246624,-0.12622611,-0.10888544,-0.13220969,0.21613523,0.099800885
s1-AATATTAGGCTTCTGG-1,0.039180078,-0.026444454,-0.05601304,0.3927366,0.06918517,-0.0063240337,0.30572692,0.011907723,0.07732217,0.011989433,-0.15197735,0.012030464,-0.21849194,-0.3940686,0.04839237,0.35822114,-0.1998649,0.111929595,-0.06883264,-0.13938321,0.067313984,-0.078379154,0.004919921,0.27244163,-0.28524572,-0.111785516,0.0018024254,-0.09770719,-0.08513113,-0.124503344,0.2773773,0.07491612
s1-AATCCGACCACGGTCC-1,-0.20673735,0.013739979,0.043543253,-0.32895866,-0.07166157,0.036548287,-0.42784834,-0.03640041,-0.17162333,-0.029990934,0.13799101,0.07199329,0.21881431,0.26843023,-0.0041675745,-0.2785366,0.22886875,-0.008637531,0.068134636,0.048182923,-0.05604527,-0.006664798,0.15184377,-0.26224697,0.32851282,-0.080243334,0.07786739,-0.032279182,0.0569581,-0.015598487,-0.34499797,-0.0008986278
s1-AATCCGCCGACCTGAG-1,-0.003680165,-0.029235922,-0.02485065,0.40656394,0.05780719,-0.0009989303,0.27334344,0.013251031,0.055245526,0.022735862,-0.16421476,0.03670936,-0.20182455,-0.42595944,0.06448652,0.36104226,-0.164482,0.13319318,-0.08109558,-0.15811801,0.0735557,-0.10939699,0.03303061,0.24806386,-0.27059692,-0.17296106,0.016783213,-0.101869844,-0.10865146,-0.14183459,0.23754552,0.07488801
s1-AATCCGCCTGGTCAAT-1,0.1336093,-0.033982772,-0.07181552,0.3524099,0.0944936,-0.04260934,0.35775304,0.1402901,0.17403877,0.086471215,-0.09617106,-0.07881554,-0.17931557,-0.32125753,0.015737455,0.29116088,-0.18120766,0.014784252,-0.11901602,-0.0593241,0.06225307,-0.041911766,-0.16005808,0.29330418,-0.33018902,0.031573594,-0.081387796,0.020791627,-0.117629334,-0.044340476,0.3390002,0.0036475654
s1-AATCCGGAGCTTGTCT-1,0.04901878,-0.015212525,-0.035457544,0.4002428,0.07762618,-0.013281159,0.31812936,0.032517504,0.098735325,0.042967282,-0.15375344,-0.0028249216,-0.20177236,-0.40098163,0.05033438,0.35843638,-0.18010466,0.103431344,-0.0748019,-0.122536935,0.081798896,-0.0860457,-0.027960397,0.26344705,-0.29928643,-0.10508054,-0.006480747,-0.06590554,-0.11240456,-0.10678809,0.27987736,0.05809664
s1-AATCCTCGTCACAGGC-1,-0.011316896,-0.032337025,-0.02103472,0.4109848,0.0682127,-0.004721721,0.26750717,0.011086764,0.050232746,0.011107856,-0.15673894,0.04162215,-0.20336488,-0.42628574,0.06332781,0.36094224,-0.16893278,0.13516575,-0.06968337,-0.16023871,0.07107332,-0.10295023,0.03884713,0.2501403,-0.2632637,-0.16120689,0.023453318,-0.10645783,-0.1046277,-0.1480199,0.24454263,0.086831786
s1-AATCGAACGGACGGAG-1,0.16765216,-0.020023573,-0.0961761,0.36106086,0.074749276,-0.018200595,0.3560124,0.11309276,0.19370836,0.088142484,-0.1398715,-0.096537195,-0.19332284,-0.27962136,-0.008008934,0.26117262,-0.17787473,0.014038347,-0.15317973,-0.06364675,0.0034891032,-0.06695948,-0.14076732,0.25020808,-0.3125072,0.056573153,-0.03944517,0.038143657,-0.14835528,-0.04607526,0.35753217,0.03821916
s1-AATCGACTATCGCTAG-1,0.16475698,-0.038727187,-0.05246366,0.35907394,0.07842949,-0.08986838,0.353882,0.12837759,0.17157282,0.082554966,-0.13846153,-0.11102886,-0.17327237,-0.31444395,0.033476792,0.26601487,-0.20949566,0.01657111,-0.103003696,-0.04795645,0.07833883,-0.024068553,-0.17823659,0.26772618,-0.280127,0.07649344,-0.092030615,0.04775919,-0.124822885,-0.04897684,0.35392576,0.0359387
s1-AATCTTAGCCTCTGTC-1,0.09044734,-0.03203997,-0.052030288,0.3880139,0.08217967,-0.025535926,0.29531744,0.07832281,0.10156584,0.08566318,-0.13338202,-0.026916906,-0.20516568,-0.39514256,0.041984625,0.33445668,-0.20557675,0.06354493,-0.119915865,-0.119646,0.0821241,-0.07884253,-0.060121033,0.28304726,-0.28993323,-0.05061077,-0.025977734,-0.03429894,-0.12317246,-0.11324468,0.29666054,0.071271576
s1-AATGAACTACGTCCAG-1,0.004272286,-0.040741697,-0.033589803,0.40094858,0.06957272,-0.034910597,0.269918,0.077926636,0.088055804,0.04342123,-0.14783117,-0.012216289,-0.17864114,-0.430956,0.06283738,0.3628281,-0.15102842,0.1330257,-0.08963853,-0.13085948,0.10624625,-0.10446823,-0.020430895,0.26391023,-0.27689505,-0.11753707,-0.009928809,-0.07968968,-0.1261796,-0.1213478,0.26162818,0.068928555
s1-AATGAAGACGGTTCAG-1,0.054958645,0.05356145,-0.0039455914,0.39253575,0.05582405,0.02457401,0.36724454,-0.01686646,0.12546067,-0.02117156,-0.17083517,0.015053317,-0.21897513,-0.35640204,0.029305851,0.38022426,-0.16359511,0.12410551,-0.042039566,-0.13322681,0.06695117,-0.07486457,-0.0066009304,0.2124131,-0.3378734,-0.118082605,0.013729522,-0.07545331,-0.085923955,-0.08699917,0.25274488,0.047299974
s1-AATGAAGAGGATGTAT-1,-0.18550642,-0.0005298648,0.09574231,-0.30631632,-0.103251494,-0.024902876,-0.437136,-0.020345358,-0.16997904,-0.030983564,0.13554433,0.038059272,0.25180423,0.23165718,0.010209622,-0.2760275,0.18591824,-0.012161803,0.08202852,0.07233404,-0.020484155,0.0058929934,0.14144763,-0.27094805,0.39979014,-0.0463466,0.040896367,-0.0022267238,0.06326082,0.025032528,-0.3188262,-0.005804218
s1-AATGAATCGGAAGGCA-1,-0.23714891,0.0049180305,-0.07335532,-0.20270303,-0.12646341,0.26764083,-0.2521199,-0.17822115,-0.15171133,-0.0707726,-0.013034239,0.13226835,0.091944866,0.27214855,-0.067929536,-0.18007028,0.33654255,0.11501622,0.007975698,-0.033430103,-0.17803761,-0.1388952,0.27694046,-0.27542463,0.043648146,-0.25678343,0.16878289,-0.1573926,-0.106326535,-0.0667983,-0.25938904,0.030614376
s1-AATGATCTTGACAGCG-1,-0.31431818,0.054187875,0.09848488,-0.1270166,-0.0015493678,0.05813875,-0.39397103,-0.11999608,-0.21487547,-0.08062193,0.09758209,0.21241204,0.10548155,0.12373695,0.059463643,-0.09015202,0.15760803,0.06453501,0.04657895,-0.06494899,-0.029510785,-0.047493376,0.3281026,-0.24623224,0.27830267,-0.28314978,0.18876213,-0.17150839,0.085405104,-0.14990318,-0.2832363,0.065797165
s1-AATGATTACAACCTAA-1,-0.14881471,0.0074625914,-0.079455875,0.26925734,-0.065819025,0.23290388,0.18178833,-0.14126551,-0.02070183,-0.04654456,-0.21449533,0.0994358,-0.14368483,-0.23674372,0.0040113227,0.30369943,0.087252304,0.25943455,-0.037930056,-0.22269195,-0.037964344,-0.20767319,0.1708059,0.08051254,-0.3093921,-0.33475894,0.1479232,-0.23489481,-0.16421637,-0.14436126,0.050830945,0.09138582
s1-AATGCAATCACTGTCG-1,-0.00056989305,-0.02300859,-0.046139102,0.4041264,0.048772294,0.019710377,0.2787389,-0.020686738,0.040397264,0.009953244,-0.16487385,0.03622526,-0.20470297,-0.40811783,0.057181697,0.3556778,-0.17361858,0.13662681,-0.06882629,-0.17538656,0.07078357,-0.093035966,0.051829293,0.24537534,-0.27944022,-0.17581587,0.03935858,-0.11688433,-0.11321852,-0.13966867,0.2381103,0.07918672
s1-AATGCCGACGAGCAAC-1,-0.27206355,0.020554591,-0.001082357,-0.24731594,-0.0040488048,0.12414119,-0.4182433,0.07884853,-0.1334463,0.09190406,0.077940986,0.13845262,0.1621806,0.20879129,-0.032170642,-0.19646055,0.34084088,0.08087833,-0.012146947,-0.011409135,-0.055897392,-0.11738233,0.21242952,-0.22855234,0.22692049,-0.25074318,0.10110573,-0.052307248,-0.043743856,-0.094968304,-0.3267234,0.043461315
s1-AATGCGAACCTCGCGT-1,-0.031482276,0.0003323704,0.02395795,0.4057876,0.071350515,0.0021464354,0.23104528,0.003310063,0.034135856,0.01268352,-0.16352901,0.061964836,-0.18594928,-0.44774464,0.05733614,0.37567842,-0.14520223,0.1422646,-0.05271849,-0.17231336,0.08686525,-0.1317138,0.07862359,0.21013907,-0.24008222,-0.2209504,0.027798528,-0.11993408,-0.09603979,-0.14460665,0.19281763,0.1131441
s1-AATGGACATCCTACTC-1,-0.005809579,-0.017460203,-0.035770275,0.40745604,0.055381328,0.016151471,0.28773135,-0.0049241,0.054530565,0.0076984,-0.16474494,0.037696026,-0.19685239,-0.41457623,0.064288914,0.3651291,-0.16669178,0.12928677,-0.06376277,-0.16657029,0.075567365,-0.09880963,0.04282665,0.24129672,-0.27894756,-0.17662992,0.02013187,-0.11203656,-0.10444737,-0.13572797,0.23777476,0.06615162
s1-AATGGAGGACCTGGTG-1,-0.34935302,-1.4615594e-05,0.0014012726,-0.00419814,-0.020459397,0.23373082,-0.19740124,-0.113530576,-0.17931557,-0.046232406,-0.00080340356,0.22041358,-0.017902277,0.05042752,0.03969623,0.042670477,0.21209383,0.17059636,0.04812329,-0.15925132,-0.033549078,-0.16839835,0.39966273,-0.11323114,0.03846228,-0.42918056,0.135573,-0.22938597,-0.0054877605,-0.18024124,-0.25268507,0.050922215
s1-AATGGCATAGTATCAT-1,0.07934363,-0.023147948,-0.105020404,0.42427778,-0.0050186985,0.025024217,0.37555104,-0.03742283,0.12447342,-0.011720773,-0.21419993,-0.014872275,-0.16754687,-0.33453,0.03397668,0.3047921,-0.15571311,0.10526221,-0.079433106,-0.13125288,0.034575976,-0.06809529,-0.039333377,0.22590765,-0.33592695,-0.106873184,-0.00031460065,-0.09127861,-0.14551164,-0.06472835,0.28741878,0.03942651
s1-AATGGTCGATACTCGG-1,0.09354712,-0.029492553,-0.050683133,0.3898396,0.063867986,-0.046173193,0.3449617,0.046632268,0.12042773,0.036610164,-0.12860128,-0.004727363,-0.21102804,-0.38531333,0.04632987,0.3308435,-0.21317133,0.061760772,-0.09451905,-0.108074576,0.06396873,-0.055411443,-0.052191578,0.2859925,-0.28367975,-0.041676257,-0.0310077,-0.0498467,-0.09626503,-0.10078658,0.29734793,0.05969735
s1-AATGGTCTCGAGCGCT-1,0.1665338,-0.04738845,-0.065887764,0.34641558,0.08450085,-0.08117564,0.36560342,0.11399351,0.15225807,0.066713236,-0.10310744,-0.076113515,-0.19848028,-0.31618008,0.035323303,0.28282803,-0.21941343,0.009269126,-0.101809464,-0.054564517,0.07983557,-0.0012829136,-0.16682121,0.29141757,-0.28706357,0.08265514,-0.092234865,0.013860686,-0.087322086,-0.05397939,0.34171033,0.011588699
s1-AATGGTGCGTCCTAAC-1,0.031656064,-0.035902053,-0.12934059,0.34892994,0.050894488,0.1294623,0.33903307,-0.15747762,-0.030221729,-0.07129215,-0.15950465,0.026934775,-0.288874,-0.21830714,0.0458341,0.27065244,-0.22288783,0.0894223,-0.013896046,-0.23579295,-0.013905018,-0.013207654,0.09278883,0.21578088,-0.30576387,-0.1570151,0.07236448,-0.15659618,-0.07553697,-0.17906801,0.2800322,0.13788751
s1-AATGGTTATTCTAGCT-1,0.12588814,-0.040670406,-0.0719067,0.36542016,0.092420354,-0.050478548,0.354907,0.08492251,0.13482508,0.06258179,-0.11070973,-0.0456101,-0.21140233,-0.34466526,0.03227125,0.3118798,-0.21056393,0.037108768,-0.10198666,-0.08154708,0.07028988,-0.021253888,-0.11342493,0.2971084,-0.31186968,0.018174192,-0.05848015,-0.017857712,-0.09071039,-0.07969877,0.33274642,0.030947225
s1-AATGGTTGAGTCGGAA-1,-0.19450259,0.12712488,0.16503614,-0.13745096,-0.20515049,-0.02244398,-0.2509563,-0.11886877,-0.108962305,-0.13760689,0.030774986,0.1055982,0.26381588,0.10724701,0.073864885,-0.056333542,0.15911755,0.10282774,0.26839662,0.027847344,0.030988796,-0.08817313,0.29823464,-0.25969505,0.3308382,-0.21453016,0.023714947,-0.12759165,0.036975767,0.090911776,-0.39253446,0.04701265
s1-AATGTACTTAACATCA-1,-0.119951904,-0.021905268,-0.114145905,0.29873005,0.03144013,0.24667388,0.18407822,0.017716676,0.041637354,-0.0147280935,-0.19863442,0.1220161,-0.1764542,-0.23467278,-0.018992621,0.25595292,0.10026346,0.20838384,-0.019380987,-0.18847495,-0.073352545,-0.23271903,0.17665735,0.14259651,-0.3657993,-0.3367998,0.06597161,-0.1869973,-0.19412416,-0.14196397,0.13106099,0.09869227
s1-AATGTAGTCTTACGAG-1,0.08132225,-0.036396697,-0.04469485,0.39895838,0.07742056,-0.027763259,0.33410716,0.08061145,0.117642045,0.049886465,-0.14020509,-0.029389042,-0.19561327,-0.3721045,0.0451648,0.34019548,-0.19165732,0.069973156,-0.101101734,-0.10468755,0.07911421,-0.06487182,-0.07770086,0.2745754,-0.30062938,-0.04759486,-0.034087464,-0.03751367,-0.10848895,-0.09525748,0.31232566,0.032345776
s1-AATGTCAGGTCATTAC-1,-0.030431446,0.0927374,0.08527337,0.4111085,0.04666244,0.05794356,0.3015018,-0.03536157,0.13956302,0.027093388,-0.20612329,0.04442289,-0.13780408,-0.40511608,0.04108598,0.40814853,-0.08524345,0.16020933,-0.08484619,-0.12626037,0.106996454,-0.16904551,0.078195415,0.11885515,-0.25701457,-0.2252543,0.049958408,-0.1015006,-0.10427693,-0.056705628,0.1335641,0.07196838
s1-AATTAGCAACCGTTCC-1,0.062269285,-0.023055993,-0.04554253,0.40364057,0.054316975,-0.0241387,0.3297562,0.017263984,0.107630484,0.025272343,-0.1506689,0.009751166,-0.20586833,-0.4004909,0.040192395,0.3466945,-0.20685615,0.09974335,-0.08926586,-0.13077265,0.06832335,-0.06934664,-0.0094134435,0.266046,-0.28541794,-0.08754577,-0.008620478,-0.07890241,-0.10088298,-0.10263063,0.2745701,0.055408083
s1-AATTAGCTTAGGTGTA-1,0.06737599,-0.050846413,-0.08854373,0.3758869,0.03832096,-0.007855653,0.30413723,-0.059301097,0.023583815,0.0065072984,-0.15719122,0.012619793,-0.2328997,-0.39163405,0.0480387,0.34574786,-0.21465331,0.12970968,-0.055182625,-0.18278734,0.09973979,-0.03299617,0.022579294,0.25807494,-0.27054256,-0.10538588,0.02527349,-0.111167155,-0.103505924,-0.1326845,0.27407077,0.09973279
s1-AATTCTCAGACGCAAC-1,0.07583925,-0.025180608,-0.054209337,0.40411055,0.08096765,-0.0067744204,0.3327279,0.055348955,0.100693256,0.05427653,-0.12697017,-0.015872082,-0.20194909,-0.36906695,0.03910076,0.34907764,-0.18364266,0.0653691,-0.08634048,-0.1220583,0.06663632,-0.07163286,-0.050896175,0.27460462,-0.31322888,-0.07732725,-0.020308772,-0.05581581,-0.1163892,-0.103547886,0.30180302,0.045967065
s1-AATTCTCGCACCAGTA-1,-0.046430483,-0.009597246,-0.04175915,0.39295578,0.05026067,0.08925527,0.2730093,-0.052318215,0.039824545,-0.061223827,-0.19422644,0.0745721,-0.21434394,-0.35470292,0.060745426,0.3618208,-0.12699634,0.14270924,-0.013486906,-0.20104688,0.036945596,-0.106894605,0.115330614,0.21655144,-0.27928102,-0.22915283,0.058231212,-0.16533697,-0.09233378,-0.1460928,0.20052838,0.09239869
s1-AATTCTTGGATACGGA-1,0.05596634,-0.038111925,-0.05910392,0.4045294,0.089921534,-0.0031128838,0.30486205,0.054367825,0.084760144,0.045253977,-0.1466492,-0.0126318205,-0.22335686,-0.3756557,0.038991358,0.33996195,-0.1983483,0.09240238,-0.08923506,-0.1396775,0.076090604,-0.07795526,-0.03257284,0.26758033,-0.30264896,-0.07467566,-0.014385859,-0.06266191,-0.1109599,-0.122645,0.29943645,0.056370452
s1-AATTGAATTCACTAGA-1,-0.22140908,0.008468676,0.05366008,-0.30703878,-0.07140277,-0.02416562,-0.4585013,0.027765904,-0.16352457,-0.020171557,0.15422447,0.0852089,0.24371545,0.21368062,0.019270431,-0.27273834,0.22011471,-0.018850692,0.031979386,0.069872856,-0.041609764,-0.019824084,0.15572044,-0.23149775,0.36604494,-0.07482852,0.054989338,-0.018199507,0.061219163,-0.014129371,-0.33079356,-0.025817474
s1-AATTGCATTGAAGAAT-1,0.1387859,-0.046276305,-0.0694153,0.3630513,0.09206815,-0.054978877,0.35870448,0.10810406,0.14289677,0.06275134,-0.11042675,-0.068259716,-0.20182669,-0.32865798,0.03497783,0.30101353,-0.20897067,0.021113161,-0.09550445,-0.07231729,0.075538665,-0.015307292,-0.15182659,0.29023665,-0.30119544,0.03870383,-0.07034873,0.0031073594,-0.09808181,-0.06472142,0.34988704,0.011986485
s1-AATTGCGGTGCTAATA-1,0.09071621,-0.019666262,-0.048898716,0.39331484,0.08371749,-0.01663323,0.3449098,0.045850903,0.117628,0.049804803,-0.14999935,-0.026690427,-0.21257713,-0.36260128,0.04131848,0.3281458,-0.19904388,0.07182584,-0.073552445,-0.12231459,0.07985091,-0.059177242,-0.064854905,0.2646634,-0.31171423,-0.06039536,-0.02676172,-0.04181385,-0.10356718,-0.08974323,0.3185129,0.060607053
s1-AATTGCGTCAGACACT-1,0.17844518,-0.019152291,-0.06476432,0.3352464,0.09173074,-0.049084373,0.39134684,0.10810754,0.17889701,0.054599702,-0.09947522,-0.088718906,-0.19793919,-0.28208336,0.019702803,0.2849983,-0.21930741,0.004525095,-0.09868105,-0.046198986,0.06458583,-0.003988486,-0.17617789,0.27891588,-0.31898206,0.09323525,-0.09635198,0.023833383,-0.07763548,-0.028313635,0.3419519,-0.0043040914
s1-AATTGGACGGCATCGT-1,0.09402592,-0.020851241,-0.058880463,0.39520755,0.08286844,-0.008086814,0.34276348,0.056313187,0.12490174,0.049669728,-0.15017082,-0.042993963,-0.2059373,-0.35079855,0.04060152,0.33117282,-0.18479797,0.07900893,-0.08495071,-0.112740785,0.069741264,-0.06250667,-0.085291736,0.2603377,-0.32463944,-0.041068062,-0.030260993,-0.039504778,-0.116584875,-0.08915165,0.32092524,0.052189328
s1-AATTGGAGACATGGAG-1,0.05705072,-0.020956546,-0.02068224,0.39949894,0.083681464,-0.011019507,0.29309976,0.048126116,0.08536896,0.058668308,-0.1487887,-0.016174454,-0.20877382,-0.39610517,0.04581997,0.36528838,-0.20950565,0.1026032,-0.077760205,-0.12689137,0.10448779,-0.087419875,-0.044860534,0.25567818,-0.29597834,-0.087569594,-0.0145814335,-0.048688263,-0.10857648,-0.10529886,0.2837854,0.054987088
s1-AATTGGCTTGAGTTGC-1,-0.011715834,-0.01860653,-0.030062739,0.40266156,0.053678833,0.010765786,0.28025663,-0.017090334,0.047144715,0.014639723,-0.16454674,0.042836126,-0.19963713,-0.41959554,0.059672214,0.3691874,-0.16311957,0.14372718,-0.06804343,-0.1695962,0.076167256,-0.10062267,0.058546502,0.22911516,-0.27271122,-0.18816188,0.037030134,-0.11316784,-0.106520526,-0.13848563,0.22801068,0.08323711
s1-AATTGGTTATGATACA-1,0.09164117,-0.030778345,-0.1922217,0.3108737,0.03616952,0.19597742,0.38699734,-0.003983313,0.1658234,-0.032685272,-0.2366476,-0.07096037,-0.18897226,-0.11607175,-0.051613797,0.2006169,0.014630614,0.104749665,-0.025019936,-0.10022393,-0.08243744,-0.10623463,-0.14043319,0.16167101,-0.47473967,-0.08564924,-0.020335719,-0.050942775,-0.20589852,-0.01680268,0.33895808,0.042571142
s1-AATTGTAGAATCCTAG-1,0.12711239,-0.06255593,-0.0869029,0.36635906,0.10969764,-0.04625207,0.32050943,0.14183497,0.121651955,0.08122681,-0.104308754,-0.072138056,-0.21911281,-0.31805578,0.029612817,0.27268398,-0.22262017,0.013671084,-0.13527083,-0.0911216,0.06846498,-0.027731005,-0.13723215,0.29284734,-0.2890929,0.058797173,-0.07693708,0.011976274,-0.105204806,-0.09713169,0.35741913,0.029201265
s1-ACAACCTTGGTGTCAA-1,0.14512274,-0.028712569,-0.03139238,0.36560163,0.076459624,-0.06896179,0.3394994,0.06372533,0.13466445,0.036966164,-0.11388697,-0.06557909,-0.20738877,-0.3704613,0.028315987,0.32079324,-0.25102156,0.04205781,-0.08178716,-0.083544225,0.085809365,-0.034099907,-0.08959204,0.27421862,-0.26191598,0.047726054,-0.07085921,-0.0111439265,-0.09285481,-0.08636135,0.32503778,0.074084796
s1-ACAACGAGCGATCTGA-1,-0.08379545,0.00014263624,-0.01163929,0.4046046,0.03980589,0.060254067,0.22169131,-0.0037960617,0.033559904,0.0038552298,-0.18909961,0.08123535,-0.18737456,-0.39628482,0.06682792,0.35853025,-0.11700808,0.17877457,-0.029877324,-0.20082632,0.058239203,-0.14345321,0.1599544,0.2192595,-0.23795828,-0.283446,0.040256355,-0.13325612,-0.105447195,-0.13940305,0.15355277,0.08850654
s1-ACAACGCCGATAGTAT-1,0.14404547,-0.02572197,-0.07775208,0.3605466,0.10166393,-0.025845349,0.3640116,0.10113287,0.15095672,0.07795861,-0.117552325,-0.07387848,-0.20977579,-0.3070064,0.014453845,0.29365927,-0.18280756,0.026820894,-0.09870938,-0.07445793,0.060258776,-0.03606437,-0.15623817,0.27365002,-0.34528908,0.011893922,-0.06335232,0.0076553817,-0.09820184,-0.06030755,0.34713817,0.018005926
s1-ACAACGTGGAGCTACT-1,-0.21559799,-0.05454169,-0.19622692,0.055126052,0.073157325,0.30009294,-0.14120941,-0.0057794396,-0.14396718,0.10273364,-0.16268034,0.1392797,-0.08887429,-0.061126944,-0.029537365,0.04748189,0.22041109,0.15978484,-0.12193537,-0.21715727,-0.12599146,-0.2899257,0.19855449,0.03129305,-0.20992842,-0.4224825,0.2026963,-0.18397593,-0.2076592,-0.20686634,0.027329128,0.150383
s1-ACAACTAAGGTGTTAT-1,0.15061526,-0.03639628,-0.066105336,0.35457104,0.090823114,-0.06408621,0.37412545,0.1157189,0.16301632,0.06944684,-0.0990105,-0.08204593,-0.20228997,-0.30567038,0.025249314,0.29292467,-0.2097044,0.0043345653,-0.10942966,-0.050881162,0.05878806,-0.010934593,-0.16070351,0.28378868,-0.3140877,0.059432518,-0.0755845,0.019360093,-0.086518794,-0.04991561,0.34969407,0.008935317
s1-ACAACTAAGTGGCGCT-1,-0.22425115,0.011912796,-0.057058252,-0.2842225,-0.096424654,0.25077868,-0.3117282,-0.12123676,-0.13868983,-0.07936537,0.06773341,0.14014669,0.11715157,0.31327152,-0.07190546,-0.23782894,0.34581053,0.056475632,0.08890624,-0.015602525,-0.15378937,-0.094015926,0.21386528,-0.255279,0.110856816,-0.22001314,0.10960716,-0.13137808,-0.0045863143,-0.024542391,-0.30038556,0.0039518476
s1-ACAACTGAATCCAGTC-1,-0.16408783,0.12063557,0.17269252,-0.2980237,-0.09188484,-0.036525194,-0.37720662,-0.078932546,-0.050964706,-0.046697937,0.098608956,0.013474192,0.26813024,0.17823651,-0.020699218,-0.21427545,0.18738091,0.02247094,0.10465632,0.09836199,0.035573337,-0.043385662,0.13314164,-0.34246784,0.3613101,-0.043846145,0.05002515,-0.00079662027,0.09754315,0.09110274,-0.39461917,0.01824631
s1-ACAACTGTCGTGGATA-1,-0.27759862,0.044471204,-0.03920196,0.081206635,-0.017581437,0.27111453,-0.09603645,-0.16039824,-0.12913871,-0.0717323,-0.09820122,0.19785656,-0.022952054,-0.073013455,0.00015911064,0.1174849,0.21834084,0.21163714,0.04866638,-0.18596156,-0.078824736,-0.2179054,0.3249656,-0.06984884,-0.08864568,-0.46665987,0.18330596,-0.2541877,-0.071028315,-0.13453381,-0.17349543,0.10076895
s1-ACAATACACTTCCATC-1,0.08052154,-0.008100273,0.005934324,0.38628817,0.04721102,-0.051806875,0.32655427,0.048811257,0.13109538,0.016630074,-0.13172175,-0.009806409,-0.19660439,-0.42308962,0.03468204,0.3676802,-0.2160856,0.09147738,-0.08184019,-0.10285972,0.09383077,-0.06582149,-0.024534006,0.27005577,-0.26410526,-0.02280784,-0.040813264,-0.054200895,-0.09338467,-0.08474809,0.26710573,0.055883095
s1-ACAATACAGGCGCCGT-1,-0.25913763,0.025674302,-0.098995306,-0.10833819,-0.0500479,0.29740906,-0.15882921,-0.2128112,-0.17566115,-0.118674584,0.012872601,0.2122757,0.0039935126,0.18302369,-0.019145012,-0.05684845,0.27213234,0.09153097,0.06875551,-0.14279175,-0.16688997,-0.12481155,0.35342887,-0.15436378,-0.0057815565,-0.37519047,0.16599037,-0.25796342,-0.023364391,-0.15256417,-0.2227062,0.06754048
s1-ACAATACGCCTTATTC-1,0.10781065,-0.047031857,-0.08643542,0.39906895,0.0116412435,-0.03132422,0.3835079,-0.09799929,0.03691399,-0.07415965,-0.15480047,0.0468747,-0.24426863,-0.32037696,0.07744813,0.28227234,-0.29642594,0.017255586,-0.06931734,-0.15315899,0.024373062,0.024879415,0.041652188,0.25317875,-0.23099238,-0.069220595,0.010002167,-0.12451166,-0.050850615,-0.1438863,0.30193222,0.0798683
s1-ACAATTGGTCGCGTAA-1,-0.20435017,-0.03154295,-0.13443285,0.22973317,-0.011525797,0.28870547,0.117859975,-0.09536095,-0.030046543,-0.08432675,-0.14213717,0.16434442,-0.1489551,-0.2037359,-0.009753315,0.2644981,0.121013954,0.25462106,0.01497532,-0.2103613,-0.033500947,-0.18315813,0.25320068,0.14651534,-0.29554406,-0.35585386,0.08625962,-0.2562062,-0.13961563,-0.16529702,0.014394386,0.032746695
s1-ACAGAATAAGAACCAT-1,-0.26899567,0.00437332,-0.034756012,-0.2715899,-0.07515387,0.23150326,-0.34215248,-0.08416106,-0.14818189,-0.065371975,0.058583274,0.16503863,0.11382752,0.24093892,-0.04951089,-0.18565908,0.34786814,0.0798154,0.08897051,-0.029467251,-0.123239934,-0.106195696,0.2522359,-0.22659951,0.13761126,-0.2628696,0.09533076,-0.13829711,0.005136893,-0.035532616,-0.32179195,0.0071472377
s1-ACAGAATAAGATAGTG-1,-0.108907044,-0.036929253,-0.20093635,0.23177782,-0.081204265,0.26077732,0.12127614,-0.19734564,-0.05700078,-0.03514062,-0.20827757,0.11079593,-0.118351504,-0.17657186,-0.010984802,0.1690323,0.093292385,0.22014105,-0.07322674,-0.24349649,-0.07791847,-0.22271493,0.15122372,0.06837042,-0.31617954,-0.3755288,0.19105309,-0.2611205,-0.18407303,-0.1411252,0.08441742,0.08353433
s1-ACAGAATCCGTTGCTT-1,-0.23676428,0.13797659,0.039749816,0.13913094,-0.020932578,0.2578519,0.07447988,-0.14860746,0.05907534,-0.03619258,-0.21162237,0.15734208,-0.051453404,-0.12048735,-0.0069210418,0.20228739,0.1618733,0.21283165,-0.037561692,-0.1461936,-0.08457957,-0.26757893,0.31410715,-0.12397744,-0.18831392,-0.46546677,0.14814508,-0.1634762,-0.15905583,-0.109758176,-0.10156256,0.093885645
s1-ACAGAATCTTGATAAG-1,0.062404677,-0.030084573,-0.06051562,0.40964374,0.07853231,-0.01903458,0.314546,0.06696379,0.10242902,0.0506449,-0.1555743,-0.0107559245,-0.20601794,-0.38524142,0.052881107,0.33898997,-0.18092588,0.09902017,-0.08016194,-0.13106014,0.084918514,-0.084267914,-0.03300322,0.25929642,-0.29586625,-0.08952831,-0.01771431,-0.054177664,-0.1213664,-0.10404639,0.29808757,0.060167216
s1-ACAGAATGTCTTATTG-1,-0.08572777,0.013507508,-0.0030403053,0.3923143,0.040601052,0.09532768,0.24052954,-0.0072910897,0.036665976,0.011477663,-0.1772626,0.08130923,-0.18312374,-0.37588793,0.06521972,0.37603194,-0.076231316,0.17417637,-0.029740505,-0.17921323,0.062013816,-0.15323341,0.16414487,0.20827863,-0.26362005,-0.2886017,0.044915088,-0.14783603,-0.11480513,-0.13721128,0.13702625,0.09210506
s1-ACAGAATGTTGAGTCC-1,0.07592672,-0.032762125,-0.04375744,0.38689393,0.057530496,0.023741882,0.31779093,0.039107203,0.12426093,0.008360935,-0.18322287,-0.043190684,-0.205349,-0.36642295,0.022804048,0.3431221,-0.15144967,0.122224,-0.07205769,-0.10234861,0.071188316,-0.097825915,-0.071079254,0.2508387,-0.3156653,-0.037690412,-0.023356047,-0.058918424,-0.13444331,-0.08806117,0.30629838,0.10338416
s1-ACAGATCTGAAGTATC-1,0.116349615,-0.0376885,-0.045173123,0.37618512,0.094455265,-0.046584185,0.3411513,0.10098599,0.11482843,0.06649194,-0.110491134,-0.04808654,-0.21266863,-0.35413843,0.042016003,0.3273304,-0.22728565,0.036451615,-0.093806975,-0.08583624,0.07908532,-0.04519964,-0.109276615,0.28137946,-0.29505873,0.013289769,-0.05258404,-0.003995774,-0.09443565,-0.08835362,0.3357343,0.026904128
s1-ACAGCCAGGCATAAGC-1,0.03986088,-0.020707771,-0.06917559,0.3944646,0.035383284,0.0228537,0.30690753,-0.06286793,0.03910453,-0.0052054916,-0.16958651,0.019662723,-0.22093204,-0.37790763,0.05740265,0.35936552,-0.20656325,0.12981883,-0.061690845,-0.17870945,0.086257905,-0.056369007,0.03505756,0.23546769,-0.2834586,-0.13847622,0.05103285,-0.113932945,-0.0977275,-0.13269404,0.25667828,0.08591144
s1-ACAGGAACTACAGAAC-1,0.11275257,-0.022941057,-0.07425527,0.38269624,0.05217982,0.0054235924,0.37046027,0.021142127,0.13334115,0.02189178,-0.16130641,-0.05921997,-0.19288369,-0.3307751,0.04153649,0.3225611,-0.18375716,0.0689274,-0.07508032,-0.10555082,0.04643158,-0.07317949,-0.07514098,0.25754142,-0.34227833,-0.026696797,-0.040873773,-0.040034354,-0.12894842,-0.07823533,0.31375033,0.04726705
s1-ACAGGACTGAGCCGAT-1,-0.023911681,-0.04827088,-0.06185193,0.39749646,0.0830558,0.009053683,0.2525101,0.016710669,0.020440452,0.03510086,-0.1570146,0.04356097,-0.20606612,-0.40693155,0.06645973,0.3427174,-0.17298862,0.14102209,-0.06719805,-0.18844675,0.07456082,-0.09746602,0.0768437,0.26188284,-0.24675572,-0.1837664,0.038114242,-0.113997504,-0.120180815,-0.16355781,0.2475474,0.10294068
s1-ACAGGATACCGGATTC-1,0.1280153,-0.045128934,-0.054214194,0.37314105,0.09110707,-0.04825028,0.36321488,0.109167755,0.13584559,0.060869507,-0.110563695,-0.061534546,-0.20901477,-0.3286119,0.03812223,0.30790833,-0.20473623,0.029333621,-0.10884261,-0.07486454,0.060759634,-0.027061177,-0.13243118,0.2842462,-0.30381396,0.0300355,-0.06612378,-0.0020245465,-0.104941115,-0.06977881,0.34637773,0.014462068
s1-ACAGGCACGCGAGGAT-1,-0.009417079,-0.032392904,-0.027917752,0.404081,0.06119007,0.0015321219,0.27859074,0.011363755,0.05238139,0.014999046,-0.15591772,0.04081464,-0.20123577,-0.4244815,0.06274426,0.36619085,-0.15875831,0.13616718,-0.06969823,-0.1521756,0.072557926,-0.104072444,0.028354842,0.24464253,-0.2786599,-0.16677146,0.016066764,-0.10523018,-0.107795745,-0.142979,0.24571505,0.073134474
s1-ACAGGCATTGAACCAT-1,0.15355182,-0.039306834,-0.05757946,0.37107483,0.07102601,-0.06608003,0.37543833,0.06317113,0.13068253,0.027921773,-0.11964595,-0.048590213,-0.22624809,-0.32948613,0.04776323,0.29789877,-0.25076252,0.011688068,-0.0939329,-0.089813136,0.06501746,-0.011502553,-0.1099431,0.28344458,-0.27623624,0.047608286,-0.06335147,-0.016351994,-0.0815824,-0.08583473,0.33438328,0.03876335
s1-ACAGGTACCAAGGAAG-1,-0.09425515,0.16405551,0.34474093,-0.11839076,-0.13926718,-0.21315867,-0.31031418,-0.068826735,0.017501453,-0.068147615,0.09461105,0.028921945,0.26514113,-0.042913023,0.035112336,-0.05008503,0.09113905,-0.00435313,0.1606921,0.13326864,0.16050643,-0.040389813,0.11779574,-0.34473366,0.43175262,-0.025067808,-0.011290651,-0.024574049,0.12611416,0.13983701,-0.34192693,0.091242805
s1-ACAGGTTCAGTGAACG-1,0.16568291,-0.024581285,-0.062499046,0.33343744,0.077230446,-0.05764829,0.37155074,0.15773946,0.20662317,0.07905476,-0.09805426,-0.111904904,-0.14318675,-0.29408184,0.00301548,0.29300994,-0.14618717,0.009004492,-0.098518625,-0.018123219,0.064790085,-0.027371405,-0.20551436,0.26755655,-0.3251646,0.08423299,-0.11883654,0.02355828,-0.09765597,0.0062837303,0.34439343,-0.008632017
s1-ACAGTACGCACTACCT-1,0.122014746,-0.05535001,-0.078527346,0.3741416,0.11538167,-0.026052522,0.35101706,0.11224051,0.104984134,0.07496406,-0.109981276,-0.061246082,-0.21241608,-0.3226593,0.034175213,0.29764643,-0.20955941,0.031857528,-0.10976149,-0.087119676,0.046611622,-0.0401936,-0.11326279,0.2913913,-0.30446672,0.0032985928,-0.04876434,-0.0072383103,-0.10973346,-0.08842103,0.35210758,0.0377986
s1-ACATAAGCAATGCGGT-1,0.15246671,-0.047121357,-0.10407883,0.37495583,0.049888916,-0.012689736,0.39444995,-0.08056113,0.047537684,-0.029412758,-0.16713968,-0.038701467,-0.24465023,-0.28246015,0.060221355,0.2894019,-0.26434642,0.044407196,-0.045158345,-0.15190493,0.047131397,0.025755545,-0.04551379,0.25796193,-0.28711435,-0.021693315,-0.0062526613,-0.08174692,-0.07724779,-0.10617257,0.33785558,0.08757226
s1-ACATCGCCACAAGAGG-1,0.15052333,-0.012557881,-0.06000381,0.36865938,0.07079002,-0.026937416,0.3850168,0.07053067,0.17136273,0.05666083,-0.13363582,-0.07872175,-0.21184286,-0.28791443,0.035012774,0.3002502,-0.2125476,0.025606113,-0.08797135,-0.074023254,0.045464333,-0.029369019,-0.14298591,0.25477797,-0.33027965,0.039920807,-0.061639927,0.012039489,-0.102985084,-0.049512595,0.34001702,0.030572914
s1-ACATCGGCTTACAAGG-1,0.0069302786,-0.019647375,-0.043797933,0.4184112,0.05820836,0.0077307825,0.3043549,0.02921325,0.09598349,0.019641321,-0.16905943,0.03136125,-0.19992521,-0.40463513,0.048531212,0.3435795,-0.15929048,0.12642705,-0.09121536,-0.14005974,0.04559864,-0.11170532,0.028631447,0.2408663,-0.29704657,-0.14991507,0.00026499244,-0.087058395,-0.11857629,-0.12341288,0.2512269,0.054357477
s1-ACATCGTAGACAGGTT-1,0.09998664,-0.033764318,-0.06482416,0.38503468,0.0934439,-0.033191383,0.3583792,0.107778,0.1568994,0.0750331,-0.12574863,-0.04011532,-0.19265057,-0.34705517,0.031265736,0.3233387,-0.16630283,0.05375596,-0.11197948,-0.07620093,0.05426649,-0.058484375,-0.09171552,0.2869053,-0.3184775,-0.015894113,-0.059048146,-0.012213761,-0.11833915,-0.0744172,0.31343603,0.01670305
s1-ACATCGTCGGTCTACC-1,-0.18830858,-0.004189915,-0.116230555,0.26726902,-0.041491248,0.20766065,0.08792425,-0.09837803,-0.07978758,-0.0026301816,-0.17448354,0.16180778,-0.09613864,-0.26102498,-0.0006979918,0.23699102,0.06047654,0.23448965,-0.036018565,-0.25603217,-0.022210767,-0.20295563,0.24072029,0.116812035,-0.22446218,-0.42698157,0.16311496,-0.22192156,-0.15482053,-0.15347525,0.027448393,0.11860019
s1-ACATCTATCCGAACCA-1,0.056130055,-0.045809522,-0.041290037,0.40802252,0.06390763,-0.053014416,0.31242955,0.08188808,0.11188913,0.046299443,-0.13588686,-0.01796278,-0.20567325,-0.39584172,0.053721942,0.3557796,-0.1944077,0.08443413,-0.09080538,-0.12599802,0.101019345,-0.05882644,-0.04210986,0.262903,-0.26879483,-0.05624172,-0.03331952,-0.04931615,-0.09863025,-0.12258716,0.29649043,0.050068475
s1-ACATCTCGACAACCAC-1,-0.3179726,0.017141724,-0.027222525,-0.085589565,-0.08354603,0.23004891,-0.26443982,-0.05390548,-0.1098608,-0.04600691,0.007601202,0.20463303,0.09153117,0.06926371,-0.05925069,-0.053601876,0.37447613,0.16603264,0.027302895,-0.086707324,-0.11762978,-0.1831742,0.3288133,-0.17013267,0.055212416,-0.38448054,0.11700217,-0.20440772,-0.062432334,-0.07996418,-0.30363804,0.030362306
s1-ACATCTCGCATAGAAT-1,0.042291924,-0.0022873208,-0.0018269513,0.43372667,0.040407762,-0.04731121,0.31574914,0.01770418,0.12204902,-0.009262299,-0.16928759,0.010110583,-0.16341764,-0.4235381,0.06331991,0.3680789,-0.20203432,0.10707286,-0.06385492,-0.12863569,0.10639776,-0.08032991,0.013891555,0.22174507,-0.23943287,-0.10769125,-0.016086843,-0.08895788,-0.10975796,-0.08153096,0.23715073,0.06909274
s1-ACATGGATGCGTAAGC-1,-0.029747121,0.007981378,-0.02674003,0.42134488,0.036920488,0.05427902,0.26898026,-0.018883063,0.062244855,0.0068077827,-0.18825382,0.0679913,-0.1865977,-0.39461577,0.058163356,0.35013995,-0.15516162,0.14913246,-0.061180167,-0.18270044,0.06854722,-0.11967944,0.08978785,0.2198827,-0.27922964,-0.22932875,0.046768114,-0.12101239,-0.108885944,-0.12862872,0.19784395,0.07551876
s1-ACATGTTCACCGGCAG-1,-0.26547682,-0.0011754236,-0.0541537,-0.30672878,-0.08739122,0.17987381,-0.37634444,-0.11504975,-0.15913495,-0.04135698,0.08786672,0.14445846,0.15190437,0.22734663,-0.035095513,-0.24678347,0.3139814,0.060580038,0.04065894,0.010318197,-0.108626775,-0.0833477,0.22443023,-0.2267127,0.16763787,-0.1932989,0.11790234,-0.12176334,-0.002075391,-0.07179349,-0.31212783,0.040169302
s1-ACATGTTCCACTGATA-1,-0.18782607,-0.055933878,-0.11322131,0.22805774,0.023723716,0.18776336,0.01186459,-0.10175362,-0.123499505,-0.008162535,-0.10560311,0.1528314,-0.19403249,-0.27735066,0.049266163,0.24638733,-0.014710662,0.18903647,-0.009838665,-0.26312998,0.0073165474,-0.15898904,0.29466552,0.18765074,-0.1733981,-0.36282086,0.13316679,-0.23973641,-0.11458798,-0.2559433,0.06256077,0.18884274
s1-ACATGTTCCAGGACGT-1,0.16623716,-0.04093682,-0.07869533,0.33175847,0.106507435,-0.07691358,0.3541535,0.16593663,0.17347828,0.10065542,-0.085020214,-0.09333499,-0.18258458,-0.30177784,0.009097473,0.2684677,-0.18562248,-0.010939049,-0.12962253,-0.03663013,0.051519535,-0.024742166,-0.18854469,0.29061472,-0.3154567,0.073342964,-0.093267344,0.032916807,-0.094057456,-0.045992833,0.35513985,-0.009361671
s1-ACATGTTGCTTGATCT-1,0.018554123,-0.043902777,-0.053830497,0.40067604,0.10501919,-0.0062592886,0.2931491,0.10990001,0.084602125,0.08653183,-0.1368447,-0.00604132,-0.21501762,-0.36817718,0.037338473,0.34529555,-0.14034459,0.09601466,-0.10025722,-0.12880819,0.061334997,-0.11330009,-0.013892328,0.26033607,-0.31116617,-0.10895984,-0.024390288,-0.064957224,-0.12313776,-0.15090105,0.28125423,0.042761534
s1-ACATTCCTGAGTTCCG-1,0.03488242,0.015850164,0.009443962,0.4107679,0.05843894,0.0045930203,0.33138275,0.042714525,0.12785266,0.010769237,-0.1664342,-0.011684818,-0.21254307,-0.3850745,0.04480396,0.35711265,-0.18246478,0.11210127,-0.0638845,-0.11876436,0.100938395,-0.10520865,-0.023749024,0.21172845,-0.30133706,-0.0976519,-0.004996726,-0.056432635,-0.10378259,-0.10519715,0.26691386,0.079214945
s1-ACATTGAAGGCGGTGC-1,0.102267414,-0.022944793,-0.06358684,0.38342094,0.07083857,-0.010333502,0.35511503,0.042885065,0.131923,0.030504398,-0.13973704,-0.037052117,-0.20726389,-0.3526953,0.037042513,0.33858383,-0.20356719,0.0793652,-0.07652436,-0.110143006,0.07267656,-0.04874543,-0.075587004,0.27735776,-0.3167665,-0.03022959,-0.038264763,-0.047778703,-0.10592516,-0.07504457,0.31135243,0.043447427
s1-ACATTGAATACGCATA-1,0.09368229,-0.029515106,-0.04373748,0.39120516,0.069906145,-0.035486512,0.3345042,0.06993882,0.12434855,0.04749446,-0.13450256,-0.02369131,-0.20371202,-0.37637073,0.02720453,0.34411186,-0.19105417,0.06338162,-0.099501684,-0.09935069,0.06654321,-0.06332941,-0.06659099,0.2766963,-0.29828256,-0.026100373,-0.03257861,-0.039211784,-0.11453983,-0.10548137,0.3182519,0.061951578
s1-ACATTGATCGTAATCC-1,-0.14178619,0.06039279,0.053063877,-0.33336312,-0.19257972,0.076894775,-0.28018135,-0.06690473,-0.030583097,-0.1226033,0.08775118,0.019258779,0.30387795,0.26929832,-0.04628812,-0.20503774,0.2906448,0.04966483,0.18897921,0.12460086,-0.023769893,-0.039985843,0.08332594,-0.28943843,0.27835488,-0.071576804,-0.027749283,-0.056310985,0.030108275,0.16370638,-0.3670286,-0.08241064
s1-ACATTGCAGTTCGGCA-1,0.15115424,-0.050104976,-0.052969903,0.35913974,0.08306284,-0.08520781,0.35101044,0.12535858,0.15303364,0.09028003,-0.1188719,-0.093159944,-0.18020554,-0.3327628,0.036671218,0.28639233,-0.2181257,0.017092783,-0.11183097,-0.05791519,0.08142226,-0.025456721,-0.15091057,0.2862453,-0.27473176,0.05715868,-0.09072943,0.028032426,-0.10913481,-0.06919894,0.3455794,0.0348083
s1-ACATTGGTTCACAGTG-1,-0.081679754,-0.042385608,-0.16937944,0.30337942,-0.00037217047,0.21071577,0.23400226,-0.1820373,-0.05339309,-0.07838675,-0.16702852,0.11137156,-0.19181141,-0.21848324,0.027734846,0.26267081,-0.024327159,0.15177317,-0.004024494,-0.24438551,-0.033576306,-0.12772451,0.1627551,0.18476976,-0.33218074,-0.32833737,0.09483362,-0.23678282,-0.11699548,-0.19535065,0.17058007,0.059849985
s1-ACATTGGTTCTGCCGT-1,0.094523996,-0.033188425,-0.053009547,0.39698464,0.077457234,-0.03546087,0.36294562,0.052681305,0.10914154,0.034341343,-0.13189894,-0.015828911,-0.20608723,-0.359285,0.050237924,0.3326603,-0.21447042,0.047787864,-0.09953233,-0.10939041,0.058833912,-0.0364308,-0.059868194,0.27175614,-0.2920755,-0.044736616,-0.0284535,-0.045607988,-0.09922066,-0.103125736,0.3169646,0.04322683
s1-ACATTGTACATTCTTG-1,0.05652498,-0.043017358,-0.061699033,0.38734,0.0984761,-0.008476754,0.3256631,0.09559212,0.123568535,0.05700708,-0.1462045,-0.024743263,-0.20575248,-0.37212086,0.03244223,0.3289336,-0.15051699,0.08594452,-0.09184527,-0.10529105,0.05972916,-0.08683033,-0.08574092,0.26735842,-0.32937697,-0.06246192,-0.040864795,-0.053838894,-0.123123005,-0.1068944,0.30690217,0.04672788
s1-ACCAAGCACTTGCGCA-1,0.07475918,-0.036634803,-0.09471907,0.38353562,0.045749046,0.018575264,0.33999667,-0.067793265,0.050821804,-0.008094199,-0.17336416,-0.011988528,-0.23631623,-0.33996403,0.051854126,0.32426244,-0.23106149,0.113734186,-0.053215798,-0.1777052,0.07553571,-0.029350046,0.005672633,0.2560894,-0.30055797,-0.096337296,0.018204466,-0.10584183,-0.092648596,-0.115140036,0.29303026,0.085655615
s1-ACCAAGGCTTCGCTAG-1,-0.11368634,0.014890606,0.15122655,-0.27495182,-0.12804537,-0.081937686,-0.39473397,-0.037453424,-0.014320186,-0.116649315,0.007521042,-0.031226099,0.30143088,0.18952072,-0.0074343644,-0.20845899,0.25019002,0.05461125,0.21169135,0.105880104,0.041569807,-0.045178704,0.05362238,-0.2942343,0.40316713,0.040251862,0.0047569987,-0.067653075,0.007920024,0.12046467,-0.31181127,0.10704476
s1-ACCAAGTGATGGTGAG-1,0.15642473,-0.05190805,-0.059665076,0.34708416,0.10085158,-0.082403034,0.35500032,0.12809609,0.16115406,0.06603757,-0.09770028,-0.08484922,-0.19467685,-0.31273875,0.039161682,0.27826512,-0.22138287,-0.0004979889,-0.1148682,-0.044694807,0.069525376,-0.001906632,-0.17707497,0.2907586,-0.288189,0.08066692,-0.08926812,0.01810437,-0.07298514,-0.052415453,0.3596266,0.0051213517
s1-ACCAAGTGGCTGTATG-1,0.12243058,0.004815654,-0.055669196,0.37163317,0.082434736,0.0013243146,0.4020456,0.025527626,0.15368003,0.0141186025,-0.14993496,-0.038308002,-0.216719,-0.30814064,0.02010706,0.31105053,-0.1990434,0.06341685,-0.07623102,-0.09865635,0.04633382,-0.037595354,-0.11654939,0.24911427,-0.3486711,-0.0078292005,-0.045586213,-0.03918179,-0.088056415,-0.051664285,0.32541984,0.036082353
s1-ACCAATCATGGTTCAT-1,-0.25035423,0.03612069,0.112150356,-0.21486089,0.0001309826,0.0036953716,-0.3922038,-0.06262624,-0.18312955,0.0018299404,0.116654575,0.13975357,0.18652111,0.14525741,0.0477695,-0.08663722,0.20459193,0.010844016,0.04139457,-0.05133928,-0.016959324,-0.058948826,0.2970473,-0.24516769,0.3708058,-0.24803591,0.06325492,-0.16008785,0.078672856,-0.07246129,-0.35196638,0.07701138
s1-ACCAATGAGCCTCATC-1,-0.024472086,-0.04048568,-0.05115358,0.40687785,0.08944904,0.015927494,0.22349519,0.0136771295,0.020617217,0.036679566,-0.16662307,0.062457822,-0.20946613,-0.41205555,0.05608449,0.32663357,-0.1603111,0.14070001,-0.05642107,-0.19763456,0.075606,-0.11516727,0.08645862,0.24034113,-0.23629004,-0.20720904,0.052908957,-0.12364079,-0.10830351,-0.16297266,0.25539577,0.14043209
s1-ACCAATGATCGCGGCC-1,-0.20057954,0.052397422,0.12538423,-0.2606262,-0.08776687,-0.0046991743,-0.31972206,-0.16816285,-0.082643315,-0.10212933,0.042136736,0.04298851,0.28732646,0.24592775,0.048902135,-0.21017164,0.19766885,-0.027318295,0.16820204,0.061930314,0.012822434,-0.020408608,0.172134,-0.33348197,0.38347042,-0.13401988,0.015382035,-0.10546838,0.08312927,0.06909668,-0.33150604,-0.011130151
