,0,1,2,3,4,5,6,7,8,9,10,11,12,13,14,15,16,17,18,19,20,21,22,23,24,25,26,27,28,29,30,31,32,33,34,35,36,37,38,39,40,41,42,43,44,45,46,47,48,49,50,51,52,53,54,55,56,57,58,59,60,61,62,63,64,65,66,67,68,69,70,71,72,73,74,75,76,77,78,79,80,81,82,83,84,85,86,87,88,89,90,91,92,93,94,95
s1-AACACTTGGCAAGGAA-1,-0.17240183,0.36132577,0.075385235,-0.37002546,-0.2894897,0.17696741,-0.36219662,-0.3274463,0.08011242,0.06851016,0.22455913,-0.38347468,-0.46996495,-0.17540176,-0.14230105,-0.22612026,0.015381151,0.15589912,0.28209496,0.21387851,0.023553224,-0.14323837,0.06877354,-0.04029037,-0.03376245,0.10499944,0.28330776,-0.3823976,-0.058573034,-0.0026910638,0.24809211,0.49977705,-0.00010081879,-0.4456302,-0.60594064,-0.4154838,-0.48490325,0.46808192,-0.17134438,-0.21936609,-0.5209133,-0.4719085,-0.54702324,0.16053663,0.048687577,-0.52152914,-0.6980852,0.6290427,-0.5709489,0.60856277,0.58409214,0.38546604,0.44320032,-0.46780038,0.69687575,0.60718936,0.5972477,-0.5487519,0.6128904,0.5439818,0.47324458,0.28696248,0.58995575,0.2741062,-0.17889264,0.13745713,-0.01418559,-0.3497566,0.08786431,0.42511523,-0.24347566,0.08948266,-0.11326885,-0.17283443,0.09754211,0.18487824,0.04120272,0.29850504,0.32747218,0.075275384,0.04915157,0.48305058,-0.14770623,0.17193408,-0.12894726,-0.092680484,0.4732412,-0.08248989,-0.29835603,0.17741798,-0.067619555,-0.3919179,0.050600886,-0.29186666,0.4516048,-0.26244435
s1-AACAGGATTCATAGTT-1,-0.25506106,0.16079052,-0.64466214,-0.3596234,-0.30030304,-0.34133965,-0.84524095,-0.24306326,-0.124725774,-0.83867854,0.25588092,0.52757454,-0.08357955,-0.47746143,-0.17362659,-0.44953546,-0.5749442,0.37972203,-0.42041823,-0.043815937,-0.2563855,-0.44327188,0.39721456,-0.48706543,0.22218697,0.19476582,-0.063705906,-0.054515135,-0.56210864,-0.18526211,0.4540099,0.5449174,0.34792048,0.22407858,0.8573616,0.78089726,0.8473144,-0.65635383,0.5709437,0.56012547,0.89973825,0.7599998,0.3876012,0.018392378,-0.19529083,0.7179498,0.85542333,-0.72957444,0.92567694,-0.48527592,-0.93648624,-0.7399701,-0.82857144,0.59182143,-0.45696566,-0.87319744,-0.8969381,0.6363487,-0.7222636,-0.85744315,-0.6198106,-0.3757777,-0.7199684,-0.68516695,-0.5031464,0.5446779,-0.028926868,-0.10204893,-0.5718011,0.0026716047,0.037280384,-0.20797573,-0.06267334,0.11008908,0.19108956,-0.17669341,0.150301,0.43273655,-0.46494904,-0.110275336,0.62937963,-0.05286833,0.08514322,0.5127581,0.0039610052,0.09766435,-0.67901355,-0.0748821,-0.5289017,-0.06824483,-0.12113744,-0.21002106,-0.19650407,0.095299326,0.102790244,0.011651446
s1-AACAGGTTATTGCACC-1,0.08931037,0.58416396,-0.1603456,-0.11413074,-0.1691024,-0.063048296,-0.13295701,-0.15304257,0.32713008,-0.10869959,0.043861084,0.27570912,-0.104241475,-0.15620168,0.002400877,-0.39339748,0.278982,0.21403536,0.24442255,-0.4409353,-0.24484076,-0.19573502,0.047744658,0.14130212,-0.036067776,-0.29613826,0.25920972,0.12719336,-0.20569071,-0.17185192,-0.048686575,-0.20019858,0.007962689,-0.31981486,-0.26667207,-0.5799098,-0.4290997,0.5800913,-0.2855132,-0.5182793,-0.76689076,-0.30129722,-0.26348546,0.43539098,-0.01561662,-0.7224502,-0.7346415,0.7081911,-0.6848148,0.68016505,0.800678,0.4978813,0.7002183,-0.38336545,0.42522976,0.9206267,0.74136657,-0.2703588,0.761781,0.51401365,0.45467415,0.26742214,0.5832784,0.44915918,-0.1348426,0.17051217,0.19252734,0.010610422,0.38071686,-0.105031915,-0.14230196,0.09334957,-0.034718715,0.014470065,-0.01816561,-0.2907519,-0.006755359,0.25803915,0.3166104,-0.08369242,0.14834118,0.31337085,0.03518468,-0.15976906,0.32155764,-0.20208347,-0.21191531,-0.06895084,0.27489185,0.5438833,-0.43682057,-0.34693894,0.022904573,0.34156018,-0.092826866,0.06848671
s1-AACAGGTTCACCGAAG-1,0.18915647,-0.21394052,-0.40394387,0.20293887,0.27752927,1.3839352,0.26308885,0.77343994,-0.83085483,0.90983945,-0.4661951,-1.0146407,-1.3710184,0.4787007,0.7555114,1.282858,0.7149063,-1.464545,0.74782634,-1.0728843,0.86055565,0.87934154,-1.2993888,0.93641925,-1.8287197,-0.8969863,0.24998888,0.12070805,0.3475469,-0.035816018,-0.18950751,-0.42621174,0.34792048,0.22407858,0.8573616,0.78089726,0.8473144,-0.65635383,0.5709437,0.56012547,0.89973825,0.7599998,0.3876012,0.018392378,-0.19529083,0.7179498,0.85542333,-0.72957444,0.92567694,-0.48527592,-0.93648624,-0.7399701,-0.82857144,0.59182143,-0.45696566,-0.87319744,-0.8969381,0.6363487,-0.7222636,-0.85744315,-0.6198106,-0.3757777,-0.7199684,-0.68516695,0.9218962,-0.13139,-0.43139166,-1.4588237,0.43037662,0.2568209,-0.4501149,0.25110766,0.29026553,-1.101578,-0.2260714,-0.3650081,1.126532,0.33239704,0.5586754,-0.4564337,-0.13564302,1.0104548,-0.45938963,0.18088089,-1.2267486,0.533471,-0.910829,1.1908579,0.37570512,0.79389256,0.278705,-0.62052846,0.23192737,-0.05330668,-0.3422184,-0.28583375
s1-AACAGTCAGGCTCCGC-1,1.5384665,-16.725273,6.342622,1.20177,7.1229258,-2.929548,4.5324974,2.1209958,-0.05158109,-0.087719224,-3.9013107,-3.9962254,-6.1760716,6.250996,-0.04281406,1.7247744,-2.8003397,-4.021626,7.4652886,3.5756063,0.0026634412,-2.2159643,-3.7011158,5.426584,-0.5426705,-2.766767,-3.0323827,2.7445662,2.2922175,5.552413,-4.8799086,1.2252914,0.34792048,0.22407858,0.8573616,0.78089726,0.8473144,-0.65635383,0.5709437,0.56012547,0.89973825,0.7599998,0.3876012,0.018392378,-0.19529083,0.7179498,0.85542333,-0.72957444,0.92567694,-0.48527592,-0.93648624,-0.7399701,-0.82857144,0.59182143,-0.45696566,-0.87319744,-0.8969381,0.6363487,-0.7222636,-0.85744315,-0.6198106,-0.3757777,-0.7199684,-0.68516695,4.3283954,-2.0414217,1.0937656,0.31225333,-2.0117662,-1.6712373,1.187777,-6.62791,-2.6359134,2.6350107,1.2718585,-2.141132,-5.230684,-4.370921,7.9291086,-2.042936,-2.7643561,-2.3625004,-0.7692358,3.537434,0.61853796,-15.743178,8.268481,-3.105955,-7.623424,-12.384643,5.0771127,5.5947504,-0.6001665,-6.7821894,-5.4662,2.566086
s1-AACAGTCGTGTCGCGG-1,1.2979025,0.64829,1.3397102,-0.66402286,-1.5676936,-0.5201752,0.58473396,-0.97223747,2.0168693,0.73213786,0.7292684,0.5419233,1.7560617,-0.50402534,-0.73939896,-0.98192996,0.7832823,0.615913,-0.61858803,0.054028764,-1.047733,-0.9763692,0.9612834,-0.20132934,0.90899754,0.9594508,-0.023186136,-0.6263371,-0.103718795,-0.31913844,0.8348655,-0.52479434,-5.00044,-6.020224,-1.492012,3.1462073,-0.1359379,3.8480594,0.43265876,2.7683322,1.3603317,-3.536243,-1.8734881,-4.6377444,-1.1455648,0.22511761,-2.2036426,5.7656846,-0.47918433,5.5061207,1.2124932,1.8000787,3.1464963,-5.479829,0.55889803,1.8271855,2.7030127,-2.0665836,-0.9188441,-0.43932334,-1.8654445,0.2151631,4.983206,0.11147001,-0.82376266,-2.340595,-1.755075,2.4492795,2.5669484,-0.40582725,-0.118716106,0.12342746,-1.190867,-0.4216742,-0.60132086,0.33033943,0.6034226,-0.26633367,1.6582028,1.1767104,-0.92521566,0.6660814,-0.8667103,0.50946724,0.05442229,1.01315,-2.361502,-2.0676975,0.98609734,0.6949917,2.85234,3.0097463,2.5626457,1.6026722,0.9355632,-2.118454
s1-AACATACTCATATGCG-1,6.8144937,-1.5795878,1.0619508,6.657562,-4.7898498,-3.2134848,3.0431132,3.8955688,-7.15058,-5.662067,-7.9035387,3.06137,1.5431778,7.4741774,-0.12669957,10.64686,-5.087389,-4.6680684,-2.7325275,-6.9075046,9.681527,13.050677,-1.1924772,2.373051,-5.836757,6.352961,6.0280075,9.411018,7.417253,7.662582,0.54174364,-0.4415312,0.34792048,0.22407858,0.8573616,0.78089726,0.8473144,-0.65635383,0.5709437,0.56012547,0.89973825,0.7599998,0.3876012,0.018392378,-0.19529083,0.7179498,0.85542333,-0.72957444,0.92567694,-0.48527592,-0.93648624,-0.7399701,-0.82857144,0.59182143,-0.45696566,-0.87319744,-0.8969381,0.6363487,-0.7222636,-0.85744315,-0.6198106,-0.3757777,-0.7199684,-0.68516695,4.282799,-2.5206225,2.6406152,5.4317217,-7.5547824,7.4766674,3.0781548,-1.2963085,-1.823969,-2.4006822,-4.8938785,12.898232,6.2259035,-11.982849,-14.522899,-1.0122308,2.5982738,4.5448036,-3.9880316,1.28872,3.905711,3.1395228,-15.445094,11.497503,7.8785024,11.191598,8.196745,-14.5214815,0.17023677,-7.6387935,3.0369186,7.1274185
s1-AACATAGTCTATCTAC-1,-0.7954481,0.52364206,-0.8400184,-0.67350304,-0.669026,-0.89315844,-0.62637436,-0.61797327,0.11555083,-0.31108463,0.67873347,0.8025239,0.18143252,-0.53707063,-0.6468865,-0.84121996,-1.2511002,0.9234823,-0.6548887,0.18126969,-0.7115453,-0.5030155,0.7525429,-0.87082225,0.73708785,0.47280353,-0.20469883,-0.5838401,-0.77491504,-0.453185,0.6657319,0.25367,0.34792048,0.22407858,0.8573616,0.78089726,0.8473144,-0.65635383,0.5709437,0.56012547,0.89973825,0.7599998,0.3876012,0.018392378,-0.19529083,0.7179498,0.85542333,-0.72957444,0.92567694,-0.48527592,-0.93648624,-0.7399701,-0.82857144,0.59182143,-0.45696566,-0.87319744,-0.8969381,0.6363487,-0.7222636,-0.85744315,-0.6198106,-0.3757777,-0.7199684,-0.68516695,-0.9202781,0.72954476,0.1709739,0.43947676,-0.61028373,-0.1880046,0.0031343673,-0.061029535,0.4782865,0.21842894,0.32633805,-0.071524896,0.31619146,0.38544318,-0.5057881,-0.0732865,0.50910294,-0.09511206,-0.15259218,0.4801321,-0.26093143,-0.4469989,0.06798909,-0.5271934,-0.25962526,0.22230674,0.14093024,0.2057397,0.10511066,-0.42266876,-0.12217837,-0.286174
s1-AACATATTCTTGCGAA-1,0.30914193,0.75158864,0.304412,-0.910641,-1.3574384,-0.58273494,-0.17590712,-1.1319786,1.6301279,-0.28711018,0.9886869,0.6284616,1.4056989,-1.0872831,-1.0854857,-0.5464142,-0.18798563,0.73542386,-1.017521,0.1592161,-0.96248955,-1.102927,1.2111765,-0.7633159,0.6867403,1.1740224,0.32133058,-0.80937076,-0.7323255,-0.6234352,0.8810074,0.6832623,-1.3183756,0.08266047,-1.2784932,-1.4889672,-2.223055,1.3775477,-0.7429939,-0.5907946,-2.811992,-3.0910985,-5.2325635,0.629576,-6.362415,-4.2735934,-2.053892,3.4699688,-1.3534338,-3.233412,-0.3025612,1.4604352,1.9322832,-3.700582,1.1411196,1.9270425,1.906873,-4.3062477,2.2518046,1.5247331,3.9819689,-1.9628996,3.504685,2.346507,-0.82871413,-3.7115724,-1.7962021,0.46835366,2.3517776,0.69901896,4.194938,-0.96129286,1.0701891,-0.88033855,1.3401259,-0.05028783,0.018787634,0.22017454,-0.09316708,0.36301753,0.39570302,0.2335928,0.22614914,-0.45339653,-0.3537024,-0.40995178,-0.96173245,-0.5606525,-1.2409364,-0.28898433,-0.56318086,-1.00582,-0.9876999,-0.92208856,-0.38740683,0.827193
s1-AACATCGCGTGACCAC-1,1.8806357,0.62320983,1.2371608,-0.70944464,-1.6660312,-0.07900637,0.69877434,-1.5785136,2.625352,1.0109545,0.6610444,0.48290372,1.6002854,-0.36785814,-0.6765196,-0.9520539,1.6782051,0.43661398,-0.29531327,-0.7631992,-1.1929656,-1.0548202,0.7761711,0.06108703,0.61628217,0.45548162,0.12171016,-0.40609214,0.28993687,-0.3340816,0.83969325,-0.87904835,-1.5137535,-1.750905,-0.85944104,0.79985243,-1.0384766,0.7801583,-0.72580343,0.7491264,0.25923386,-1.9410399,-3.0282722,-1.0037626,-2.108953,-1.0940193,-1.3488576,2.5358653,-0.42359576,-0.26544777,-0.15225567,0.81046784,0.7910286,-2.9370446,2.0284612,0.020408478,0.8410208,-2.8445137,-0.20480488,0.33203992,2.2001872,-0.9409622,1.7476007,0.17506681,-0.7247318,-1.3497435,-0.67844445,2.2274482,3.951215,-0.09106914,1.1962687,0.23662949,-1.4478801,-1.5904218,0.24053264,0.21310319,0.34491408,-0.48734435,1.8148787,0.89815843,-0.730959,0.6983374,-0.44328856,-0.91415095,-1.0664467,0.033612728,-2.7665997,-2.190521,-0.53284705,0.5609824,0.9882992,0.31302416,0.6232767,0.3165416,0.37544835,-0.8421261
s1-AACATCTAATGACCGG-1,0.1347023,-0.39100096,0.42156744,0.0824571,0.9152698,-0.44301918,0.19162141,0.32122457,-0.86523694,0.6855276,-0.5143817,0.30703592,0.018392969,1.0616051,1.0695895,-0.60908824,0.4828793,0.056979544,0.19712082,-0.56244373,0.1120247,0.623863,-0.7721318,0.16332316,-0.10332321,-1.2425355,-0.4241963,0.7297785,1.2492023,0.41123316,-0.4354217,-1.731738,0.34792048,0.22407858,0.8573616,0.78089726,0.8473144,-0.65635383,0.5709437,0.56012547,0.89973825,0.7599998,0.3876012,0.018392378,-0.19529083,0.7179498,0.85542333,-0.72957444,0.92567694,-0.48527592,-0.93648624,-0.7399701,-0.82857144,0.59182143,-0.45696566,-0.87319744,-0.8969381,0.6363487,-0.7222636,-0.85744315,-0.6198106,-0.3757777,-0.7199684,-0.68516695,0.59536564,-0.11471774,0.9460082,0.768455,0.41233033,-1.4444151,-0.32286614,-0.90691334,0.551609,0.7367989,0.39339206,-0.46233293,1.1134989,-0.54620194,-0.17878187,-0.8772194,0.9426639,0.38893163,0.59779745,-0.19041105,0.2919579,0.1419931,0.5287841,0.083161764,0.2369551,-0.41303408,-0.6263648,0.39647517,0.35343453,0.42679694,0.21811245,0.009694706
s1-AACATGACGCAGCGTG-1,-0.22783884,0.31709948,-0.16632847,-0.2213619,-0.044571303,-0.5576731,-0.26195416,-0.1272068,-0.064193755,0.10587824,0.14383285,0.63469523,0.62007713,-0.106669016,-0.2903202,-0.103571564,-0.3392042,0.37662256,-0.19045353,-0.081507325,-0.37449044,-0.120653756,0.20687097,-0.26978338,-0.029061168,-0.19852127,-0.24210909,-0.20164709,-0.010512783,-0.10017967,0.27065644,0.095218875,0.1874673,0.2824039,-1.0468419,-1.6783928,-1.2443898,0.26331493,-1.6003698,-2.102117,-1.1064116,-0.90782934,0.44549957,0.048514538,1.1816559,-0.916794,-0.5396688,0.19648728,-1.2469465,-0.17731126,0.92360395,0.9526055,0.7779648,0.27449888,0.16835047,0.18809645,0.8849387,-0.20535582,0.22731933,1.0681759,0.45221746,0.9804197,0.13833523,0.98264223,-0.27050504,0.023361418,0.4870502,0.038524862,-0.3184767,-0.20226887,0.005073517,-0.33066276,-0.018790452,0.17930315,0.002666403,-0.2735154,0.12035734,-0.37720326,-0.07453604,-0.17307334,-0.117881864,0.024878548,-0.035408568,-0.23046502,-0.13272847,0.2230012,-0.1333695,-0.011235208,-0.046411805,0.17638487,-0.24073781,0.26659104,-0.04770042,0.13265885,-0.33094114,0.45733023
s1-AACCAAGGTATCAGGC-1,-0.64471024,0.7150699,-0.6413531,-0.6930138,-0.79694337,-1.0998375,-0.7824429,-0.57017004,0.20894109,-0.69473386,0.6217483,0.8508488,0.54649717,-0.82300067,-0.7915354,-0.6941377,-0.86993754,1.0484778,-0.87946534,-0.028390761,-0.8059611,-0.5130389,0.8215964,-1.0100017,0.725995,0.6238658,0.07822965,-0.8291132,-0.6847412,-0.47425294,0.70612556,0.43924358,-1.1202968,0.8875002,-2.5963414,-1.4951615,-2.6653748,0.9532202,-1.2290595,-0.9483684,-1.8370765,-2.3998232,1.6714509,-0.23697828,-0.5581575,-2.0340877,-0.04192063,0.67755044,-1.3775566,-1.2934246,0.33136815,1.2235328,1.817054,0.4363074,-0.49355426,0.17961068,0.98638755,-0.81008685,0.1323737,2.2059853,0.681593,0.34408283,1.048496,2.621149,-0.83910996,-1.1663188,0.87372804,-0.9661092,-0.46640402,0.19548382,0.7311901,-0.16230047,0.5784625,1.1313713,-0.53623945,0.09713505,0.05657867,-0.26410812,-0.608752,-0.846631,-0.47045323,-1.049702,0.29703093,-2.0188446,-0.66002184,-0.033420667,-0.18839139,-0.028260846,-0.5260107,-0.09778782,-0.022271829,-0.39756453,0.027879525,-0.20744772,-0.19969358,0.3891869
s1-AACCAATCTGGTTGGC-1,-0.051757,-0.11591171,-0.1272499,-0.09453428,0.6405589,0.06326698,0.093801975,0.46376696,-0.40408704,0.5767509,-0.84101045,0.21269718,-0.7052751,0.39794508,1.0061107,-0.76257604,-0.26286364,0.4615233,-0.27109158,-0.14276494,-0.025201378,0.4485584,-0.24304068,-0.1584805,0.66181403,-0.43041936,-0.824606,0.39238453,0.1785307,0.1178049,0.04083382,-0.90859914,0.34792048,0.22407858,0.8573616,0.78089726,0.8473144,-0.65635383,0.5709437,0.56012547,0.89973825,0.7599998,0.3876012,0.018392378,-0.19529083,0.7179498,0.85542333,-0.72957444,0.92567694,-0.48527592,-0.93648624,-0.7399701,-0.82857144,0.59182143,-0.45696566,-0.87319744,-0.8969381,0.6363487,-0.7222636,-0.85744315,-0.6198106,-0.3757777,-0.7199684,-0.68516695,0.22106342,0.11545985,0.60021764,0.26419166,0.23086774,-1.0656059,-0.43274936,-0.5710934,0.5753739,0.47075948,0.33381802,-0.6014321,0.23928747,0.97513664,-0.61645734,-0.20988786,1.3095006,-0.58869165,0.5244217,0.12500438,0.21925044,0.46342507,0.370583,-0.110445954,-0.3544116,-0.16453826,0.58607405,0.4256173,-0.29727727,-0.63230854,0.5297071,-0.5160439
s1-AACCACTAACATGATT-1,1.3048718,0.5034648,1.2969064,-0.38640228,-0.7364876,-0.41967127,0.67861116,-0.98666036,1.3208157,0.8650175,0.7068112,0.723792,1.4209222,-0.3683485,-0.4588595,-0.84710336,0.81592077,0.31686166,-0.5740597,-0.35227913,-0.7331098,-0.6210585,0.73494595,-0.0147406915,0.22736137,0.58611345,0.14273064,-0.39237356,-0.04964121,-0.094332546,0.3575486,0.1251626,0.34792048,0.22407858,0.8573616,0.78089726,0.8473144,-0.65635383,0.5709437,0.56012547,0.89973825,0.7599998,0.3876012,0.018392378,-0.19529083,0.7179498,0.85542333,-0.72957444,0.92567694,-0.48527592,-0.93648624,-0.7399701,-0.82857144,0.59182143,-0.45696566,-0.87319744,-0.8969381,0.6363487,-0.7222636,-0.85744315,-0.6198106,-0.3757777,-0.7199684,-0.68516695,-0.5864103,0.49402013,0.30813515,1.55987,1.2548015,0.030373657,0.25853488,0.4688218,-1.194412,-0.0060572284,-1.0036317,0.2684858,-0.41346222,-0.1757131,0.8325466,-0.16150959,-1.1329793,-0.47972116,-0.67986894,-0.35846898,0.31647414,0.26469097,1.337019,0.5466219,0.9426347,0.47148213,-0.74976355,-0.19706452,-0.33286643,0.2516759,0.12879999,0.22058916
s1-AACCACTGCCATAGCC-1,0.46903673,-0.1525951,-0.21940438,0.29773697,0.566622,0.016450778,0.2427638,0.50278693,-0.2338991,0.19176336,-0.36200345,-0.28055304,-1.2451607,0.70116144,0.9265929,-0.13105166,0.50858647,0.09601006,0.4343144,-0.65586895,0.086688094,0.22855973,-0.4525567,0.009389358,0.2831546,-0.8531895,-0.51167893,0.29941365,0.22468121,0.059407096,-0.55647105,-0.5712449,0.34792048,0.22407858,0.8573616,0.78089726,0.8473144,-0.65635383,0.5709437,0.56012547,0.89973825,0.7599998,0.3876012,0.018392378,-0.19529083,0.7179498,0.85542333,-0.72957444,0.92567694,-0.48527592,-0.93648624,-0.7399701,-0.82857144,0.59182143,-0.45696566,-0.87319744,-0.8969381,0.6363487,-0.7222636,-0.85744315,-0.6198106,-0.3757777,-0.7199684,-0.68516695,0.43004236,0.0025739903,0.46882626,-0.023013478,0.29672897,-0.89539665,-0.3952575,0.016589096,0.44965455,0.49341148,0.7978922,-0.28977227,0.03983114,0.81256694,0.34232143,-0.4698991,0.43270162,-0.08477854,0.69561046,0.3734601,0.43134096,-0.1263729,0.16223626,-0.23939294,-0.23851663,-0.15413533,0.43982947,-0.58892757,-0.04382548,0.38790032,0.34464923,0.1840057
s1-AACCAGAATCAGACGT-1,0.14646634,0.072251074,-0.510192,0.06096504,0.3880641,0.124880366,-0.25311884,-0.0161716,-0.6613128,0.0784572,-0.32118353,-0.2112985,-0.49023637,0.5427995,0.429453,0.04792627,0.30888933,0.16446136,0.596451,0.30645162,0.04190778,0.4405976,-0.3384898,0.08125687,0.03754128,-0.9434113,-0.50912666,0.59340453,0.36647877,-0.45495474,-0.39133698,-0.7959783,0.11405101,0.1952817,-0.663535,-0.72513604,-0.45552635,0.6916049,-0.50841993,-0.69290763,-0.8767697,-0.36793184,0.17543907,-0.013068931,0.66978425,-0.3927236,-0.50454783,0.5126907,-0.74519485,0.6449079,0.9896026,0.64536613,0.8633685,-0.26494426,0.07376951,0.85511243,0.7355468,0.054408286,0.5749153,0.7530516,0.17392687,0.3278872,0.5316883,0.5966865,0.25674054,0.52666485,0.24765253,0.20391281,0.08516102,-0.52832365,-0.38835764,0.15632604,0.4794346,0.14740588,0.64357346,-0.4841933,0.44538477,0.0011926603,-0.13215274,0.028038483,0.8168842,0.5387723,0.28031757,0.14491794,0.37990376,-0.062911004,-0.016121028,0.050982837,-0.9567474,-0.15718007,-0.44788733,-0.18754584,0.3921606,0.39600423,0.01330455,0.083959565
s1-AACCATGAATTGCCTT-1,0.017489143,0.9341598,0.008516016,-0.8797475,-1.3597997,-0.84722763,-0.08448907,-0.8932607,0.9349185,-0.520407,1.2940929,0.87004375,1.2202959,-1.3058387,-1.2974145,-0.56987375,-0.95778966,1.012402,-1.1079366,0.37455988,-0.9920014,-1.3212152,1.3240812,-1.0653563,0.81960213,1.500149,0.14338593,-1.269878,-1.316799,-0.77917236,0.93252814,1.0774487,-2.8161526,-3.7866004,0.07134695,1.0001669,-0.06691016,2.2045274,0.7576446,1.8666027,-0.023903178,-1.8637829,-0.4932496,-3.511639,-1.0690368,-1.1323627,-2.6834257,2.4287739,-0.31511328,1.2103906,0.9497621,-1.3822826,0.21953352,-2.6057165,1.397402,1.1187956,1.8457108,-2.5519578,-1.1649655,-1.003565,-1.5907803,1.7695231,2.4883528,-0.44440433,-1.2487434,-2.174317,-2.4247794,1.3108337,-0.7092621,-0.29061013,-1.4775909,0.41164327,-0.50829613,0.22730263,-0.337021,0.1843921,-0.1987176,0.21001591,0.01168298,0.16402969,-0.6732795,-0.2108843,-0.4987978,0.60231405,0.18613367,0.27330095,0.18224704,-0.15087768,0.6905706,0.28727302,0.5509461,0.7666675,0.3162643,0.22590439,0.08314464,-0.8546814
s1-AACCGCCAGACTACTT-1,0.58853716,0.20882437,-0.040730577,0.47389224,0.15517741,0.923836,-0.26507097,0.5009668,0.21559215,-0.3507316,-0.56480414,-0.42555827,-1.1631137,0.8492671,0.42265642,0.75977325,0.16279791,-0.61103225,0.74871767,-0.47268885,0.77724236,0.37171814,0.1101393,0.61633307,0.07033059,-0.10863891,0.40850788,0.36058947,-0.018863136,0.13085905,0.1444754,-0.37359902,0.34792048,0.22407858,0.8573616,0.78089726,0.8473144,-0.65635383,0.5709437,0.56012547,0.89973825,0.7599998,0.3876012,0.018392378,-0.19529083,0.7179498,0.85542333,-0.72957444,0.92567694,-0.48527592,-0.93648624,-0.7399701,-0.82857144,0.59182143,-0.45696566,-0.87319744,-0.8969381,0.6363487,-0.7222636,-0.85744315,-0.6198106,-0.3757777,-0.7199684,-0.68516695,0.45946002,0.037356544,-0.033267014,-0.54643416,0.46582574,0.2595224,-0.45550224,0.095440805,0.113187246,-0.53242695,-0.37638316,0.37973025,-0.57878745,0.49840632,-0.45785058,0.13458076,0.053702205,0.597367,0.44294727,0.72663116,-0.5376481,-0.26537168,-0.56298566,0.50986636,-0.17028262,0.43314183,0.22677357,-1.8153762,-0.4739864,-0.11385172,0.7471586,0.1231864
s1-AACCGTGCTTATGTTG-1,0.23914164,0.13144009,-0.24769874,-0.41380262,0.04165704,-0.50419,0.015250656,0.22120035,-0.21424988,-0.28502515,-0.25279343,0.45617503,-0.07117764,0.070061475,0.4751127,-1.1151116,-0.57353735,0.36905685,-0.20085587,-0.16069226,-0.41449377,-0.30733764,-0.073588215,-0.55367583,0.52390325,-0.3150643,-0.3424007,0.09383662,0.04389014,-0.064876385,0.41792393,-0.67029655,-0.47895557,0.05396946,-1.0453111,-0.78442335,-0.72923744,0.7968214,0.063161775,-0.8838439,-1.085691,-0.7216988,0.7186678,0.09162549,0.5382146,-0.57321346,-0.53620905,0.22193608,-0.96016735,0.31707644,0.61849195,0.7315368,0.67794293,0.25077778,-0.3947779,0.5597081,1.0179803,-0.0015061918,0.3564355,0.7525714,0.06986246,0.66640526,0.65718514,1.1630483,-0.18431829,0.11868009,0.6763664,0.21635887,0.24376263,-0.7276364,-0.35246417,-0.5463818,0.10143959,0.6619277,0.22249584,-0.49141538,0.3498554,0.38537368,-0.80486906,-0.43784076,0.44841823,-0.035897672,0.2294065,0.07508614,0.26186615,0.004072449,-0.33803692,-0.2521571,0.04392349,-0.25574103,0.47041464,0.44400302,-0.11186184,-0.5165072,-0.47967482,0.22536261
s1-AACCTAAGATACTGAG-1,-0.6230633,0.555754,-0.70292103,-0.5590835,-0.6373852,-0.82107514,-0.76172835,-0.60771096,0.1922705,-0.48402816,0.88126117,0.84808624,0.32249463,-0.77026886,-0.7982262,-0.7603565,-0.92622066,0.9673369,-0.7172541,-0.055037517,-0.74888664,-0.5044385,0.6916015,-0.8645768,0.69184804,0.3319193,-0.10652292,-0.8986387,-0.62893957,-0.5881693,0.44231477,0.5527628,-0.4845472,0.82001746,-1.8975056,-2.6775558,-2.26404,0.03647047,-1.3814923,-2.8526027,-2.1861365,-1.4888655,1.6941453,-0.04471182,0.7702217,-1.9430022,-0.6423962,-0.25002417,-1.8685589,-1.4463326,0.69598323,0.54573596,0.48942775,1.1013023,-0.9356901,-0.14231336,1.3761365,-0.72802025,-0.29560012,1.5676391,0.65510035,1.7695434,0.54275143,1.9395279,-0.8142514,-0.7729591,1.0987213,-0.9460947,-0.8169496,-0.0023494328,-0.1478549,0.1365852,0.19421858,0.7997133,-0.47362942,-0.0032592907,-0.015034005,-0.29186127,-0.19812764,-0.68445545,-0.4832857,-0.8046807,0.0068506966,-1.8744662,-0.9765712,-0.16218974,-0.21095505,-0.5434328,-0.8961483,-0.1746105,-0.31872004,-0.7253338,-0.75167376,-0.30435994,-0.3601209,0.56414723
s1-AACCTACAGAGGTAGT-1,-0.40293774,0.26775536,-0.4289133,-0.39712223,-0.34166053,-0.6486405,-0.46972033,-0.3017105,0.15919772,-0.092845395,0.49900135,0.4731669,0.3427843,-0.31016472,-0.31548244,-0.48567596,-0.21044381,0.73612887,-0.51655185,0.023307519,-0.5361522,-0.4017393,0.46790043,-0.7186922,0.29173815,0.35823512,0.09487592,-0.25465915,-0.43871865,-0.49323305,0.33900586,0.02302842,-0.5597136,-0.8734086,-0.80339783,-0.621603,-0.25266314,0.9495639,-0.045345157,0.076583244,-0.40066087,-0.60209185,-0.7861691,0.15132183,0.3491886,-0.52202415,-1.1296294,0.895703,-0.87777877,1.7021132,0.903227,0.61157715,0.50740856,-0.8749843,0.98899114,1.3093143,0.97132814,-0.44129726,1.0644599,0.5125227,0.2527553,0.88088435,0.7728107,-0.011134447,-0.5319478,-0.3173207,0.38488245,-0.1789345,-0.2022171,-0.34660292,-0.11504605,0.0723999,-0.041194562,0.18870567,0.18760984,-0.06738239,0.19055668,-0.10700587,-0.117099345,-0.090992466,0.08202831,0.051596127,0.0361735,0.513026,0.5436326,0.07446002,0.01987578,-0.15155956,0.38099992,0.23190267,-0.07878197,0.7334026,-0.056468353,-0.14001447,-0.2172656,0.19722039
s1-AACCTACTGTAACTCA-1,0.18275493,0.090497956,0.13703935,-0.2006689,-0.437552,0.073605075,-0.04620436,-0.3486673,0.8324476,0.8122499,-0.15597846,-0.39730373,0.2785122,-0.027458921,0.0723104,0.34974733,0.5214034,-0.107821584,0.8678804,-0.5748731,0.019756326,-0.53727156,-0.05337498,0.27254295,-0.103722885,-0.4987031,-0.40695885,0.091950886,0.15072536,-0.30541545,0.13515832,-0.18582585,0.34792048,0.22407858,0.8573616,0.78089726,0.8473144,-0.65635383,0.5709437,0.56012547,0.89973825,0.7599998,0.3876012,0.018392378,-0.19529083,0.7179498,0.85542333,-0.72957444,0.92567694,-0.48527592,-0.93648624,-0.7399701,-0.82857144,0.59182143,-0.45696566,-0.87319744,-0.8969381,0.6363487,-0.7222636,-0.85744315,-0.6198106,-0.3757777,-0.7199684,-0.68516695,-0.0318075,0.2695829,0.07323284,0.14749894,0.8949488,0.3078356,-0.29428107,0.34664473,-0.5595438,-0.0782383,0.04810383,-0.34320736,0.13771123,0.10735724,0.94403595,0.5000748,-0.27573487,0.3213483,0.24767211,-0.12633306,-0.4218977,-0.28877723,0.27450484,0.89626,0.2623688,-0.13466397,-1.0636729,-0.8162225,0.8666065,-0.18088335,-0.9396048,-0.2889104
s1-AACCTGACAGTGCCGC-1,-2.9599867,-3.016799,-0.8863852,2.145907,3.2768054,2.1677728,4.6914587,4.1451616,-1.4852661,7.3427477,-1.4959183,-4.590543,-1.8928577,1.0952564,-0.9646778,0.9923769,1.594765,-2.8894339,1.7940689,3.8735435,2.6889458,-1.3851157,-4.567028,-0.999668,-2.0054436,0.19430302,4.846522,3.2639847,-0.8067599,3.5719433,-2.445838,-2.7848294,-0.11388162,-0.17523251,-0.7999997,-1.2096117,-1.3624076,-0.30461216,-0.7361246,0.19824158,-1.0377872,0.03566511,-1.359238,0.57075864,0.8141894,-0.29667076,-1.2689209,0.31315106,-1.2646346,1.2950456,1.5766447,0.42665884,0.595673,-0.8681238,0.8553617,1.2979865,0.828792,-0.93161565,1.5709802,1.1860715,1.7250581,-0.21443884,0.33629468,0.035082843,2.4713821,3.750996,-4.8845344,-0.35851786,0.5273826,0.55255413,0.50012684,2.0473204,1.2349119,5.151946,-0.04659214,-0.29285336,0.49775985,0.5424919,-2.7252626,-2.0096262,-1.3318056,-4.2992773,0.6079039,-0.7114023,-2.1957161,-5.3817806,2.107634,-3.608084,2.713151,3.197838,-1.7135714,6.238819,2.0552392,-4.056333,-1.2076185,2.1110704
s1-AACCTTAGCGTCCGGT-1,-0.15344822,0.13161705,0.11080241,-0.2913955,-0.21715473,-0.5641117,-0.46700725,-0.45828032,0.29291177,0.31974384,-0.28660724,0.6232347,0.14794965,-0.107275724,0.17780769,-0.9519255,0.33755136,0.5440396,0.18289232,-0.7829031,-0.5178963,-0.17591493,0.24078804,-0.48209766,0.4878479,-0.4398271,-0.22393379,-0.055735122,0.4246757,-0.19874766,0.40681514,-0.69067085,0.34792048,0.22407858,0.8573616,0.78089726,0.8473144,-0.65635383,0.5709437,0.56012547,0.89973825,0.7599998,0.3876012,0.018392378,-0.19529083,0.7179498,0.85542333,-0.72957444,0.92567694,-0.48527592,-0.93648624,-0.7399701,-0.82857144,0.59182143,-0.45696566,-0.87319744,-0.8969381,0.6363487,-0.7222636,-0.85744315,-0.6198106,-0.3757777,-0.7199684,-0.68516695,-0.33160615,0.38884023,0.5694822,0.66461736,0.7260686,-0.78446263,-0.41120046,-0.40499347,0.11324006,0.50332683,0.2753135,-0.0699476,0.45622125,0.057909366,0.041359752,0.15677354,0.8801775,0.16395906,0.7640532,-0.3247877,-0.041022673,0.04179539,0.4365793,0.37299073,0.15352531,0.11788519,-0.74321723,-0.09789257,0.010776625,0.15909064,-0.075599015,0.0061227693
s1-AACGAAGCGTGGAAGT-1,0.034717873,-0.5843643,0.42845476,0.099545315,-0.11602618,0.83948046,0.07846193,0.19520962,1.3079178,0.41777265,-0.9606015,-1.2893244,-0.38661423,0.5773273,-0.37936312,0.56588215,1.1593982,-0.84899825,0.7996689,-0.009845421,0.21017551,0.038874667,-0.536017,0.6939749,-0.30181405,-0.08165966,0.47126815,0.44079944,0.20364444,0.34827542,-0.22281969,-0.5193077,-2.635402,-2.5351112,-1.001605,-0.11530924,-0.26857135,1.5434903,1.5344434,0.42999026,0.09826299,-0.7881476,-0.56332916,-1.0899432,0.40346542,-0.7644039,-1.9424691,1.1814393,-0.8935446,2.8442268,1.3787202,-1.7431446,-0.5064882,-1.1029956,0.22593972,0.59325325,1.5455261,-1.5698348,-0.28980544,-0.3110197,-1.7060885,2.900629,1.6616037,-0.8397222,0.4111251,0.8874851,-0.22890118,-0.3680852,1.6032228,0.731193,0.54573196,0.333714,-0.5314262,-0.53365886,-0.10094751,0.20359455,-0.026857458,-0.3398262,0.74887747,0.72081983,-0.26205486,0.19643572,0.37464836,-0.590301,-0.5047675,-1.379677,0.17345758,0.2951644,0.36993566,-0.24243808,-0.022109415,-0.6232035,-0.13730268,-0.319665,0.6131633,0.19032983
s1-AACGAATTGACCGGTT-1,-0.2541857,0.21570887,-0.4576845,0.057026617,-0.15192674,-0.16377367,-0.4278965,-0.31608126,0.16872935,0.02540461,-0.033727307,0.48950168,0.124150656,-0.125661,-0.5067782,0.0023626967,0.014953773,0.022898966,-0.00053729943,0.4937614,-0.16725023,0.08168401,0.117854156,-0.16328487,0.33713084,-0.26913133,0.0105570825,-0.3177613,0.0023076048,-0.27344784,0.13811472,0.2571561,0.34792048,0.22407858,0.8573616,0.78089726,0.8473144,-0.65635383,0.5709437,0.56012547,0.89973825,0.7599998,0.3876012,0.018392378,-0.19529083,0.7179498,0.85542333,-0.72957444,0.92567694,-0.48527592,-0.93648624,-0.7399701,-0.82857144,0.59182143,-0.45696566,-0.87319744,-0.8969381,0.6363487,-0.7222636,-0.85744315,-0.6198106,-0.3757777,-0.7199684,-0.68516695,-0.23505646,0.403421,0.008715847,0.01680695,-0.11304586,-0.03491986,-0.064906806,0.021060245,0.18203251,-0.09521403,0.0020263207,-0.10034208,0.042253368,-0.41548398,-0.046942126,0.7133097,0.31017336,0.10378741,-0.09543229,0.040026397,-0.3393488,0.039580956,0.33780453,-0.15797788,-0.31346917,0.25298277,-0.02528216,-0.11218779,0.34982887,0.6285894,0.10510963,0.7834987
s1-AACGAGCCTCTTCGGC-1,-0.17053595,-0.28635475,0.19890928,0.035911772,0.53274256,-0.18859597,-0.2627851,0.33104086,-0.7301255,0.2932392,-1.2614726,-0.36095333,-0.53269,0.63918185,0.864193,-0.59218425,0.26984754,-0.5162973,0.3139393,-0.32879668,0.34412792,0.002782588,-0.34881863,0.43441802,-0.24787536,-0.6475883,-0.5594865,0.07912117,0.18347721,0.10422658,0.14570393,-0.4391964,0.34792048,0.22407858,0.8573616,0.78089726,0.8473144,-0.65635383,0.5709437,0.56012547,0.89973825,0.7599998,0.3876012,0.018392378,-0.19529083,0.7179498,0.85542333,-0.72957444,0.92567694,-0.48527592,-0.93648624,-0.7399701,-0.82857144,0.59182143,-0.45696566,-0.87319744,-0.8969381,0.6363487,-0.7222636,-0.85744315,-0.6198106,-0.3757777,-0.7199684,-0.68516695,0.39274317,0.06582535,0.27528054,-0.32056013,0.23265365,-0.78917694,-0.3712635,-1.2150419,0.016867094,0.06585248,0.011893468,-0.5737906,0.7154328,0.02877791,-0.21682185,0.16995533,0.5131905,-0.27119374,0.30064374,0.4282526,0.15159945,-0.20731989,0.18907332,0.29348332,-0.6574835,0.20452768,0.027903879,-0.6505633,-0.21462767,-0.46602488,-0.26642558,-0.91570306
s1-AACGAGCTAATAACTA-1,0.4555956,-1.099138,0.28259215,1.5011832,1.1085455,2.0290446,0.71173346,1.0829369,-0.1468486,0.60279447,-1.0058521,-1.2317028,-0.84466213,0.14992617,2.5408354,1.2853299,0.063070044,-1.3356874,0.02638098,-0.21913859,1.0251701,0.3261209,-0.6084772,1.1180843,-0.9222102,-0.7140792,-1.0771481,1.0788481,0.84828067,1.1286763,-1.0830593,-0.13549481,0.3310087,0.16538857,-0.64566296,-1.3713026,-0.8021918,0.36869094,-0.42543876,-0.35079652,-1.0805964,-0.20877567,0.34925476,1.0396148,0.62408113,-0.87112576,-0.9174327,0.45079648,-1.4640527,1.029879,1.543427,0.81644404,1.0587628,0.08550692,0.35079142,1.5872121,1.1201706,0.019196393,1.4495909,1.1298063,0.6652885,0.2475336,0.26409715,0.43412474,1.1518888,1.550524,-1.5112543,0.98619735,-0.27781278,0.0967992,0.026518518,0.27241454,-0.2040236,-0.7884562,-0.025889114,-0.19501147,-0.7348513,1.4836295,0.043541584,0.10505355,1.1347489,-0.6198698,0.7673474,-0.14079988,-0.45277157,1.47101,-0.2629987,-0.092373446,0.021296121,-1.5290852,-0.61986566,-0.78822005,-0.03415159,-0.21768545,-0.00019715675,-1.4396194
s1-AACGGCACAGAATATT-1,1.0448253,0.2888535,1.6414331,-1.0368203,-0.52093035,-0.04257445,0.17732085,-0.8909329,1.4560858,0.37167346,0.568675,0.4055731,0.89903367,0.013174326,-0.028634613,-0.48961884,1.24901,-0.025280684,0.2918677,-1.042648,-0.72168744,-0.23599385,0.20717484,0.24539828,-0.107057884,-0.29686245,0.03940569,-0.06846302,0.26062128,0.12774357,0.18180165,-0.5985173,0.34792048,0.22407858,0.8573616,0.78089726,0.8473144,-0.65635383,0.5709437,0.56012547,0.89973825,0.7599998,0.3876012,0.018392378,-0.19529083,0.7179498,0.85542333,-0.72957444,0.92567694,-0.48527592,-0.93648624,-0.7399701,-0.82857144,0.59182143,-0.45696566,-0.87319744,-0.8969381,0.6363487,-0.7222636,-0.85744315,-0.6198106,-0.3757777,-0.7199684,-0.68516695,-0.29599163,0.37684602,0.3332189,1.1657785,1.829452,0.11104905,-0.25816634,0.08581949,-0.77919126,-0.25373223,-0.8784569,-0.06111463,0.33352044,-0.10976861,1.5286574,-0.81282467,-0.94651353,0.59568805,0.42214108,-0.68337476,0.11303051,-0.028477209,1.2808241,1.4434862,0.6450505,-0.3809683,-1.0915645,-0.33286938,-0.25649473,0.57627857,0.13192049,0.34227487
s1-AACGGTAATCGACCTG-1,2.1432943,-10.700615,7.643451,18.539894,3.7343857,8.922693,7.0468254,2.511015,-10.586744,-0.15813032,-2.7572014,3.2779188,6.3222632,3.3628557,0.037437532,1.228019,6.1376023,-3.3777475,20.870253,-13.3193,5.661361,9.820967,-2.0478475,6.726245,16.553942,-0.011567554,-12.561537,7.9126353,-1.6232344,5.6226554,-2.2463143,-10.31306,0.34792048,0.22407858,0.8573616,0.78089726,0.8473144,-0.65635383,0.5709437,0.56012547,0.89973825,0.7599998,0.3876012,0.018392378,-0.19529083,0.7179498,0.85542333,-0.72957444,0.92567694,-0.48527592,-0.93648624,-0.7399701,-0.82857144,0.59182143,-0.45696566,-0.87319744,-0.8969381,0.6363487,-0.7222636,-0.85744315,-0.6198106,-0.3757777,-0.7199684,-0.68516695,6.449832,-4.4747405,8.311853,10.75598,0.8456256,5.271614,-4.9898887,6.372472,12.978176,4.7689524,4.0457006,-3.5157914,-13.626859,-4.147602,-0.2910957,19.892284,-1.7945144,-12.902503,8.992341,3.9947612,-13.150266,-6.9676027,-9.522088,14.609749,-0.61992896,9.43312,-7.419807,3.0616555,-13.083666,3.0307155,-2.8001726,-6.486524
s1-AACTAACGAACTAGAT-1,1.0048685,0.51284206,1.135639,-0.83929396,-1.6312245,-0.4882434,0.3363074,-1.2889389,2.0877788,0.47351867,0.84481233,0.7602286,1.9478601,-0.88356864,-1.2217548,-0.9138861,0.3531562,0.55413747,-0.96931475,-0.007033089,-1.1200849,-1.4311837,1.1261286,-0.59395164,0.7955058,1.1029637,0.21837778,-0.98650706,-0.5605419,-0.578234,0.9216886,0.23416212,-6.6523294,-5.8665085,-1.7628214,3.2530391,-0.99681294,4.198382,3.9397783,4.9922705,0.9346897,-4.245918,-0.8637262,-5.9007816,-3.2822733,-2.2255619,-3.112981,4.404467,-0.15560333,3.339929,0.2641712,-2.0278862,1.4016496,-4.664307,0.15174663,0.45067963,2.3489366,-5.4034667,-2.9332638,-0.7298281,-1.9833926,1.6432904,5.659385,0.5078625,-1.0817211,-3.4340205,-4.4664607,3.3750722,1.8023685,-0.743226,-0.7508107,0.14267372,-0.81651986,0.89047754,-1.3183125,0.42789978,0.8945124,0.0968453,1.6848543,0.93584275,-0.5474233,0.28413233,-0.31866214,-0.31635377,-1.0493685,0.81871796,-2.7547648,-2.3770053,-0.54813707,0.78496474,3.0101562,2.0223432,2.7101269,1.6922526,0.05348896,-2.203282
s1-AACTAGCACTGTTCGA-1,-0.1532331,0.12020856,-0.04615777,-0.033121403,-0.13345572,-0.039624386,-0.5977036,-0.36234212,0.43583623,-0.5383867,0.25518736,-0.101752125,-0.39433777,-0.124245025,-0.42651287,-0.124421366,-0.03548133,-0.19868591,0.11430566,0.106437966,-0.18840852,-0.2059761,0.4131632,-0.21918692,-0.060754772,-0.03860025,0.6062294,-0.24798475,0.16823936,-0.016926745,0.16185704,-0.029575456,0.34792048,0.22407858,0.8573616,0.78089726,0.8473144,-0.65635383,0.5709437,0.56012547,0.89973825,0.7599998,0.3876012,0.018392378,-0.19529083,0.7179498,0.85542333,-0.72957444,0.92567694,-0.48527592,-0.93648624,-0.7399701,-0.82857144,0.59182143,-0.45696566,-0.87319744,-0.8969381,0.6363487,-0.7222636,-0.85744315,-0.6198106,-0.3757777,-0.7199684,-0.68516695,-0.22462678,0.40935257,-0.11419276,-0.21947561,0.1936729,0.05398282,-0.14828962,0.027818998,-0.008322903,-0.27108344,-0.22964421,0.60613954,-0.25196135,-0.25423953,0.019182118,-0.013605087,0.29025328,0.7611755,0.21444465,0.10365279,-0.20674019,-0.5001756,0.1305218,-0.40304303,-0.13806371,-0.34696048,-0.31039605,-0.2606074,-0.16338512,0.45440707,-0.029238522,0.702552
s1-AACTAGCATCACGTAC-1,-0.847005,0.40207705,-0.9246581,-0.7273319,-0.5907285,-0.9670969,-0.6964153,-0.518124,0.08158107,-0.6284503,0.7977622,0.82433563,0.13934304,-0.6202996,-0.5488867,-0.79312754,-1.0352298,1.137682,-0.7361291,-0.028313369,-0.6971307,-0.5103288,0.721993,-1.1208085,0.9344091,0.6213291,-0.28550297,-0.5521037,-0.72776246,-0.3672864,0.7017012,0.51341134,0.34792048,0.22407858,0.8573616,0.78089726,0.8473144,-0.65635383,0.5709437,0.56012547,0.89973825,0.7599998,0.3876012,0.018392378,-0.19529083,0.7179498,0.85542333,-0.72957444,0.92567694,-0.48527592,-0.93648624,-0.7399701,-0.82857144,0.59182143,-0.45696566,-0.87319744,-0.8969381,0.6363487,-0.7222636,-0.85744315,-0.6198106,-0.3757777,-0.7199684,-0.68516695,-0.9592516,0.74770415,0.18949574,0.41448218,-0.79586256,-0.24785757,0.04671614,-0.097762674,0.39858946,0.4598336,0.63007003,0.15688543,0.27796987,0.6071284,-0.4495451,-0.10776736,0.51701987,-0.22384708,0.24609686,0.5678385,-0.120997585,-0.22484119,-0.2828104,-0.41555175,-0.34096298,-0.002336257,0.29592147,0.37964603,0.045714732,-0.42765766,0.288593,-0.07022799
s1-AACTAGCCTAATAGCA-1,0.095305175,0.34516987,-0.03932005,-0.5897664,-0.94351137,-0.49972618,-0.19310546,-0.9111986,0.79811585,-0.4214084,0.98202336,0.7998396,1.0832338,-0.7846912,-0.9932072,-0.29835477,-0.55499375,0.6935065,-0.882414,0.032279257,-0.58360434,-0.5300261,0.9824565,-0.68014175,0.2677044,0.9353391,-0.21710457,-0.9244699,-0.5621142,-0.22295128,0.43762213,0.9305981,0.34792048,0.22407858,0.8573616,0.78089726,0.8473144,-0.65635383,0.5709437,0.56012547,0.89973825,0.7599998,0.3876012,0.018392378,-0.19529083,0.7179498,0.85542333,-0.72957444,0.92567694,-0.48527592,-0.93648624,-0.7399701,-0.82857144,0.59182143,-0.45696566,-0.87319744,-0.8969381,0.6363487,-0.7222636,-0.85744315,-0.6198106,-0.3757777,-0.7199684,-0.68516695,-0.9373109,0.72549075,-0.035996493,0.8246926,-0.47565296,0.48400643,0.49307904,0.49265447,-0.5756049,-0.2198662,-0.33582515,0.5350234,-0.041670166,0.024528036,0.3333659,0.24937753,-0.5303796,-0.18307112,-0.29377148,0.16842647,-0.33374512,0.31053331,0.41317946,-0.11945516,0.2880681,0.022752455,0.07814833,-0.055950854,-0.41157132,0.14035183,-0.04088353,0.15687117
s1-AACTAGCCTTGCAATA-1,-0.029094184,-0.6706773,-0.073053256,0.5343621,0.13850616,1.0491132,-0.09445971,0.23215814,0.49794826,-0.32004786,-0.34169683,-0.66722494,-0.39220497,0.3194997,0.14697394,0.30689457,0.7610808,-0.43776077,0.5191848,0.59900767,0.28264573,-0.19315317,-0.39119285,0.5324601,-1.2771294,0.12875482,0.4843923,0.5380004,0.45142534,0.22668146,-0.49635905,0.47577304,0.34792048,0.22407858,0.8573616,0.78089726,0.8473144,-0.65635383,0.5709437,0.56012547,0.89973825,0.7599998,0.3876012,0.018392378,-0.19529083,0.7179498,0.85542333,-0.72957444,0.92567694,-0.48527592,-0.93648624,-0.7399701,-0.82857144,0.59182143,-0.45696566,-0.87319744,-0.8969381,0.6363487,-0.7222636,-0.85744315,-0.6198106,-0.3757777,-0.7199684,-0.68516695,0.424481,0.103064284,-0.4081121,-0.7329584,0.08744809,0.5351896,0.22889693,0.60009855,-1.1958367,-0.3426259,-0.2605324,-0.26367676,-0.20440507,-0.1459021,0.52294326,0.2528246,0.40150985,0.7239134,0.26839128,-0.49067238,0.3698755,-0.55714333,-0.09958973,-0.39060727,0.24432923,-0.4475669,-0.034008253,-0.04862658,-0.5662105,0.15636449,0.54448867,0.4070784
s1-AACTAGGCCTGACACC-1,-0.43231913,-0.21020979,-0.44197187,-0.06072705,-0.16873387,-0.29100904,-0.34978396,-0.19190279,-0.14804088,0.1477777,0.32540983,0.2201156,-0.029907119,-0.24083056,-0.0243919,-0.017289588,-0.2799821,0.025247427,0.06808313,0.011282637,-0.40130094,-0.32217684,0.059923913,-0.39839756,-0.3418355,-0.22400449,0.33854306,0.023063647,0.13160609,0.015956953,0.24843386,-0.0982948,0.1672208,0.24990295,-0.95497495,-1.3059384,-1.1489868,0.14806823,-1.3041548,-0.79134816,-1.0201852,-0.48033553,-0.40258768,0.24812773,0.5839746,-0.5919349,-0.7535602,0.37021017,-1.0329852,0.10673439,0.9678922,0.84523004,0.48006156,-0.32149497,0.66825026,0.6508005,0.7138538,-0.55415183,0.88566256,1.1139468,0.990859,0.26111588,0.066090345,0.5205491,-0.17899334,0.123698495,0.2248506,-0.20735121,-0.13494211,-0.034624957,-0.07502244,-0.018655295,0.016891928,0.020919831,0.08626485,-0.14646642,0.14803167,-0.2884364,-0.11601367,-0.27196202,0.25663874,0.3184464,0.0918468,0.12471047,-0.1791746,-0.10041532,-0.13221411,-0.2135582,0.23585358,-0.1132035,-0.57735246,0.4625611,0.16389151,-0.21803485,-0.31809896,0.25062543
s1-AACTATCGTCATAGTC-1,-0.065215975,0.36741406,-0.3565411,-0.1931685,-0.074522935,-0.7171365,-0.044485442,-0.22841613,-0.04959512,-0.03454597,-0.04096851,0.8289801,0.20570524,-0.07456539,0.103850484,-0.68839246,-0.4751264,0.65077025,-0.4314081,-0.33070818,-0.36174127,0.11496267,0.40317833,-0.5756675,0.68737143,-0.21401979,-0.66047955,-0.14870955,-0.20128272,-0.15671791,0.31442988,-0.4788813,-0.5888871,0.38507298,-1.2379657,-0.63714904,-1.0334129,0.8613414,-0.2657334,-0.9478051,-0.9952063,-0.71039754,0.9659894,0.26445276,0.3952882,-0.6269246,-0.21259746,0.14542955,-0.98157984,0.13188,0.5801813,0.93002087,0.88435644,0.25683692,-0.69536144,0.39093825,0.88283145,-0.12291604,0.39368284,1.1069901,0.32951346,0.52722645,0.532117,1.5623542,-0.3446362,-0.057501495,0.8753488,0.30376348,-0.100294754,-0.61834407,-0.12266339,-0.2797237,0.38096714,0.4246011,-0.028087258,-0.20903644,0.19964728,0.09377308,-0.38452646,-0.21453373,0.39550325,-0.4336388,0.32101822,-0.06663499,0.16387755,0.29323643,-0.28781807,-0.13196285,-0.1948895,0.20576143,0.38156256,0.21233404,0.08963826,-0.06238754,-0.579838,0.43802315
s1-AACTATCTAGCAGTAT-1,1.0760067,-0.4729724,0.07136609,1.7456582,1.0691284,1.1462158,0.199424,0.959728,-0.020541627,-0.21461211,-2.6581037,-1.8828396,-0.09759309,1.1556882,0.18902056,1.662595,2.2828045,-1.2685046,1.1691917,1.5741875,1.1153333,1.3726691,-1.6597664,1.6055598,-0.80829626,-1.2199963,1.0008744,1.160442,0.7111434,-0.23587725,-1.1994271,0.14748934,0.34792048,0.22407858,0.8573616,0.78089726,0.8473144,-0.65635383,0.5709437,0.56012547,0.89973825,0.7599998,0.3876012,0.018392378,-0.19529083,0.7179498,0.85542333,-0.72957444,0.92567694,-0.48527592,-0.93648624,-0.7399701,-0.82857144,0.59182143,-0.45696566,-0.87319744,-0.8969381,0.6363487,-0.7222636,-0.85744315,-0.6198106,-0.3757777,-0.7199684,-0.68516695,1.4237059,-0.3295578,-0.646292,-1.5825434,0.7911135,0.3725634,-0.18205285,0.27171504,-0.75501865,0.025742995,0.120458074,-0.6313297,-0.78860193,-2.366425,0.31757987,2.0644886,0.14751852,0.19051795,-0.10805415,-0.9877904,1.9283543,0.14546669,-0.027997848,0.726462,-0.5933035,0.4474369,0.88797486,-1.7075379,0.7262915,1.4217069,0.6835304,1.1044271
s1-AACTATGCTGCATTCG-1,0.33062392,0.41085553,0.041624133,-0.45791844,-0.8170389,-0.6080835,-0.45972884,-1.021275,0.8575493,-0.13587978,0.6574973,0.70751935,0.63468385,-0.30867836,-0.72190773,-0.43319753,0.016514147,0.4754983,-0.291112,0.011504895,-0.7015196,-0.6715186,0.8131413,-0.4714216,0.84159434,0.2976993,0.052643314,-0.4497407,-0.19437875,-0.46987215,0.6071456,-0.1754668,0.34792048,0.22407858,0.8573616,0.78089726,0.8473144,-0.65635383,0.5709437,0.56012547,0.89973825,0.7599998,0.3876012,0.018392378,-0.19529083,0.7179498,0.85542333,-0.72957444,0.92567694,-0.48527592,-0.93648624,-0.7399701,-0.82857144,0.59182143,-0.45696566,-0.87319744,-0.8969381,0.6363487,-0.7222636,-0.85744315,-0.6198106,-0.3757777,-0.7199684,-0.68516695,-0.7670989,0.6202496,0.24498999,0.8584901,0.60432774,-0.09773059,-0.07235806,0.3926595,-0.18718186,0.061076738,-0.21943976,0.35799256,-0.041150045,-0.38305524,0.06283122,0.22099675,-0.11470702,0.06391218,-0.09589883,0.24508826,-0.34276798,-0.3267132,0.5879915,0.22008061,0.05804679,-0.24925697,-0.8041762,-0.48520353,0.20854133,0.3096816,0.2868493,0.24901018
s1-AACTATGTGCTTGTTA-1,-0.64238083,0.30762362,-0.43104383,-0.2627313,-0.20891206,-0.48717508,-0.698299,-0.21306767,-0.22435987,-0.41937017,0.11055179,0.47968155,-0.13083339,-0.49528453,-0.09185909,-0.15880321,-0.50982356,0.45711538,-0.2854856,0.4189847,-0.40005606,-0.20097886,0.29406276,-0.45274085,0.259829,0.43321568,0.030090507,-0.45611483,-0.6228052,-0.35873958,0.36192596,0.2586499,-0.23222488,0.05719201,-0.574502,-0.75705224,-0.6397225,0.7276872,-0.5577594,-1.6316392,-1.0087872,-0.3636306,0.35217345,0.369104,0.32376727,-0.7252283,-0.4865377,0.25943458,-0.7391258,0.32075897,0.8334868,1.032368,0.4820799,0.06373054,0.18660548,0.71113497,0.8569377,-0.04617506,0.67598486,0.89798546,0.27699378,1.1272207,0.110291936,1.0084367,-0.4389395,-0.049871616,0.32337326,-0.62371874,-0.5859352,-0.085058466,-0.04491454,-0.06538931,0.43517154,0.16092819,0.0039933897,-0.22768584,0.027036427,-0.04419027,-0.3029528,-0.01973937,0.10398756,-0.229844,-0.015457334,0.16874123,0.25464696,0.22572573,0.08509226,-0.17304839,-0.13462754,0.14152631,-0.17077091,0.008651792,-0.30136582,-0.53517306,0.07807474,-0.115511514
s1-AACTATTCTGCGGCCT-1,-0.71502894,-0.33788398,-0.13837801,-0.36563915,0.16571231,-0.47924373,-0.35831022,0.05225824,-0.53094584,-0.0681192,-0.09343241,0.56836265,0.1904654,0.16722655,-0.2329068,-0.59914756,-0.5381127,0.12375929,-0.37743476,-0.051033564,-0.39905345,-0.1327646,0.10023752,-0.08608815,-0.05456958,-0.12823673,-0.4007782,-0.19403426,-0.19338158,0.25625336,0.38198107,-0.07016567,-0.30733,0.08431015,-0.63936764,-1.0455574,-0.4355036,0.97301763,0.042374723,-1.5038984,-1.2609317,-0.3608365,-0.4384672,0.77433515,0.43993723,-0.8970927,-0.9216878,0.64117926,-1.0499336,0.9196704,1.1767889,0.78212243,0.4309997,-0.29499272,0.20097803,1.4908164,1.2706584,-0.024078935,1.3386668,0.9202938,0.379995,1.1052712,0.8879574,0.6905562,-0.17681846,0.11607814,0.40164074,-0.04535207,-0.4838606,-0.358798,-0.055643942,-0.77590805,0.13899837,0.1711639,-0.0523217,-0.37060037,0.4445664,-0.22822964,-0.25489825,-0.2558874,0.31619892,-0.16274855,-0.0010981942,0.3420274,-0.08808584,-0.31319812,0.134606,0.046137214,-0.09128538,0.1273832,0.048965205,0.834888,-0.46644896,-0.2965922,-0.28462407,0.27797312
s1-AACTCAACCTTGACCA-1,-0.35658485,0.31344834,-0.259239,-0.44161037,-0.39682385,-0.352878,-0.33537495,-0.27436465,0.22064488,-0.46511248,0.5381142,0.1348637,-0.4113254,-0.51211244,-0.50880814,-0.02584963,-0.7196816,0.5507444,-0.15969281,-0.18886836,-0.27614275,-0.1412637,0.48548973,-0.3551502,0.09806365,0.022194719,-0.083351105,-0.25196686,-0.58209676,0.054454993,0.17653114,0.64353424,0.3400143,0.015321317,-0.8301267,-1.0319114,-0.49300584,0.5830077,-0.49722856,-0.6753892,-0.67616916,-0.28875569,-0.4543385,0.33844247,0.5296503,-0.3823398,-0.52943856,0.46597734,-0.84899306,0.94473624,0.7567374,1.096346,0.50531983,-0.38945395,0.31139362,0.9480008,0.7079252,0.08175453,1.0194317,0.7110199,0.62266266,0.37814987,0.49029243,0.2548636,-0.42724726,-0.09289825,0.30799875,-0.4044539,-0.5329922,0.5083694,-0.049961757,0.03836524,0.12123918,-0.13547336,0.12098069,0.1167281,-0.2161228,0.3494941,0.27842426,-0.28756365,0.103815064,0.097352184,-0.11948104,0.41495517,0.1747778,-0.16899042,0.18409652,0.004776078,-0.0074458974,0.08958163,0.05974288,-0.1365915,-0.14751531,0.10964152,-0.2010295,0.0431521
s1-AACTCAACTTGACAGC-1,-0.16400003,0.05389458,-0.40238252,-0.12541327,0.18027543,-0.1332169,-0.33667442,0.12724273,-0.598751,-0.25274858,-0.005102789,0.20060286,-0.23179637,0.044663467,0.36027712,-0.03607698,-0.6693149,0.18654978,-0.7016186,0.11303061,0.30137688,0.04866391,0.030586561,-0.12447497,0.044093214,0.25058725,-0.16217424,0.080164604,0.1255741,-0.1482783,0.18654571,-0.07108333,0.34792048,0.22407858,0.8573616,0.78089726,0.8473144,-0.65635383,0.5709437,0.56012547,0.89973825,0.7599998,0.3876012,0.018392378,-0.19529083,0.7179498,0.85542333,-0.72957444,0.92567694,-0.48527592,-0.93648624,-0.7399701,-0.82857144,0.59182143,-0.45696566,-0.87319744,-0.8969381,0.6363487,-0.7222636,-0.85744315,-0.6198106,-0.3757777,-0.7199684,-0.68516695,-0.03793346,0.28394175,0.1344396,-0.06414755,-0.6554613,-0.42073885,0.106071,-0.26564446,0.15273643,-0.0032897608,0.07214132,0.23916598,0.4181056,0.30218345,-0.75599766,-0.29314482,0.6701056,0.016524278,-0.34022814,0.47004688,-0.05717916,0.5888159,-0.4760666,-0.19603837,-0.2636525,-0.3361357,0.10036971,-0.103929415,0.05461463,-0.42877552,0.32995427,-0.4780987
s1-AACTCACCGAACTTAT-1,-0.008559316,-0.32162955,0.5896248,0.142081,0.85147697,0.7850568,0.6169902,0.5276556,0.5897728,0.03434376,-0.5842248,-1.0091459,-0.3972038,0.9023608,-0.7237223,0.39727327,0.27281874,-1.3762176,0.81465226,-0.39352506,0.9372612,0.80767995,-0.966487,1.19561,-1.5090748,-0.45731273,0.95746684,0.61589575,0.86910087,0.64775074,-0.12056184,-0.24839559,0.32928637,0.054051332,-0.5747859,-1.030389,-0.6378721,0.42415664,-0.2599273,-1.002855,-1.2006441,-0.12922364,-0.7082444,0.9028174,0.89774543,-0.36382863,-0.83514726,0.46371812,-1.1480131,0.94369453,1.4434959,0.9324196,1.0446056,-0.3402135,0.22062378,1.3296183,0.9597455,-0.16455862,1.4100412,1.0155511,0.93286437,-0.0060605444,0.5955726,0.62008035,0.743789,1.2037405,-1.2805322,0.39786357,0.40887418,0.28125218,-0.034102943,-0.42552447,-0.2920152,-0.31147224,-0.57801664,0.3722734,-0.031033728,-0.26939094,0.32753786,-0.21689469,-0.048323378,0.95166975,-0.2325083,-0.6114018,-0.98576367,-1.7091428,0.05318992,0.6893726,0.29271612,0.120019995,0.41846895,-0.81569827,-0.038257632,0.4571655,0.031820867,0.60581124
s1-AACTCACCTCGGTGTT-1,-0.30135494,-0.78513896,-0.022240333,0.33248895,0.42735818,0.5432861,0.20502768,0.34819612,-0.13720024,-0.27835172,-1.0333241,-0.35187256,-0.07474503,0.1846669,0.87488115,-0.18572944,1.0111872,-0.63683057,0.3315186,-0.014085908,0.36444676,0.19959436,-0.8006679,0.5724376,-1.0529875,-1.2954597,0.41196844,0.33609414,0.65763104,0.7598834,-0.5412346,-0.3712019,0.34792048,0.22407858,0.8573616,0.78089726,0.8473144,-0.65635383,0.5709437,0.56012547,0.89973825,0.7599998,0.3876012,0.018392378,-0.19529083,0.7179498,0.85542333,-0.72957444,0.92567694,-0.48527592,-0.93648624,-0.7399701,-0.82857144,0.59182143,-0.45696566,-0.87319744,-0.8969381,0.6363487,-0.7222636,-0.85744315,-0.6198106,-0.3757777,-0.7199684,-0.68516695,0.60419077,0.00061319914,-0.05760526,-0.5168466,0.41309595,0.031028135,-0.19720156,-0.6380872,-0.5533987,-0.14430588,-0.26121062,-0.57065177,0.63346046,-0.3889749,0.4083561,0.044147104,0.8955564,0.06159746,0.9891464,-0.6322467,0.4942022,0.041309647,0.089517705,-0.50154054,0.75412303,-0.2748597,-0.2633014,-0.18014224,0.1685116,0.70482004,-0.24142036,-0.029456856
s1-AACTCACGGAGTACGT-1,0.12826513,0.33823404,-0.0011661081,-0.5331673,-0.428786,-0.7465227,-0.3523968,-0.4456813,0.44028547,0.35658398,0.20644662,1.0987941,0.43360868,-0.086242795,-0.07826369,-1.0854094,0.26619452,0.53736985,-0.14132673,-0.6186513,-0.6966193,-0.45399967,0.41702557,-0.41625214,0.6142581,-0.07427914,-0.26357925,0.147223,-0.28949448,-0.10230481,0.542521,-0.58569765,-0.7790669,0.23977126,-1.5773357,-0.3148521,-1.3285947,0.71878153,-0.58932394,-0.5036675,-0.8354307,-1.4920272,-0.42007706,0.28456178,-0.75154805,-0.9195912,-0.25404045,0.7670539,-0.75375295,-0.77188927,0.3027942,0.6882066,1.2242326,-0.25565216,0.028891629,-0.08078137,0.44394824,-1.2424428,0.49866208,1.1948817,0.6111199,-0.22453292,0.7560699,1.6923106,-0.4548227,-0.31958154,0.73617053,0.42396048,0.81085056,-0.51714116,0.16245697,-0.32993272,-0.060274605,0.26708645,-0.05614737,-0.40727383,0.41086742,0.03361624,-0.021130765,-0.32822987,0.083441585,-0.26561666,0.31079856,-0.44795766,-0.013613059,-0.13090585,-0.7394397,-0.117754176,-0.2555841,0.47414967,-0.21661183,0.4857593,0.17082047,-0.20188099,-0.42551607,0.8291991
s1-AACTCAGATCCATGCC-1,1.8507324,-0.35661405,1.3907598,0.021030255,0.11143869,0.3691246,0.6035971,-0.14203374,0.18240707,1.1648685,0.25739226,0.22248729,0.183321,0.9790086,0.79705334,0.097299576,1.5644169,-0.4196627,0.6430215,-2.1910896,0.2877691,0.276048,-0.64442396,0.7626424,-0.4806898,-1.0382459,-0.50453705,1.1738821,0.996194,0.71280915,-0.9165952,-0.7884981,0.34792048,0.22407858,0.8573616,0.78089726,0.8473144,-0.65635383,0.5709437,0.56012547,0.89973825,0.7599998,0.3876012,0.018392378,-0.19529083,0.7179498,0.85542333,-0.72957444,0.92567694,-0.48527592,-0.93648624,-0.7399701,-0.82857144,0.59182143,-0.45696566,-0.87319744,-0.8969381,0.6363487,-0.7222636,-0.85744315,-0.6198106,-0.3757777,-0.7199684,-0.68516695,0.66413933,-0.20881066,0.8318891,1.3004045,1.189298,-0.14078268,-0.06734648,0.45823127,-0.8993996,0.16798516,-0.14578158,-0.05231015,0.7115107,0.14767814,1.5054905,-1.3372722,-0.31017572,0.40886158,0.25261354,-0.3049237,-0.03400248,0.33425426,0.5811981,1.7611942,0.5128516,0.30974835,-1.4118162,-0.6879904,0.012577408,1.1052251,-0.19346647,0.79009604
s1-AACTGCAACGTCCTGG-1,-0.42215535,0.38515976,-0.80537695,-0.53472096,-0.36807266,-0.7049122,-0.6058051,-0.55600417,0.17484637,-0.68870664,0.62689894,0.7684788,0.3900352,-0.52262074,-0.4894308,-0.5877444,-0.7973255,0.777471,-0.6179863,-0.27380225,-0.57661813,-0.41432157,0.49092612,-0.8500237,0.4005227,0.29289368,-0.022175353,-0.53281724,-0.4967786,-0.13373093,0.6275504,0.5331536,0.6606162,0.52173686,-2.260388,-1.6168576,-1.3072267,0.0002995916,-1.5838766,0.57482445,-1.1451755,-0.7670012,-0.68323994,0.68505174,0.28730744,-0.430287,-0.6237236,0.63004863,-1.0036894,0.780133,0.65614516,1.3158379,1.3087883,-0.7401647,1.4900373,1.1568626,0.32737917,-0.27419266,1.6906892,1.597779,2.031878,-0.4029787,0.40235588,0.41287857,-0.63481694,-0.5506826,0.91007054,-0.61534035,-0.4039852,0.04073649,0.41462353,-0.24073467,-0.0411208,-0.2557621,0.40907523,-0.13752484,-0.21270274,-0.16850762,-0.37461624,-0.41871437,0.1232314,-0.050593957,0.18929188,0.26250353,0.027685247,0.097517416,0.14797424,0.16296326,0.38067773,0.1070928,0.29968557,0.45516962,0.14720248,0.04873359,-0.25389516,0.3257577
s1-AACTGCCTCGATAGGT-1,-0.30990788,-0.28099003,0.003948962,0.30468568,-0.101702675,0.34768975,-0.41190612,0.01700293,0.12175715,-0.6218673,0.13215241,-0.50108165,-0.18556464,0.029975777,-0.025930637,0.60836005,0.082713835,-0.10707654,1.1194705,0.5269917,-0.20071353,0.09477724,-0.3486494,0.4311443,-0.28789347,-0.2616735,-0.2993411,-0.49975762,-0.029505838,-0.37690437,-0.48580024,0.24859633,0.34792048,0.22407858,0.8573616,0.78089726,0.8473144,-0.65635383,0.5709437,0.56012547,0.89973825,0.7599998,0.3876012,0.018392378,-0.19529083,0.7179498,0.85542333,-0.72957444,0.92567694,-0.48527592,-0.93648624,-0.7399701,-0.82857144,0.59182143,-0.45696566,-0.87319744,-0.8969381,0.6363487,-0.7222636,-0.85744315,-0.6198106,-0.3757777,-0.7199684,-0.68516695,0.10174554,0.24880521,-0.18412867,-0.45885745,-0.26528484,0.4355174,-0.15584607,0.40097922,0.43034542,-0.2144936,0.5469048,-0.5665558,-0.116506204,-0.35390213,1.11193,0.87478364,-0.44816265,0.8869912,0.105799355,-0.33446932,-0.031450793,-0.26128277,0.22031072,-0.36895147,-0.16014162,-0.81977785,0.009023023,-0.46136597,-0.28392974,0.238808,-0.03787088,-0.23241976
s1-AACTGCGAACCTTACC-1,-0.24245813,-2.1632714,0.30502766,1.4398847,2.733025,1.2558142,1.9006524,2.4216735,-1.4435114,-0.15242998,-2.8466053,-2.1055288,0.09986985,2.4811306,0.17023923,2.069064,0.97862613,-2.7193732,-0.2767111,0.52280587,1.8580928,-0.025578843,-2.1667662,2.4960778,-0.41090497,-0.016058259,2.2986138,1.3552929,0.30551717,0.672619,-1.964929,0.117967725,0.34792048,0.22407858,0.8573616,0.78089726,0.8473144,-0.65635383,0.5709437,0.56012547,0.89973825,0.7599998,0.3876012,0.018392378,-0.19529083,0.7179498,0.85542333,-0.72957444,0.92567694,-0.48527592,-0.93648624,-0.7399701,-0.82857144,0.59182143,-0.45696566,-0.87319744,-0.8969381,0.6363487,-0.7222636,-0.85744315,-0.6198106,-0.3757777,-0.7199684,-0.68516695,2.179593,-0.66311777,-1.0661108,-2.2170954,-0.50689566,-0.75534,0.90764123,-1.2164795,-1.5364221,0.28272232,-0.63419586,0.56593925,-0.9907206,-2.3014767,-0.73353636,0.35083866,-1.6611956,-1.1065137,-0.5372083,0.7065631,0.9757163,-2.0328107,0.113733396,0.06472028,0.03525327,0.7279733,1.3838855,1.294701,-0.079921156,-0.30955026,-0.58949023,-0.86691093
s1-AACTGCGATCGACTAA-1,-0.1611381,0.8426191,-0.23723099,-0.931346,-1.4448621,-0.9012153,-0.6065354,-1.2298843,1.0959632,-0.7715631,1.2392955,0.89082783,1.16203,-1.3373334,-1.3850893,-0.53748053,-0.8050484,1.0038921,-1.0006279,0.34667155,-1.1127313,-1.1628838,1.2182387,-1.1194535,0.6108939,1.1973305,0.2637869,-1.2332027,-1.0856149,-0.80304563,0.91902703,0.9792764,-1.2995769,-2.2043772,-0.03387735,-0.31082535,-0.4015506,2.1766672,0.34412614,-0.3363996,-0.37633413,-1.7667435,-2.1294088,-1.362346,-1.0264533,-1.3198119,-1.4072996,2.2572966,-0.31917813,1.025265,0.56537884,1.1580535,1.4393089,-2.3548055,0.6971957,1.0464033,1.2557945,-1.1425487,0.41362405,-0.5052971,0.013844119,0.43597525,2.3071477,0.6660706,-1.2984178,-2.1386254,-1.1614627,0.25739267,0.0556462,0.37195203,0.55534935,0.20220567,0.0017182635,0.008343845,-0.108512565,0.13766257,-0.069201946,-0.12665413,0.1440817,0.3658889,-0.155667,0.25323093,-0.42292973,0.9179576,0.43605343,0.21568537,0.7236703,0.2763047,0.8295255,-0.12140488,-0.061158866,0.32912493,-0.10527187,0.23677391,0.2560341,-0.29960328
s1-AACTGCGGTCCGAAGC-1,0.28141138,-2.1520889,1.9385508,1.7206539,0.59521294,0.9042575,1.0710921,1.1253829,-2.7285373,-0.69391304,-1.080731,-1.3932449,0.2785337,1.6451672,1.4048321,1.7952607,-1.5125382,-1.3469372,2.0118873,-0.7913054,2.1280103,2.5077217,-0.42286503,2.2587037,-0.91740465,-1.5175303,-1.7053537,1.2253007,2.0762017,2.0295753,-1.2182108,-0.21024095,0.34792048,0.22407858,0.8573616,0.78089726,0.8473144,-0.65635383,0.5709437,0.56012547,0.89973825,0.7599998,0.3876012,0.018392378,-0.19529083,0.7179498,0.85542333,-0.72957444,0.92567694,-0.48527592,-0.93648624,-0.7399701,-0.82857144,0.59182143,-0.45696566,-0.87319744,-0.8969381,0.6363487,-0.7222636,-0.85744315,-0.6198106,-0.3757777,-0.7199684,-0.68516695,1.8154411,-0.85443103,1.0856388,1.1215141,-2.006413,2.2884252,-0.19851166,-1.5384814,0.79223394,-0.6697094,-0.11862853,0.8970363,0.28926748,-1.2434472,0.094267555,0.9562852,0.3030891,1.0781689,-0.25433317,0.1534147,-0.5898381,0.28007483,-0.84998727,0.6484557,-0.4367225,-1.0870836,-0.04031457,-1.1498425,-0.8571161,-0.47677124,-1.4146438,-2.4558756
s1-AACTGCTACCTCGATA-1,0.018553663,0.3943781,-0.28286827,-0.24865177,-0.13450612,0.12705277,-0.051089957,-0.2264199,-0.09401831,0.15739033,0.22237447,-0.048353575,0.041171722,-0.14447668,0.33589238,-0.13999362,-0.1169194,0.08643153,0.29349732,-0.29743668,-0.041617684,-0.019465715,0.23078546,-0.3770542,0.2738376,-0.21180433,0.1238365,0.12489628,0.010454466,-0.22637998,0.3100724,-0.047951575,0.023544265,0.3305085,-1.0984429,-0.4457222,-0.6622911,0.39909798,-0.14653692,0.116337106,-0.85971427,-0.06927062,0.14190464,0.99500453,0.67722243,0.012332955,-0.65512156,0.3863215,-1.0629253,1.0934384,1.127328,0.8408049,0.97024816,-0.06989834,0.21961445,1.041122,0.77638865,0.015246743,1.1392186,1.1392354,0.8440647,-0.28529534,0.38650683,0.7652115,-0.13436355,0.16098864,0.31872493,-0.017120134,0.21934937,0.069310725,-0.2513861,0.16379432,0.04041819,0.019454801,0.009084671,-0.006281849,-0.0321357,0.3149909,-0.19668022,-0.046495743,0.14416894,0.43616226,0.32198805,0.30451345,-0.07384435,0.307468,-0.20167609,0.15481234,-0.2460535,0.12759992,-0.2560788,0.035586838,0.36203718,-0.11670948,-0.23171985,-0.37756896
s1-AACTTCAAGGATAATC-1,-0.1404211,0.8449115,-0.5192854,-0.67407554,-1.0523417,-0.4712719,-0.6209873,-0.8302031,0.7423802,-0.15689367,0.7559824,0.8702411,0.44004807,-0.89873534,-0.64264876,-0.6872117,-0.39857563,0.74325997,-0.4728405,0.13603668,-0.85985315,-0.8976258,0.566038,-0.9181908,0.50172687,0.16232988,-0.033643983,-0.67119986,-0.8043054,-0.70882326,0.6656662,0.1831685,-0.12977871,-0.702862,-0.70146537,-0.38539344,-0.7018439,0.3692127,-0.7395989,0.1622264,-0.25664088,-0.63944733,-0.29392177,-0.3751687,0.75263524,0.10454607,-0.7395954,0.89314395,-0.88600564,0.8617124,0.76900804,0.972925,0.6573389,-0.6810714,0.6572803,0.6315487,0.7982481,-0.2994481,0.4488201,0.53770244,0.38356978,-0.1570687,0.4563181,0.1671468,-0.8928895,-0.53356934,0.5231955,-0.3462779,0.24273136,0.12080631,-0.29369783,0.46825814,-0.2908138,-0.29088184,0.12460049,-0.41905582,0.043427408,-0.036585446,-0.025284447,-0.075468294,-0.17705958,-0.047129065,-0.19302775,0.11023322,-0.12077657,0.2865039,0.13586044,-0.21747549,0.67788595,0.21151617,0.023427173,0.4095283,0.34007603,0.41196576,-0.17639832,-0.22064614
s1-AACTTCAGATACTACC-1,-0.6947243,0.47521028,-0.8679754,-0.71226925,-0.7506401,-0.84728205,-0.77396977,-0.62649244,0.1245052,-0.87088513,0.8637205,0.45187634,0.107471004,-0.7355269,-0.7227896,-0.34143183,-0.72789073,0.8978269,-0.7037634,0.027522054,-0.54979205,-0.64025456,0.83044916,-0.957117,0.39189985,0.6119831,0.0963452,-0.5938746,-0.9720549,-0.36911643,0.63203496,0.7854853,0.24360445,-0.13633886,-0.21937607,-1.2177868,-0.15706195,0.87171406,-0.60998124,-1.2910746,-0.80912423,-0.36360642,-0.48772764,-0.06511927,1.1585017,-0.3288659,-0.8735629,0.39562222,-0.8541244,0.8266678,0.9750146,0.904247,0.53218985,-0.42043626,0.2659573,0.9926531,0.93783253,0.010173638,0.81280625,0.29062414,0.12305792,0.83858675,0.4034441,0.24064478,-0.8631816,-0.4696366,0.6038684,-0.78369266,-0.85375583,0.25391728,-0.21531625,0.18621498,-0.12097973,-0.030555848,0.095872745,0.13661416,0.015357432,-0.10501609,-0.11431862,-0.24001431,-0.08204509,-0.08876349,-0.061562896,0.78224266,0.3209873,-0.1457288,0.014876593,-0.13581455,0.106515616,0.15168412,-0.08949011,0.04004594,-0.28609282,-0.15603912,0.11935103,-0.18264142
s1-AACTTCAGCATGGCCG-1,0.3889636,0.3518124,0.40703973,-0.32051829,0.31248757,-1.3039279,0.51290095,0.11476367,-0.2323746,0.9919247,-0.13131501,1.2844276,0.8949399,0.62932307,0.5609959,-1.5052956,0.59356207,0.9796718,-1.1559441,-1.1238486,-0.71053016,0.20304377,0.03001342,-0.29700938,1.2300708,-0.31594685,-0.4955316,0.30873588,0.41198057,-0.26349357,0.381381,-1.826924,-1.1599936,-0.04934632,-1.8798802,0.18301938,-2.0733767,0.14936742,-2.261342,0.3391252,-0.7770677,-1.3890773,0.020787267,-1.8281014,0.6858215,0.2897291,-0.7617649,1.2746329,-0.84458613,-0.8693321,0.6523947,1.5496916,0.9183571,-1.780982,1.0804908,0.2226391,1.2455989,-1.4980785,-0.26789913,1.8310398,2.0077856,-0.37316912,0.64432937,1.3944719,-0.17102683,-0.0014703015,1.3088326,1.2777708,1.0613573,-1.9352741,-0.16804875,-0.90007794,0.09507902,0.6956133,0.31172234,-0.13664071,0.86127776,-0.22583796,-0.32854474,-0.67759866,0.24316771,-0.6707629,0.08055957,-0.6398829,0.7969017,0.57487595,-1.4075192,-0.39500028,0.072194904,0.8124587,0.54759574,1.9698019,0.3343052,-0.6071034,-0.7778698,1.3742099
s1-AACTTCATCTTCTGGT-1,0.29439482,0.46290863,-0.369689,0.39244473,0.59290886,0.981242,0.2752231,0.9908002,0.21802177,-0.20568162,-0.6734612,-0.6445992,-0.4830717,-0.013333367,1.1172462,0.5014583,0.52445066,-0.4604051,0.22170413,0.3753505,0.25969842,0.0061630392,-0.21042977,0.47490343,-0.6942105,-0.5248288,-0.20763199,0.0224899,-0.06639775,0.117060035,-0.2729134,0.064132646,0.34792048,0.22407858,0.8573616,0.78089726,0.8473144,-0.65635383,0.5709437,0.56012547,0.89973825,0.7599998,0.3876012,0.018392378,-0.19529083,0.7179498,0.85542333,-0.72957444,0.92567694,-0.48527592,-0.93648624,-0.7399701,-0.82857144,0.59182143,-0.45696566,-0.87319744,-0.8969381,0.6363487,-0.7222636,-0.85744315,-0.6198106,-0.3757777,-0.7199684,-0.68516695,0.47244212,0.08884465,-0.32551906,-0.8919927,0.19587044,-0.020488266,-0.14893764,-0.10390453,-0.23257917,-0.3722451,-0.31573007,-0.904215,-0.6815081,1.0822489,0.023612168,0.3159815,-0.18326512,0.083001465,0.57002884,0.011958848,0.54349536,0.9904823,-0.55936754,-0.6292971,0.5263763,-0.34223133,0.15734817,-0.531754,-0.40253457,0.4460587,0.42975554,-0.35490778
s1-AACTTCGCTTAGTCAG-1,-0.48847085,0.54486775,-0.7205049,-0.50848794,-0.47423047,-0.938902,-0.7328444,-0.63518184,0.06324194,-0.46658164,0.6115835,0.92880625,0.2994261,-0.675564,-0.47176895,-0.7898221,-0.9968122,0.93138105,-0.49431622,0.32629633,-0.6522674,-0.59974426,0.855797,-0.8395213,0.61352706,0.7012676,-0.20918792,-0.5482087,-0.7324742,-0.5951307,0.7510022,0.4291121,0.18802619,0.30459103,-1.3993484,-2.0849686,-1.1426566,1.0693685,-1.156629,-2.7188048,-1.6738026,-1.322161,0.22209175,-0.21116164,0.5923182,-1.5225539,-0.45303208,0.3348625,-1.2550142,-0.29173115,0.70565975,1.5559149,0.7493897,0.08666371,-0.21470793,0.5826559,1.1017473,-0.35768774,0.62368625,1.2012194,0.5341948,1.353793,0.7362053,1.4185269,-0.79554546,-0.7771137,0.9958908,-0.7375768,-0.65624326,-0.116450906,0.12201066,-0.0460399,0.21155399,0.49498257,-0.30599803,-0.2466339,-0.17538555,-0.15311371,-0.5282971,-0.3591504,-0.10389973,-0.4818445,-0.07258414,-0.48538688,-0.13278884,-0.10136025,-0.041850455,-0.1876469,-0.57889557,-0.06321259,-0.3344748,-0.28620318,-0.5212283,-0.66614646,-0.20436957,0.3028155
s1-AACTTGCAACTTGGAC-1,0.004274017,-0.16910592,-0.76352245,0.39294362,0.3451486,0.9521938,-0.35639083,0.3917673,0.16378647,0.2995416,-0.15090497,-1.044476,-1.3432511,0.48183516,0.53353256,0.615105,0.7249184,-0.2300325,-6.580949e-05,0.31674185,0.25063127,0.30976683,-0.5109292,0.47230157,-0.42366305,0.25696278,0.32338053,-0.67232937,0.8049832,-0.3033777,-0.31624967,-0.14687535,0.34792048,0.22407858,0.8573616,0.78089726,0.8473144,-0.65635383,0.5709437,0.56012547,0.89973825,0.7599998,0.3876012,0.018392378,-0.19529083,0.7179498,0.85542333,-0.72957444,0.92567694,-0.48527592,-0.93648624,-0.7399701,-0.82857144,0.59182143,-0.45696566,-0.87319744,-0.8969381,0.6363487,-0.7222636,-0.85744315,-0.6198106,-0.3757777,-0.7199684,-0.68516695,0.41063732,0.103607535,-0.2858756,-1.1247379,0.16898532,-0.63373643,-0.11786116,0.53237224,0.022819342,-0.5143222,0.28992513,0.61360276,0.121200606,0.3697172,0.636853,0.5350964,0.3710093,0.93215525,-0.07668731,-0.28119624,-0.52873576,0.3920003,0.3848936,-0.64145064,0.2922291,-0.59750533,0.5924144,-0.46842277,0.06295264,-0.43437052,1.8582833,0.13652486
s1-AACTTGGTTAATACTA-1,0.22065781,0.4118108,0.7077787,-0.5041028,-0.28392807,-0.010543921,0.26715666,-0.11291633,0.75585574,-0.12858266,1.0693803,1.1136602,1.2034358,0.039228793,-0.48481628,0.05456289,0.37039915,0.028940463,-0.53085107,0.3686625,-0.44359487,-0.29851,0.013898623,-0.04459373,-0.25955608,0.099232204,0.3390286,0.20781653,0.04689717,0.43101922,-0.20615715,0.103623204,-8.852287,-9.667293,0.4017383,1.6708304,2.543765,6.0990744,9.1641655,2.5848498,1.2807553,-3.4952188,-1.4337827,-6.147729,0.334343,-2.4697359,-5.912226,3.8642673,-0.6932191,9.137354,2.4309235,-6.0347233,-1.5599983,-3.290837,-0.27162945,2.623427,4.0039473,-3.9055367,-2.684168,-3.9723577,-9.058374,8.918417,6.6886,-3.1837184,-0.25730297,-0.43347532,-1.1664732,1.4768133,0.09117754,-0.0959768,-0.84936327,0.32401344,-0.81989807,0.59405375,-1.3805052,-0.15117806,0.79414856,-0.3007053,1.1319339,-0.20016897,-0.6468209,0.91892105,-0.4197768,0.5811642,0.2601853,0.4904973,-0.79234385,-1.0260524,0.74103874,0.028142806,0.13351718,1.679637,0.08507859,1.1838075,0.5346017,1.1637775
s1-AACTTGGTTACATAAC-1,2.2488048,-0.75811803,-0.62112916,1.3206682,1.9498053,0.9158026,2.2265303,2.0677462,-1.1283433,1.3885064,-2.5747285,-0.59320635,-1.80639,2.525192,2.450944,-1.2596692,1.4984705,-0.3839772,0.8295073,0.55837595,0.4622376,1.0087842,-2.37939,1.966944,0.6473938,-0.23909764,-0.1195202,2.5776987,2.1127002,0.45370352,-0.49544466,-2.4198868,0.34792048,0.22407858,0.8573616,0.78089726,0.8473144,-0.65635383,0.5709437,0.56012547,0.89973825,0.7599998,0.3876012,0.018392378,-0.19529083,0.7179498,0.85542333,-0.72957444,0.92567694,-0.48527592,-0.93648624,-0.7399701,-0.82857144,0.59182143,-0.45696566,-0.87319744,-0.8969381,0.6363487,-0.7222636,-0.85744315,-0.6198106,-0.3757777,-0.7199684,-0.68516695,1.9088972,-0.8257434,1.2271491,0.37713203,1.8609763,-2.5387871,-0.63840693,-0.56277275,-0.27643618,1.705101,0.32897076,-1.819881,-0.487301,0.864138,-1.915611,-0.085930176,1.6547145,-0.15457296,-1.0156442,-0.7570582,1.5764654,-1.5822648,0.11916216,0.63740754,0.71738976,-0.008297803,1.5799558,0.068747096,0.71764874,-1.4892492,4.314107,-0.686855
s1-AAGAATTCTGGCTGCA-1,-0.5643473,0.60900956,-0.48947173,-0.6566053,-0.6775493,-0.7710953,-0.7595753,-0.5732525,0.24892838,-0.774693,0.69585,0.6713684,0.049850352,-0.8443065,-0.4272311,-0.48378605,-0.68296766,0.805557,-0.6357364,0.115637034,-0.70932907,-0.7594751,0.6390783,-0.8140557,0.65479976,0.39424944,0.11089755,-0.62502474,-0.7446397,-0.5505136,0.49456054,0.35029897,0.34792048,0.22407858,0.8573616,0.78089726,0.8473144,-0.65635383,0.5709437,0.56012547,0.89973825,0.7599998,0.3876012,0.018392378,-0.19529083,0.7179498,0.85542333,-0.72957444,0.92567694,-0.48527592,-0.93648624,-0.7399701,-0.82857144,0.59182143,-0.45696566,-0.87319744,-0.8969381,0.6363487,-0.7222636,-0.85744315,-0.6198106,-0.3757777,-0.7199684,-0.68516695,-0.8874137,0.7394943,-0.03718609,0.11936684,-0.34331352,-0.11015423,-0.04481687,0.08402045,0.31879798,0.19663343,0.38786942,0.1325874,0.15367875,0.42736894,-0.17039323,-0.16484378,0.20992333,-0.095676646,-0.036464613,0.32318178,0.20897888,0.11328055,-0.20777719,-0.55594426,-0.1379193,-0.1860512,-0.32544947,-0.06879101,0.0048334496,-0.05002971,-0.041580044,-0.18602036
s1-AAGACAATCTCCTGCA-1,0.7109337,-0.63282317,0.45324296,0.6302249,1.0210997,0.23626013,-0.08056343,0.60396147,-0.4158362,0.74695235,-1.0675646,-0.6601883,-0.31801873,0.72857606,0.4405121,0.3057987,0.16363052,-0.10668945,0.048551,-0.5971338,-0.30690327,0.12561585,-0.7203215,1.1112164,-0.38593826,-0.41428584,-0.7690904,0.3646814,0.8466976,-0.097847775,-0.012289918,-0.56181026,0.34792048,0.22407858,0.8573616,0.78089726,0.8473144,-0.65635383,0.5709437,0.56012547,0.89973825,0.7599998,0.3876012,0.018392378,-0.19529083,0.7179498,0.85542333,-0.72957444,0.92567694,-0.48527592,-0.93648624,-0.7399701,-0.82857144,0.59182143,-0.45696566,-0.87319744,-0.8969381,0.6363487,-0.7222636,-0.85744315,-0.6198106,-0.3757777,-0.7199684,-0.68516695,0.6092172,-0.042437725,0.2627395,-0.14538285,0.24744712,-1.1439848,-0.031783614,-0.89044976,-0.20602116,0.39405632,0.28197098,-0.6617344,-0.52465194,-0.548166,0.77846444,0.23699638,0.71964574,0.21310668,-0.9683036,-0.24531506,-0.2717479,0.25182152,0.055267554,0.96573526,0.10826128,-0.5256664,-0.18124846,0.30414343,-0.72557515,-0.32733503,0.7909715,-0.7562841
s1-AAGACTAAGGAGATCC-1,-0.43882194,0.54095536,-0.6951101,-0.33881584,-0.34774458,-0.9391713,-0.69268554,-0.2818507,-0.39585721,-0.33924004,0.29336008,0.5327239,0.50137067,-0.35301706,-0.5740008,-0.5415347,-0.8504788,0.7700092,-0.6281503,0.32076526,-0.59883016,-0.401889,0.562897,-0.63418525,0.645286,0.44597208,-0.4819325,-0.41780773,-0.41760537,-0.45959345,0.25937605,0.44513354,0.34792048,0.22407858,0.8573616,0.78089726,0.8473144,-0.65635383,0.5709437,0.56012547,0.89973825,0.7599998,0.3876012,0.018392378,-0.19529083,0.7179498,0.85542333,-0.72957444,0.92567694,-0.48527592,-0.93648624,-0.7399701,-0.82857144,0.59182143,-0.45696566,-0.87319744,-0.8969381,0.6363487,-0.7222636,-0.85744315,-0.6198106,-0.3757777,-0.7199684,-0.68516695,-0.6564574,0.5884204,0.19630262,0.37342912,-0.9227913,-0.35954782,0.20161945,-0.19949295,0.27523735,0.4681965,0.59068763,-0.09281475,0.29245555,-0.03512525,-0.51382166,0.4058127,0.2314958,-0.064183645,-0.38367864,0.3206194,0.24063331,0.050409704,-0.06737211,-0.4139259,-0.5526374,0.20599334,-0.15400422,0.2998888,-0.02682384,0.05368917,0.107137814,-0.21471311
s1-AAGACTCAAGGCTCCA-1,0.1781358,-0.8899672,0.4425528,0.5607939,0.4228045,0.9970525,0.30645865,0.91894716,-0.19879864,-0.02542128,-0.49202296,-0.41892052,-0.27773127,0.6279034,0.33410093,1.1104424,0.5738302,-1.1434492,0.62018526,0.64458835,0.72954506,0.24794842,-0.5910383,0.015371127,-0.2843096,-0.5249185,0.363836,0.416635,0.36675972,0.29486513,-0.3226418,0.29453188,0.99454165,0.5066328,-0.78426284,-1.6667554,-0.80596954,0.16356573,-0.71617323,-0.9576036,-1.2203327,-0.25374502,-0.44524163,1.2828343,0.41102555,-1.0406672,-0.71159655,0.47649813,-1.3392801,0.78093773,1.2838068,0.89596015,0.9503668,0.04888264,0.6658542,1.4537998,0.6841637,0.0019802013,1.7139837,1.2337288,1.0061427,0.02521877,0.31199327,0.42351225,0.590709,1.0084312,-1.0961419,0.27669436,-0.08427538,0.39033756,-0.28134346,0.16633669,-0.138677,0.12650844,0.033408187,0.1505864,-0.010405388,0.011871819,-0.50254655,0.27677384,-0.44114226,-0.099345826,0.4997686,0.36641186,-0.6136905,0.12228354,0.19855271,0.08544532,-0.14665115,-0.54820794,0.2869241,-0.10466372,-0.14428115,0.58852357,0.38538173,0.10479169
s1-AAGACTGTCATAGTGC-1,-0.16300966,-0.36337695,0.25909516,0.2226227,0.38857442,0.51728356,-0.09832465,0.12294517,0.17088369,0.2692579,-0.41724315,-0.478409,-0.6263677,0.21668355,0.15226287,0.13000704,0.8677518,-0.687774,0.28390795,0.09389121,0.31715056,0.11704317,-0.20088558,0.48633865,-0.26889428,-0.22208032,0.36727047,0.45406014,0.44166464,-0.039339337,-0.43333003,-0.24603304,0.34792048,0.22407858,0.8573616,0.78089726,0.8473144,-0.65635383,0.5709437,0.56012547,0.89973825,0.7599998,0.3876012,0.018392378,-0.19529083,0.7179498,0.85542333,-0.72957444,0.92567694,-0.48527592,-0.93648624,-0.7399701,-0.82857144,0.59182143,-0.45696566,-0.87319744,-0.8969381,0.6363487,-0.7222636,-0.85744315,-0.6198106,-0.3757777,-0.7199684,-0.68516695,0.3916965,0.099148944,-0.13003029,-0.5099956,0.499798,-0.15629989,-0.14406182,0.15890205,-0.2730047,-0.413422,-0.37621424,0.318104,-0.028466977,-0.022711381,0.3181344,0.23841321,0.29535648,0.14876105,0.105800785,-0.2807104,0.33368966,-0.43810195,0.23754047,0.09779151,-0.33876607,-0.19539467,-0.52613926,0.23089434,-0.029640336,0.36200154,-0.12544298,0.45974958
s1-AAGAGCAGATGTGCCA-1,0.58597255,-0.75878304,0.56267995,0.36230883,0.3683115,1.3683543,0.39188915,0.70963424,0.5338119,0.51891613,-1.4394286,-1.5415958,-0.51518345,0.6338867,0.49432915,0.91059804,1.3269262,-0.9424035,1.1173213,-0.13180482,1.4278797,1.0445752,-1.2706627,1.1423656,-0.7817385,-0.5127655,-0.48099843,0.61448985,0.9909017,0.28746232,-0.5356534,-0.35720012,0.34792048,0.22407858,0.8573616,0.78089726,0.8473144,-0.65635383,0.5709437,0.56012547,0.89973825,0.7599998,0.3876012,0.018392378,-0.19529083,0.7179498,0.85542333,-0.72957444,0.92567694,-0.48527592,-0.93648624,-0.7399701,-0.82857144,0.59182143,-0.45696566,-0.87319744,-0.8969381,0.6363487,-0.7222636,-0.85744315,-0.6198106,-0.3757777,-0.7199684,-0.68516695,1.0458844,-0.23548271,-0.19558494,-0.7923986,0.9312469,0.72047424,-0.41128212,0.2738656,-0.78223956,-0.5476817,-0.13111547,0.10361022,0.46502742,0.11923839,0.81424385,1.214309,0.09183188,0.3136079,0.22984946,-0.8515295,-0.16777362,0.023788545,0.13014767,1.4530853,0.23995548,-0.59205747,0.821758,-1.1690848,0.3704155,-0.30655912,-0.119817,0.43829098
s1-AAGATACAGGCGAACG-1,0.18529534,0.64856327,0.12098306,-0.75952375,-1.4145261,-0.74177384,0.016756313,-1.069068,1.1922191,-0.48309922,1.1839823,0.90023327,1.3369569,-1.2681614,-1.4609933,-0.47832593,-0.8407159,0.826702,-1.4227049,0.2763061,-0.9783325,-1.380852,1.3048042,-1.0324734,0.579567,1.5136353,0.17793828,-1.303441,-1.0548257,-0.7212152,0.7977983,1.083096,-2.46091,-0.84219545,-0.46100423,1.1005656,-2.7709758,1.6992364,-2.1669085,3.1988719,-0.6077737,-2.6162446,-2.3364952,-1.5960536,-4.2157507,-2.253526,-1.4590499,3.0761518,-0.41484684,-1.1615964,0.9386484,1.3799601,3.435173,-3.7818987,2.0425677,1.3744854,0.47101173,-4.197703,1.0896604,1.7599798,2.7587323,-2.9015486,1.2909235,1.9308468,-0.99946445,-3.2638636,-1.8485217,0.5334664,1.2327443,0.60974824,3.3319578,-0.66406757,0.67679185,-1.4772124,1.8635943,0.045878034,-0.643139,0.17613037,-1.0152687,-0.50276023,-0.36021614,-0.8373718,0.19441447,-0.9052154,-0.36124343,-0.035019826,0.5300322,0.53111106,0.41325456,-0.20468186,0.55715877,0.41449925,0.9747169,0.70426095,0.13628218,-0.5303831
s1-AAGATAGGCTTGCTTA-1,-0.4102323,0.30606937,-0.19440418,-0.42443192,0.2761201,-0.06429342,-0.12971018,0.029283432,-0.08696226,0.29287258,-0.1400343,0.13107912,-0.17334807,0.11652584,0.42830822,-0.719653,0.04082292,0.13591956,-0.06158055,-0.042348124,-0.073080555,0.35568193,0.55081165,0.0030032026,-0.19030064,-0.94800943,-0.14548302,0.33997762,0.26295167,0.08127853,0.13102666,-0.41703779,-0.31505686,0.11580851,-0.7473678,-0.7337841,-0.70667505,0.3967879,-0.40493867,-0.45054948,-0.76294583,-0.3789752,0.14328274,0.1718913,1.1203673,-0.052743375,-0.79444915,0.2663989,-1.0959129,0.81012297,0.8667276,0.5901193,0.6980573,-0.09929746,-0.13671038,0.67357117,0.93595904,-0.11458617,0.50676656,0.73778105,0.26665854,0.24581002,0.37644115,0.72520274,-0.009762549,0.29103497,0.4125806,0.20523754,0.17694204,-0.34326878,-0.32551152,-0.6236964,0.12398876,-0.20365818,-0.22417411,-0.18597059,0.30475447,0.4779993,-0.16511308,-0.25073197,0.7527157,0.34606943,0.46336913,-0.021679547,0.44097292,0.0049202675,-0.036556683,-0.24313486,-0.5010659,0.13342096,-0.42825782,0.2801065,0.10818938,0.4009286,-0.3551564,0.12850128
s1-AAGATATTGGACGTCC-1,-0.22005767,0.301221,-0.72530425,-0.6932703,-0.18982925,-0.9283152,-0.40446177,-0.12955931,-0.31758317,-0.33622593,0.1299469,0.96151686,0.073459014,-0.13120262,0.0070092077,-1.0121793,-0.48772168,0.76881146,-0.57105416,-0.3745007,-0.55949676,-0.05122076,0.401431,-0.91569036,0.7837284,0.16678101,-0.3395741,-0.15319031,-0.13066404,-0.5109833,0.57478786,-0.49754727,-1.1110001,0.47192442,-2.3280964,0.07359122,-1.1222887,0.91149557,-0.24438259,-0.08015949,-0.8674095,-1.3337951,1.7492251,-0.57703984,0.6436926,-0.024330055,-0.21497265,0.346374,-0.99510133,-0.040639263,0.6096496,0.5452923,1.3905153,0.23963751,-1.1830225,-0.19421037,0.9042134,-0.44868606,-0.42327452,1.2702795,-0.15106672,-0.0011329462,1.1255513,1.9281636,-0.49716902,-0.19972575,0.94212824,-0.030157873,-0.24995586,-0.877115,-0.24731511,-0.34811088,0.40162265,0.82341313,-0.033543203,-0.09198673,0.5739913,0.16920604,-0.8693075,-0.5752941,0.21142447,-0.39255404,0.38879916,-0.5205162,0.03810346,0.17429638,-0.56161356,0.0025989772,-0.3656923,0.13695832,0.63196003,0.7557917,0.45968962,-0.055844486,-0.24619554,0.21328032
s1-AAGATCTGTAACTTGT-1,0.08446241,0.32065085,-0.17116235,-0.44937164,-0.36874217,-0.728194,-0.2861521,-0.6256746,0.1897977,-0.034788866,0.5141255,0.4932595,0.5737838,-0.31248072,0.060213123,-0.41479766,-0.036018696,0.6832085,-0.107174315,-0.4436389,-0.6248453,-0.34222257,0.4100984,-0.44684473,0.529986,-0.23947772,-0.24439079,-0.118215136,-0.23412296,-0.050100774,0.15167387,-0.21708919,-0.65194225,0.5414635,-1.2225616,-1.9094119,-1.4741458,0.3615528,-1.6653391,-1.7980428,-1.2910806,-1.0102514,0.29277295,-0.53407854,0.820245,-1.0832604,-0.54198366,0.014808436,-0.88873005,-0.38379008,0.8127812,0.82834613,0.70670784,-0.14489514,-0.35134166,0.006608899,0.76531816,-0.62996924,0.09410165,1.0579711,0.5773557,1.159821,0.16924597,1.1676168,-0.43622506,-0.23424797,0.80801,0.17113584,0.12140157,-0.22683805,-0.15483934,0.0044075637,-0.06998912,0.18827154,0.09572151,-0.1887977,0.11178648,-0.23540768,0.27933085,-0.4326825,-0.1212326,-0.12695083,0.36671567,-0.5221889,0.07536613,0.18944576,-0.35450003,-0.17233701,-0.3750525,-0.10056191,-0.5908505,0.013844289,0.2822803,-0.116591066,-0.37031522,0.40114823
s1-AAGATGAAGGTCATCG-1,1.797325,0.29272953,1.4401753,-0.616879,-0.7215918,-0.5699137,0.460124,-0.9654925,1.7545134,1.0609287,0.5432074,0.35518473,1.455501,0.1324789,-0.5964118,-0.81807387,1.5167173,0.27382728,0.027098339,-1.0349436,-0.7600836,-0.56097883,0.53147733,0.09001028,0.7124451,-0.016662896,0.43697324,0.2198833,0.6237545,-0.06057192,0.43793792,-0.8843852,-1.3333601,-1.7036113,-0.21783124,2.4177406,-0.49775183,1.1203783,0.20391494,2.1826797,0.24806517,-1.6648579,-1.4985676,-1.9193709,-2.7183914,-0.7490975,-0.65138596,2.8162203,0.3475781,0.5633519,0.043052573,1.5356959,1.8562394,-3.0868936,1.352593,1.020837,0.3917864,-2.3531816,-0.3121983,0.9000297,1.5988438,-1.9178565,1.9821031,0.6688503,-0.38201925,-0.5361957,-0.088289596,2.0025723,3.1581674,-0.3737644,0.9725503,-0.19329835,-1.0963432,-0.3842276,-0.061023228,0.49157518,0.39317602,-0.60370755,1.5352956,0.43410152,-0.80215126,0.71223825,-0.3680973,-0.61450917,-0.59998906,0.01123991,-2.3413558,-1.6512542,-0.8087319,0.66358125,0.7377876,0.8260187,0.90916747,0.62328064,-0.09949673,-0.07299666
s1-AAGATGGCCGCTAGTT-1,0.3996107,0.43650222,0.3469952,-0.6996514,-0.98982906,-0.46769503,0.122204535,-0.8842232,1.0297141,0.43201593,0.93620485,0.39792106,0.8652879,-0.5118175,-0.42112166,-0.7116421,0.08583164,0.5709397,-0.095524795,0.107726716,-0.6124586,-0.5191525,0.74955136,-0.5293328,0.56298333,0.47870538,-0.37053704,-0.73349345,-0.4304231,-0.4936167,0.5565658,0.34013647,0.34792048,0.22407858,0.8573616,0.78089726,0.8473144,-0.65635383,0.5709437,0.56012547,0.89973825,0.7599998,0.3876012,0.018392378,-0.19529083,0.7179498,0.85542333,-0.72957444,0.92567694,-0.48527592,-0.93648624,-0.7399701,-0.82857144,0.59182143,-0.45696566,-0.87319744,-0.8969381,0.6363487,-0.7222636,-0.85744315,-0.6198106,-0.3757777,-0.7199684,-0.68516695,-0.7772755,0.6134788,0.21266611,1.0066768,0.6304248,0.3186079,-0.057113256,0.5711831,-0.4015405,-0.011074966,-0.20173226,0.047487095,0.09079269,0.39483503,0.5145445,0.30437943,-0.89677876,-0.16561444,-0.17167029,0.06755358,-0.12860355,-0.021038346,0.9516548,0.19020468,0.16418402,-0.15334247,-0.14154354,-0.319452,0.13383746,-0.24964936,-0.116209984,-0.15953252
s1-AAGATTAGGCTGTCTA-1,1.4590554,0.091818534,1.0602707,-0.63062286,-0.7442834,0.4917146,0.4777976,-1.1117747,1.791969,0.7505738,0.79346883,0.6059722,1.034537,0.11467789,0.1679666,-0.5536687,0.9536344,-0.121740334,0.20523493,-1.1362697,-0.37011203,-0.059777964,0.24852702,0.07310738,-0.15008944,-0.77513474,0.33660108,0.44455826,0.53936666,0.86649317,0.20459111,-0.814874,0.34792048,0.22407858,0.8573616,0.78089726,0.8473144,-0.65635383,0.5709437,0.56012547,0.89973825,0.7599998,0.3876012,0.018392378,-0.19529083,0.7179498,0.85542333,-0.72957444,0.92567694,-0.48527592,-0.93648624,-0.7399701,-0.82857144,0.59182143,-0.45696566,-0.87319744,-0.8969381,0.6363487,-0.7222636,-0.85744315,-0.6198106,-0.3757777,-0.7199684,-0.68516695,-0.18167375,0.27420664,0.51591414,1.586485,2.0185244,0.6791062,-0.259501,0.6035476,-1.1685958,-0.3729383,-1.2830856,-0.02583626,0.14699537,-0.032326564,1.0342509,-1.134393,0.029625673,0.6158384,0.8574484,-0.5260021,-0.71785885,0.091925085,1.2408351,1.1054184,1.3369473,-0.24333891,-1.1020726,-0.64596504,0.45374525,0.6898724,-0.042426102,1.02445
s1-AAGATTATCTAGCATA-1,-0.853325,-0.13276978,-0.7945909,-0.16610897,-0.3132478,-0.031681735,-0.57545954,-0.21398693,0.04881534,-0.597175,0.38852385,0.17405492,-0.28052327,-0.38440493,-0.52062494,0.03442871,-0.3756074,-0.17568636,-0.10195403,0.20982951,-0.1531056,-0.3956399,-0.055816524,-0.32008314,0.05897256,0.5099423,0.62279284,-0.58504134,-0.587966,-0.521286,0.25775596,0.66631883,-0.11842849,-0.03097844,-0.6785792,-0.55306894,-0.7534664,0.32304585,-0.39452374,-0.69195104,-0.8784005,-0.24532805,-0.16582584,0.45665482,0.35938045,-0.35514742,-0.6347191,0.5294068,-0.87356937,0.6345277,0.99617606,0.60657424,0.6108775,-0.19799386,0.21270101,0.8166266,0.8041677,-0.27928934,0.8531597,0.8662974,0.59818584,0.2941393,0.44160458,0.5748186,-0.33143905,0.05231468,-0.16297172,-0.9286208,-0.54941595,0.22554946,0.06080186,0.2786783,0.14728238,-0.09712173,-0.021819213,0.04120554,-0.0013169143,-0.115150034,-0.16006048,0.16154933,-0.14255573,0.05008764,-0.1028231,0.39587983,-0.38656113,-0.48973387,0.36109698,0.059130516,0.35470015,0.0784193,0.14338124,-0.076305464,-0.13022508,-0.13912779,0.07490928,-0.29607198
s1-AAGCAGCGGACACGTG-1,-0.38608995,0.10274281,0.0865344,-0.10250094,-0.1679317,0.116689235,-0.58105814,-0.43912324,0.07496653,-0.6097242,0.46969303,-0.2640024,-0.19025214,-0.07127058,-0.19309616,0.16037604,-0.26908857,-0.11909241,0.4282012,-0.43340686,0.19243154,0.23680383,0.31099817,-0.016467595,-0.27475613,-0.35115653,0.061012466,-0.31073344,-0.018568434,0.09296968,0.27655953,0.36100304,0.27144566,0.22833015,-0.6672478,-0.8663887,-0.6613998,0.3276036,-0.36159152,-0.31020612,-0.84210217,-0.34409237,-0.36205974,0.7305835,0.26371145,-0.47568172,-0.6842907,0.3997949,-1.0975513,0.63706577,0.89122546,0.6744943,0.7498982,-0.034098547,0.32546324,0.92960125,0.6446178,-0.32059512,1.0872366,0.84058785,0.63988507,-0.1284693,0.27985168,0.4542364,-0.13085388,0.18236682,0.091152996,-0.25262076,-0.26224855,0.5420926,-0.1796477,-0.074518666,0.13291076,-0.43373114,-0.09300556,0.3266022,-0.06613049,-0.07997457,0.43566203,0.014845079,0.16804333,0.70467746,0.2784845,0.419087,-0.4479986,-0.103666626,0.07749313,0.303148,-0.27173483,-0.21986306,-0.18318905,-0.8401264,-0.15511103,0.39254376,-0.14341575,-0.19994593
s1-AAGCAGTATCAGAATC-1,-0.1365175,-0.045237556,-0.4110264,0.513757,0.1841502,0.2728797,-0.21763182,0.23356897,0.12404339,0.39440355,-0.3371172,-0.7757755,-0.4131346,0.14711726,-0.012543272,0.8204502,1.1696887,-0.43768415,0.3212505,0.9431703,0.19686839,0.06378366,-0.083671466,0.73019767,0.47471148,-0.43689668,-0.29423505,-0.33321828,-0.13794757,-1.0466353,-0.015497828,0.4177764,0.34792048,0.22407858,0.8573616,0.78089726,0.8473144,-0.65635383,0.5709437,0.56012547,0.89973825,0.7599998,0.3876012,0.018392378,-0.19529083,0.7179498,0.85542333,-0.72957444,0.92567694,-0.48527592,-0.93648624,-0.7399701,-0.82857144,0.59182143,-0.45696566,-0.87319744,-0.8969381,0.6363487,-0.7222636,-0.85744315,-0.6198106,-0.3757777,-0.7199684,-0.68516695,0.20491514,0.21618024,-0.31349176,-0.8402487,0.29663324,-0.16957268,-0.2825565,0.19019938,0.19932222,-0.3739153,0.19997111,-0.12770522,-0.3751056,-0.21758932,0.6642242,1.6719455,-0.52957356,-0.56131196,-0.5553623,0.28434673,0.22947438,-0.010750572,0.07974037,0.17783742,-0.7994677,-0.30811214,-0.19207351,-0.61909324,0.6080956,0.62100774,0.6452518,-0.16438298
s1-AAGCAGTGAGTGCGAC-1,-0.4779456,0.4465645,-0.4271259,-0.35754368,-0.25748247,-0.72802645,-0.63630486,-0.22090983,-0.03960442,-0.830566,0.36832672,0.5594357,0.06416851,-0.5226636,-0.30650398,-0.78265023,-0.5861354,0.8815424,-0.8131473,-0.1514905,-0.46531194,-0.37583894,0.6601661,-0.8492216,0.6868257,0.17006947,-0.024371391,-0.36221123,-0.43803674,-0.26599857,0.7558986,0.24278039,0.34792048,0.22407858,0.8573616,0.78089726,0.8473144,-0.65635383,0.5709437,0.56012547,0.89973825,0.7599998,0.3876012,0.018392378,-0.19529083,0.7179498,0.85542333,-0.72957444,0.92567694,-0.48527592,-0.93648624,-0.7399701,-0.82857144,0.59182143,-0.45696566,-0.87319744,-0.8969381,0.6363487,-0.7222636,-0.85744315,-0.6198106,-0.3757777,-0.7199684,-0.68516695,-0.69185114,0.62376654,0.1601511,0.22290498,-0.40350404,-0.34661475,-0.1121081,-0.5156804,0.27122852,0.48774937,0.42436883,0.3130926,-0.026026748,0.39324045,-0.6140386,-0.15143555,0.68502176,-0.31229866,0.20800221,0.50861156,0.14650324,0.18883306,-0.5451061,-0.34110174,-0.11220022,-0.054334443,0.12550855,0.039705675,-0.4272504,0.2017855,0.39468068,-0.15278333
s1-AAGCAGTGGCATCACT-1,-0.63383317,0.1453385,0.27646282,-0.14294943,0.08922963,-0.64452296,-0.30531946,0.1574404,-0.50508523,0.6250425,-0.020484162,0.42744705,-0.47815692,0.05114193,0.21391071,-0.82975715,0.14245968,0.5983506,0.25582868,-0.120869085,-0.17417534,0.12855817,0.05147281,-0.39460936,0.6405196,-0.31751138,-0.024899017,-0.30103785,0.0031701694,0.00467922,0.15906881,-0.8358671,-0.563794,0.6392172,-0.9295206,-0.667888,-1.0931191,0.45501265,-0.6067296,-0.60623914,-0.7541671,-0.77549917,0.92237103,-0.23192342,0.51143533,-0.5798462,-0.3723229,0.19121893,-0.9660027,-0.0070409547,0.59021515,0.55021745,0.86606514,0.053166755,-0.67693985,0.24037535,0.83142287,-0.2959063,0.0064413324,0.9428034,0.17165995,0.25973418,0.4932097,1.2902727,-0.13098474,0.1672674,0.65331656,0.10445406,0.16577803,-0.6946397,-0.55303717,-0.49860713,0.7152912,0.48573083,0.5386922,-0.009834728,0.5097873,0.23057655,-0.19649962,-0.1358503,0.23112209,-0.25629345,0.27415317,-0.039636318,0.26204276,0.014961984,0.07907037,-0.5979431,-0.13182506,0.626642,-0.24529207,0.6654312,-0.09397362,-0.62819105,-0.33524016,0.620328
s1-AAGCAGTGGCTCATCC-1,0.72680134,-0.75531274,1.8792573,2.5937216,3.5336282,1.0140536,1.7828108,2.9954154,-1.9972115,2.1824548,-2.7561717,0.40845603,-0.8543958,1.9528847,2.4718378,0.08228344,2.219313,-1.6339366,0.22281496,-0.18931948,1.8632004,2.5525737,-1.9807452,1.6057609,-0.59990335,-1.3217672,-1.3945565,0.99900997,2.1108747,0.16536285,-1.9080635,-1.7875277,0.34792048,0.22407858,0.8573616,0.78089726,0.8473144,-0.65635383,0.5709437,0.56012547,0.89973825,0.7599998,0.3876012,0.018392378,-0.19529083,0.7179498,0.85542333,-0.72957444,0.92567694,-0.48527592,-0.93648624,-0.7399701,-0.82857144,0.59182143,-0.45696566,-0.87319744,-0.8969381,0.6363487,-0.7222636,-0.85744315,-0.6198106,-0.3757777,-0.7199684,-0.68516695,2.4689155,-1.0478323,0.88007843,-0.1695817,0.026673457,-3.1445656,0.024838855,-1.5213329,1.0729916,0.36346725,-0.34492928,-0.81758547,-0.28440073,0.18780181,-0.65520954,1.1004657,-0.1251056,-1.6802256,-0.2505401,-0.68666434,1.2048501,2.5382402,0.48912328,-0.10325338,0.58482206,0.8457182,1.196844,1.1384288,-2.3015413,1.7037292,0.0706667,1.069967
s1-AAGCAGTGTAGAATCT-1,-0.02469506,-1.5493658,0.7289912,0.62020564,0.3511139,0.8807471,-0.4257043,0.55668604,0.03318001,-0.78440046,-1.3305722,-1.3169993,-0.31891567,0.48399112,0.076818705,1.4209404,1.2028381,-0.5373371,0.9711888,0.28982374,0.43592688,0.43335918,-0.9428303,0.6735159,-0.012509173,-0.09126013,0.7943856,0.5537336,0.6848093,0.20494811,-0.43962276,-0.8494158,0.26213095,0.08324911,-0.43918872,-1.0416193,-0.6845304,0.3616799,-0.41996843,-1.3242608,-1.0931126,-0.1406267,-0.6492286,1.0011365,0.39897728,-0.72362685,-0.6071291,0.3607799,-0.93479335,0.605188,1.1385891,0.72602314,0.7224848,-0.11435147,0.30528513,1.0083727,0.7302686,-0.25328645,1.2571195,0.93723506,0.79539996,0.38030493,0.3332972,0.58834565,0.64438754,1.0233955,-0.9555584,-0.075498566,0.5098449,0.21767692,-0.46115652,0.20548308,-0.03450243,0.2197626,0.43804944,0.5556949,0.027680663,-0.90398574,0.28874943,0.93309385,0.22181074,0.21128732,0.66370964,-0.38437086,-0.11184755,-0.43353462,-0.14540851,0.41993636,0.12444083,-0.9475334,-0.34774923,-0.34463006,-0.20704296,-0.254036,0.99926716,-0.42399108
s1-AAGCATCAAGCGTGAT-1,0.17183715,-0.29174867,0.41391957,0.37316006,0.57337886,0.9186224,0.18192233,0.5969186,0.2068981,0.8065091,-1.0258433,-0.6645929,-1.0458145,0.85587597,0.7172323,-0.11170922,0.8905592,-0.6756416,0.92493033,-0.22069053,0.63725126,0.95321524,-0.95014006,0.65891707,-0.29163775,-0.77062136,-0.7892092,0.13563824,0.43698505,0.92548203,-0.37302646,-0.63192344,0.34792048,0.22407858,0.8573616,0.78089726,0.8473144,-0.65635383,0.5709437,0.56012547,0.89973825,0.7599998,0.3876012,0.018392378,-0.19529083,0.7179498,0.85542333,-0.72957444,0.92567694,-0.48527592,-0.93648624,-0.7399701,-0.82857144,0.59182143,-0.45696566,-0.87319744,-0.8969381,0.6363487,-0.7222636,-0.85744315,-0.6198106,-0.3757777,-0.7199684,-0.68516695,0.78057826,-0.13642795,0.21053061,-0.34849885,0.7528144,0.034494005,-0.6099544,-0.2777033,0.16151248,-0.36341593,-0.07599739,-0.609306,0.38036582,0.53010184,0.70879114,0.38701934,0.4395015,-0.05012487,0.76002264,-0.22166607,-0.50564545,-0.16315615,0.7388158,0.32902053,0.09893024,0.23330167,1.0161891,-0.5270812,-0.34294742,-0.34274763,0.49298567,0.9825804
s1-AAGCATTGAGTGGTTG-1,-0.4883997,-1.0175114,0.16691674,0.50029546,0.10567047,1.3772901,-0.38961193,0.6811864,0.26553673,0.29002088,-0.88751197,-1.2923013,-1.0885231,0.47882015,-0.22986346,1.5154217,1.2602655,-0.8886311,0.4388018,0.22202237,1.0264274,0.6537424,-0.7270667,0.2531214,0.38911545,-0.31270817,0.3712897,-0.25349423,1.2705337,-1.0849826,-0.4528875,-0.44931608,0.34792048,0.22407858,0.8573616,0.78089726,0.8473144,-0.65635383,0.5709437,0.56012547,0.89973825,0.7599998,0.3876012,0.018392378,-0.19529083,0.7179498,0.85542333,-0.72957444,0.92567694,-0.48527592,-0.93648624,-0.7399701,-0.82857144,0.59182143,-0.45696566,-0.87319744,-0.8969381,0.6363487,-0.7222636,-0.85744315,-0.6198106,-0.3757777,-0.7199684,-0.68516695,0.6621232,-0.0043860916,-0.4566044,-1.437154,0.80698735,0.0237236,-0.5651037,0.7919931,0.067379795,-0.4624025,0.5527646,1.7566208,0.6107838,-0.36390376,0.1124911,1.9341542,0.103361316,0.49458617,0.14953622,-0.4827403,-0.973488,0.37345478,0.3495651,0.6338449,-0.1378795,-1.3253006,0.5162638,-0.022399226,-0.21652107,0.39534038,0.036121696,0.49709502
s1-AAGCCACCATTCAAGA-1,-0.20982869,0.38047162,-0.49405763,-0.08778184,-0.12543231,-0.98258924,-0.27518272,0.09973643,-0.78519773,0.0329296,0.20698492,0.6502789,0.3440034,-0.07785723,-0.021517884,-0.8325932,-0.6952375,0.8611688,-0.355908,-0.16850632,-0.26822388,0.15859242,0.12737049,-0.5707211,0.63006777,-0.15758786,-0.27244943,-0.054881886,0.01719944,-0.16903462,0.28746715,-0.39951384,0.34792048,0.22407858,0.8573616,0.78089726,0.8473144,-0.65635383,0.5709437,0.56012547,0.89973825,0.7599998,0.3876012,0.018392378,-0.19529083,0.7179498,0.85542333,-0.72957444,0.92567694,-0.48527592,-0.93648624,-0.7399701,-0.82857144,0.59182143,-0.45696566,-0.87319744,-0.8969381,0.6363487,-0.7222636,-0.85744315,-0.6198106,-0.3757777,-0.7199684,-0.68516695,-0.33486047,0.38284406,0.5876206,0.6861085,-0.5508241,-0.6278041,-0.1563746,-0.5373504,0.7427103,0.8582002,0.8301045,-0.13034771,0.5897858,0.07546027,-0.8505897,-0.03677403,0.55768764,-0.070574075,-0.25440243,0.2131595,0.19729644,0.23207094,-0.3031223,-0.34375706,0.1282151,0.43918493,-0.08049644,0.12173277,0.2144281,0.025757462,0.094016224,-0.1588413
s1-AAGCCACTATGTCTAA-1,0.37304226,0.22479361,0.29635793,0.0096757095,0.16392629,-0.14575851,0.014417153,0.11479315,0.099927396,0.057453953,-0.24411263,0.1724488,-0.077924825,-0.13179241,0.3114416,-0.26964325,-0.016095838,-0.017143665,0.10227885,0.20452178,-0.23809956,-0.06069926,0.19767478,-0.15805309,0.45390856,-0.083580345,-0.66595876,0.1845529,-0.1637572,0.016727092,0.21772866,-0.058085002,0.543867,0.29500058,-0.6222367,-0.9287595,-0.65618753,0.30230442,-1.2155002,-0.49139547,-0.68044907,-0.43032923,-0.74382347,0.44768348,0.5088493,-0.6060236,-0.6689043,0.5433593,-0.8651616,0.62381417,0.9996781,0.98061085,1.0648474,-0.6362006,1.1448519,1.066369,0.429915,-0.45804742,1.1038817,1.0177851,1.3302515,-0.056484155,0.23739618,0.3880352,-0.060164932,0.21680382,0.28589135,0.21986154,0.21619019,-0.17964952,-0.18038583,-0.16972132,0.019436348,0.06415669,-0.051039625,-0.3495561,-0.30869585,0.32116866,-0.14773396,0.17368926,0.017594665,-0.23796001,0.061680082,0.2545365,0.33265138,0.28532737,-0.21824583,0.033822387,-0.38175672,-0.22358277,0.07750708,0.17264926,-0.228759,-0.17344168,-0.17020915,0.2878721
s1-AAGCCAGATATCAGAA-1,2.2914643,0.8218524,2.1334672,-0.18842834,-1.2190963,-0.44835904,2.0149722,-0.6571768,1.6410313,0.9893022,0.046785034,0.7735898,2.3718615,0.13335593,-0.7297933,-1.0999552,1.0934713,0.24074507,-1.2481612,-0.1875468,-0.9130837,-0.6512844,0.6999613,0.107548945,0.87376523,0.8587638,0.1132016,-0.016038122,0.1501454,-0.11922413,0.5998353,-0.8356727,0.34792048,0.22407858,0.8573616,0.78089726,0.8473144,-0.65635383,0.5709437,0.56012547,0.89973825,0.7599998,0.3876012,0.018392378,-0.19529083,0.7179498,0.85542333,-0.72957444,0.92567694,-0.48527592,-0.93648624,-0.7399701,-0.82857144,0.59182143,-0.45696566,-0.87319744,-0.8969381,0.6363487,-0.7222636,-0.85744315,-0.6198106,-0.3757777,-0.7199684,-0.68516695,-0.5076579,0.39203805,0.61013985,2.5601182,2.4293964,0.13819136,0.14145717,0.6639714,-1.6663254,0.47571188,-1.4739792,0.43968385,-0.41288245,-0.78994125,-0.30757004,0.08343157,-1.7796968,-1.2943664,-1.3559015,-0.5272126,0.88876677,-0.09021289,1.6059613,1.1392215,2.4062498,0.58325875,-0.09878695,-0.27840984,-1.04211,0.26048198,0.5830094,-0.40143865
s1-AAGCCAGATCCAACAT-1,-0.68357545,0.7548621,-0.69543725,-0.70853204,-0.75899774,-0.8467539,-0.776458,-0.84246415,0.47447693,-0.49696,0.6958979,0.8628433,0.1367485,-0.7708364,-0.7666776,-0.74147373,-0.91984445,1.1257809,-0.61863184,-0.27824062,-0.8112474,-0.58365196,0.70688295,-0.9637717,0.7845973,0.51168776,-0.010791428,-0.4281459,-0.72944576,-0.4722217,0.7237983,0.10187268,-0.5006655,-0.076819465,-0.88535964,-0.86515796,-1.1249108,0.2549353,-1.4161153,-1.9853957,-0.7240667,-1.0382346,0.64419776,-0.9516931,0.8535845,-0.66619396,-0.3922416,0.46160394,-0.84505326,-0.26412153,0.5499324,0.66111606,0.40119037,-0.11386363,-0.2939341,-0.31095546,0.8581804,-0.60039806,-0.590107,0.82761794,-0.0033318498,1.2015877,0.36186892,0.93179905,-0.92018396,-0.544565,0.7307378,-0.3970322,-0.45967224,-0.1456229,-0.45965374,0.22444187,0.08415037,0.2785247,-0.0042518983,-0.03122455,-0.085648574,-0.15959483,-0.33299074,-0.75464267,0.07702609,-0.5340998,0.16126278,-1.1162939,-0.5239389,-0.28622875,-0.32928538,-0.15671785,-0.28974146,0.15409617,-0.17423713,-0.087918326,-0.050244026,-0.35234466,-0.09361328,0.15084265
s1-AAGCCAGGCCGACGTG-1,-0.83759606,0.71711534,-0.933912,-0.7770057,-1.0044525,-0.86666054,-1.001037,-0.7960253,0.30721158,-1.05076,1.0278003,0.70478576,0.40602922,-1.1148007,-0.99836344,-0.7497305,-1.1605119,1.0017861,-0.7697221,0.3811136,-0.66046333,-0.9235946,0.9487513,-1.0837727,0.25976428,0.8649991,-0.07428334,-0.96847427,-1.2501078,-0.5084492,0.6559003,1.1710892,0.34792048,0.22407858,0.8573616,0.78089726,0.8473144,-0.65635383,0.5709437,0.56012547,0.89973825,0.7599998,0.3876012,0.018392378,-0.19529083,0.7179498,0.85542333,-0.72957444,0.92567694,-0.48527592,-0.93648624,-0.7399701,-0.82857144,0.59182143,-0.45696566,-0.87319744,-0.8969381,0.6363487,-0.7222636,-0.85744315,-0.6198106,-0.3757777,-0.7199684,-0.68516695,-1.200832,0.91485494,-0.25451133,0.038648583,-1.0677819,0.40420333,0.28420222,0.22703007,-0.023925005,0.032465573,0.37651053,0.007559386,0.26115417,0.50764936,-0.17731157,0.07267372,0.077384375,-0.08477555,-0.16419874,0.5141971,-0.027624425,-0.16786464,-0.335193,-0.80919135,-0.34264433,0.23750024,0.115800686,-0.1895913,-0.18668938,-0.08322582,-0.30083352,-0.09495014
s1-AAGCCAGGCTGCTTGA-1,0.0700474,-0.04667134,-0.030639555,-0.12852034,0.15040581,-0.9406773,-0.16171971,-0.22640762,-0.12607728,0.2394262,-0.25741276,0.77729666,0.4773441,0.5345811,0.288469,-0.9692287,0.035461247,0.7080645,-0.21439302,-0.9220937,-0.5118732,0.028923247,0.020596962,-0.19024907,0.52141976,-0.27293456,-0.321674,0.14723456,0.30524224,-0.028127594,0.31554756,-0.64778817,0.34792048,0.22407858,0.8573616,0.78089726,0.8473144,-0.65635383,0.5709437,0.56012547,0.89973825,0.7599998,0.3876012,0.018392378,-0.19529083,0.7179498,0.85542333,-0.72957444,0.92567694,-0.48527592,-0.93648624,-0.7399701,-0.82857144,0.59182143,-0.45696566,-0.87319744,-0.8969381,0.6363487,-0.7222636,-0.85744315,-0.6198106,-0.3757777,-0.7199684,-0.68516695,-0.18430634,0.29238823,0.7730521,1.0109814,0.17094852,-1.2254571,-0.07118984,-0.80004954,0.122097604,0.8363495,0.37298575,-0.3145048,0.4481356,-0.36225462,-0.06349368,-0.3105888,0.71249855,-0.06983692,0.45298326,0.03742482,0.19144177,-0.22726043,0.31120846,0.51018983,0.2760485,0.3989078,-0.16866532,-0.147929,-0.015789421,-0.06737233,0.49927542,-0.26120004
s1-AAGCCAGGTTACGAAC-1,0.46328783,-0.515367,-0.1907229,1.0783714,1.1071912,0.49222043,0.35967007,0.8545714,-0.6784514,1.3003073,-1.3532548,-0.26732093,-0.760587,0.8264407,1.4221599,-0.3259527,0.80454195,-0.65287936,0.8366242,0.61661816,0.1935032,0.5070924,-0.83952254,0.43550763,0.05175805,-0.722545,-0.90186626,0.14655735,0.4321533,0.39136624,-0.1552105,-1.4690552,0.34792048,0.22407858,0.8573616,0.78089726,0.8473144,-0.65635383,0.5709437,0.56012547,0.89973825,0.7599998,0.3876012,0.018392378,-0.19529083,0.7179498,0.85542333,-0.72957444,0.92567694,-0.48527592,-0.93648624,-0.7399701,-0.82857144,0.59182143,-0.45696566,-0.87319744,-0.8969381,0.6363487,-0.7222636,-0.85744315,-0.6198106,-0.3757777,-0.7199684,-0.68516695,0.8381437,-0.18702468,0.4720162,-0.2186302,0.7390343,-1.3269154,-0.54755497,-0.37698102,0.70381063,0.2288484,0.047158547,-1.5156292,-0.14395759,0.03181525,-0.4650784,0.8326621,0.49811757,-0.6928509,0.5164812,0.4028894,-0.2971277,0.3696904,0.45581147,-0.5709267,0.06554534,-0.08127651,0.22516724,0.08062864,-0.14395098,-0.64174545,0.7355539,0.09158059
