,0,1,2,3,4,5,6,7,8,9,10,11,12,13,14,15,16,17,18,19,20,21,22,23,24,25,26,27,28,29,30,31,32,33,34,35,36,37,38,39,40,41,42,43,44,45,46,47,48,49,50,51,52,53,54,55,56,57,58,59,60,61,62,63
s1-AACACTTGGCAAGGAA-1,-0.124412164,-0.075477086,-0.06922408,-0.12975602,0.11936722,-0.004624546,-0.255647,0.060257338,-0.13469833,-0.0030688678,-0.0520153,0.09783084,-0.15088783,-0.1218257,0.014454607,-0.005760722,-0.15380615,-0.19759071,-0.15832685,0.1879756,0.0033227354,0.11398365,-0.10208434,-0.066091314,-0.08060162,0.07575674,-0.06362578,0.081748135,0.26348585,-0.11836183,0.1263187,0.047182057,-0.078065634,0.1731792,-0.12045913,0.01014838,-0.037932407,0.15489808,0.08163087,-0.22701575,0.07719205,-0.035688184,-0.23517834,-0.34778538,-0.18625246,0.07210421,0.08005697,-0.10296508,-0.0012498352,-0.10673088,0.08703729,0.067893304,0.18245752,0.13292773,0.007046326,0.0048606494,0.122851595,-0.021773268,-0.06863372,0.15100946,-0.03372499,0.15460011,0.06930563,-0.08900378
s1-AACAGGATTCATAGTT-1,-0.1992194,-0.098162286,0.07894206,-0.21666633,-0.17783958,0.1335237,-0.028146865,0.088602066,-0.071003236,0.113190986,0.25967225,-0.03225966,-0.03965012,-0.074110754,0.2139452,-0.09941854,-0.14119887,-0.13932072,-0.16364512,0.19712129,-0.07287013,-0.034168135,0.08221782,0.049703173,-0.04647327,-0.038499758,-0.02599805,0.1404497,0.09051145,-0.15048748,-0.08550279,-0.05702144,-0.110090114,-0.035793103,-0.03242761,-0.17571744,-0.22911492,-0.06518353,-0.13256529,-0.17076613,-0.1352759,0.041599203,-0.0058089923,0.04046689,-0.050705496,0.029580913,0.24854544,-0.04104872,-0.07921749,-0.010050908,0.050577227,0.2628186,0.16802421,0.059119087,-0.113055795,0.024760935,0.106378585,0.1933351,-0.14852494,-0.04780055,-0.1786099,0.12981236,-0.14793311,0.0001646861
s1-AACAGGTTATTGCACC-1,-0.07179083,-0.18617573,-0.13149557,-0.0830718,0.034791987,0.13157232,-0.22769657,-0.037168033,-0.10414909,-0.056570567,0.0103232935,-0.06880039,-0.0827385,-0.174282,0.11472089,0.055053182,-0.23686579,-0.07662577,-0.2726862,0.079291254,0.06239704,0.15277666,-0.17124693,-0.0110837035,0.21062754,0.05176501,-0.041613694,0.10430304,0.15305144,-0.009003838,0.044683672,-0.017455207,-0.243525,0.06409134,-0.1422001,0.07163335,-0.18481992,0.23142317,0.16925077,-0.105591044,0.02624672,-0.0106489025,-0.20284502,-0.18133368,-0.2017165,0.13354485,-0.05590141,-0.24932674,-0.12882333,-0.05596967,0.10423423,0.037996747,0.060498595,0.07619612,-0.095346995,0.03780496,0.07096603,0.004548685,-0.04413226,0.09145417,0.11672232,0.059146386,0.039942786,-0.078438066
s1-AACAGGTTCACCGAAG-1,-0.1292375,0.22714716,0.17922913,0.013206508,-0.12998037,-0.13814896,0.14631356,0.09201282,0.0065080444,-0.015611504,0.042885315,-0.10372017,0.14811347,-0.06984729,0.08678958,0.0934215,-0.0045514787,0.13540839,0.04227105,-0.1452105,0.078451276,-0.102641314,0.093271345,0.08495304,-0.1948869,-0.11980583,-0.25164574,0.21884157,-0.011855224,-0.1707172,0.06311402,-0.10632534,0.31756517,-0.020764802,0.08195012,-0.0072526527,-0.15361626,-0.10033372,-0.06163927,0.19455805,0.031545836,0.079574436,0.118279405,0.06186743,0.015739692,-0.2082617,0.14426656,0.03340528,0.16064651,0.11310531,-0.21743973,0.2040932,-0.081351504,0.09318874,-0.020469455,-0.0065116654,-0.08138884,-0.024099134,0.1375827,0.121502385,-0.0238593,0.191723,0.0021889627,-0.0067607416
s1-AACAGTCAGGCTCCGC-1,-9.3740004e-05,0.24132991,0.16971028,-0.013104377,-0.21875389,-0.01431958,0.17260335,0.072472826,-0.006128867,-0.0070173005,0.063078016,-0.11868467,0.16883503,0.10798576,0.045776386,-0.07045619,0.13589509,0.23283306,0.15466838,-0.25660226,0.14273289,-0.15627685,0.22051327,-0.04990305,-0.051294845,-0.1828411,-0.17131776,0.1398595,-0.17520106,-0.034237225,0.0176864,-0.013595232,0.15708303,-0.16725695,0.111484595,-0.05647574,-0.021092292,-0.09127672,0.0110397525,0.108131915,-0.09328288,0.19244763,0.13521928,0.21701707,0.03260123,-0.14612773,0.024259938,0.030028926,0.10370195,0.170203,-0.22554186,0.078620814,-0.08504325,-0.026706195,0.07573451,0.055025212,-0.07754943,-0.048259705,0.0390508,0.13883829,-0.024444902,0.13763902,0.030412175,-0.040425606
s1-AACAGTCGTGTCGCGG-1,0.19725731,0.037947297,-0.2989722,0.009138349,-0.012608707,0.03688128,-0.11566089,0.10898389,0.034580387,-0.02810533,0.0057112696,0.065189876,-0.22097094,0.1351332,-0.0970763,0.049173884,0.028277325,-0.2287115,-0.12757902,0.07771106,0.037781507,0.17292038,-0.29043075,-0.0032885969,0.1057277,0.04271553,0.07370833,-0.22596946,0.12296602,-0.07642856,-0.033603135,0.08219414,0.0021234911,0.03159385,-0.005395258,0.11273233,0.17101143,0.17420496,0.11738378,-0.14580964,0.16425428,-0.016698644,-0.21144095,-0.1762793,-0.13579665,0.14808063,-0.16619486,-0.0870524,0.058112655,-0.005876761,0.071719445,-0.1073401,0.09983408,-0.055774543,-0.0036176706,-0.035282034,0.14263646,-0.30888999,-0.060826935,0.07958598,0.029610805,-0.13134567,0.043729216,0.039048783
s1-AACATACTCATATGCG-1,-0.0092699835,0.24618892,0.14004138,-0.019232,-0.22695118,0.12169715,0.12827078,0.041116927,-0.021290345,-0.034563303,0.13685717,-0.13118128,0.17678143,0.0767158,0.06352699,-0.18451813,0.15467928,0.19958968,0.18100403,-0.19556236,0.023495367,-0.14599057,0.26235417,0.009346147,0.010016444,-0.15959656,-0.0752157,0.16209911,-0.16261561,-0.00011028828,-0.056623943,0.100280814,0.11425245,-0.17346244,0.13002299,-0.044368066,0.051268402,-0.044209685,-0.12686442,0.21285407,-0.18331458,0.17656967,0.11985308,0.23734547,0.10787215,-0.13067201,0.06659253,0.044802576,0.02987086,0.10356434,-0.14195268,-0.00055996934,-0.04406543,-0.097424634,0.13228913,0.02701699,-0.095045015,-0.073575094,-0.06862531,0.030036941,-0.074686326,0.09651437,0.03890953,-0.052559033
s1-AACATAGTCTATCTAC-1,0.0046231514,-0.20496656,-0.1360631,0.055156775,0.18011326,0.16207276,-0.040812757,-0.24450141,-0.05984996,0.020893583,0.16969952,-0.06014478,0.034707718,0.003027009,0.18216468,0.09741921,-0.037085887,-0.15372998,-0.20709349,0.1793942,-0.2323453,-0.0045146863,0.13655601,0.10225648,0.07592873,0.10308595,0.2632339,0.009880306,0.023332104,0.07709451,0.031144368,0.15368934,-0.10816158,0.028613456,-0.16694333,0.041491468,-0.06299166,-0.03105226,0.020390563,-0.12603424,0.006501738,-0.11320364,-0.010464861,0.028026326,-0.007083565,0.23950928,2.114453e-05,-0.19402878,-0.20649901,-0.06696252,0.06643617,0.04651862,0.08368038,-0.028984644,-0.21844532,-0.10295986,0.15170959,0.1316175,-0.10521196,-0.23312934,-0.027477337,0.02988872,-0.18448661,0.04924525
s1-AACATATTCTTGCGAA-1,0.067205936,-0.104143694,-0.18593672,-0.023636974,-0.022068907,0.016197648,-0.061823163,0.035107106,-0.09021617,-0.025694229,-0.08545438,0.1773289,-0.24824788,0.033074897,-0.15069017,0.022909699,0.02674651,-0.17849289,-0.10884613,0.048099022,0.03237025,0.15194348,-0.28545514,-0.08875992,0.07500542,0.18052702,0.16899636,-0.2689544,0.12913299,0.027798764,-0.0032927967,0.05230666,-0.15871574,0.072965965,-0.017325826,0.08643167,0.23832643,0.24061947,0.043185055,-0.10547146,0.16437165,0.036842767,-0.23149073,-0.13523749,-0.14513415,0.12370367,-0.15603231,-0.026597518,0.01492814,-0.02983358,0.114090666,-0.17018254,0.06080923,-0.09533124,0.025646748,-0.064572014,0.09167403,-0.15740979,-0.13361606,0.060154576,0.039921366,-0.1667632,0.115363695,0.07032599
s1-AACATCGCGTGACCAC-1,0.082983,0.01738268,-0.24880272,-0.07097142,-0.085272506,0.033933546,-0.08153966,0.1079554,-0.0713544,-0.015788592,-0.007580087,0.10203696,-0.237141,0.1452689,-0.09755969,0.036097806,0.057232454,-0.20560388,-0.13584617,-0.0380425,0.10016971,0.11600254,-0.28603923,-0.08964269,0.075161606,0.060721096,0.092530474,-0.22073811,0.08309054,-0.040367473,-0.020953402,0.07635653,-0.01107359,0.06220328,-0.034335148,0.03572413,0.18959321,0.21105386,0.14322652,-0.16731447,0.17682458,0.119885445,-0.1889137,-0.16660587,-0.21914391,0.11086065,-0.18935138,-0.11047075,0.11295963,0.060956564,0.08044445,-0.080993414,0.057759415,-0.06928051,0.011126491,0.026009561,0.1527111,-0.25912398,-0.16078539,0.111660235,0.019234905,-0.08408563,0.024970064,0.082225226
s1-AACATCTAATGACCGG-1,-0.06494304,0.02806973,0.16044712,-0.007501182,-0.029040726,0.1326439,0.050606646,-0.10188713,-0.029338628,-0.17167094,0.1903744,-0.24901977,0.1743085,0.072710015,0.19639806,-0.02783314,0.051730007,0.2905938,-0.027563732,-0.08650349,-0.013027951,-0.26675987,0.12060038,-0.027010037,-0.055695564,-0.17916447,-0.011652385,0.20012009,-0.0482209,0.004575998,-0.099070564,-0.051508076,0.109567724,-0.1425602,0.010794416,0.09627253,-0.16188818,-0.27551147,0.12461095,-0.115779996,-0.04407701,-0.012105043,0.2505009,0.14231072,-0.1265609,0.18815967,-0.10242152,-0.15719418,-0.0812467,-0.027579185,-0.06647951,0.13052276,0.049241483,-0.02219786,0.009279484,0.033021513,0.12968832,0.052485786,-0.039545525,0.017285407,-0.105729684,0.18277548,-0.13377018,-0.027245728
s1-AACATGACGCAGCGTG-1,-0.01668396,-0.14445153,-0.15019675,-0.06161443,0.1724341,0.12756811,-0.08886084,0.053387213,-0.06016241,0.032761905,0.1328026,0.055804767,0.06664764,0.025785033,0.11117037,0.032527715,0.055042915,-0.15723817,-0.116700165,0.12257979,-0.13088275,0.076395825,-0.18596989,-0.011592144,0.030401139,0.12808652,0.124258906,0.014586423,0.14729927,-0.1040443,0.14996558,0.03664717,0.05552772,0.061669696,-0.15220334,0.0009883944,-0.20167951,-0.111419745,0.15135457,-0.11467907,-0.051850382,-0.08010652,-0.022543386,-0.2369666,-0.1685513,0.2952283,-0.18769062,-0.28067246,0.013186135,-0.20708372,0.068045355,-0.043981638,0.24456483,0.02045904,-0.07061611,-0.010617026,0.26520836,-0.11456271,-0.09677664,0.13353193,-0.025352556,0.02157544,0.07980035,0.027000561
s1-AACCAAGGTATCAGGC-1,0.0014683136,-0.1940642,-0.14890882,0.028308589,0.22658475,0.0078069465,-0.056140754,-0.1413401,0.039748646,0.08327886,0.07827188,0.09886571,-0.019211993,-0.09574313,-0.013931835,0.18333071,-0.037910916,-0.17381617,-0.13622352,0.12774709,-0.17083511,0.15612504,-0.07447328,-0.0040592654,0.094059005,0.24485287,0.121147595,-0.22584634,0.10176834,0.039160304,0.12909898,0.07954712,-0.14056815,0.17877272,-0.12284632,-0.055276446,0.010450742,0.105735004,0.05893635,-0.17490824,0.035470743,-0.07879475,-0.15549447,-0.24188894,-0.0325224,0.23141703,-0.094433546,-0.1686005,-0.045256402,-0.057983436,0.216495,-0.10596829,0.13688219,0.02185323,-0.10644172,-0.026288431,0.18887329,0.028204635,-0.14829576,-0.09907735,0.045301728,-0.037016023,0.19483359,0.017969394
s1-AACCAATCTGGTTGGC-1,0.0025834013,-0.123083755,-0.051298883,-0.021988148,0.19984967,0.16574417,-0.03165127,-0.26998404,-0.046140686,-0.008953673,0.16208643,-0.17954,0.15784776,0.0672661,0.13415304,0.12967278,0.01903247,0.16629653,-0.06825759,-0.020552054,-0.14390397,-0.2413706,0.13259397,-0.06511074,0.06963693,0.018171957,0.1712859,0.08637859,-0.08676382,0.10555516,0.0026055286,0.12876184,0.07208213,-0.03678572,-0.07559205,0.051335394,-0.068852425,-0.28741676,0.2040121,-0.25407884,-0.039550193,-0.040110536,0.20045716,-0.011180716,0.027633425,0.17055228,-0.15387341,-0.18391366,-0.10576074,-0.06566507,0.069371335,0.09683355,0.0027675307,0.103371985,-0.024047881,0.12246046,0.17185517,0.22531435,0.016557947,-0.107135616,-0.009978252,0.025836961,-0.12719095,-0.011053786
s1-AACCACTAACATGATT-1,0.14019476,0.035463482,0.023093533,0.12159928,0.094291665,-0.033852037,-0.09590111,-0.069853514,0.011301169,-0.22707218,-0.17257583,-0.049880095,-0.03589653,-0.0641056,-0.23147008,-0.09096343,0.08100491,0.13099484,0.12368807,-0.01930754,0.02482595,-0.071636766,-0.13921921,-0.08717272,-0.00013020427,-0.060411878,0.035546843,-0.16402864,0.022852797,0.06897356,-0.16053349,-0.24442011,-0.063150935,-0.11666451,0.16663218,0.24971421,0.19734131,0.20942184,-0.12747262,0.09442889,-0.084116206,-0.18243314,-0.02294351,0.123208664,0.034227777,-0.016808772,-0.11190243,0.13522092,0.0040569725,-0.08177012,-0.025725964,-0.28778937,-0.035162825,-0.23652346,0.14968853,-0.20159046,-0.015137011,-0.10249875,-0.017362144,-0.10348798,-0.08149027,-0.18820821,0.07514648,-0.099136844
s1-AACCACTGCCATAGCC-1,-0.09124142,0.10080624,0.11583076,-0.2670817,-0.13087484,0.18608333,0.03729554,0.017307801,-0.06350273,-0.021445356,0.18941273,-0.26222563,0.17096907,-0.050252754,0.17779921,-0.009958876,-0.12595288,0.1557337,-0.012403232,-0.0074733337,0.021532161,-0.19269711,0.02811436,0.10872583,0.06318597,-0.1289637,-0.06571098,0.27969196,-0.092729464,-0.071729764,-0.22228847,0.0015602986,-0.023572104,-0.22026624,0.09599415,0.01712675,-0.1962615,-0.12314722,0.026985772,-0.031861503,-0.13766879,0.093405165,0.17929956,0.043343235,-0.020826044,-0.14443918,0.016763924,-0.09357818,-0.14531755,0.02147229,0.10235202,0.22498648,0.019533196,0.15921728,0.09140427,0.2012092,-0.012469586,0.14147718,0.00880131,0.048581947,-0.056269325,0.13197544,-0.07401774,-0.04351115
s1-AACCAGAATCAGACGT-1,-0.1534149,-0.057548504,-0.0934596,-0.0261067,-0.014392724,0.021695072,-0.12792604,0.020004626,-0.11010542,-0.014410816,0.032855313,-0.061990477,-0.047722608,-0.077521965,0.17590034,0.08991091,-0.26750207,0.049688347,-0.21249044,0.07824969,-0.09776067,0.02434786,0.012911706,-0.14183304,-0.028675152,0.12377775,0.16349056,0.1053365,0.2641215,-0.199906,0.088488415,0.05023713,-0.21810701,0.08985699,-0.10976249,-0.0067230226,-0.105739,-0.0717547,-0.012239652,-0.17454755,-0.091423,0.011872926,-0.027412592,-0.09039169,-0.2097261,0.115962125,0.087811604,-0.10066442,-0.07583741,-0.12647074,0.00082336203,0.24117112,0.106213935,0.2157544,0.092492364,0.11293973,0.21747813,0.15391704,-0.14586371,0.13575396,-0.005921342,0.2635308,0.040624652,-0.060728475
s1-AACCATGAATTGCCTT-1,0.015725601,0.025979249,-0.18273143,-0.042442016,0.053201232,-0.027483102,-0.042795528,0.06955002,-0.093638584,0.04338656,-0.015135776,0.05187454,-0.21100043,0.024585722,-0.0966265,0.13973597,0.09366027,-0.12356516,-0.16664898,0.11444666,0.05668591,0.13570847,-0.19243555,-0.102831386,-0.0038920485,0.070715174,0.12799129,-0.2682894,0.11686714,0.043243945,0.077792756,-0.054445397,-0.07743511,0.049393233,0.06550864,0.06061778,0.17444369,0.30765513,0.20146032,-0.15121283,0.061280347,0.02746915,-0.27626905,-0.18702751,-0.17720164,0.11536299,-0.19025874,0.0469974,-0.02591501,0.09361574,0.16591199,-0.18799241,0.08416545,-0.06242756,0.075701505,-0.1198349,0.034170434,-0.18592975,-0.12757783,-0.02254602,0.08191323,-0.07881808,0.20166,-0.025559261
s1-AACCGCCAGACTACTT-1,-0.108576715,0.004530327,0.0467012,-0.02387021,0.032858394,0.03718632,0.065279044,0.021212436,0.034915607,-0.04894938,-0.00015194021,-0.11870353,0.11093516,-0.11728433,0.2296332,-0.009213167,-0.06289676,0.10211618,0.22600256,-0.17842726,0.014864971,-0.07456435,0.07421326,0.10676399,-0.10705154,-0.25598013,-0.011295099,0.29877225,-0.040858537,-0.077332735,-0.06688484,-0.12767161,0.19894496,-0.13381213,-0.0965771,-0.038031287,-0.25437948,-0.14896584,-0.10092883,0.15614864,-0.10824116,-0.012504684,0.184855,0.010421603,0.1598412,-0.304107,0.07347013,0.116759904,0.046011962,-0.11482964,-0.055481765,0.17505735,-0.07860135,0.14035296,0.101357475,0.08508447,-0.105002455,0.17486364,0.020863546,-0.058518082,-0.019918911,0.18131165,-0.13053437,-0.07594033
s1-AACCGTGCTTATGTTG-1,0.09307584,-0.039810296,-0.15099265,0.105653666,0.35001433,-0.014018044,-0.07110892,-0.18831545,0.04570676,0.046302594,0.1413149,0.058883376,0.13448362,0.076224424,-0.018018883,0.18580574,0.055290036,-0.12972598,-0.0779316,0.14775802,-0.09602923,0.031759486,-0.04431162,-0.056454156,0.03085899,0.12196355,-0.1078135,-0.17736322,-0.0013380146,0.0077206786,0.19261122,0.14874905,-0.016006272,0.106627725,-0.16098565,-0.009665847,-0.053797286,0.072548375,0.20333673,-0.26650554,0.115307294,-0.07005102,0.009559719,-0.22041446,-0.05014345,0.25311396,-0.16860844,-0.17790811,-0.013492104,-0.0018687118,0.17229779,-0.07044144,0.092099704,0.04812979,-0.06829187,0.032051403,0.16610299,0.04524802,-0.12056188,0.037876982,0.077673584,0.10326192,0.19972406,0.13986775
s1-AACCTAAGATACTGAG-1,-0.012653431,-0.25033796,-0.13626525,-0.024743296,0.25380498,0.03349558,-0.08868328,-0.082901575,-0.03524964,0.07888645,0.01333554,0.09136562,-0.077996165,-0.09156364,0.043248285,0.14504573,-0.07759167,-0.2503379,-0.14414543,0.1444803,-0.1321784,0.09639217,-0.09458724,0.047094285,0.10623757,0.19820265,0.104370706,-0.19063593,0.07757328,0.0562545,0.120399736,0.093895085,-0.19725798,0.13506074,-0.10626087,-0.011682495,-0.05705227,0.0848279,0.122675285,-0.17770518,0.085749395,-0.06116802,-0.13851295,-0.24636084,-0.022209508,0.2741039,-0.13624355,-0.1968664,-0.13750671,-0.06854391,0.19219156,-0.09643388,0.13423386,0.0053179027,-0.12042649,0.08205159,0.11782311,0.003707803,-0.1242463,-0.07947985,0.056505498,-0.0033164597,0.07029398,0.05725696
s1-AACCTACAGAGGTAGT-1,0.107599385,-0.032918196,-0.08631309,-0.030261438,0.049110767,-0.049535044,-0.0542248,0.027247926,0.030883525,0.009059666,-0.02692295,0.07031986,0.018645775,0.09560599,-0.043624472,0.18233941,0.024173588,-0.16210558,-0.31658703,0.14302725,-0.050556675,0.2662355,-0.14572942,-0.034133058,0.018081358,0.24737309,0.03964765,-0.10339314,0.11654868,0.04056944,0.20822382,0.14847875,-0.0527688,0.15691163,-0.24804328,-0.017030276,-0.051968317,0.13758454,0.21551897,-0.13210194,0.13739224,0.12897761,-0.11926994,-0.29694918,-0.16513783,0.11058992,-0.095102906,-0.107703045,-0.049537823,-0.010052756,0.15388572,-0.121748656,0.045852166,0.07847076,-0.16967636,-0.08632523,0.079944134,-0.1278536,0.01375018,0.10761339,0.007993436,-0.06554696,0.1443372,0.056615666
s1-AACCTACTGTAACTCA-1,0.14784965,-0.13424262,-0.2103623,0.097133964,-0.10416528,0.09505784,-0.09557143,0.06786334,0.039522175,-0.12102116,-0.23323222,-0.04674025,-0.11917221,-0.12211071,-0.028762221,-0.2178637,-0.17687654,-0.0792382,0.16033708,-0.07714382,0.12326834,-0.00784776,-0.13658054,0.14246827,0.22022192,-0.06757885,0.119135834,0.13618125,0.056117505,0.049915906,-0.074238226,-0.05722547,-0.12976614,-0.019246276,0.06267099,0.15950853,0.09966621,-0.013370135,-0.17042737,0.17851187,0.08148152,-0.26712322,-0.17972623,0.083550744,-0.016686616,0.06375049,-0.09526026,-0.07858566,-0.02091316,-0.19767697,-0.17863499,0.054717198,0.05340815,-0.27133033,0.0188837,-0.019029988,-0.026137952,-0.10703291,0.042201728,0.02113407,0.06427521,-0.14518958,-0.15230104,-0.17347503
s1-AACCTGACAGTGCCGC-1,0.15932363,0.012021307,0.14837152,-0.052055616,0.041703142,-0.1891058,-0.08032683,0.10345082,0.06047228,-0.07412461,-0.18726765,0.14187166,-0.07475329,0.057737693,-0.081431255,0.14106849,0.03991293,-0.033328176,-0.10456055,0.10861613,0.119603455,0.11605196,-0.03428512,-0.03424892,-0.07184989,0.13028228,-0.3378754,-0.10567898,-0.016752215,0.09408188,0.265209,0.13786079,-0.062015407,0.026963059,-0.26552898,-0.0024942853,-0.11878978,-0.0068624825,0.1555929,0.11651254,0.07332913,0.1812021,-0.07496871,-0.14694326,-0.066540696,-0.009969942,0.015456613,0.11002938,0.097601086,0.081645675,-0.09062226,-0.16640182,-0.18724018,0.06346878,-0.14972857,0.06212081,-0.2486129,-0.07841061,0.16842356,0.22965622,-0.026586588,-0.06298153,0.11472126,0.010814751
s1-AACCTTAGCGTCCGGT-1,0.0648647,-0.11979776,-0.02712007,0.07671743,0.123906635,0.2438532,-0.11357681,-0.05133945,0.08882727,-0.13835049,0.098643996,0.05420939,0.12969534,0.00070645916,0.18688555,-0.12179132,-0.08853517,0.021051634,0.04553319,0.042112388,-0.27111846,-0.029980274,0.0999746,0.030258313,0.053251393,-0.0105069205,0.2780674,0.11475304,0.010030418,0.21646327,-0.031161811,0.15731646,-0.06578831,0.11644604,-0.19328012,0.004310879,0.084994026,-0.07142342,0.011991216,0.022668377,0.10001002,-0.1906687,0.03645773,-0.1027182,-0.014118468,0.34300798,-0.10691131,-0.10022377,-0.13162939,-0.21754566,0.23980384,-0.18546395,0.17215812,0.0014272036,0.083919175,-0.06634502,0.12780775,0.015684016,-0.11691989,-0.09515806,-0.09347872,-0.04400967,-0.015010722,0.031189213
s1-AACGAAGCGTGGAAGT-1,0.026929729,0.11833841,-0.08047201,-0.08024462,0.0031835749,-0.23478277,-0.014150179,0.15672746,-0.070935376,0.06299945,-0.14376804,0.12174777,-0.11779872,0.12526742,-0.16464579,0.04342714,-0.025627106,0.05831925,-0.26641378,0.029863236,0.13722956,0.22312723,-0.17603265,-0.1742872,-0.033139948,0.098854125,-0.116198234,-0.013723695,0.10326374,-0.045402363,0.18885332,0.084871896,0.0059143715,0.18877581,-0.13686256,-0.02107365,-0.061638966,0.060732584,0.1117345,-0.16774705,0.06594427,0.3181772,-0.2572529,-0.24186099,-0.045708746,-0.022852892,0.11809151,0.10244159,0.012731331,-0.013771926,0.08257263,-0.04258866,-0.12232057,0.1516178,0.120129,-0.01558871,-0.04097337,-0.18785197,0.058473963,0.17095393,0.08635153,0.048299406,0.04062432,-0.020299032
s1-AACGAATTGACCGGTT-1,-0.22231776,0.04337048,0.042142883,0.009561934,0.010776253,-0.11130954,0.11373654,0.016342204,-0.11218169,0.12305454,0.20637836,-0.024884347,0.04221431,-0.04288101,0.14627585,0.060913768,-0.036895633,0.15265657,-0.05321674,0.04947003,-0.11880951,-0.009841022,0.14143918,0.0961318,-0.1855544,-0.029023064,0.15254548,0.094236284,0.025567539,-0.2787456,-0.17814822,-0.12370296,0.22639021,-0.02261479,0.08150816,-0.14000027,-0.18261647,-0.12451514,-0.1206216,0.19161586,-0.19155204,-0.0031763767,0.21930823,0.03328248,0.20099631,-0.18895458,0.0685283,-0.03146858,-0.013466244,0.100818545,-0.056399565,0.07590303,-0.045634676,0.23679852,0.092354946,0.082093015,0.084137596,0.14921245,0.18895343,-0.019856947,-0.014060479,0.027264033,-0.21282904,0.07084161
s1-AACGAGCCTCTTCGGC-1,-0.12825808,-0.16290787,0.017627543,-0.042864826,0.0042852117,0.014951355,-0.017899867,-0.052489113,-0.08081052,0.061289493,0.1038677,-0.09853769,0.09289958,0.031378783,0.102470905,0.055930723,-0.052373398,0.12629046,0.12176787,0.00743621,0.038765874,-0.18429746,0.070856765,0.09155051,0.05621668,-0.17915347,0.007910719,0.18819599,-0.0677766,0.10869156,-0.26142755,-0.09091056,0.20044711,-0.117205754,0.00021184361,0.015411253,-0.15440424,-0.27280763,0.15520892,-0.08365681,-0.012251222,-0.023493148,0.35762927,0.009522049,0.058446463,0.033156574,-0.018073544,0.025237812,0.029153455,0.17178255,-0.04147451,0.27220288,-0.117004335,0.07213119,0.10696187,0.2045991,-0.081885606,0.14240314,0.16163488,0.022815173,0.034780342,0.15525506,-0.24611965,-0.12551518
s1-AACGAGCTAATAACTA-1,0.054618526,0.35823086,0.08309154,-0.04948131,-0.184432,-0.16155347,0.12147532,0.10007545,0.008144306,-0.03456441,0.03256556,-0.121395454,0.13159126,0.22353856,-0.019259239,0.03066498,0.09565893,0.06404654,-0.07631474,0.00036003554,0.09846495,-0.0072129793,0.038026825,-0.19114715,-0.11457903,0.026096703,-0.21527001,0.20861344,0.05705121,-0.17269777,0.17690003,0.10388809,0.143481,-0.05046097,0.046255186,-0.07457411,-0.105939336,-0.024536913,0.034822054,-0.05940239,-0.00029003547,0.3205765,0.03314071,0.02586669,-0.09638752,-0.09280313,0.06256456,0.07352755,0.00938721,0.10472138,-0.19465382,0.11799088,0.013062538,0.008071982,0.03436198,0.013825928,-0.054427523,-0.03682307,0.014309279,0.34350023,-0.0013580283,0.22112617,0.14418066,0.085516326
s1-AACGGCACAGAATATT-1,0.1706432,-0.17273672,-0.08520987,0.13806553,-0.13559008,0.1448824,-0.13964683,0.04974956,0.047290936,-0.08981475,-0.14299795,-0.067325495,-0.07952136,-0.078394026,0.06880997,-0.34270358,-0.07656827,-0.03229907,0.00465673,-0.15447037,0.08237433,-0.071829334,-0.09391388,0.090246715,0.16254483,-0.10851748,0.09674093,0.04408144,0.006051091,0.10223354,-0.1292276,-0.22779524,-0.16340624,0.02735244,-0.04503043,0.05248636,0.16577291,0.104512356,-0.07483584,0.24126351,-0.019693365,-0.16898394,-0.023285622,0.047238138,0.063745216,0.042428453,-0.21828912,-0.144769,-0.002421988,-0.1607496,-0.096965715,-0.15417543,0.0077574174,-0.2511553,0.056305055,-0.051342655,0.06890787,-0.10160817,-0.06443892,0.045542195,-0.05963779,-0.25527728,-0.0783183,-0.17437142
s1-AACGGTAATCGACCTG-1,-0.002352959,0.24893703,0.13742206,-0.011697337,-0.22910891,0.11229286,0.13494952,0.033202052,-0.011038908,-0.038170356,0.13274157,-0.12763204,0.16946454,0.0780295,0.05243253,-0.1869878,0.14486739,0.2005271,0.17931132,-0.21078728,0.04349927,-0.1534023,0.26774862,0.00068061304,0.00990603,-0.15966372,-0.07816454,0.14913009,-0.16951747,0.005185739,-0.06949849,0.0864459,0.1051256,-0.18111256,0.14793026,-0.047688622,0.06273213,-0.040786695,-0.11324289,0.1936731,-0.17534438,0.17936486,0.11532786,0.2460842,0.10482764,-0.121978015,0.05376232,0.04078806,0.031756137,0.11317264,-0.15019064,0.002414581,-0.03495311,-0.107916355,0.13211322,0.03830455,-0.085663274,-0.07526059,-0.053905386,0.039126333,-0.08223939,0.092580594,0.030119482,-0.060734928
s1-AACTAACGAACTAGAT-1,0.0886552,0.005134506,-0.20807973,-0.005910197,-0.05920545,-0.06931756,-0.06727624,0.118607365,-0.061350863,0.011456414,-0.029868929,0.022261722,-0.20452082,0.07952264,-0.12964685,-0.012715288,0.13609363,-0.10616094,-0.15643676,-0.050783154,0.13733247,0.0865992,-0.19608769,-0.15636088,0.07402678,-0.0030803124,0.0970927,-0.18538116,0.02547665,0.048006374,0.023357969,-0.05408538,-0.0781702,0.061148144,0.05192204,0.0373454,0.22441629,0.22423275,0.12422665,-0.15462458,0.1461024,0.1252093,-0.3318952,-0.16431691,-0.15635696,0.15571725,-0.21220818,-0.012810258,0.04590852,-0.0029219375,0.12108268,-0.1907412,0.03396456,-0.16192062,0.14017463,-0.03862222,0.103194475,-0.24365237,-0.17711265,0.02211396,0.0085288305,-0.14179242,0.053225003,-0.03336973
s1-AACTAGCACTGTTCGA-1,-0.19701768,0.03957228,-0.06867239,0.1002324,-0.085925624,-0.17676151,-0.09346903,0.04523204,0.118583426,0.014483951,-0.09104493,0.007454226,-0.09429097,-0.11978244,-0.07684467,0.086063355,-0.18916535,0.00926965,-0.08697452,-0.04553062,0.004640956,0.029801173,0.10175541,0.0018690842,-0.1338197,0.077517204,-0.12906313,0.08350142,0.03507145,-0.10369149,-0.036412884,-0.059766766,0.26769176,0.20523117,0.12301628,-0.12301144,0.022635706,-0.17219955,-0.008933184,0.14972742,0.0964327,-0.09483343,0.0941949,-0.11145532,0.11976616,-0.055617698,0.198349,0.0346092,0.17810367,0.04689883,-0.10609353,0.25630456,-0.013092381,0.21949695,0.007532935,0.21950305,-0.07411744,0.17068538,0.30074632,0.068974026,0.081098616,-0.13827114,-0.2404403,0.0029752369
s1-AACTAGCATCACGTAC-1,0.018656641,-0.07131832,-0.07441113,-0.12846081,0.16862078,0.21092083,-0.039778836,-0.10334523,-0.05802554,0.1282284,0.134779,0.065447256,0.13110071,0.015061543,0.14733614,-0.13166636,0.042323522,-0.20793338,0.06209769,0.15460281,-0.2696315,-0.018249454,0.056118336,0.09938715,-0.010284932,-0.025215171,0.23802057,0.18397178,0.05053049,0.041154943,-0.08026222,0.11428642,-0.1379599,-0.022705462,-0.115340196,-0.04842926,-0.13315353,-0.0045993915,-0.05977998,-0.14135449,-0.08730962,-0.037306532,0.031030163,-0.14475168,0.17464145,0.059106823,-0.06233376,-0.09502282,-0.27170014,-0.17650692,0.21264665,-0.08791276,0.112203464,0.058236346,0.014602904,-0.020207953,0.10298586,0.2852591,-0.09654357,-0.17146848,-0.077565454,-0.08488681,-0.1856045,0.08688415
s1-AACTAGCCTAATAGCA-1,0.104978375,0.1160541,0.059905726,0.1130504,0.008467028,-0.001353064,0.026056936,-0.06572551,0.024226315,-0.16065037,-0.1248155,-0.04801458,-0.08245831,-0.026878236,-0.21196727,-0.1664088,0.16877978,0.072251625,0.09628933,-0.060488913,0.036967907,0.0019605795,-0.031500008,-0.0834287,0.01809698,-0.056482047,0.04059928,-0.15048145,-0.04310762,0.02400797,-0.18122812,-0.12623982,-0.15475406,-0.16815957,0.20963408,0.18376912,0.2749987,0.230237,-0.15688121,0.08612899,-0.16947544,-0.010578613,-0.056722134,0.2059027,0.06911354,-0.092171215,-0.084033705,0.1657617,-0.07990173,-0.04234128,-0.06270702,-0.28040898,-0.07032761,-0.21383648,0.16913702,-0.18671192,-0.020523276,-0.1166299,-0.04845115,-0.0862043,-0.102314234,-0.18240504,0.061759174,-0.074560456
s1-AACTAGCCTTGCAATA-1,-0.07032767,0.10894319,0.06992312,-0.05575574,-0.18347098,-0.13950135,0.066535,0.10024504,0.027393196,0.11646734,0.0062717157,-0.0892657,0.08340462,-0.024546271,0.020168442,-0.020577557,0.0239177,0.08416214,0.03919705,-0.087887526,0.07267969,-0.10797666,0.013520244,0.010603175,-0.06385483,-0.15520129,-0.30046195,0.18347573,-0.09609086,-0.16374375,-0.026963832,-0.23702459,0.26450646,-0.06822293,0.091338955,-0.1067514,-0.2092447,-0.105390534,-0.020967351,0.14118904,-0.12513553,0.03450846,0.20937578,0.08163425,0.14358135,-0.2625944,0.072914034,0.04643203,0.18152608,0.15878585,-0.21226814,0.18484548,-0.13407932,0.116262026,-0.016311115,0.091321886,-0.06363888,0.08713215,0.19556105,0.10807545,0.030293565,-0.02340462,-0.15175612,0.009861871
s1-AACTAGGCCTGACACC-1,0.0566008,-0.14183149,-0.15508483,-0.04968508,0.15476078,-0.05215825,-0.1139771,0.1023748,-0.10221458,0.013676735,0.0026950797,0.07857159,-0.010284353,-0.0017167852,-0.06301693,0.18009415,0.041164625,-0.24518713,-0.26032063,0.23367894,-0.08095944,0.2121394,-0.21185829,-0.05142436,0.06855601,0.20686102,-0.0061156,-0.100318104,0.11664213,-0.11064199,0.11720336,0.10453532,-0.0311348,0.076027915,-0.09870891,-0.0016568516,-0.1031923,0.15170586,0.17040169,-0.03237814,0.08405871,-0.0036634514,-0.044228714,-0.27460906,-0.12807406,0.09621485,-0.13382049,-0.21298894,-0.038523857,-0.0027652327,0.14205417,-0.118614465,0.14606269,0.07337648,-0.09683542,-0.0007703769,0.13245435,-0.18837367,-0.01977846,0.19410048,0.020341497,-0.023816736,0.16918825,0.09568075
s1-AACTATCGTCATAGTC-1,0.13574585,-0.15053892,-0.16366975,0.002524423,0.22833037,0.1583685,-0.066906646,-0.1342421,-0.001026407,0.045544952,0.101985425,0.03374381,0.010292757,0.058904648,0.07480675,0.060882542,0.06467579,-0.20532769,-0.14233732,0.14543144,-0.16287735,0.014473833,-0.02998259,0.017168697,0.11370894,0.13774031,0.12932514,-0.15454505,0.008938499,0.07359543,0.13206783,0.1566014,-0.16263928,0.031201953,-0.11926182,0.030495815,0.016929697,0.048911072,0.15190914,-0.22331111,0.047106642,-0.100251876,-0.108450495,-0.11173547,-0.06856997,0.30576134,-0.23443493,-0.20529981,-0.18201181,-0.092246234,0.13662498,-0.15016975,0.16695805,-0.04780946,-0.120967835,-0.03370869,0.19610955,-0.013662304,-0.17268729,-0.06959615,-0.0132613955,-0.054291867,0.050233606,0.11177266
s1-AACTATCTAGCAGTAT-1,0.008707895,0.15324824,0.13069355,-0.07957945,-0.16495334,-0.14738984,0.14322318,0.141799,0.003353785,0.0879457,-0.0018693776,-0.098480284,0.1538403,0.04225672,0.030304402,0.058278456,-0.039310366,0.16418426,0.1531399,-0.08106011,0.16414028,-0.205049,0.037215304,0.0059110015,-0.07050109,-0.20417838,-0.22191264,0.16711076,-0.13659891,-0.076188624,-0.051301893,-0.17549066,0.1936164,-0.102837935,0.079482004,-0.061674654,-0.11882469,-0.15401492,0.013851039,0.013815705,0.015644705,0.054455258,0.22500168,0.104176246,0.031806428,-0.2214314,0.030354202,0.12121146,0.15802684,0.2061526,-0.12828366,0.22971734,-0.14197613,0.09591896,0.08898982,0.094677165,-0.09016918,0.08076215,0.175848,0.17531574,0.0022317031,0.12998319,-0.051804084,0.0040339404
s1-AACTATGCTGCATTCG-1,-0.047008228,-0.22308275,-0.07103373,0.092722155,-0.011603058,0.09051685,-0.021185527,0.011584892,0.07012668,-0.01962865,0.022085298,0.13915865,-0.18587723,-0.15378602,-0.013810185,-0.19691849,-0.14333478,-0.1534638,-0.002478852,0.1343282,-0.10664874,0.18571141,-0.106018424,0.058257084,0.08956174,0.07750249,0.23327366,-0.106481254,0.1685756,0.017803509,-0.14769045,-0.059254706,-0.28090006,0.12732345,-0.0052205417,-0.012391676,0.114710495,0.03532874,-0.2209066,-0.085311785,-0.07640876,-0.15524958,-0.19190681,-0.039103936,-0.001955827,0.23937978,-0.001884713,-0.037476305,-0.089320295,-0.2530285,0.10596595,-0.10264989,0.15658104,-0.13616268,0.02301822,-0.08490209,0.16816978,-0.012709116,-0.07540398,-0.10853769,-0.077866726,-0.20254773,-0.03878144,-0.12166924
s1-AACTATGTGCTTGTTA-1,-0.084660634,-0.19732542,-0.12982517,-0.005130919,0.17853288,0.020018863,-0.038433798,-0.0026432644,-0.050190177,0.18083134,-0.0348238,0.30587617,-0.06274834,-0.05248397,-0.06179246,0.06452646,-0.013420952,-0.19478844,-0.04225142,0.1707415,-0.11740756,0.28894776,-0.07346855,0.026449174,-0.06994512,0.18312778,0.019439438,-0.18587627,0.16864944,-0.023174929,0.19136637,0.08214354,-0.13463713,0.21840829,-0.17969899,-0.05380343,-0.19168791,-0.002445186,0.053720508,-0.25512072,0.011382517,-0.0948842,-0.12073088,-0.19080302,-0.05810726,0.12765287,0.11097792,0.047987584,-0.082173936,-0.092495,0.14885977,0.008621263,0.041684743,0.10902896,-0.1196515,-0.04953202,0.048590373,0.1514647,-0.09265204,-0.11456139,0.08729171,-0.022581339,0.033373628,0.12695487
s1-AACTATTCTGCGGCCT-1,-0.045655932,0.100473724,0.09570428,0.08776072,-0.023050854,0.03460084,-0.023051636,0.051693078,0.014724686,0.033725977,0.099495776,-0.0022804718,0.3026325,0.063718885,-0.0648673,-0.022072246,0.15332532,0.20529513,-0.18023221,0.011050611,-0.14946462,-0.09465664,0.112372965,-0.1976811,-0.10590971,0.02490332,-0.12487431,0.15175873,0.084951386,-0.14333679,0.18863179,0.08439164,0.12914096,0.2226794,-0.082834035,-0.014046125,-0.14015304,-0.23783912,0.17734732,-0.19125041,-0.005596252,0.14004563,0.2081677,-0.09938828,-0.16567063,0.22067632,-0.0765258,-0.17946887,0.016074793,-0.025004636,0.010701929,0.071008705,-0.05485655,0.076916024,-0.11700019,-0.029062841,0.21457553,0.06617201,0.05902221,0.15544616,-0.11860375,0.0025458983,0.080614634,0.13952273
s1-AACTCAACCTTGACCA-1,0.022198569,-0.015916461,-0.13027921,-0.043558527,0.07034331,0.043321546,-0.12560008,-0.045057226,-0.040651962,0.119712815,0.027351573,0.17224176,0.013391115,0.007033172,-0.12943046,0.003508974,-0.12048303,-0.13966823,-0.110778354,0.28623787,-0.17378028,0.14902532,-0.0024969755,-0.09781684,0.09228102,0.23392522,0.05186745,-0.16609757,0.14482763,-0.033047535,0.1626479,0.21733432,-0.22489311,0.28914514,-0.0554978,-0.07254161,-0.023348158,0.115843125,-0.0010388305,-0.24228603,0.0142776035,0.013734607,-0.12881126,-0.21595469,-0.084260784,0.22160298,0.06814251,-0.12591036,-0.08270822,0.008600393,0.27049348,-0.07459003,0.12808654,0.011459977,-0.06925814,0.07070825,0.11154937,-0.0040998184,-0.08782989,-0.037860047,0.027083287,0.027384076,0.13687705,0.059636187
s1-AACTCAACTTGACAGC-1,-0.09946838,-0.037788343,0.002374683,-0.040212356,0.38475683,0.13773555,0.11936728,-0.24867524,0.060329914,-0.14934918,0.13462707,-0.09824193,-0.019110166,-0.13770097,0.20829757,0.19323699,-0.095150925,0.082372636,0.03959292,-0.038285945,-0.018859653,0.023484733,0.10695969,0.2010219,-0.07763238,-0.095583454,-0.030698026,0.12245614,-0.16679545,-0.022772519,-0.063476674,0.13177788,0.15919907,-0.1736411,-0.05853376,0.083301984,-0.11033504,-0.1866181,0.20679079,-0.093195625,-0.0059751896,-0.21053171,-0.019664524,-0.036994465,-0.034622166,-0.061672073,-0.0427346,-0.06655842,-0.10338692,-0.12981638,0.038397063,0.13626738,0.0764608,0.3020587,-0.0345453,0.0555706,0.06216825,0.054095026,0.06371999,-0.13549975,0.020165661,0.18380956,-0.052918073,0.029666657
s1-AACTCACCGAACTTAT-1,0.12813786,0.099276535,0.01731267,-0.035743374,-0.032167155,-0.18933088,-0.043808844,0.1604041,-0.0055182553,0.04630349,-0.1629266,0.20031092,-0.009349498,0.09601157,-0.08898502,0.12008267,-0.060922164,-0.040173102,-0.121929795,0.13464516,0.08308332,0.1822855,-0.17078552,-0.10020528,-0.072358705,0.13244766,-0.30211976,-0.0512892,0.08802951,-0.027924668,0.27556258,0.10563113,-0.06286374,0.1170242,-0.20144959,-0.035443652,-0.14116146,0.12260056,0.093085125,0.0153560545,0.014748427,0.21275643,-0.029119631,-0.12051937,-0.072261825,-0.077583216,0.07089441,0.12310726,0.07228378,0.045544013,-0.011819225,-0.04057879,-0.1342155,0.14228386,-0.057461888,0.015425035,-0.14327386,-0.07535698,0.168656,0.3441145,0.14455631,0.0046237092,0.17738368,0.072173074
s1-AACTCACCTCGGTGTT-1,-0.031236377,0.043369528,0.12199834,-0.03595146,-0.2017293,-0.031313457,0.14082411,0.061324645,0.04062523,0.0697684,0.07136983,-0.1302755,0.16003355,0.025477223,0.11851538,-0.043080084,0.06926705,0.13413924,0.118196115,-0.122651465,0.052820385,-0.15448014,0.045799807,0.08083163,-0.013898822,-0.24232104,-0.22113521,0.19657366,-0.16378075,0.017195366,-0.08284448,-0.21399893,0.2519611,-0.13913229,-0.007260948,-0.0639741,-0.1976239,-0.16346785,0.01979704,0.14087357,-0.14519396,0.058786005,0.31835115,0.13445169,0.11394075,-0.1688708,-0.01117366,0.050510164,0.16326328,0.13420309,-0.15915935,0.15979236,-0.14228027,0.03409575,0.0043347133,0.06498283,-0.09504135,0.02179657,0.12012217,0.05743596,0.010628247,0.027542092,-0.13212533,-0.06122411
s1-AACTCACGGAGTACGT-1,0.05173122,-0.16575341,-0.20060238,0.038271856,0.13039728,0.107448936,-0.036957413,-0.04420027,0.046404995,-0.09231523,0.09327643,-0.0044602444,-0.12552597,-0.16212828,0.08144426,-0.010668144,-0.14193363,-0.1903063,-0.12948644,0.12681401,-0.0808117,0.093531415,-0.22283785,0.043866526,0.14277944,0.10879748,0.08207657,-0.12238157,0.13007228,0.008951576,-0.0025414769,0.026816156,-0.18668231,0.092338525,-0.09294223,0.03942314,-0.013914244,0.0749852,-0.01395631,-0.15953799,0.009478497,-0.13008906,-0.1799423,-0.18842152,-0.038106777,0.31997812,-0.20941949,-0.18019173,-0.070335604,-0.2177638,0.16338553,-0.09143981,0.22614619,-0.090317,-0.014593227,-0.00052662316,0.23734981,-0.08264401,-0.16161141,-0.03946284,-0.048713908,-0.07613339,0.05458081,-0.036636982
s1-AACTCAGATCCATGCC-1,0.06559913,0.16747947,0.10275983,0.090534285,-0.32056066,0.051907886,0.10955775,0.16840367,0.050692547,-0.11794752,0.026982307,-0.15957713,0.12182094,0.03136475,0.041926686,-0.22286615,0.10930834,0.16935922,0.11564294,-0.2542025,0.12468197,-0.09321537,0.13872442,-0.06934014,0.056834687,-0.24365619,-0.1200052,0.17469642,-0.12691003,-0.035446737,-0.06994695,-0.07158935,0.022788526,-0.15342522,0.11089155,-0.00862916,0.0349998,0.002920922,-0.08519204,0.20466876,-0.14022017,0.16513464,0.12334059,0.22104149,0.024671663,-0.033820044,-0.092884764,-0.022962734,0.055885024,0.02205466,-0.22266845,-0.023837471,-0.04107333,-0.15614937,0.139614,0.022903599,-0.008011752,-0.14284648,0.0038321712,0.20844395,-0.0716895,-0.022207592,0.018482052,-0.11343235
s1-AACTGCAACGTCCTGG-1,0.013200427,-0.14030722,-0.15517679,-0.068946406,0.1440349,0.014271749,-0.06866298,0.0063334242,-0.048248895,0.043902867,0.084171504,0.08325184,-0.093083166,-0.069935665,0.0044961427,0.13894896,-0.03286108,-0.30949068,-0.3387456,0.27805296,-0.14319628,0.20905784,-0.1019954,0.002484731,0.01120928,0.16303124,-0.007978661,-0.082266666,0.12307781,-0.088849425,0.036101244,0.084189795,-0.071178176,0.09677954,-0.11686947,-0.026260788,-0.10929024,0.1273913,0.20856807,-0.11958528,0.040254153,-0.017287733,-0.024821993,-0.29811266,-0.07520241,0.14096381,-0.115220025,-0.18558973,-0.10724806,-0.0046184137,0.14935489,-0.056515336,0.17691839,0.16490567,-0.108071685,0.016733555,0.17313078,-0.055462867,-0.031947743,0.07618917,-0.057880573,-0.073269844,0.06185149,0.08140851
s1-AACTGCCTCGATAGGT-1,-0.16152209,0.011309472,0.09828245,-0.045238543,-0.14096233,-0.10900326,-0.06593734,0.15998074,0.03580826,0.054422043,-0.18393391,0.06109292,-0.07670453,-0.11921194,0.055157613,0.06106879,-0.20552026,0.032338332,0.17402534,-0.15391241,0.1103294,-0.107617475,0.18174653,0.012121275,-0.17295948,-0.14752737,-0.14671633,0.1913856,-0.029908642,0.07538712,0.1264177,0.0066618547,0.15905389,0.1246411,0.0076490273,-0.11889883,-0.002196175,-0.14662541,0.0030520218,0.11998345,0.18589239,-0.012289532,0.0345667,-0.06691941,0.0127922,-0.11981458,0.19755891,0.14958923,0.20216268,0.043471083,-0.08395168,0.3040901,-0.052187543,0.16581246,0.017313201,0.19957738,-0.22274004,0.13192947,0.14200836,0.013280052,0.08602066,0.13496055,-0.09789774,-0.051486462
s1-AACTGCGAACCTTACC-1,-0.052962594,0.111721955,0.19869599,0.011884681,-0.13082244,-0.103724755,0.18107028,0.044724658,0.03684525,0.08964637,0.027524525,-0.076615155,0.111646384,0.029476095,0.041553374,0.015395121,0.09757048,0.19522922,0.14173411,-0.15889633,0.12796845,-0.15778162,0.11322992,0.054357313,-0.10903971,-0.2087433,-0.26984313,0.09949036,-0.19160625,-0.033462033,0.0123574035,-0.15433407,0.24546184,-0.06393225,0.07189328,-0.075890735,-0.11889116,-0.19455308,-0.0023298573,0.106990576,-0.03116245,0.03417756,0.20942704,0.19920328,0.10241106,-0.19808568,0.076482534,0.09528794,0.1570475,0.16877985,-0.18854257,0.15836158,-0.19643633,0.055776864,-0.03258284,0.01987897,-0.12423918,0.077055216,0.14610684,0.015734475,0.049055845,0.044951145,-0.077902496,0.04094258
s1-AACTGCGATCGACTAA-1,0.092915036,0.0042813737,-0.19576839,-0.057585847,0.012709933,0.024551816,-0.1368552,0.061879735,-0.09386974,-0.016652854,-0.013323819,0.10633161,-0.19407672,0.11621733,-0.1324269,0.06732841,0.042511016,-0.20878878,-0.14847925,0.04152904,0.08233936,0.14487691,-0.24129735,-0.08869301,0.042959202,0.09589491,0.09404731,-0.32110342,0.09867657,-0.029472549,0.0023277393,0.06701877,-0.06313282,0.08880638,-0.028961705,0.08264211,0.16571403,0.27894235,0.16032223,-0.16815154,0.14878765,0.09385034,-0.18777314,-0.20026585,-0.17427573,0.0827727,-0.14329316,-0.08768381,0.07106547,0.052043546,0.16165689,-0.20641665,0.037217468,-0.011354139,-0.010541038,0.024122119,0.09411031,-0.23907341,-0.10291307,0.06782035,0.011664384,-0.109847985,0.083956696,0.041669298
s1-AACTGCGGTCCGAAGC-1,-0.02601271,0.25983337,0.15185061,-0.030959811,-0.22321627,0.08137963,0.14332487,0.075173415,-0.0064306185,-0.010764532,0.08468535,-0.09580191,0.1446087,0.08150206,0.045376327,-0.14881447,0.15579183,0.18056734,0.15270235,-0.23786722,0.075459406,-0.12547548,0.28617626,-0.024137672,-0.022010678,-0.1631951,-0.09697565,0.18181682,-0.17831427,-0.033332355,-0.024531381,0.11159896,0.12172528,-0.17456605,0.15020078,-0.06626055,0.04035121,-0.05906248,-0.053555656,0.16867653,-0.12184957,0.22903359,0.100304134,0.23465332,0.06619287,-0.16755311,0.07085368,0.060853012,0.016852433,0.14315897,-0.16993238,0.04477641,-0.05987483,-0.043668043,0.1083611,0.053077232,-0.10461767,-0.073878385,-0.0016798045,0.08066506,-0.076887555,0.13126028,0.012698759,-0.021025505
s1-AACTGCTACCTCGATA-1,0.025960833,-0.082028545,-0.16123277,-0.10807685,0.020359082,-0.006763633,-0.12686281,0.11211025,-0.07978338,0.08884744,-0.058363765,0.17665139,-0.0693081,-0.018729942,-0.013553011,0.0997972,-0.107721224,-0.082129546,-0.21153542,0.13570067,-0.071351826,0.16438851,-0.11625507,-0.044418406,0.10032159,0.24788646,0.16019434,-0.053242363,0.20623475,0.009931818,0.20548306,0.14702165,-0.10927227,0.16222315,-0.16621439,-0.04455423,-0.09460057,0.15231425,0.19301055,-0.055390228,0.1391199,0.085371435,-0.16336285,-0.3035129,-0.1207347,0.20852257,-0.15790053,-0.17701235,-0.09914171,0.085785784,0.12034516,-0.07945269,0.153915,0.03709198,-0.07044102,0.041288268,0.05919345,-0.1080464,0.026784748,0.112793736,0.08215503,0.024692826,0.13282646,0.05085123
s1-AACTTCAAGGATAATC-1,0.09832764,-0.1448484,-0.18418339,0.08999336,0.15116511,0.09311803,-0.102583714,-0.039478198,0.053680345,-0.0035590637,0.025355432,0.15428172,-0.058341347,0.0034310531,-0.026430065,0.02107047,-0.024360113,-0.24619015,-0.13870819,0.16062228,-0.080480464,0.26434854,-0.21483141,0.122250356,0.11058474,0.21939631,0.13698624,-0.20874977,0.15375502,0.05817096,0.032042097,0.11801354,-0.18098815,0.103015885,-0.11230853,0.06802391,0.027610041,0.13692348,0.031042548,-0.06358254,0.1326348,-0.12996483,-0.2039807,-0.12470123,-0.026182739,0.21511948,-0.050568502,-0.08548691,-0.14868751,-0.16784501,0.1591108,-0.16904098,0.13438961,-0.01652698,-0.10131537,-0.11238416,0.06079892,-0.07487948,-0.03498387,-0.052936137,0.08085696,-0.18311505,0.07977161,0.06847615
s1-AACTTCAGATACTACC-1,-0.029732862,-0.05819698,-0.099830136,0.050164714,0.17793103,-0.031134648,-0.059502322,-0.037554733,-0.031856265,-0.015168525,0.04753129,0.0836806,-0.022583485,0.0038062413,0.0051861373,0.085230775,-0.07381409,-0.25457445,-0.23498662,0.20594172,-0.09594353,0.27043813,-0.11840586,-0.058648758,0.04566982,0.2662099,0.02766203,-0.16076031,0.15623458,-0.07091821,0.18483046,0.14902675,-0.103895634,0.21062689,-0.13488393,-0.015473849,-0.07663308,0.16607858,0.09943453,-0.10649266,0.0556365,0.04198118,-0.14981134,-0.2713109,-0.04011794,0.17277369,0.015104973,-0.1623004,-0.07734261,-0.120056726,0.15302978,-0.14162238,0.15679586,0.11032753,-0.091205105,-0.00016206445,0.11811773,-0.11534284,-0.048729885,0.08630013,0.08213673,0.031617593,0.17884567,0.03623179
s1-AACTTCAGCATGGCCG-1,0.20915483,-0.06408703,-0.10326511,0.10020175,0.115030915,0.049748853,0.045922916,-0.08166598,0.052829664,-0.021156155,0.09216906,-0.07879036,0.08227546,0.08576785,0.0023917,0.052595936,0.20134045,-0.10068913,-0.075753674,0.13080423,-0.11997945,0.027197462,-0.10406745,-0.11598895,0.20346382,0.0065743276,0.06269714,-0.1670875,-0.06997254,0.06433816,0.10728338,0.058209863,-0.2201529,0.014158131,-0.1181125,0.049281254,-0.008142117,0.03747148,0.1216999,-0.17824452,0.041355338,-0.05936369,-0.017371498,-0.015651178,0.006576736,0.3630395,-0.34242842,-0.17517085,-0.07576801,-0.083600186,0.09707732,-0.23985508,0.03970309,-0.11889754,-0.10234168,-0.10335628,0.22304593,-0.0023278,-0.1115846,-0.07455043,0.02424432,-0.21078122,0.08929934,0.16118523
s1-AACTTCATCTTCTGGT-1,-0.014734582,0.12102451,0.1908369,-0.1888435,-0.13061896,0.06543969,-0.009606766,0.16177934,-0.024463708,0.13422935,-0.055703115,0.060690638,0.038916633,0.07621822,0.009364783,-0.117687084,0.010522106,0.19959496,0.20820098,-0.1363244,0.17500596,-0.2740562,0.050028127,0.054034136,-0.11334347,-0.1480789,-0.24606241,0.15952986,-0.16975218,0.01076412,0.066513784,0.09707446,0.1387157,-0.03260661,0.121384434,-0.052723676,0.036428723,-0.25776786,0.07004649,0.060789995,0.1542725,-0.057323545,0.07799496,0.15338352,-0.03152573,-0.21727274,0.06571801,0.17814273,0.056051638,0.0781992,-0.042289298,0.20842543,-0.1313382,0.14381634,0.058406744,0.09899428,-0.1655969,0.09564498,0.07209652,0.040389527,0.042890333,0.040904563,-0.0050338437,0.18570025
s1-AACTTCGCTTAGTCAG-1,-0.04268315,-0.21070583,-0.11581315,0.087996796,0.22532205,0.045066725,-0.09071794,-0.116526455,-0.02371712,0.031308405,0.031261995,0.07033191,-0.040941603,-0.088846914,0.011627352,0.15471639,-0.03337779,-0.20458436,-0.21460907,0.12553729,-0.17530078,0.19978915,-0.057678718,-0.051459596,0.11169817,0.24679863,0.088934526,-0.18147005,0.097470894,-0.014552944,0.1729581,0.1336684,-0.18264708,0.21650055,-0.10316554,0.027454846,-0.030932924,0.075632006,0.10305666,-0.16797858,0.06417584,-0.048143875,-0.123177245,-0.20452353,-0.011336256,0.2502425,-0.043061037,-0.19496115,-0.13830604,-0.12391676,0.14217612,-0.11943243,0.06653384,0.09302404,-0.10253587,0.00698163,0.17615524,0.041881125,-0.06533102,-0.041801516,0.08900039,-0.08441137,0.112327956,0.038912527
s1-AACTTGCAACTTGGAC-1,0.020305539,0.091491826,-0.036471255,0.017586222,0.15052044,-0.12261671,0.10416676,0.12389997,-0.015303403,0.043521605,-0.0481004,0.004973903,0.00083672325,-0.096144624,-0.14819324,0.1293368,0.037206486,0.065359704,0.17654368,0.036104344,0.0845888,-0.09970925,0.10687307,0.016728362,-0.14249298,-0.30262038,-0.17689005,0.14157116,-0.09150727,-0.19532268,-0.15877397,-0.023523206,0.31326607,-0.027759809,0.24691607,-0.014458586,-0.13583606,-0.23226653,0.014947298,-0.077048846,0.020705087,-0.053702027,0.20957449,-0.036051057,0.06068911,-0.19316179,-0.011440782,0.06098108,0.034974426,0.12966043,-0.04050443,0.14585797,-0.08266777,0.09239631,0.14538293,0.18154156,-0.054335963,0.027815336,0.27016136,0.14804485,-0.05205804,0.10083681,-0.12522422,0.035076465
s1-AACTTGGTTAATACTA-1,0.22273868,0.091513276,-0.09791576,-0.015863517,0.020082003,-0.032660067,-0.15256341,0.045048017,-0.06873264,0.0076923026,-0.08159992,-0.21073188,-0.15969047,0.14137802,-0.003554527,-0.22604068,0.08887738,0.10272274,-0.26411608,-0.109159544,0.23257369,-0.19654858,0.046289455,-0.068930075,0.013737922,-0.17522766,-0.05144563,-0.06964505,-0.108929515,0.09174217,0.090320274,-0.093403265,0.046908896,0.11693692,-0.09432204,-0.029024107,0.13327232,0.12124094,0.15744212,-0.08387951,0.06633435,0.16920799,-0.21102175,-0.18101658,0.003362011,-0.044206776,-0.1449875,-0.053413894,-0.027804928,0.05607584,0.06863871,-0.19750018,-0.11093947,-0.20137043,0.1241742,0.02806404,-0.029874353,-0.20483828,-0.23702708,-0.07003961,-0.08720922,0.047924995,-0.08620255,-0.116703354
s1-AACTTGGTTACATAAC-1,0.06747293,0.16941823,0.07415265,-0.029721739,-0.09275943,0.010401176,0.14637776,0.10387294,-0.04169195,-0.06770087,0.055577688,-0.19921973,0.20615377,0.14329119,0.07951185,0.09155417,0.15500575,0.22673701,0.1229347,-0.15831213,0.120527126,-0.21478173,0.104391046,-0.053733483,-0.049120184,-0.21455707,-0.08382829,0.22197877,-0.16412772,-0.059302278,0.037992205,0.06348452,0.2266102,-0.21545617,0.0634447,0.048037563,-0.15943772,-0.24397722,0.043609608,0.049212035,0.032397747,0.11194088,0.22794592,0.2025657,-0.0006039307,-0.11650414,-0.051932905,0.044229966,-0.009377508,0.054561373,-0.16354637,0.1505869,-0.096529394,0.027654467,0.080688775,0.057250086,-0.09083492,0.06386611,0.089812726,0.15899663,0.02956258,0.114996634,-0.06389087,0.08646352
s1-AAGAATTCTGGCTGCA-1,-0.018077996,-0.26828727,-0.08745061,-0.0054483046,0.22091593,0.17795065,-0.04363829,-0.27121246,0.044776276,0.058665078,0.08780635,0.11335931,-0.015450846,-0.040366974,0.08516909,0.039191913,-0.10927549,-0.13406509,-0.005239981,0.12598455,-0.19814804,0.061328806,0.01085003,0.17472513,0.08709385,0.13011594,0.19115692,-0.092845075,-0.0039915475,0.24094783,-0.016744714,0.121122904,-0.14270796,0.058241416,-0.1514893,0.028035153,0.010713352,-0.054060828,0.05659755,-0.1638875,0.016748281,-0.22055605,-0.0797808,-0.04602578,0.00035585125,0.22136562,0.0072072786,-0.09634366,-0.12185417,-0.14353961,0.19229338,0.003791972,0.092870034,0.020172251,-0.1939381,-0.04490227,0.06687843,0.11523337,-0.07252166,-0.3278717,0.058148164,-0.07212051,-0.09304815,-0.0067448393
s1-AAGACAATCTCCTGCA-1,-0.055271205,0.095879845,0.16937625,-0.014585535,0.07733379,0.0148321595,0.10918725,-0.12482114,0.026272286,-0.05708925,0.027720584,-0.04886294,0.10964951,-0.029612288,0.10355808,0.08854277,-0.017075453,0.26246005,0.22517656,-0.23030028,0.010044239,-0.28917044,0.093826644,0.10456435,-0.19831584,-0.20668246,-0.17928989,0.14419673,-0.03922445,0.099432044,-0.025904436,-0.011477489,0.28292176,-0.038722634,0.119702406,0.05599713,-0.16967738,-0.32124743,0.0029338193,0.027057223,0.07042475,-0.076877624,0.21554272,0.083226554,0.040617038,-0.111166835,0.074169,0.009979491,0.041725684,-0.012680782,-0.023466699,0.1343429,-0.043465313,0.03909937,0.021103043,0.1559593,-0.13857238,0.09066332,0.0031761199,-0.11301623,0.038394198,0.2296756,-0.061972287,-0.020705462
s1-AAGACTAAGGAGATCC-1,-0.019668654,-0.17178252,-0.08858282,-0.09668171,0.1546618,0.13410231,-0.054156084,-0.29769155,-0.042124137,-0.016530836,0.07595395,-0.19570506,0.01003273,-0.09145265,0.1748686,0.06383388,-0.14861205,-0.022462143,-0.07293146,0.10930546,-0.20558865,-0.13282701,0.039387,0.041607987,0.13915403,0.015170616,0.22966373,0.06724162,0.032966055,0.11133476,-0.072644524,-0.046005126,-0.13162656,-0.0043056924,-0.08210726,0.015574618,-0.19035229,-0.08109096,-0.043691743,-0.17105275,-0.12219109,-0.10016467,0.030830925,-0.06668087,0.09366166,0.12554385,-0.0034247718,-0.2372475,-0.15787525,-0.086949386,0.15536942,0.024859129,0.10433042,-0.051157806,-0.113297865,0.09381718,0.088765465,0.22070578,-0.11323139,-0.29601458,-0.004845505,0.0814599,-0.21978012,-0.12470822
s1-AAGACTCAAGGCTCCA-1,0.14481468,0.23108532,0.009980448,-0.10912011,-0.09657396,-0.13333291,0.043423843,0.1113581,-0.008501872,-0.030595027,-0.09793276,-0.008928238,0.07436547,0.1556045,-0.115738995,0.15214768,0.061565675,0.040450267,-0.08385829,-0.010217327,0.16575027,0.01975464,-0.074608624,-0.10442548,-0.06083667,0.03370674,-0.33325586,0.15336682,0.00095367944,-0.00086786394,0.24069318,0.17822641,0.23860998,-0.032722097,0.009455809,0.00892212,-0.1285127,-0.010718242,0.16668412,0.025186481,0.08039386,0.1975726,-0.013842099,-0.007230485,-0.17659588,-0.14083333,0.045680277,0.061027016,0.09850145,0.114402264,-0.13590494,0.111291185,-0.024282511,0.022967318,-0.10722823,0.003497982,-0.17086163,-0.18766576,0.10947119,0.31681272,0.08692135,0.14534514,0.16711412,0.06169065
s1-AAGACTGTCATAGTGC-1,-0.09709853,0.12859343,0.06907265,-0.070235625,-0.1824598,-0.1259209,0.120666064,0.16363572,0.08408108,0.05958658,-0.07670912,-0.057145655,-0.091698855,-0.055306,0.08436881,-0.027636316,-0.09387964,0.06887963,0.06613872,-0.07542032,0.07883151,-0.08354598,0.2208261,-0.08212414,-0.12421502,-0.27464795,-0.14433505,0.20774604,-0.13345647,-0.11324553,-0.04976195,-0.10486455,0.11946617,-0.010165735,0.08387192,-0.22682269,-0.16247405,-0.18387032,0.008449778,0.010190886,-0.047991592,0.10828898,0.17538561,0.038625143,0.06017516,-0.16161394,0.073567495,0.0937629,0.07852719,0.15731402,-0.06615667,0.2202583,-0.025065815,0.14968874,0.07648125,0.25025266,-0.08485046,0.09723308,0.15884586,0.08083673,-0.042825136,0.15633392,-0.2632338,0.026016561
s1-AAGAGCAGATGTGCCA-1,-0.069912575,0.13643876,0.1485905,-0.011698459,-0.22305806,-0.06755375,0.12772307,0.2504405,-0.030740144,-0.024414746,0.0675323,-0.12239836,0.15707177,0.0061152535,0.05566046,0.01844242,0.05960765,0.22044013,0.14976415,-0.1186052,0.15705658,-0.09554373,0.12498586,-0.04250493,-0.07786108,-0.27618068,-0.1746463,0.2024765,-0.1112534,-0.14475378,-0.0008411101,-0.09500324,0.19843067,-0.122538984,0.07943046,-0.06520961,-0.22859707,-0.14893858,-0.051356323,0.12334555,-0.041141275,0.12888314,0.18974939,0.1639265,0.007757378,-0.09957662,0.05545579,0.0707099,0.10883252,0.112694055,-0.17335786,0.17490786,-0.09557083,0.023187146,0.07488405,0.06331065,-0.09825648,0.02469963,0.13805552,0.17306848,0.0039015112,0.119393386,-0.030799085,0.013842912
s1-AAGATACAGGCGAACG-1,0.09367031,0.026820676,-0.17191389,-0.0377503,0.001920621,-0.0734048,-0.07338305,0.082880065,-0.08234167,0.014866616,-0.027142271,0.005802334,-0.14768192,0.05686658,-0.14207204,0.17457825,0.1609696,-0.15987146,-0.15054828,0.12041493,0.040919423,0.12743609,-0.24618672,-0.13416195,0.029849477,0.04715672,0.08622581,-0.21573249,0.13808881,0.0066213463,0.024559565,-0.005980543,-0.06773625,0.048213035,0.018395698,0.02775227,0.11588499,0.24122195,0.23188524,-0.09217733,0.1482812,0.04431541,-0.16762155,-0.17959386,-0.19684061,0.15410139,-0.3054629,-0.017659241,0.10582541,0.048691485,0.11427271,-0.1817544,0.07957564,-0.075869165,-0.035493147,-0.052411545,0.08537717,-0.15771891,-0.0770354,0.05113213,0.009096288,-0.1465749,0.23400968,0.14589679
s1-AAGATAGGCTTGCTTA-1,-0.054077502,-0.18890177,-0.1264763,0.012560026,0.1516465,0.076305136,-0.19169837,-0.091911815,-0.030995585,-0.04582089,0.0757215,-0.034090612,-0.080345325,-0.08344281,0.20832342,0.09894567,-0.17826821,-0.14350227,-0.3029165,0.18185866,-0.12589432,0.035477944,-0.044580277,0.00949384,0.043480337,0.16793424,0.09361119,-0.027877366,0.1027266,0.012828159,0.15482324,0.037831813,-0.09852641,0.10685617,-0.24608327,0.02218611,-0.025161235,0.054700173,0.20227173,-0.107273355,0.078979634,-0.16965419,-0.09214678,-0.1831562,-0.14970689,0.3106161,-0.1139621,-0.18014455,-0.010920334,-0.0956182,0.047258474,0.060327973,0.18074133,0.12941995,-0.11472011,-0.030667387,0.23117273,-0.013376819,-0.071679145,-0.012062911,-0.030719563,0.06452787,-0.0056367,0.014508006
s1-AAGATATTGGACGTCC-1,-0.0028863195,-0.06191427,-0.124074854,0.06968311,0.1320591,0.058121413,0.06259995,-0.11045189,0.075336084,-0.0013226104,0.15252595,-0.1751507,0.0008828269,-0.0342417,0.18280362,0.11768747,0.091315255,-0.16946027,-0.1917896,0.12509297,-0.18503588,0.09931609,-0.05631118,-0.04329922,0.16972329,0.08251912,0.10094416,-0.13053529,0.045933712,-0.08318846,0.14634264,0.05552884,-0.20348135,0.086302914,-0.17401364,-0.023346942,-0.11582097,-0.0037657358,0.02556976,-0.20850603,-0.05945484,0.014647283,-0.06262417,-0.140715,0.0019605758,0.36185634,-0.17197765,-0.25497273,-0.11144528,-0.10162795,0.120720915,-0.08472334,0.14083269,-0.010750985,-0.09347307,-0.008168131,0.24409276,0.048540983,-0.23553991,-0.087187245,0.025863834,0.039521534,0.031564493,0.06453864
s1-AAGATCTGTAACTTGT-1,0.032212466,-0.1926949,-0.14341453,-0.0076407,0.14699194,0.09753064,-0.117567234,0.012246584,0.0074215913,-0.0011113194,0.01641595,0.13498184,-0.01709907,-0.045097847,0.0020795923,0.0039985124,-0.013881399,-0.2573431,-0.13403817,0.10106395,-0.15497972,0.2062708,-0.12198476,0.022420319,0.09857476,0.2336116,0.15794575,-0.21231572,0.11253993,0.04707333,0.050852876,0.058705594,-0.18218939,0.13630429,-0.13460565,-0.02795195,0.010880176,0.10524123,0.10287492,-0.070608325,0.029915499,-0.05866712,-0.138712,-0.2488158,-0.027395327,0.2537908,-0.112753764,-0.17945111,-0.051125932,-0.11397352,0.21632373,-0.21963315,0.18489535,-0.028880032,-0.08057743,0.00040954913,0.16534397,-0.13638417,-0.14576496,-0.03417905,-0.067419805,-0.117319465,0.10709667,-0.012666308
s1-AAGATGAAGGTCATCG-1,0.177493,-0.00011401413,-0.18903439,0.082682565,-0.16936879,-0.0024338714,-0.08459164,0.16637883,0.024383651,-0.06911404,-0.04089137,-0.027363311,-0.15872586,0.032171536,-0.071957275,0.0084422855,0.07423465,-0.15181042,-0.1623278,0.019707354,0.052844055,0.115486644,-0.19847982,-0.11358036,0.12696123,-0.06912658,0.045499656,-0.09331708,0.08808712,-0.044244878,0.0023914129,-0.0108827315,-0.12625886,0.06686462,-0.014031691,0.041816052,0.18469954,0.2347776,0.116526335,-0.026505945,0.14512324,0.03479182,-0.15167183,-0.121670015,-0.20796195,0.19244526,-0.3395092,-0.1259866,0.062122684,-0.031936776,-0.018799549,-0.16092311,0.05805897,-0.12954448,0.0020219428,-0.04642711,0.18308961,-0.22452897,-0.033030882,0.19972716,0.022707595,-0.2437371,0.13765918,0.057295874
s1-AAGATGGCCGCTAGTT-1,0.0057669585,-0.15290768,-0.0739223,0.033721127,0.17629366,0.08484666,-0.14809863,-0.10873894,-0.026280088,-0.202941,-0.06491047,0.040229052,-0.16700856,-0.10955173,-0.1169155,-0.06513897,-0.052813455,0.014162003,0.008766431,0.10636676,-0.082421176,0.040424943,-0.22087859,-0.005819077,0.052999977,0.11174658,0.28419057,-0.16806471,0.16324526,0.07735976,-0.21126644,-0.08871776,-0.13880914,-0.077605605,0.08819973,0.22569783,0.15215123,0.12611546,-0.113743395,0.001915458,-0.05342106,-0.20509166,-0.11938558,0.003599663,-0.027899293,0.10829856,-0.08445655,0.08652735,-0.12348798,-0.21605292,0.12871267,-0.22235267,0.11570479,-0.15637174,0.12622154,-0.13180214,0.056792956,-0.0965136,-0.067737386,-0.18321101,-0.08878508,-0.14127909,0.019144505,-0.10518594
s1-AAGATTAGGCTGTCTA-1,0.24657635,-0.113371745,-0.12388978,0.15198673,-0.09750727,0.16451865,-0.1580804,0.009384641,-0.028817417,-0.07135385,-0.1449158,-0.15557063,-0.071205944,-0.035001934,0.104630835,-0.3113754,-0.009841198,0.040635444,-0.06758744,-0.15988676,0.11916009,-0.19096248,0.018551096,0.08183442,0.09804709,-0.18011723,0.038251836,-0.015699891,-0.0492189,0.07341187,-0.057363328,-0.23049565,-0.08040396,0.045503024,-0.09393355,0.024200112,0.11140218,0.09552734,-0.01342475,0.28471717,-0.04875871,-0.14911413,0.07981809,0.09041231,0.08734632,-0.055786088,-0.23676385,-0.1508042,0.029038362,-0.03633007,-0.11209492,-0.14364402,-0.06507176,-0.29194713,0.022206623,-0.024610741,0.030639784,-0.09530813,-0.15995224,-0.006312151,-0.10449822,-0.14798003,-0.0890362,-0.107697025
s1-AAGATTATCTAGCATA-1,0.014108848,0.022776397,-0.032493208,-0.013054415,-0.027906153,-0.1902407,0.04667456,0.11221778,-0.03404142,0.20941196,-0.22835092,0.29016405,-0.010083755,0.13389805,-0.07471826,0.113795206,-0.00020583456,-0.11115472,-0.10900145,-0.014800002,0.0715336,0.26360944,-0.088380694,-0.025429066,-0.118795685,0.1762216,-0.06743258,-0.014358498,0.14070107,-0.046092074,0.26278847,0.044401124,-0.083698146,0.13226691,-0.17030846,-0.03748121,-0.15146099,0.049237683,0.13227089,-0.09856869,0.14416721,0.15090476,-0.109482825,-0.049343497,-0.0748195,-0.12691478,0.15612753,0.0838087,-0.047742113,0.057961278,-0.08582692,0.099143155,-0.13850917,0.19234842,-0.19389504,-0.07814515,-0.11669908,0.10338388,0.1650585,0.13784476,0.2006085,-0.0023495024,-0.06288894,0.14820583
s1-AAGCAGCGGACACGTG-1,-0.093047455,-0.10230478,-0.051493175,-0.10233605,-0.044055317,0.002778566,-0.15645021,0.21414755,-0.17456765,0.11696565,0.011962199,0.2081097,-0.093396924,0.0072761076,0.026638852,-0.011628835,-0.13228932,-0.12513626,-0.20912354,0.21491124,0.018319156,0.16392067,-0.12628473,-0.09041443,0.008209379,0.20267709,0.026854094,0.05197451,0.20807351,-0.10808168,0.1980026,0.14308725,-0.07577577,0.1650368,-0.19289044,-0.02114335,-0.013256511,0.14159228,0.13718402,-0.114093974,0.14296474,0.09795463,-0.1479559,-0.23857209,-0.18126349,0.10473123,0.0064702244,0.051722385,-0.05702366,0.015869493,0.02459232,0.09682566,0.04888017,0.18501753,0.08093009,-0.06741015,0.08210998,-0.033113748,-0.011787172,0.25790647,0.020271413,0.09444541,0.18628073,0.0825128
s1-AAGCAGTATCAGAATC-1,-0.03961194,0.1570364,0.13784702,-0.004103404,-0.15959112,-0.08995626,0.20326161,0.16418774,0.07669676,0.1005784,0.058744267,0.084496714,0.26259235,0.048198387,0.0752434,0.040078875,0.007830336,0.14998801,0.18016101,-0.17244795,0.008532762,-0.055490345,0.041312486,0.09044872,-0.1996813,-0.105255835,-0.08103857,0.13093075,-0.012303188,-0.07377655,-0.022579856,-0.15602878,0.28653193,-0.03540836,0.005255839,-0.118316814,-0.212593,-0.16922145,-0.11646377,0.16273305,-0.017079592,0.08941189,0.24394645,0.10363277,0.085830435,-0.27811354,0.15632759,0.17377463,0.14653935,0.07702311,-0.04602568,0.12380929,-0.08956237,0.10177462,0.04153062,0.0047231154,-0.11783884,0.06262801,0.12116043,0.07911308,-0.04439509,0.091287024,-0.0111443475,0.03973508
s1-AAGCAGTGAGTGCGAC-1,-0.0027894715,-0.13623708,-0.09786234,0.051349435,0.17397088,0.16762099,-0.07485257,-0.33357844,0.07728253,0.04270407,0.055334006,0.058213744,0.09534562,0.016610397,0.024411371,-0.029789127,-0.036271144,-0.15721714,0.006392364,0.051170472,-0.2687013,0.054353077,0.11481619,0.1280248,0.06965033,0.16029182,0.19852732,-0.070619226,0.075203925,0.20367539,-0.045014627,0.12462015,-0.11455019,0.1360586,-0.10867865,-0.029984143,0.009679801,-0.003232423,-0.102563314,-0.10604063,-0.044176478,-0.08383337,-0.021853762,-0.07301278,0.08386226,0.10803983,0.18333521,-0.14581451,-0.12589493,-0.09592544,0.22542036,-0.048543364,0.08528916,-0.118066795,-0.19479366,-0.008036132,-0.004954645,0.15104444,-0.2096773,-0.34827197,-0.0065132948,0.02960323,-0.09860523,-0.07111617
s1-AAGCAGTGGCATCACT-1,0.07491574,-0.099280246,-0.11412033,0.06418355,0.09393073,0.031690896,0.01703636,0.035043452,0.049729083,0.0036744813,0.09622743,-0.15968275,0.0238825,-0.06680833,0.199033,0.22515649,0.08760121,-0.11624527,-0.18416576,0.1053679,-0.07872631,0.03009534,-0.13883987,-0.068415865,0.13705967,0.056512777,-0.030310359,-0.08581506,0.04947684,-0.036219217,0.3207335,0.12943386,-0.20281413,-0.002905214,-0.19447891,-0.0020606902,-0.22740215,-0.012282047,0.048651602,-0.12702493,-0.028331434,0.057099428,-0.080195405,-0.002854646,-0.1261816,0.3289846,-0.2294533,-0.08549992,-0.15805173,-0.10679382,0.03746689,-0.021038944,0.057998694,-0.009089,-0.097055376,-0.055968516,0.11105109,0.021381786,-0.23105383,0.059362914,0.14122668,0.10727236,0.20423135,0.17748947
s1-AAGCAGTGGCTCATCC-1,-0.005789048,0.23391004,0.180577,-0.013579293,-0.12968235,-0.08741083,0.18037666,0.026635848,-0.031498566,-0.025803167,0.042191003,-0.17529272,0.16462453,0.112978,0.10102583,0.013499871,0.15228927,0.22849783,0.1611713,-0.19789791,0.11243659,-0.21573848,0.12689877,-0.034897897,-0.09303595,-0.21938774,-0.19454949,0.19783442,-0.1506918,-0.053026322,0.07972972,-0.010469651,0.20520118,-0.16149437,0.06846261,0.007157115,-0.11820752,-0.13495946,0.0030380264,0.11759304,-0.023812937,0.14014484,0.17941289,0.18553491,0.038786918,-0.14291766,-0.03279708,0.0242766,0.07741317,0.12064685,-0.21711305,0.09931468,-0.12437652,0.0006467454,0.041800994,0.037334,-0.0897637,-0.0063595716,0.03841857,0.09021125,0.056438636,0.19672653,-0.021949317,0.0438219
s1-AAGCAGTGTAGAATCT-1,0.1103192,0.07515122,0.030484317,-0.017160516,-0.013051556,-0.16768068,-0.063653685,0.11798916,-0.027875768,-0.033802222,-0.1381512,0.14125137,-0.032281995,0.09484781,-0.09630196,0.14047919,-0.038535155,-0.036153052,-0.16726977,0.11128502,0.1329865,0.16878623,-0.1691694,-0.08390489,-0.048513416,0.1972726,-0.29883826,-0.069654174,0.07480493,0.045322903,0.29907584,0.14833735,-0.0261783,0.11464805,-0.1992986,-0.004038303,-0.07162424,0.13230297,0.12701923,0.022848677,0.06671182,0.21257241,-0.09368356,-0.14889409,-0.1251731,-0.013733376,0.051324844,0.054233003,0.08843217,0.035405308,-0.039538864,-0.04091283,-0.092775024,0.058047414,-0.08672866,-0.010567233,-0.14492375,-0.13331783,0.13862088,0.34755194,0.1457673,0.017275807,0.21894735,0.0108356895
s1-AAGCATCAAGCGTGAT-1,-0.118294604,-0.078643136,-0.013785584,-0.045133915,0.057398822,0.07219302,-0.042515684,-0.04749643,-0.12200994,-0.06954681,0.055199478,-0.2811306,0.021171274,-0.08898695,0.15191887,0.07437881,-0.041992787,0.14571565,0.07479954,-0.04680982,0.049605705,-0.22313058,0.16344291,-0.023962477,-0.0052650124,-0.25650406,-0.008041599,0.2739604,-0.033925597,-0.095342696,-0.10526392,-0.016075347,0.16360044,-0.13588679,0.011751613,0.052879367,-0.16648097,-0.25401673,0.022056736,-0.09536004,-0.12150773,0.004476369,0.22431518,0.012358683,0.03284895,-0.10325023,0.020898987,-0.029929021,0.0006630475,-0.01312933,-0.12108489,0.30727997,-0.071148455,0.07699437,0.11660044,0.19421886,0.001999751,0.18409544,0.006023814,0.0211201,-0.045701843,0.25056544,-0.16710626,-0.16234154
s1-AAGCATTGAGTGGTTG-1,0.036461208,0.07029614,0.05266912,-0.022134382,-0.11814156,-0.014569232,0.16994925,0.1196543,0.0837297,0.005210646,0.029288689,0.002117548,0.1462054,0.09214665,0.047064427,0.14815217,-0.01650594,0.20324041,0.078015596,-0.27703127,0.19578889,-0.09204029,0.018806566,0.05768898,-0.10138621,-0.060396012,-0.11365794,0.028555788,-0.110581934,0.047681227,-0.07196726,-0.14882647,0.30916902,-0.13199085,0.042093724,-0.06834114,-0.1507118,-0.29291394,0.11309234,0.044495273,0.09529883,0.047540627,0.21327752,0.14154351,0.044947535,-0.21698983,0.115843266,0.14158896,0.131702,0.11455166,-0.11909984,0.1784613,-0.060455084,0.12124373,0.06893296,0.117927186,-0.17382424,0.10535115,0.18350112,0.18506019,0.0049963873,-0.0045646927,-0.037281357,-0.020589285
s1-AAGCCACCATTCAAGA-1,0.043657295,0.24841614,0.03272093,-0.049406692,-0.17537399,0.10061987,0.23087658,-0.092728786,-0.0047882097,-0.079459906,0.24539627,-0.24855183,0.14876394,0.07799441,0.15743993,0.041526224,0.00036029718,0.16390626,0.031983916,-0.0240963,-0.03523313,-0.23047093,0.2840069,-0.078276716,0.005119398,-0.13911507,-0.02082797,0.08399079,-0.15029809,0.06901463,-0.019888561,0.1574883,-0.046633955,-0.19414878,0.07047967,-0.032996867,-0.10070973,-0.13673659,-0.052343596,-0.1334574,-0.15437393,0.18319239,0.16187932,0.23849937,0.04214479,0.12381377,-0.019510524,0.018047366,-0.07457922,0.08002035,-0.017883211,0.14456761,0.08136922,-0.06862051,0.07240999,0.13742706,0.014975938,0.11330584,-0.113851264,-0.060063496,-0.07922556,0.17667341,-0.09221309,0.0110489605
s1-AAGCCACTATGTCTAA-1,-0.04784075,0.24030446,0.07664408,-0.06950037,-0.25781307,-0.24380426,0.08146597,0.069729134,0.08424953,0.03795867,0.040259764,-0.11527747,0.056931637,0.18183805,-0.008589502,0.04346506,-0.025320364,-0.0063678846,-0.16287048,0.12388578,0.018023564,0.03590422,0.0791013,-0.31027696,-0.020575369,0.07491068,-0.093701735,0.11060274,0.073637046,-0.13657536,0.17094672,0.05457184,0.006986686,0.12978382,-0.053292975,-0.2431219,-0.13371444,-0.011440886,0.0124970805,-0.18971209,-0.012823859,0.3602514,0.0537782,-0.07849902,-0.113719836,0.09003872,0.08581077,0.014480107,0.09757574,0.18963253,-0.014787974,0.13951536,0.05094273,0.0118900845,-0.06584258,0.09659257,0.04727233,0.020197863,0.017911779,0.21536116,-0.047471054,0.25120795,0.012516321,0.055462845
s1-AAGCCAGATATCAGAA-1,0.050701674,0.022649305,0.06444721,0.0675219,0.10702648,0.0040802755,-0.037834346,-0.11277477,0.007047476,-0.18679668,-0.11979263,-0.056633167,-0.021805555,-0.1109786,-0.17449231,-0.075504,0.050743278,0.17479427,0.21466206,-0.021273686,-0.011781671,-0.10905666,-0.10376925,-0.019232992,0.0011171924,-0.061262175,0.10992127,-0.10926022,-0.019318331,0.086207815,-0.18118711,-0.20058058,-0.034218054,-0.16548295,0.19093253,0.2332202,0.14557213,0.12054934,-0.21597314,0.12847428,-0.11531338,-0.19367315,-0.016747048,0.20071146,0.123910286,-0.08123393,-0.03815354,0.2209453,-0.02682282,-0.11201307,2.3583996e-05,-0.21332109,-0.062783405,-0.19422445,0.14787844,-0.192835,-0.07277167,-0.0068211965,0.023149988,-0.25320828,-0.058705546,-0.16941741,0.00621383,-0.07827763
s1-AAGCCAGATCCAACAT-1,-0.0124216555,-0.19682775,-0.14792773,0.049875364,0.19634621,0.093419276,-0.090970576,-0.06646025,0.026435908,0.027780093,0.06672681,0.09881269,-0.08923968,-0.07769082,0.07794379,0.039298005,-0.05248921,-0.2845996,-0.13294174,0.12561022,-0.14181884,0.14912459,-0.13296777,0.06507045,0.0991597,0.18781923,0.116743185,-0.19032581,0.07574669,0.052242342,0.09667933,0.10363343,-0.20675868,0.15090054,-0.14274813,-0.0175841,0.03718174,0.10153869,0.0423858,-0.10643378,0.07106205,-0.101217434,-0.17098452,-0.1985096,-0.01812072,0.30137312,-0.115984105,-0.16633652,-0.0656843,-0.17639978,0.19296348,-0.1276774,0.15288042,-0.012390051,-0.11623967,-0.013525957,0.16445632,-0.029295664,-0.15021892,-0.100668624,0.03694624,-0.09429777,0.055772685,0.08413193
s1-AAGCCAGGCCGACGTG-1,-0.033237673,-0.22201516,-0.064839296,0.042590525,0.21784006,0.11579938,-0.03144066,-0.1637789,0.035511173,0.16193867,0.008623389,0.24902363,-0.12847427,-0.06925601,-0.04506372,0.01205442,-0.079159334,-0.22174521,5.6902254e-06,0.08911605,-0.13976458,0.1567474,0.12853219,0.12214016,-0.025921673,0.13238053,0.192793,-0.19938962,0.031487737,0.13695313,-0.03313055,0.16310251,-0.2235463,0.17819242,-0.043100778,-0.09194537,0.16186677,0.011158185,-0.050052326,-0.1943292,0.031493958,-0.111988336,-0.16539496,-0.08256717,0.052522257,0.062837444,0.14704771,-0.02852242,-0.14363028,-0.10804875,0.22145832,-0.04052286,0.049103413,0.047112107,-0.12102858,-0.005225275,0.029582461,0.1791686,-0.0863341,-0.26280284,0.0051414627,-0.11188273,-0.02330986,0.002984117
s1-AAGCCAGGCTGCTTGA-1,0.1270431,-0.05895512,-0.027545527,-0.0059001097,0.18121165,0.2332342,-0.029079046,-0.18523133,0.15831345,-0.06717345,0.11987143,0.058630273,0.05884353,0.0056411945,-0.013814558,-0.09475695,-0.039686393,0.0557076,-0.10798632,0.08317289,-0.24589717,-0.03661749,-0.07489641,-0.024014352,0.09246166,0.13771223,0.1319707,-0.090411246,-0.03535433,0.06373698,-0.10952562,0.089013234,-0.16839944,0.030125367,0.04251152,0.050216343,0.10084593,-0.09361969,0.015290947,-0.20472853,-0.033935037,-0.2249746,-0.03476476,0.064127184,-0.055067018,0.18574402,-0.09593687,-0.095251225,-0.22748047,-0.21049114,0.27507418,-0.19968696,0.14480667,0.041275565,-0.024563866,-0.08827889,0.2524255,0.047106553,-0.07908655,-0.15427993,-0.12753808,-0.21538264,0.0070274323,0.13649419
s1-AAGCCAGGTTACGAAC-1,0.013403878,0.11879551,0.07400486,-0.084327586,-0.0035941016,0.0061613885,0.0098199835,-0.07987621,-0.043909933,-0.0713071,0.08774904,-0.23057728,0.09695281,0.13806939,0.18910411,0.07933782,0.0695366,0.14106664,0.036948055,-0.033352427,-0.04402193,-0.3515714,0.0724566,-0.07747127,-0.06994168,-0.17096041,-0.16233332,0.27234164,-0.09907463,-0.023889342,0.054117188,0.12065504,0.20971535,-0.18844771,0.02314304,0.07805464,-0.115962036,-0.24198297,0.00055290514,-0.00809324,0.040093582,-0.022240847,0.24825615,0.19208714,-0.004776604,-0.11012514,0.038253907,0.0888154,-0.038340997,0.025638198,-0.11803547,0.21647109,-0.06627322,0.09325379,0.043063566,0.057611912,-0.050663926,0.13607025,-0.09660932,0.0058996533,0.023201272,0.25974056,-0.14223589,0.14658943
s1-AAGCCATCCGTGCTAT-1,-0.17752486,-0.2030441,-0.031365547,0.01673502,0.15167579,0.23324382,-0.16114308,-0.26203927,0.083710484,-0.02296561,0.04306454,-0.037911262,0.032217607,-0.18594316,0.023012262,0.035651583,-0.15800706,0.042169064,-0.012773886,-0.005699248,-0.22563873,-0.003057652,0.13818456,0.12071637,0.111534186,0.09770839,0.11749519,0.036262322,0.014397123,0.09394452,-0.027568884,0.2180901,-0.014841542,0.15958494,-0.0039150105,0.010374924,-0.018666632,-0.14626086,-0.09028584,-0.0043494375,-0.06436464,-0.1085155,0.008300359,-0.020703979,-0.018152755,0.020901315,0.22965264,-0.123646215,-0.080136925,-0.15723078,0.246581,0.14999989,-0.00045530833,0.022938875,-0.201155,0.123538725,-0.022479212,0.07864814,-0.098468244,-0.38794926,0.014114787,0.10406228,-0.04596079,-0.08977426
s1-AAGCCATCGCGATATG-1,-0.07554589,0.13897187,0.1366046,0.0072036507,-0.20656952,-0.11673587,0.14400199,0.06501352,-0.05024973,0.048091624,0.057453092,-0.1215579,0.18870276,0.1902116,0.046959125,0.03733666,0.12372649,0.26102275,0.12772073,-0.2142274,0.0860787,-0.15930595,0.09596131,-0.069996245,-0.051850993,-0.0735384,0.016405407,0.13080406,-0.06278443,-0.054063022,-0.0501741,-0.042302858,0.2150956,-0.12498939,0.08463695,-0.05052926,-0.069175586,-0.20285873,-0.04598266,0.12244918,-0.055624068,0.2239417,0.28052318,0.17154412,0.07821391,-0.18510492,0.055899583,0.06364246,0.08472509,0.14995393,-0.16810793,0.1341135,-0.16235405,0.03095526,0.12194423,0.11688355,-0.10690788,0.066532046,0.09869077,0.14470008,0.070579395,0.12679197,-0.06088611,-0.029694747
s1-AAGCCATTATCGAAGG-1,0.14550921,-0.055819277,-0.0880937,0.09344492,0.060501836,-0.006473928,0.14211483,-0.04896119,0.04697578,-0.024327176,0.123035,-0.17040229,0.05454702,0.07089786,0.119059406,0.15190315,0.20307976,-0.09955295,-0.16241676,0.08417115,-0.1155032,-0.0041886093,-0.05857901,-0.15879394,0.15376695,-0.009208685,-0.00725676,-0.12126178,-0.09583082,-0.01111982,0.23047017,0.06677819,-0.16365945,-0.011233682,-0.16346356,0.019935582,-0.09456112,-0.0077431654,0.11483017,-0.17622012,0.005317817,0.010000855,0.020113995,0.006852015,-0.07403015,0.35391212,-0.3434763,-0.16703622,-0.06349277,-0.058624897,0.011902995,-0.11254228,0.044150777,-0.07075229,-0.11793683,-0.08470459,0.25504774,0.0049739727,-0.23408234,-0.0182888,0.035417598,-0.04138781,0.095534116,0.208888
s1-AAGCCATTATCTGCCA-1,-0.075410485,-0.23242092,-0.06861886,0.0025070158,0.1676154,0.14591192,-0.108444564,-0.1689279,-0.0400724,0.051732026,0.12947206,0.14427958,-0.069847874,-0.06270137,0.090510756,-0.03472199,-0.11934771,-0.13694988,-0.076462425,0.18214142,-0.22092173,0.056920595,0.0028578017,0.14496922,0.013539623,0.16770351,0.28886896,-0.11421425,0.12922293,0.16621971,-0.08314792,0.06021272,-0.1410682,0.14269365,-0.09966929,-0.024762394,0.022285013,0.009508184,-0.04587466,-0.065414585,0.03838363,-0.17970978,-0.0889119,-0.1189298,0.0744465,0.266979,0.030533459,-0.103704154,-0.14646886,-0.1245239,0.22072165,-0.107342824,0.15508835,-0.029435398,-0.07457407,-0.045204096,0.080125906,0.12792662,-0.08906944,-0.2732777,-0.018696534,-0.11337318,-0.10306908,0.0040950705
s1-AAGCGAGGAAGTGAAC-1,0.14011087,0.20267111,0.111318626,-0.06375395,-0.22997658,-0.070934184,0.04920285,0.2250109,0.051771697,-0.07276883,-0.06445904,-0.03938504,0.029059887,0.12011603,-0.05840278,-0.010815702,0.1062616,0.11271036,-0.18557063,-0.11230798,0.1540671,0.10802973,0.0054856683,-0.13771407,0.0020007696,-0.051259577,-0.27034956,0.09690227,-0.026652288,-0.07955799,0.16109245,0.10362726,0.012889398,-0.012566357,-0.061863687,-0.04549534,-0.014020882,0.075620055,0.24034132,0.07624435,0.044661935,0.24674797,-0.07574967,-0.05158334,-0.19240823,0.00871573,-0.13256621,-0.08587684,0.0593332,0.11408104,-0.15254556,-0.088368356,-0.027887043,0.04127412,-0.09384204,-0.02309145,0.0014964497,-0.24503465,0.05825384,0.35165945,-0.029774768,-0.038356427,0.24812104,0.07484004
s1-AAGCGTTCGTCTGTCC-1,0.15649313,0.042506617,0.062517256,-0.053264707,0.032333396,-0.15479046,-0.12122126,0.12503928,0.054513946,-0.08400419,-0.20879608,0.1606895,-0.057446603,0.04395693,-0.087396935,0.1317945,-0.02635673,-0.09259394,-0.13173482,0.13222532,0.085752316,0.15591058,-0.11540407,-0.037398864,-0.037790846,0.14925598,-0.30142516,-0.070212334,0.020884153,0.07257613,0.23010412,0.16490977,-0.094956964,0.033332452,-0.2312403,0.0009206196,-0.14850478,0.08714243,0.14441814,0.12052356,0.06385051,0.20453264,-0.0417092,-0.16544189,-0.07703523,-0.019050427,0.0078228675,0.10320897,0.052001648,0.030800892,-0.019885574,-0.14797154,-0.12362101,0.07071234,-0.10341099,0.10996196,-0.23136184,-0.10826523,0.2165611,0.30001917,0.025057973,-0.05629297,0.100307494,0.020517142
s1-AAGGACATAACCGCAC-1,0.037545394,-0.13513115,-0.17150772,0.014938747,0.07334436,0.019854607,-0.10291334,-0.014275778,-0.053919587,0.007402189,-0.034538247,0.1297774,-0.19982725,-0.028563036,-0.11867317,0.01630275,0.041684687,-0.21597594,-0.119003735,0.1520459,-0.033492956,0.17794196,-0.19270307,-0.02053797,0.08825922,0.14077345,0.22221266,-0.30654025,0.17313848,0.050368395,-0.011432354,0.0017659402,-0.21570855,0.08703821,-0.02531283,0.08349696,0.1656979,0.27185315,-0.006189296,-0.10297811,0.09247766,-0.083515145,-0.22724833,-0.16000804,-0.07871692,0.14775458,-0.11273396,-0.04170728,-0.03457504,-0.08476124,0.16295688,-0.22343072,0.124945946,-0.061516915,0.002587135,-0.07506733,0.06897806,-0.07283728,-0.13105857,-0.085607134,0.018234426,-0.18252565,0.1056943,-0.0132685285
s1-AAGGACCAACATGGCT-1,0.044177182,0.26535448,0.1188949,-0.029414315,-0.25139531,0.047032952,0.13522257,0.08632531,-0.023515742,-0.028714158,0.09517405,-0.07194295,0.14800712,0.165563,0.0023881085,-0.13223113,0.13753633,0.19250466,0.08680577,-0.2704299,0.12968074,-0.124197505,0.25584784,-0.120384686,-0.02073117,-0.10143266,-0.05208591,0.08225065,-0.1436807,-0.046853874,-0.041928954,0.075058006,0.03364169,-0.2223783,0.1759772,-0.06411069,0.09858093,0.011756511,0.017273318,0.06506703,-0.12691373,0.27209407,0.071389236,0.23601477,-0.025667291,-0.117522925,-0.01000645,-0.0072257696,0.015165478,0.15773356,-0.18390723,0.0011336901,0.01449015,-0.06365238,0.12719831,0.07676763,-0.0018072011,-0.116300486,-0.020878425,0.20603563,-0.10022239,0.11553791,0.07830614,-0.054591782
s1-AAGGAGGCACTCAATT-1,0.06295319,0.06811515,0.10567062,-0.039974567,-0.05650637,-0.20694806,0.015955374,0.22663239,-0.014963909,0.05234611,-0.14342053,0.21263708,-0.05710382,0.09770187,-0.040844534,0.14934833,0.0027779522,-0.0044010505,-0.122967,0.043567687,0.15806843,0.18291105,-0.09261251,-0.02128345,-0.11887693,0.07693261,-0.25973806,-0.0583222,-0.022687798,-0.016329098,0.18139352,0.07759155,-0.026876599,0.02495114,-0.15717429,-0.065381475,-0.11322985,0.065427005,0.14104,0.11470927,0.10973765,0.20837514,-0.00341241,-0.024450134,-0.0422979,-0.13108528,0.08622687,0.17734104,0.03478244,0.13494484,-0.06600931,-0.041901015,-0.190455,0.20532736,-0.041012604,0.010967655,-0.21173823,-0.048679747,0.25353295,0.32414767,0.13250299,-0.046488408,0.073471054,0.13596436
s1-AAGGCAGTCTGATCAC-1,0.0783372,0.23157394,0.02603796,-0.109560356,-0.18150048,0.041666657,0.019403446,0.16228452,-0.007838522,-0.06781088,0.033599373,-0.013244632,0.03102746,0.10413147,-0.10220458,0.001994078,0.008383874,-0.015653504,-0.14763913,-0.05013847,0.19801803,0.04129438,0.012096835,-0.16008948,0.020827958,0.03445324,-0.29328555,0.12937285,-0.06419825,-0.07223976,0.16558123,0.22310752,0.04484819,-0.06479015,0.094018966,-0.033043258,0.020660289,0.123994105,0.18040358,-0.05188661,0.069483064,0.30695415,-0.08538254,0.010835619,-0.22359371,0.003707911,0.020137679,-0.052398957,-0.005309535,0.10198234,-0.10461681,0.12157061,0.098447464,0.009071533,-0.013861658,0.054104116,-0.048382424,-0.18846443,-0.0070326314,0.381845,0.011705689,0.12805055,0.27616504,0.05797008
s1-AAGGCATGAACAGCTC-1,-0.082007214,0.064757414,0.13202327,-0.048718084,-0.12929037,-0.039249193,0.1349303,0.0622436,0.08399804,0.09465455,0.011183178,-0.050212845,0.06263723,0.0113566965,0.06956886,-0.023963055,0.048053425,0.14887773,0.11207646,-0.13583782,0.1125347,-0.16281277,0.0046837544,0.12659158,-0.0761273,-0.14077465,-0.21131285,0.14815125,-0.17818817,0.015953243,-0.033777688,-0.113640755,0.32818964,-0.039507423,0.04050292,-0.09118947,-0.13067712,-0.28605598,0.04664089,0.16745329,0.03649658,0.00968277,0.24589616,0.11905912,0.13547334,-0.21235006,0.034249205,0.15339296,0.15282653,0.11068694,-0.09680368,0.20203342,-0.16173786,0.09533888,-0.006200472,0.092112854,-0.17465678,0.059920285,0.20554204,-0.0067501594,0.03739299,-0.019483037,-0.16043732,0.07613935
s1-AAGGCCAATTCAATAA-1,-0.06336205,-0.19902442,-0.17979543,0.0014671098,0.096462674,0.007613295,-0.10942988,-0.07905659,-0.04849929,-0.045633435,0.038381096,0.0017763537,-0.15675344,-0.08781158,0.0027254128,0.1508462,-0.106582016,-0.20008975,-0.26894945,0.19227612,-0.07214391,0.19833969,-0.14079577,-0.017311862,0.08382452,0.26525018,0.106378995,-0.20967999,0.1842,0.0330468,0.083985515,0.0791147,-0.15165561,0.14699832,-0.14327998,-0.004322113,-0.049036786,0.09234048,0.107793786,-0.12911376,0.03808644,-0.01990055,-0.12591258,-0.26970324,-0.080847725,0.25712717,-0.06387397,-0.17723648,-0.028356785,-0.10266285,0.14415488,-0.018422432,0.19066294,0.0113926735,-0.094075575,0.07478872,0.11410125,-0.030814933,-0.10392437,-0.014058661,0.05661289,-0.037875336,0.091079295,-0.06988552
s1-AAGGCCAGTCGCAATT-1,-0.043116435,0.089885525,0.1348051,-0.07833287,0.0070680333,-0.0146132205,0.061368685,0.13239013,-0.04321472,0.062028334,-0.12687597,0.002050814,-0.028815571,-0.03246388,0.026650853,0.010716382,-0.014514094,0.031082472,0.22716928,-0.086016245,0.19713056,-0.12893653,0.06762081,0.122081794,-0.1386633,-0.23919317,-0.21997987,0.2434279,-0.09104955,-0.13631353,0.0548645,0.15704267,0.060698017,-0.076631494,0.10612105,0.065107375,0.00933441,-0.16826424,-0.04854855,0.014723033,0.1669136,-0.041556176,-0.008406446,0.13484627,-0.11274503,-0.3167481,0.13042124,0.17336243,-0.042706102,-0.0005998948,-0.11183635,0.31760243,-0.17579432,0.13147028,0.02016511,0.03204232,-0.16222596,0.061910845,0.025537996,0.052660562,0.057574656,0.25591365,-0.0103226025,0.120845824
s1-AAGGCCGACCTACCTG-1,-0.1659348,-0.22383502,-0.058083225,-0.06944957,0.058631793,0.09476961,-0.17861415,0.12484623,-0.08836945,0.013537344,-0.010316186,0.21188523,-0.16476756,-0.16798745,0.054162562,0.12906231,-0.23113497,-0.073171005,-0.21371691,-0.03394524,-0.014107487,0.12562132,0.03601615,-0.034808546,-0.11681224,0.19504012,0.14146054,-0.0383086,0.22307025,-0.020393932,0.11458792,0.079024576,0.05905221,0.19285406,-0.098046,-0.07805486,0.03981413,-0.07056463,0.12597072,-0.07715447,0.09552039,0.020896867,-0.15896979,-0.2347526,-0.15016837,0.01432129,0.18929349,-0.04881572,0.09441567,-0.12328951,0.055746064,0.10434639,0.17360967,0.20847407,-0.014908738,0.090941265,0.067898445,-0.061110776,0.02810188,0.1571651,-0.094473116,0.048886754,0.16929822,-0.17261542
s1-AAGGCCGACTATGTAA-1,-0.09764369,0.094869986,0.11490741,-0.053693537,-0.09639979,-0.12222987,0.08472165,0.12245996,0.14276433,0.014533979,-0.030347297,-0.027488329,0.088447705,0.08849908,0.077236645,-0.027341237,0.046138518,0.03265957,0.15544899,-0.11745678,0.15717241,-0.041831262,-0.0027146076,0.023081357,-0.061501563,-0.14140666,-0.19457674,0.22193548,-0.14389534,-0.049070783,-0.019983003,-0.11177154,0.30282098,-0.08612772,-0.034170117,-0.15818481,-0.20162365,-0.18586938,0.022214422,0.11854507,0.14690362,0.07431264,0.16437544,0.068813,0.09317642,-0.21630952,0.15678136,0.2193662,0.13121805,0.13532636,-0.08051123,0.20124565,-0.090923324,0.07883417,-0.0008664283,0.05153519,-0.22334898,0.079043515,0.15824322,0.0819705,0.019798942,0.15910417,-0.17294791,0.11848122
s1-AAGGCCGATTCTGAGC-1,-0.094519176,-0.24476957,-0.11684588,-0.0047669816,0.19103639,0.059531942,-0.2243698,-0.050986394,-0.0027365126,0.09184913,-0.059047427,0.15300019,-0.020695813,-0.07212236,-0.01260119,0.025188299,-0.0081104925,-0.24606237,-0.13991919,0.12624875,-0.21943726,0.15468717,-0.094746985,-0.036199544,0.11700746,0.25209194,0.14021564,-0.101837225,0.10870683,-0.014295317,0.11159287,0.098585375,-0.2511264,0.18464014,-0.09171404,-0.04138855,0.040815078,0.04636669,0.054189026,-0.08310618,0.07562249,-0.055907514,-0.16850999,-0.16341023,-0.053361934,0.28469625,-0.028867293,-0.13934104,-0.0845892,-0.14607005,0.21506988,-0.08693005,0.09283582,0.040340032,-0.13862044,0.018960996,0.13436927,-0.008998497,-0.11286285,-0.089820586,0.016497897,-0.05610761,0.013052405,0.1381453
s1-AAGGCCTCGCGAGGAA-1,0.015008192,-0.22998102,-0.14640124,0.023370467,0.20176858,0.076442175,-0.11790788,-0.082069635,-0.0060007763,0.076736525,0.058739256,0.109438114,-0.02657226,-0.014208911,0.01667606,0.09604912,0.009213442,-0.24328355,-0.14668542,0.17336962,-0.21871077,0.17186224,-0.064940386,0.018692587,0.105742864,0.20894043,0.21129583,-0.19460578,0.11616036,0.0772324,0.055761367,0.13020702,-0.17832173,0.1530685,-0.15224342,-0.027051106,0.02052565,0.089416705,0.06280985,-0.12784237,0.017456295,-0.074631944,-0.09352548,-0.21474123,-0.0020375731,0.23141459,-0.059719164,-0.17244312,-0.105027236,-0.09785699,0.22887646,-0.14881141,0.11057449,0.025360765,-0.1280682,-0.022742573,0.14010441,0.030860085,-0.13775502,-0.14012465,0.021762723,-0.10959999,0.060718194,0.023683177
s1-AAGGCGAACTAGTAGA-1,-0.10574669,0.19946639,0.00023848152,-0.1581507,-0.11557035,-0.09164662,0.043748297,0.16770056,0.058528423,0.019249814,-0.043721616,-0.030959072,-0.12115831,-0.12952507,0.020256106,-0.053703826,-0.1766614,0.08718196,0.038791012,0.010520648,0.06437464,-0.11242746,-0.08690096,-0.025658524,-0.18940456,-0.09065402,-0.21205492,0.18503043,0.04071422,-0.30170625,-0.039184198,-0.08533228,0.16349195,-0.022016607,0.17162937,-0.08567614,-0.12893923,-0.20057692,-0.11215782,0.025291642,-0.06950917,-0.07610863,0.049219247,-0.009007635,0.03060461,-0.28706703,0.06698914,0.17963904,0.092211716,-0.076392956,-0.046948906,0.26188025,0.046890024,0.24225393,0.14581211,0.19045085,0.02173719,0.110318854,0.12135769,0.09738902,-0.06322616,0.026196674,-0.12981811,0.10649965
s1-AAGGCGACGGTGTCGG-1,-0.034293197,-0.16723897,0.022329962,-0.02076721,0.19098422,0.27484572,0.06352228,-0.11147647,-0.024704887,0.034303557,0.20446847,-0.047402922,-0.0740932,-0.23155437,0.17533794,-0.12665306,-0.10030555,-0.1819316,0.06305393,0.20153785,-0.02031424,-0.051108524,0.1367322,0.332825,0.018452294,-0.2246999,-0.016201608,0.08923115,-0.11299808,0.09328005,-0.19074374,0.1042484,-0.1540989,0.028401982,-0.054623958,0.0009903876,0.031787694,-0.06613058,-0.008340708,-0.15879999,-0.010329857,-0.18498585,-0.042131193,-0.08857397,0.06791926,0.16945592,-0.10369782,-0.11678977,-0.17125687,-0.13695347,0.172906,0.08988382,0.07830559,-0.027929459,-0.014131856,0.0028100174,0.09039475,0.11206039,-0.07864627,-0.19171824,-0.12680912,-0.015480321,-0.08464694,-0.038474742
s1-AAGGCGAGGTTCATGT-1,-0.023694197,0.24452479,0.05148634,-0.112772524,-0.15942657,-0.21223097,0.010965898,0.091107376,0.038301032,0.149911,-0.06785392,-0.0023157457,0.10503145,0.21331185,-0.09991803,-0.02712916,0.08561315,0.024011482,-0.14037216,0.051365413,0.050585464,0.03991781,0.02758866,-0.18809983,0.027625222,0.1305592,-0.13219954,0.2254845,-0.031504788,-0.22098526,0.12532008,0.05902127,0.14766473,0.018434025,0.0510365,-0.15611652,-0.0738543,-0.011020733,0.12680586,0.0059018545,0.028309604,0.2686475,0.0348794,0.029213276,-0.05382963,-0.16149954,0.07784432,0.07325449,0.021187076,0.2909955,-0.14795862,0.1278507,-0.11121303,0.12087145,-0.060544815,-0.009760141,-0.019888937,-0.057875384,0.23762634,0.2687774,0.0023891705,0.13877608,-0.054282002,0.16993573
s1-AAGGCGCCGACAATCT-1,-0.013797156,-0.0128852315,0.07214764,0.038371306,0.18065618,0.01948685,-0.062867396,-0.1728279,-0.0075449543,-0.131297,-0.098279744,0.012715295,-0.053896576,-0.12101017,-0.18497835,-0.04183981,0.023983592,0.12775627,0.21969545,0.032167796,-0.064674266,-0.07788334,-0.028643256,0.021051468,-0.061120402,-0.02971071,0.13671999,-0.16059555,0.0035617352,0.11907074,-0.21960549,-0.16102879,-0.038551398,-0.11824276,0.18434408,0.18467183,0.15898773,0.10881185,-0.21905033,0.06360173,-0.12224925,-0.21020092,-0.016968424,0.14723381,0.14173214,-0.103699274,0.08066848,0.2457314,-0.04619898,-0.08284407,0.08745288,-0.18285662,-0.046689875,-0.14086908,0.12710841,-0.15816876,-0.110815905,0.073289774,-0.015929094,-0.34824312,-0.07017233,-0.12109406,-0.015788076,-0.080707
s1-AAGGTGATCCGTGACG-1,0.11251425,-0.03744448,-0.20388843,-0.063198045,-0.03430978,-0.0071186833,-0.09420934,0.087090045,-0.048613884,0.0082316045,-0.067478135,0.13964829,-0.23513202,0.107122876,-0.12590073,0.086859114,0.06120058,-0.20184602,-0.16219579,0.08497966,-0.001260298,0.1919906,-0.24825768,-0.06773281,0.08741817,0.14189611,0.14292236,-0.2504852,0.16869424,-0.0119388085,-0.0021005587,0.11777902,-0.11015774,0.080319844,-0.06425435,0.06500178,0.1817006,0.217541,0.14642145,-0.12836005,0.1926132,0.031121802,-0.1982148,-0.21479113,-0.14983569,0.1225383,-0.15931249,-0.084027514,0.026322566,0.04983905,0.104398444,-0.123796515,0.07707491,-0.009105927,-0.023529492,-0.045184985,0.13214386,-0.1804959,-0.10501936,0.054736283,0.015576997,-0.12812778,0.10319574,0.059430055
s1-AAGGTGCCGCTAAGGT-1,0.15232342,-0.11473491,-0.066040404,0.02482656,0.16955703,0.12804091,-0.008265762,-0.1367446,0.05862541,0.01199917,0.16272764,-0.06715082,0.12331768,0.088589706,0.11045928,0.06499869,0.09255957,-0.09120429,-0.09095054,0.1531617,-0.15349858,-0.10413938,0.010901473,-0.05966945,0.13364731,0.027765762,0.019445214,-0.12371706,-0.11339379,0.10027876,0.15847793,0.11533141,-0.16639866,0.015790664,-0.14949556,-0.00020351233,-0.025636569,-0.059541665,0.13947523,-0.2638567,0.050977107,-0.11437983,0.005371626,0.030026656,-0.08670026,0.3931166,-0.22517125,-0.16006203,-0.08038799,-0.063972756,0.15481581,-0.07081167,0.1086407,-0.08284099,-0.1664894,-0.06924538,0.22946188,0.019972675,-0.2069791,-0.12480462,-0.049755134,0.0026067197,0.042822015,0.18245101
s1-AAGGTGGATATGATCG-1,0.017744556,-0.1335711,-0.0049016285,0.024463441,0.30077612,0.16082409,0.04280694,-0.23344682,0.005377663,0.083555415,0.14615625,0.11341001,0.19687378,0.023032457,0.049326334,0.054704405,0.074144505,-0.051815968,0.10685173,0.11156327,-0.20626907,0.027490025,0.114217535,0.065904126,0.10271017,0.07534114,0.21684054,-0.00811361,-0.05878116,0.1937466,0.08667164,0.20096791,-0.09106778,0.067750745,-0.15368105,0.021679115,-0.060648043,-0.07590448,0.081088066,-0.26051515,0.085621,-0.07892607,-0.075503185,-0.034459352,0.058500107,0.30655402,-0.041839983,-0.07567735,-0.17254733,-0.04869064,0.17732678,-0.10689203,0.017211923,-0.030457864,-0.13426289,-0.15698086,0.09149645,0.15266976,-0.0045895926,-0.27081668,-0.00036562042,0.007004019,-0.011661053,0.08576967
s1-AAGGTTCATGCGGTGC-1,-0.011668004,-0.14809445,-0.13653202,0.0429289,0.13250276,-0.014687323,-0.10138581,-0.026977714,-0.04117757,0.0903659,-0.025070181,0.17385967,-0.19052237,-0.0052833064,-0.13376115,0.00863064,0.035778992,-0.18705797,-0.1545893,0.1052957,-0.036559243,0.22579414,-0.088596046,-0.028106138,0.048466563,0.14090608,0.17685626,-0.23058723,0.093165785,0.115053415,0.03734766,0.011100636,-0.1758906,0.16130787,-0.062425435,-0.0153692085,0.18694896,0.22865508,0.049600877,-0.16582681,0.09288413,0.030047318,-0.32728314,-0.23139167,-0.055610307,0.169963,-0.04940727,-0.018367171,-0.045426015,-0.078244805,0.19300345,-0.21470228,0.053202145,-0.09182184,0.012668511,-0.07775807,0.04965517,-0.08769384,-0.12618445,-0.14127111,0.005666036,-0.16050453,0.0817993,-0.024610119
s1-AAGGTTGCAGAAGCAG-1,0.04787565,-0.11705965,-0.12551893,0.04152377,-0.10544546,0.038192496,-0.14519128,0.13517496,-0.024044018,-0.072871774,-0.0535619,0.09731517,-0.1949991,-0.034076266,-0.07629645,-0.05647739,-0.04761706,-0.11150123,-0.25192624,0.021829924,0.047676843,0.20209867,-0.19017702,-0.094203636,0.057630442,0.1200633,0.086473174,-0.14285474,0.14736128,0.0007007198,0.002447767,-0.015321084,-0.15635428,0.1310036,-0.10722139,-0.008222733,0.14628412,0.2379771,0.13470873,-0.013902003,0.070204094,0.06567448,-0.17088473,-0.20224528,-0.21493706,0.1952564,-0.19729036,-0.11803101,0.047145825,-0.076740555,0.059255168,-0.18285531,0.117494635,-0.07799423,-0.0031964548,-0.024598384,0.14014322,-0.19375485,-0.04658122,0.21548781,-0.044647567,-0.20779145,0.17664528,0.0001467726
s1-AAGGTTGCTGAGTTGA-1,-0.11237769,0.13538983,0.14369608,-0.055230837,-0.19559835,-0.09323119,0.052576475,0.08275184,0.02877762,0.08646279,-0.07095192,-0.1789709,0.078950785,-0.0772461,0.036591258,-0.06564911,-0.011858077,0.14031576,0.16390687,-0.12591475,0.06547931,-0.20307149,0.11906096,-0.04825141,0.016526885,-0.2471042,-0.22601593,0.30761892,-0.1460485,-0.08964099,0.008921503,-0.030102998,0.11565623,-0.004763986,0.10869602,-0.07540743,-0.08352632,-0.13943255,-0.062095296,0.104067385,-0.07541804,0.14966217,0.20769067,0.056063328,0.11171825,-0.21388394,0.013190314,0.05889264,0.10326591,0.10249261,-0.10171296,0.23200877,-0.21303189,0.08853301,0.0722076,0.1971559,-0.10147419,0.08842177,0.14498733,0.04243026,0.052721743,0.12197661,-0.11579917,-0.02635586
s1-AAGTACTAAGGTTACG-1,0.008246199,-0.29072303,0.039629664,-0.040213235,0.2174302,0.23670384,-0.105474174,-0.09082243,-0.018119933,0.03577526,0.109435335,0.103412755,0.07360761,0.0020122072,0.072918184,0.024644652,-0.019865943,-0.09813181,-0.011817953,0.16202791,-0.21107791,0.0513664,0.120103404,0.07974215,0.048964582,0.010745844,0.25687692,-0.021193838,-0.042894512,0.15101641,-0.016984714,0.156516,-0.19637968,0.060019504,-0.1383894,-0.006466296,0.037653983,-0.026485568,0.025047492,-0.19049284,0.046836223,-0.17401569,-0.07109318,-0.04002411,-0.1174076,0.22427694,0.04943196,-0.18193492,-0.21105193,-0.15826884,0.26864493,-0.07898642,0.109092794,0.03379318,-0.16994284,-0.128175,0.118719675,0.11489404,-0.112896554,-0.20288529,-0.033152778,-0.04320062,0.00909413,0.037270844
s1-AAGTACTACAGTAGAA-1,0.15561837,0.23001744,0.11721049,-0.034909677,-0.0860095,-0.13883239,0.045293294,0.120683916,0.036721162,-0.10578414,-0.03366567,-0.06244372,0.061962105,0.1042073,-0.057514433,0.11586141,0.046779,0.0532211,-0.18356633,0.039092194,0.08091981,0.13596904,0.030383846,-0.105738744,-0.122735724,0.0739089,-0.34060782,0.10307913,-0.00046285198,-0.04147977,0.2399363,0.11732213,0.06782293,-0.00080418924,-0.024778439,-0.069182456,-0.08110976,0.08697611,0.24190938,-0.011150411,0.010451957,0.27779114,-0.07934022,-0.100278564,-0.12861647,0.0148885,-0.057351626,0.023428744,-0.00838102,0.09847257,-0.15721406,-0.06418863,-0.01972721,-0.023541706,-0.11129495,-0.012477068,-0.07346586,-0.18239322,0.096361525,0.33814356,-0.0098341,0.042072546,0.31658176,0.067328475
s1-AAGTACTGGATGCGCA-1,-0.0513261,-0.12507467,-0.14334416,-0.13260493,0.02263511,0.019056818,-0.04306829,0.19311543,-0.119037904,0.0673107,0.010290831,0.14928186,-0.1666984,-0.09833582,0.08931054,0.10712432,-0.16207425,-0.2890752,-0.22210045,0.22258309,-0.013552272,0.20231298,-0.20123404,0.051239986,-0.012854373,0.07811113,0.08307227,0.0664325,0.25531712,-0.0791352,0.005119831,0.09018953,-0.11936187,0.045645036,-0.15657778,-0.016516896,-0.14113264,0.09650536,0.018591993,-0.1282424,0.08529505,0.09547808,-0.09613002,-0.26801223,-0.15686387,-0.007329246,0.04776089,0.019061055,-0.094586655,-0.095631674,0.14172818,0.11730279,0.16991667,0.14022753,0.08826326,0.027693264,0.033710606,-0.057045724,-0.06299596,0.22137786,-0.049200974,0.16063844,0.08803237,-0.03391046
s1-AAGTATTGTAGGTCGC-1,0.16146474,-0.05504274,-0.1505014,0.087074526,-0.05679991,-0.0033650296,-0.08289373,0.117096335,-0.019590218,-0.06774984,-0.03923491,0.02898848,-0.15017222,0.05477663,-0.06973452,-0.09222455,0.05469137,-0.16941212,-0.20616513,0.03348402,0.07648675,0.1650463,-0.17744057,-0.10200955,0.11744865,0.019745521,0.077683985,-0.14989166,0.10899869,0.013809869,0.008761638,-0.060724653,-0.22237717,0.089075394,-0.09472924,0.04347156,0.1547469,0.20717731,0.10141939,-0.09157263,0.10861467,0.030958332,-0.23577987,-0.15661363,-0.14560144,0.22924173,-0.21993372,-0.1572651,0.013688193,-0.11133106,0.006996754,-0.22571042,0.08658789,-0.1368356,0.033962093,-0.09340756,0.18383145,-0.20852832,-0.11849568,0.13707952,-0.046402164,-0.20736621,0.100648366,-0.056227546
s1-AAGTCGCTATCCTGTC-1,-0.11734798,-0.02844042,-0.09746036,-0.21255973,-0.070098035,0.1835835,-0.21575226,0.054770514,-0.019835321,0.05994531,0.06520635,-0.04551188,0.0018392768,-0.09017072,0.0221495,-0.12847655,-0.19041684,-0.066011086,-0.15412664,0.05305606,-0.10180373,-0.03195055,-0.15867177,0.14075676,0.026317004,0.14895172,0.063849956,0.19127175,0.10807808,-0.18599208,-0.26808172,0.06510643,0.009213197,-0.027059976,0.12263858,-0.009934245,0.05095328,-0.028074099,-0.059202492,0.1318398,-0.1318291,-0.0369095,0.09428786,-0.16664071,0.02551087,-0.29363957,0.039636917,-0.07809749,-0.11418752,-0.17943949,0.1888585,0.16160716,0.07417856,0.26202297,0.11730803,0.23073655,0.06787285,0.095689595,0.034774654,0.087719604,-0.0625663,-0.16536637,-0.07191745,-0.014096899
s1-AAGTCGGACACTTCAG-1,-0.048449796,0.18610592,0.034362555,0.025250547,-0.043569505,-0.085215665,0.19195871,0.13704367,0.11212968,0.052833572,-0.13535535,0.016681707,-0.021531707,-0.04326958,-0.07250579,0.07037081,-0.0055743256,0.09551386,0.101226225,-0.16313393,0.16563776,0.05136317,0.1170636,-0.021738742,-0.08366799,-0.106382795,-0.106392264,0.13050967,-0.10872046,-0.16673112,-0.034513406,0.028949363,0.066306315,-0.010368366,0.17739324,-0.074883625,-0.10398476,-0.25223377,-0.018928193,-0.049302854,0.115865566,0.091616996,0.031429328,0.14446475,0.09234126,-0.23872715,0.16723533,0.216989,-0.09410875,0.0856237,-0.09469772,0.19863464,-0.17215274,0.18497445,0.10196128,0.12000293,-0.16642593,0.23365329,0.26018366,0.08783044,0.037754614,-0.00031150278,-0.18496382,0.14720966
s1-AAGTCTACCGGTTGGA-1,0.12562053,0.1576737,0.057529744,-0.00195913,0.018582804,-0.21226944,-0.018173179,0.13253783,0.06768658,-0.018235642,-0.15598467,0.1333597,-0.003654831,0.06846672,-0.11132948,0.1162258,-0.024595875,-0.017274266,-0.10914635,0.12656707,0.09264785,0.18180224,-0.09625197,-0.11727334,-0.09374881,0.09106423,-0.37266067,-0.0033454383,0.024807941,-0.055869333,0.2892282,0.11271248,0.012018845,0.119291395,-0.1761001,-0.04765482,-0.16743542,0.057111453,0.13509956,0.012513538,0.012764352,0.21654515,-0.0336052,-0.14770545,-0.061854973,-0.033978313,0.031283386,0.12327613,0.08440091,0.055111337,-0.06011954,-0.06372787,-0.14914054,0.12684268,-0.0808924,0.035468787,-0.14604768,-0.083584875,0.21169293,0.31725723,0.08238812,-0.00077070453,0.15539432,0.091392726
s1-AAGTCTGTCAATTCTT-1,-0.14684604,0.008727817,-0.100522995,-0.007843913,0.0786454,-0.026557537,-0.06463524,-0.18113081,0.058610704,0.07960064,-0.002992689,0.0935256,-0.2585487,-0.2158193,0.1613519,-0.15951674,-0.3907683,-0.07859555,-0.060356665,-0.05874287,-0.028444774,-0.09965819,0.14367025,0.1048201,-0.06372421,0.06750063,0.086588636,0.048702985,0.059071332,0.017851565,-0.15778387,-0.031147463,-0.059488934,0.17379054,0.07469819,-0.19055721,0.119260184,0.010423538,0.050978113,0.02131208,0.05863912,-0.101729326,-0.08362641,-0.19921868,0.20189361,0.013530756,-0.06746231,-0.06436139,-0.008139794,0.047595624,0.07048272,0.06587874,0.15156722,0.13530265,0.123025216,0.30775896,0.10809393,0.09837473,0.086198024,-0.11289677,-0.08704732,0.07317566,-0.24559067,-0.060864173
s1-AAGTCTTAAGTTGCCA-1,-0.113462225,-0.0982471,0.026999751,-0.08977344,0.20975602,0.022409458,0.04132336,-0.11291264,-0.063922465,0.23345485,0.0006818876,0.20502953,-0.12933691,-0.03619153,-0.05154776,0.0031049398,-0.084469676,-0.18022467,0.047959924,0.1229182,-0.111000724,0.11271276,0.06881968,0.14772289,-0.061725065,0.106225714,0.23633549,-0.049060598,0.100932986,-0.04167816,-0.21594837,0.12658304,-0.23288932,0.11848762,0.12791377,-0.084401056,0.11524735,-0.05549263,-0.125486,-0.23561488,0.026403544,-0.026037099,-0.12219655,-0.12983873,0.0788,-0.11860437,0.19760942,-0.056151796,-0.28070843,-0.019596025,0.22863922,-0.0033447507,0.0054587917,0.14503708,0.042055104,0.08774384,0.009623303,0.25747192,-0.011640718,-0.13206883,0.015178764,0.013031863,-0.101859346,0.009280664
s1-AAGTGAGCCTGTTACA-1,0.063794434,-0.19518802,-0.10258835,-0.04138089,0.20088759,0.09240058,-0.065132916,-0.058783296,-0.028418314,0.117711104,0.02305102,0.15290706,-0.05772722,-0.054397553,-0.04371663,0.04986893,-0.02032823,-0.19460465,-0.13651507,0.17979887,-0.13260935,0.133509,-0.11013452,0.03098322,0.11261032,0.22380558,0.12628996,-0.18299796,0.07453073,0.03551123,0.13083392,0.11165909,-0.22042787,0.16513824,-0.11558829,-0.014595108,0.004382421,0.059898533,0.115144975,-0.20158845,0.0837825,-0.067152865,-0.18559241,-0.23557837,-0.0362248,0.2137533,-0.12275641,-0.2082697,-0.13706425,-0.0952535,0.18599479,-0.15583831,0.11062366,0.019526735,-0.13984147,-0.021106597,0.14204958,0.037512396,-0.060878508,-0.07159016,0.035472587,-0.14629795,0.15139548,0.06457056
